{"learner":{"attributes":{"scikit_learn":"{\"_estimator_type\": \"classifier\"}"},"feature_names":[],"feature_types":[],"gradient_booster":{"model":{"cats":{"enc":[],"feature_segments":[],"sorted_idx":[]},"gbtree_model_param":{"num_parallel_tree":"1","num_trees":"100"},"iteration_indptr":[0,1,2,3,4,5,6,7,8,9,10,11,12,13,14,15,16,17,18,19,20,21,22,23,24,25,26,27,28,29,30,31,32,33,34,35,36,37,38,39,40,41,42,43,44,45,46,47,48,49,50,51,52,53,54,55,56,57,58,59,60,61,62,63,64,65,66,67,68,69,70,71,72,73,74,75,76,77,78,79,80,81,82,83,84,85,86,87,88,89,90,91,92,93,94,95,96,97,98,99,100],"tree_info":[0,0,0,0,0,0,0,0,0,0,0,0,0,0,0,0,0,0,0,0,0,0,0,0,0,0,0,0,0,0,0,0,0,0,0,0,0,0,0,0,0,0,0,0,0,0,0,0,0,0,0,0,0,0,0,0,0,0,0,0,0,0,0,0,0,0,0,0,0,0,0,0,0,0,0,0,0,0,0,0,0,0,0,0,0,0,0,0,0,0,0,0,0,0,0,0,0,0,0,0],"trees":[{"base_weights":[-1.095225E-7,-3.3491403E-1,1.1614909E0,-9.8209435E-1,1.0658507E-1,2.3163627E-1,1.682533E0,-1.0447738E0,-3.4514108E-1,-2.525637E-1,6.5177786E-1,4.2733234E-1,-8.7155765E-1,1.8054582E0,6.2095046E-1,-1.0783885E-1,9.412567E-3,5.205055E-2,-9.547629E-2,-6.521051E-2,-1.208132E-3,1.3957557E-2,1.1288007E-1,-8.731843E-3,9.11457E-2,-1.16673745E-1,4.0018678E-2,1.8491223E-1,-5.007803E-2,1.3967209E-1,-1.035735E-1],"categories":[],"categories_nodes":[],"categories_segments":[],"categories_sizes":[],"default_left":[0,0,0,0,0,0,0,0,0,0,0,0,0,0,0,0,0,0,0,0,0,0,0,0,0,0,0,0,0,0,0],"id":0,"left_children":[1,3,5,7,9,11,13,15,17,19,21,23,25,27,29,-1,-1,-1,-1,-1,-1,-1,-1,-1,-1,-1,-1,-1,-1,-1,-1],"loss_changes":[2.3537868E2,1.3430077E2,6.52233E1,7.2474213E0,5.500942E1,1.1122394E1,1.0184021E1,6.724457E0,1.029437E1,1.6285955E1,2.7089703E1,1.0783886E1,3.4066505E0,8.691788E0,1.4960237E1,0E0,0E0,0E0,0E0,0E0,0E0,0E0,0E0,0E0,0E0,0E0,0E0,0E0,0E0,0E0,0E0],"parents":[2147483647,0,0,1,1,2,2,3,3,4,4,5,5,6,6,7,7,8,8,9,9,10,10,11,11,12,12,13,13,14,14],"right_children":[2,4,6,8,10,12,14,16,18,20,22,24,26,28,30,-1,-1,-1,-1,-1,-1,-1,-1,-1,-1,-1,-1,-1,-1,-1,-1],"split_conditions":[2.0100142E-1,6.778202E-1,7.0591784E-1,7.8585523E-1,1.5097283E-2,-5.053628E-1,1.364873E-1,-4.9691427E-1,-7.810864E-1,4.6103895E-1,8.000406E-1,8.632124E-1,8.536907E-1,-2.2177527E0,-1.3869202E0,-1.0783885E-1,9.412567E-3,5.205055E-2,-9.547629E-2,-6.521051E-2,-1.208132E-3,1.3957557E-2,1.1288007E-1,-8.731843E-3,9.11457E-2,-1.16673745E-1,4.0018678E-2,1.8491223E-1,-5.007803E-2,1.3967209E-1,-1.035735E-1],"split_indices":[132,131,131,108,132,119,49,119,102,25,131,34,1,41,43,0,0,0,0,0,0,0,0,0,0,0,0,0,0,0,0],"split_type":[0,0,0,0,0,0,0,0,0,0,0,0,0,0,0,0,0,0,0,0,0,0,0,0,0,0,0,0,0,0,0],"sum_hessian":[6.0308734E2,4.6866132E2,1.3442603E2,1.8956265E2,2.7909866E2,4.8793472E1,8.5632545E1,1.71997E2,1.756565E1,1.6858145E2,1.1051722E2,4.1962387E1,6.831086E0,7.611782E1,9.514728E0,1.6711765E2,4.8793473E0,7.319021E0,1.024663E1,6.2699615E1,1.05881836E2,5.391679E1,5.660043E1,2.0737226E1,2.122516E1,5.6112494E0,1.2198368E0,7.489798E1,1.2198368E0,6.587119E0,2.9276085E0],"tree_param":{"num_deleted":"0","num_feature":"133","num_nodes":"31","size_leaf_vector":"1"}},{"base_weights":[-5.7358213E-4,-2.9772308E-1,1.056536E0,-8.8708663E-1,9.978943E-2,2.4979363E-1,1.5302747E0,-9.523165E-1,-2.4798317E-1,-2.2879505E-1,5.837793E-1,5.969971E-1,-2.7003407E-1,1.6401283E0,5.706421E-1,-1.2378651E-1,-8.0639E-2,7.3164105E-2,-6.430732E-2,-4.114559E-2,2.4863323E-2,1.176254E-2,1.00233056E-1,6.3713538E-3,1.3773797E-1,5.99401E-2,-7.904768E-2,1.6805176E-1,-3.760914E-3,1.2246459E-1,-9.274047E-2],"categories":[],"categories_nodes":[],"categories_segments":[],"categories_sizes":[],"default_left":[0,0,0,0,0,0,0,0,0,0,0,0,0,0,0,0,0,0,0,0,0,0,0,0,0,0,0,0,0,0,0],"id":1,"left_children":[1,3,5,7,9,11,13,15,17,19,21,23,25,27,29,-1,-1,-1,-1,-1,-1,-1,-1,-1,-1,-1,-1,-1,-1,-1,-1],"loss_changes":[1.8962195E2,1.10482285E2,5.0239944E1,7.6806183E0,4.5028725E1,9.221469E0,7.84079E0,6.167328E0,7.800783E0,1.4828634E1,2.2209995E1,1.2567143E1,9.881506E0,5.0891724E0,1.1016545E1,0E0,0E0,0E0,0E0,0E0,0E0,0E0,0E0,0E0,0E0,0E0,0E0,0E0,0E0,0E0,0E0],"parents":[2147483647,0,0,1,1,2,2,3,3,4,4,5,5,6,6,7,7,8,8,9,9,10,10,11,11,12,12,13,13,14,14],"right_children":[2,4,6,8,10,12,14,16,18,20,22,24,26,28,30,-1,-1,-1,-1,-1,-1,-1,-1,-1,-1,-1,-1,-1,-1,-1,-1],"split_conditions":[2.1054046E-1,6.778202E-1,7.1787584E-1,7.8585523E-1,1.5097283E-2,1.2177639E0,1.364873E-1,8.333333E-1,7.7860457E-1,8.681286E-1,8.000406E-1,6.522237E-1,1.7006543E0,1E0,-1.3869202E0,-1.2378651E-1,-8.0639E-2,7.3164105E-2,-6.430732E-2,-4.114559E-2,2.4863323E-2,1.176254E-2,1.00233056E-1,6.3713538E-3,1.3773797E-1,5.99401E-2,-7.904768E-2,1.6805176E-1,-3.760914E-3,1.2246459E-1,-9.274047E-2],"split_indices":[132,131,131,108,132,69,49,22,129,131,131,131,79,2,43,0,0,0,0,0,0,0,0,0,0,0,0,0,0,0,0],"split_type":[0,0,0,0,0,0,0,0,0,0,0,0,0,0,0,0,0,0,0,0,0,0,0,0,0,0,0,0,0,0,0],"sum_hessian":[6.016603E2,4.7020563E2,1.3145467E2,1.8890219E2,2.8130344E2,4.919925E1,8.2255424E1,1.7096283E2,1.793936E1,1.678655E2,1.1343793E2,2.9408358E1,1.979089E1,7.317017E1,9.085251E0,5.5289593E1,1.1567324E2,4.9109187E0,1.302844E1,1.2151346E2,4.6352047E1,5.4273182E1,5.916475E1,1.8112568E1,1.129579E1,7.353932E0,1.2436958E1,7.144849E1,1.7216836E0,6.4513044E0,2.633947E0],"tree_param":{"num_deleted":"0","num_feature":"133","num_nodes":"31","size_leaf_vector":"1"}},{"base_weights":[-6.3749176E-4,-2.4660045E-1,1.0513699E0,-8.0149883E-1,1.2028205E-1,4.4778904E-1,1.5166068E0,-1.1289733E-1,-8.57965E-1,-2.0697474E-1,5.5456877E-1,1.523675E-1,1.1558504E0,1.6626083E0,4.874812E-1,-4.6870954E-2,9.1253504E-2,5.97386E-3,-8.9332335E-2,-5.7900693E-2,1.4452467E-3,1.4790456E-2,9.120773E-2,4.850933E-2,-6.8471104E-2,3.2780837E-2,1.6656362E-1,1.7540175E-1,5.1310297E-2,1.0443558E-1,-8.231519E-2],"categories":[],"categories_nodes":[],"categories_segments":[],"categories_sizes":[],"default_left":[0,0,0,0,0,0,0,0,0,0,0,0,0,0,0,0,0,0,0,0,0,0,0,0,0,0,0,0,0,0,0],"id":2,"left_children":[1,3,5,7,9,11,13,15,17,19,21,23,25,27,29,-1,-1,-1,-1,-1,-1,-1,-1,-1,-1,-1,-1,-1,-1,-1,-1],"loss_changes":[1.5526129E2,9.910372E1,3.1250206E1,7.4345474E0,4.184645E1,1.0473637E1,8.774551E0,6.203846E0,5.8572235E0,1.3862473E1,1.8249573E1,1.06584835E1,5.7169037E0,4.9266357E0,7.6769743E0,0E0,0E0,0E0,0E0,0E0,0E0,0E0,0E0,0E0,0E0,0E0,0E0,0E0,0E0,0E0,0E0],"parents":[2147483647,0,0,1,1,2,2,3,3,4,4,5,5,6,6,7,7,8,8,9,9,10,10,11,11,12,12,13,13,14,14],"right_children":[2,4,6,8,10,12,14,16,18,20,22,24,26,28,30,-1,-1,-1,-1,-1,-1,-1,-1,-1,-1,-1,-1,-1,-1,-1,-1],"split_conditions":[2.614534E-1,6.778202E-1,7.5111395E-1,-4.7610328E-4,1.5097283E-2,1.1518973E0,1.364873E-1,5.4233007E-2,1.5913843E0,4.6103895E-1,8.000406E-1,-1.8894061E0,-7.341601E-1,5.5E0,-1.3869202E0,-4.6870954E-2,9.1253504E-2,5.97386E-3,-8.9332335E-2,-5.7900693E-2,1.4452467E-3,1.4790456E-2,9.120773E-2,4.850933E-2,-6.8471104E-2,3.2780837E-2,1.6656362E-1,1.7540175E-1,5.1310297E-2,1.0443558E-1,-8.231519E-2],"split_indices":[132,131,131,31,132,82,49,57,127,25,131,71,60,22,43,0,0,0,0,0,0,0,0,0,0,0,0,0,0,0,0],"split_type":[0,0,0,0,0,0,0,0,0,0,0,0,0,0,0,0,0,0,0,0,0,0,0,0,0,0,0,0,0,0,0],"sum_hessian":[5.980304E2,4.8532526E2,1.12705124E2,1.9269518E2,2.926301E2,4.9912727E1,6.2792397E1,1.4831033E1,1.7786414E2,1.6717714E2,1.2545294E2,3.6076054E1,1.3836674E1,5.44518E1,8.340597E0,1.1413578E1,3.417454E0,6.573137E0,1.71291E2,6.1773376E1,1.0540376E2,5.935295E1,6.609999E1,2.6115885E1,9.960168E0,5.8986154E0,7.9380584E0,4.995358E1,4.498223E0,5.996088E0,2.344509E0],"tree_param":{"num_deleted":"0","num_feature":"133","num_nodes":"31","size_leaf_vector":"1"}},{"base_weights":[-1.5187392E-4,-2.7130038E-1,7.990035E-1,-5.513872E-1,3.320925E-1,1.1790168E-1,1.1912541E0,-7.954019E-1,-2.7162546E-1,6.7692524E-1,-3.1870547E-1,3.1603435E-1,-7.2132546E-1,8.6731946E-1,1.4473996E0,-8.218212E-2,7.180654E-2,3.384305E-2,-4.018361E-2,2.607729E-2,1.03030935E-1,-8.499312E-2,1.2523139E-2,-4.777947E-3,9.9860854E-2,4.4027247E-2,-1.0508392E-1,-3.9022613E-2,1.0685891E-1,-4.34079E-2,1.5119271E-1],"categories":[],"categories_nodes":[],"categories_segments":[],"categories_sizes":[],"default_left":[0,0,0,0,0,0,0,0,0,0,0,0,0,0,0,0,0,0,0,0,0,0,0,0,0,0,0,0,0,0,0],"id":3,"left_children":[1,3,5,7,9,11,13,15,17,19,21,23,25,27,29,-1,-1,-1,-1,-1,-1,-1,-1,-1,-1,-1,-1,-1,-1,-1,-1],"loss_changes":[1.2891818E2,7.5257576E1,4.01268E1,2.052092E1,3.1960392E1,9.571189E0,6.671295E0,7.0568695E0,1.1498199E1,1.3376026E1,1.1820618E1,1.1508997E1,4.6871395E0,1.1725483E1,6.9515686E0,0E0,0E0,0E0,0E0,0E0,0E0,0E0,0E0,0E0,0E0,0E0,0E0,0E0,0E0,0E0,0E0],"parents":[2147483647,0,0,1,1,2,2,3,3,4,4,5,5,6,6,7,7,8,8,9,9,10,10,11,11,12,12,13,13,14,14],"right_children":[2,4,6,8,10,12,14,16,18,20,22,24,26,28,30,-1,-1,-1,-1,-1,-1,-1,-1,-1,-1,-1,-1,-1,-1,-1,-1],"split_conditions":[1.7388487E-1,8.000406E-1,7.0591784E-1,6.6548586E-1,1.2025279E0,-5.0879186E-1,-4.6472317E-1,1.7404604E0,8.5347414E-1,-1.5719446E0,-5.176553E-1,4.673531E-1,-4.2766422E-1,-8.85777E-1,8.0968505E-1,-8.218212E-2,7.180654E-2,3.384305E-2,-4.018361E-2,2.607729E-2,1.03030935E-1,-8.499312E-2,1.2523139E-2,-4.777947E-3,9.9860854E-2,4.4027247E-2,-1.0508392E-1,-3.9022613E-2,1.0685891E-1,-4.34079E-2,1.5119271E-1],"split_indices":[132,131,131,131,40,119,0,79,124,96,36,132,114,112,67,0,0,0,0,0,0,0,0,0,0,0,0,0,0,0,0],"split_type":[0,0,0,0,0,0,0,0,0,0,0,0,0,0,0,0,0,0,0,0,0,0,0,0,0,0,0,0,0,0,0],"sum_hessian":[5.929432E2,4.432214E2,1.4972179E2,3.0276718E2,1.4045422E2,5.5190285E1,9.45315E1,1.6073083E2,1.4203635E2,9.178222E1,4.8672E1,4.5153454E1,1.003683E1,4.367892E1,5.085258E1,1.584224E2,2.3084474E0,2.4702482E1,1.17333855E2,4.2946026E1,4.8836193E1,2.17413E1,2.69307E1,3.0060911E1,1.5092542E1,2.143712E0,7.893118E0,5.896762E0,3.7782158E1,1.4963164E0,4.9356266E1],"tree_param":{"num_deleted":"0","num_feature":"133","num_nodes":"31","size_leaf_vector":"1"}},{"base_weights":[2.646619E-5,-1.931052E-1,9.4004315E-1,-6.716142E-1,1.1354693E-1,4.7489923E-1,1.3116362E0,-7.076347E-1,4.1068783E-1,-1.777863E-1,4.7926906E-1,9.4019604E-1,1.4407371E-1,1.3630426E0,-5.43216E-2,6.718256E-2,-7.288935E-2,1.1771872E-1,-7.69197E-2,-5.0298758E-2,3.484079E-3,1.1799983E-2,7.945964E-2,-3.4349553E-2,1.17538035E-1,-4.355619E-2,5.3706974E-2,1.4632636E-1,6.2200792E-2],"categories":[],"categories_nodes":[],"categories_segments":[],"categories_sizes":[],"default_left":[0,0,0,0,0,0,0,0,0,0,0,0,0,0,0,0,0,0,0,0,0,0,0,0,0,0,0,0,0],"id":4,"left_children":[1,3,5,7,9,11,13,15,17,19,21,23,25,27,-1,-1,-1,-1,-1,-1,-1,-1,-1,-1,-1,-1,-1,-1,-1],"loss_changes":[1.0695281E2,7.178765E1,1.673211E1,7.7373505E0,3.1910336E1,6.969846E0,6.0085526E0,5.921692E0,7.0419354E0,1.1564018E1,1.5024292E1,6.139944E0,6.648301E0,3.103592E0,0E0,0E0,0E0,0E0,0E0,0E0,0E0,0E0,0E0,0E0,0E0,0E0,0E0,0E0,0E0],"parents":[2147483647,0,0,1,1,2,2,3,3,4,4,5,5,6,6,7,7,8,8,9,9,10,10,11,11,12,12,13,13],"right_children":[2,4,6,8,10,12,14,16,18,20,22,24,26,28,-1,-1,-1,-1,-1,-1,-1,-1,-1,-1,-1,-1,-1,-1,-1],"split_conditions":[2.980592E-1,6.778202E-1,7.6433206E-1,-1.0036149E0,1.5097283E-2,4E-1,1.3674705E-1,1.5848821E0,5.0940174E-1,7.152188E-1,8.000406E-1,1.1819832E0,-2.9133284E-4,5.5E0,-5.43216E-2,6.718256E-2,-7.288935E-2,1.1771872E-1,-7.69197E-2,-5.0298758E-2,3.484079E-3,1.1799983E-2,7.945964E-2,-3.4349553E-2,1.17538035E-1,-4.355619E-2,5.3706974E-2,1.4632636E-1,6.2200792E-2],"split_indices":[132,131,131,98,132,27,49,127,20,34,131,113,32,22,0,0,0,0,0,0,0,0,0,0,0,0,0,0,0],"split_type":[0,0,0,0,0,0,0,0,0,0,0,0,0,0,0,0,0,0,0,0,0,0,0,0,0,0,0,0,0],"sum_hessian":[5.8711926E2,4.877109E2,9.9408356E1,1.9001529E2,2.9769562E2,4.5158695E1,5.4249664E1,1.8423006E2,5.7852445E0,1.6598573E2,1.3170988E2,1.8000095E1,2.7158598E1,5.3044704E1,1.2049612E0,2.331618E0,1.8189844E2,3.5083618E0,2.276883E0,6.508155E1,1.00904175E2,6.2023746E1,6.968614E1,2.715844E0,1.5284251E1,1.0929786E1,1.6228813E1,4.5866833E1,7.177869E0],"tree_param":{"num_deleted":"0","num_feature":"133","num_nodes":"29","size_leaf_vector":"1"}},{"base_weights":[4.4945985E-4,-2.8654397E-1,5.3889614E-1,-4.7035956E-1,3.4709123E-1,7.984062E-1,-2.85756E-1,-6.830194E-1,-2.356248E-1,-7.83255E-2,6.1977786E-1,4.502819E-1,1.1121708E0,-7.804821E-1,1.2028641E-1,-8.6377926E-2,-4.5740504E-2,-2.8680477E-2,1.01692475E-1,-4.284832E-2,5.3720832E-2,-9.443856E-3,8.918514E-2,5.5824607E-3,8.194511E-2,1.0457862E-2,1.1857883E-1,7.0097454E-2,-1.22126356E-1,1.4774479E-1,-9.835152E-3],"categories":[],"categories_nodes":[],"categories_segments":[],"categories_sizes":[],"default_left":[0,0,0,0,0,0,0,0,0,0,0,0,0,0,0,0,0,0,0,0,0,0,0,0,0,0,0,0,0,0,0],"id":5,"left_children":[1,3,5,7,9,11,13,15,17,19,21,23,25,27,29,-1,-1,-1,-1,-1,-1,-1,-1,-1,-1,-1,-1,-1,-1,-1,-1],"loss_changes":[9.005056E1,4.4437557E1,4.3587467E1,1.4568825E1,1.0031127E1,1.636142E1,9.983938E0,5.897194E0,9.38083E0,7.666299E0,1.0296057E1,1.0855585E1,5.848236E0,1.5435431E1,8.426049E0,0E0,0E0,0E0,0E0,0E0,0E0,0E0,0E0,0E0,0E0,0E0,0E0,0E0,0E0,0E0,0E0],"parents":[2147483647,0,0,1,1,2,2,3,3,4,4,5,5,6,6,7,7,8,8,9,9,10,10,11,11,12,12,13,13,14,14],"right_children":[2,4,6,8,10,12,14,16,18,20,22,24,26,28,30,-1,-1,-1,-1,-1,-1,-1,-1,-1,-1,-1,-1,-1,-1,-1,-1],"split_conditions":[8.000406E-1,1.7388487E-1,1.2025279E0,6.6548586E-1,8.1295025E-1,-1.0619516E0,-5.176553E-1,9.707271E-3,3.6666667E0,4.0621918E-1,8.5014284E-1,2.2043426E-4,6.666667E-2,-1.1286569E0,1.3930459E0,-8.6377926E-2,-4.5740504E-2,-2.8680477E-2,1.01692475E-1,-4.284832E-2,5.3720832E-2,-9.443856E-3,8.918514E-2,5.5824607E-3,8.194511E-2,1.0457862E-2,1.1857883E-1,7.0097454E-2,-1.22126356E-1,1.4774479E-1,-9.835152E-3],"split_indices":[131,132,40,131,34,93,36,132,22,132,124,14,33,76,39,0,0,0,0,0,0,0,0,0,0,0,0,0,0,0,0],"split_type":[0,0,0,0,0,0,0,0,0,0,0,0,0,0,0,0,0,0,0,0,0,0,0,0,0,0,0,0,0,0,0],"sum_hessian":[5.8073663E2,3.7912817E2,2.0160843E2,2.9407547E2,8.50527E1,1.5337473E2,4.823371E1,1.5329076E2,1.4078473E2,3.3500904E1,5.155179E1,7.386075E1,7.951398E1,2.132678E1,2.690693E1,8.353489E1,6.975586E1,1.3599876E2,4.785971E0,2.1547243E1,1.195366E1,1.4400951E1,3.7150837E1,3.626394E1,3.759681E1,5.5787663E0,7.393521E1,4.755007E0,1.6571774E1,2.934425E0,2.3972506E1],"tree_param":{"num_deleted":"0","num_feature":"133","num_nodes":"31","size_leaf_vector":"1"}},{"base_weights":[7.8381493E-4,-1.750745E-1,7.511718E-1,-5.8551455E-1,7.689687E-2,2.949551E-1,1.1252252E0,-8.8222456E-1,-4.5514268E-1,-2.4331504E-1,3.0764148E-1,3.0512214E-2,9.389352E-1,1.2672124E0,2.0815071E-1,1.2474208E-2,-9.593753E-2,-5.299602E-2,1.8091317E-2,-7.056125E-2,8.549734E-4,-1.1139932E-3,5.6196727E-2,-3.0539596E-2,6.848324E-2,1.3751888E-1,1.0888492E-2,1.3129853E-1,-3.5022177E-2,-5.0623566E-2,1.1092847E-1],"categories":[],"categories_nodes":[],"categories_segments":[],"categories_sizes":[],"default_left":[0,0,0,0,0,0,0,0,0,0,0,0,0,0,0,0,0,0,0,0,0,0,0,0,0,0,0,0,0,0,0],"id":6,"left_children":[1,3,5,7,9,11,13,15,17,19,21,23,25,27,29,-1,-1,-1,-1,-1,-1,-1,-1,-1,-1,-1,-1,-1,-1,-1,-1],"loss_changes":[7.604826E1,4.8329124E1,1.833968E1,6.4727287E0,2.1514576E1,8.5966425E0,7.518524E0,4.2513046E0,6.069479E0,1.4220947E1,1.3714745E1,8.327911E0,5.177061E0,4.276802E0,6.490118E0,0E0,0E0,0E0,0E0,0E0,0E0,0E0,0E0,0E0,0E0,0E0,0E0,0E0,0E0,0E0,0E0],"parents":[2147483647,0,0,1,1,2,2,3,3,4,4,5,5,6,6,7,7,8,8,9,9,10,10,11,11,12,12,13,13,14,14],"right_children":[2,4,6,8,10,12,14,16,18,20,22,24,26,28,30,-1,-1,-1,-1,-1,-1,-1,-1,-1,-1,-1,-1,-1,-1,-1,-1],"split_conditions":[2.614534E-1,6.778202E-1,7.5111395E-1,8.333333E-1,9E-1,1.1518973E0,1.364873E-1,-9.648756E-1,4.141389E-1,6.42885E-1,9.00453E-1,1.5045019E0,8.8705E3,8.275478E-1,9.118759E-1,1.2474208E-2,-9.593753E-2,-5.299602E-2,1.8091317E-2,-7.056125E-2,8.549734E-4,-1.1139932E-3,5.6196727E-2,-3.0539596E-2,6.848324E-2,1.3751888E-1,1.0888492E-2,1.3129853E-1,-3.5022177E-2,-5.0623566E-2,1.1092847E-1],"split_indices":[132,131,131,22,19,82,49,0,118,34,121,81,11,51,131,0,0,0,0,0,0,0,0,0,0,0,0,0,0,0,0],"split_type":[0,0,0,0,0,0,0,0,0,0,0,0,0,0,0,0,0,0,0,0,0,0,0,0,0,0,0,0,0,0,0],"sum_hessian":[5.742926E2,4.658778E2,1.0841481E2,1.7670941E2,2.891684E2,4.9648827E1,5.8765987E1,5.218222E1,1.2452719E2,1.21083015E2,1.6808539E2,3.5938488E1,1.3710339E1,5.0556686E1,8.2093E0,3.6696253E0,4.8512596E1,1.1157029E2,1.2956906E1,4.206719E1,7.901582E1,7.501499E1,9.307039E1,2.4099695E1,1.1838792E1,8.556502E0,5.1538363E0,4.9348377E1,1.2083089E0,4.823571E0,3.3857293E0],"tree_param":{"num_deleted":"0","num_feature":"133","num_nodes":"31","size_leaf_vector":"1"}},{"base_weights":[1.0034661E-3,-2.4601619E-1,4.622583E-1,-4.063177E-1,2.9634082E-1,3.994043E-2,8.532349E-1,-5.874886E-1,-2.1428157E-1,-1.2096516E-1,3.576376E-1,-3.5290658E-1,3.453449E-1,3.470961E-1,1.0419457E0,-4.5309946E-2,-9.0798266E-2,1.280363E-1,-2.5506753E-2,-2.304462E-3,5.953415E-2,-9.310066E-2,7.198222E-3,6.4797364E-2,-2.9535815E-2,-8.213428E-3,9.181186E-2,1.1215998E-1,1.468115E-2],"categories":[],"categories_nodes":[],"categories_segments":[],"categories_sizes":[],"default_left":[0,0,0,0,0,0,0,0,0,0,0,0,0,0,0,0,0,0,0,0,0,0,0,0,0,0,0,0,0],"id":7,"left_children":[1,3,5,7,9,11,13,15,17,-1,19,21,23,25,27,-1,-1,-1,-1,-1,-1,-1,-1,-1,-1,-1,-1,-1,-1],"loss_changes":[6.4910484E1,3.2376198E1,3.27725E1,9.851944E0,8.299372E0,1.1707422E1,9.488014E0,5.919838E0,8.909496E0,0E0,7.4933796E0,1.0562817E1,1.0823456E1,7.3073845E0,5.155594E0,0E0,0E0,0E0,0E0,0E0,0E0,0E0,0E0,0E0,0E0,0E0,0E0,0E0,0E0],"parents":[2147483647,0,0,1,1,2,2,3,3,4,4,5,5,6,6,7,7,8,8,10,10,11,11,12,12,13,13,14,14],"right_children":[2,4,6,8,10,12,14,16,18,-1,20,22,24,26,28,-1,-1,-1,-1,-1,-1,-1,-1,-1,-1,-1,-1,-1,-1],"split_conditions":[8.000406E-1,1.7388487E-1,2.8165357E-2,6.6548586E-1,5.1700926E-1,4.8333332E-1,1.0894828E-4,1.2351766E0,-6.588821E-4,-1.2096516E-1,8.1295025E-1,-1.8937838E0,-3.0531868E-1,2.52546E-1,1.364873E-1,-4.5309946E-2,-9.0798266E-2,1.280363E-1,-2.5506753E-2,-2.304462E-3,5.953415E-2,-9.310066E-2,7.198222E-3,6.4797364E-2,-2.9535815E-2,-8.213428E-3,9.181186E-2,1.1215998E-1,1.468115E-2],"split_indices":[131,132,132,131,131,25,14,69,31,0,34,125,103,132,49,0,0,0,0,0,0,0,0,0,0,0,0,0,0],"split_type":[0,0,0,0,0,0,0,0,0,0,0,0,0,0,0,0,0,0,0,0,0,0,0,0,0,0,0,0,0],"sum_hessian":[5.6769684E2,3.700093E2,1.9768755E2,2.857906E2,8.4218735E1,9.5564545E1,1.0212299E2,1.4599583E2,1.3979475E2,2.5610995E0,8.165764E1,4.1730434E1,5.383411E1,2.85062E1,7.36168E1,1.0456397E2,4.1431858E1,2.9060802E0,1.3688867E2,3.1735832E1,4.9921806E1,1.717335E1,2.4557087E1,3.655597E1,1.7278141E1,1.6762333E1,1.1743869E1,6.7368935E1,6.2478614E0],"tree_param":{"num_deleted":"0","num_feature":"133","num_nodes":"29","size_leaf_vector":"1"}},{"base_weights":[9.644541E-4,-1.24874756E-1,7.7595407E-1,-3.2236525E-1,2.7685592E-1,2.38169E-1,1.0363749E0,-4.9740398E-1,-1.3964398E-1,3.5922177E-2,7.8125703E-1,5.621141E-1,-6.407256E-1,1.0978278E0,-6.757486E-2,-7.134056E-2,-3.068751E-2,-6.621587E-2,1.082622E-3,-2.4049448E-2,3.256116E-2,8.841917E-2,-7.2375864E-2,-9.185121E-2,7.0394866E-2,-1.1944842E-1,2.1679832E-2,1.368659E-2,1.17386125E-1],"categories":[],"categories_nodes":[],"categories_segments":[],"categories_sizes":[],"default_left":[0,0,0,0,0,0,0,0,0,0,0,0,0,0,0,0,0,0,0,0,0,0,0,0,0,0,0,0,0],"id":8,"left_children":[1,3,5,7,9,11,13,15,17,19,21,23,25,27,-1,-1,-1,-1,-1,-1,-1,-1,-1,-1,-1,-1,-1,-1,-1],"loss_changes":[5.489226E1,3.8507713E1,1.0764923E1,1.0328484E1,1.943239E1,8.033496E0,6.284153E0,6.5984535E0,1.2622402E1,8.839865E0,8.651621E0,4.8939896E0,3.927598E0,3.5826073E0,0E0,0E0,0E0,0E0,0E0,0E0,0E0,0E0,0E0,0E0,0E0,0E0,0E0,0E0,0E0],"parents":[2147483647,0,0,1,1,2,2,3,3,4,4,5,5,6,6,7,7,8,8,9,9,10,10,11,11,12,12,13,13],"right_children":[2,4,6,8,10,12,14,16,18,20,22,24,26,28,-1,-1,-1,-1,-1,-1,-1,-1,-1,-1,-1,-1,-1,-1,-1],"split_conditions":[3.679145E-1,8.000406E-1,7.0591784E-1,6.6415167E-1,-1.0574347E0,-5.111897E-1,1.3674705E-1,9.707271E-3,4.0714285E-1,5.375E-1,-1.0290015E0,5.986602E-1,3.1335056E-1,-8.90183E-1,-6.757486E-2,-7.134056E-2,-3.068751E-2,-6.621587E-2,1.082622E-3,-2.4049448E-2,3.256116E-2,8.841917E-2,-7.2375864E-2,-9.185121E-2,7.0394866E-2,-1.1944842E-1,2.1679832E-2,1.368659E-2,1.17386125E-1],"split_indices":[132,131,131,131,93,119,49,132,25,25,116,34,42,112,0,0,0,0,0,0,0,0,0,0,0,0,0,0,0],"split_type":[0,0,0,0,0,0,0,0,0,0,0,0,0,0,0,0,0,0,0,0,0,0,0,0,0,0,0,0,0],"sum_hessian":[5.608649E2,4.8323788E2,7.762705E1,3.2410544E2,1.5913245E2,2.5951061E1,5.167599E1,1.6465306E2,1.5945238E2,1.08416916E2,5.0715527E1,1.922536E1,6.725701E0,5.0231823E1,1.4441683E0,7.588186E1,8.877121E1,3.4891033E1,1.2456134E2,5.5566315E1,5.28506E1,4.7855015E1,2.8605108E0,1.2019657E0,1.8023396E1,3.847911E0,2.87779E0,3.8883514E0,4.634347E1],"tree_param":{"num_deleted":"0","num_feature":"133","num_nodes":"29","size_leaf_vector":"1"}},{"base_weights":[5.3516397E-4,-1.2551013E-1,6.548818E-1,-3.04295E-1,2.3934203E-1,1.0547098E0,3.424726E-1,-2.6707324E-1,-1.1478078E0,4.6179485E-1,-2.5356483E-1,-2.2412306E-1,1.1659197E0,1.9697491E-2,7.352143E-1,-4.2893466E-2,-6.544457E-3,-1.2782268E-1,3.6213224E-4,5.4461807E-2,-5.879106E-2,-7.0980325E-2,1.1187632E-2,-8.7896094E-2,6.755642E-2,-2.2730572E-2,1.221081E-1,-1.2131057E-1,2.4286589E-2,-3.0681243E-2,8.999322E-2],"categories":[],"categories_nodes":[],"categories_segments":[],"categories_sizes":[],"default_left":[0,0,0,0,0,0,0,0,0,0,0,0,0,0,0,0,0,0,0,0,0,0,0,0,0,0,0,0,0,0,0],"id":9,"left_children":[1,3,5,7,9,11,13,15,17,19,21,23,25,27,29,-1,-1,-1,-1,-1,-1,-1,-1,-1,-1,-1,-1,-1,-1,-1,-1],"loss_changes":[4.5867405E1,3.0489794E1,1.0858456E1,9.532993E0,1.6993305E1,5.7961617E0,6.565267E0,9.810009E0,1.9480076E0,9.571026E0,8.166894E0,2.9223325E0,3.0415878E0,8.415508E0,4.2902384E0,0E0,0E0,0E0,0E0,0E0,0E0,0E0,0E0,0E0,0E0,0E0,0E0,0E0,0E0,0E0,0E0],"parents":[2147483647,0,0,1,1,2,2,3,3,4,4,5,5,6,6,7,7,8,8,9,9,10,10,11,11,12,12,13,13,14,14],"right_children":[2,4,6,8,10,12,14,16,18,20,22,24,26,28,30,-1,-1,-1,-1,-1,-1,-1,-1,-1,-1,-1,-1,-1,-1,-1,-1],"split_conditions":[3.079139E-1,8.000406E-1,4E-1,1.3652688E-1,1.2025279E0,5.9265244E-1,6.5473667E3,6.778202E-1,8.407662E-4,9.445922E-1,-5.176553E-1,-7.773805E-1,-5.402822E-1,4.7126436E-1,1.4340945E0,-4.2893466E-2,-6.544457E-3,-1.2782268E-1,3.6213224E-4,5.4461807E-2,-5.879106E-2,-7.0980325E-2,1.1187632E-2,-8.7896094E-2,6.755642E-2,-2.2730572E-2,1.221081E-1,-1.2131057E-1,2.4286589E-2,-3.0681243E-2,8.999322E-2],"split_indices":[132,131,27,49,40,131,11,131,12,121,36,58,119,27,123,0,0,0,0,0,0,0,0,0,0,0,0,0,0,0,0],"split_type":[0,0,0,0,0,0,0,0,0,0,0,0,0,0,0,0,0,0,0,0,0,0,0,0,0,0,0,0,0,0,0],"sum_hessian":[5.5412494E2,4.653029E2,8.882204E1,3.12391E2,1.5291188E2,3.791787E1,5.0904167E1,3.0044968E2,1.1941341E1,1.0540492E2,4.7506966E1,2.952374E0,3.4965496E1,2.8517328E1,2.2386839E1,1.660347E2,1.3441496E2,1.0627477E1,1.313865E0,9.814251E1,7.2624083E0,2.070958E1,2.6797388E1,1.7220304E0,1.2303436E0,1.2127981E0,3.3752697E1,3.6911635E0,2.4826164E1,2.9380028E0,1.9448837E1],"tree_param":{"num_deleted":"0","num_feature":"133","num_nodes":"31","size_leaf_vector":"1"}},{"base_weights":[1.2380743E-4,-1.541457E-1,4.6402365E-1,-3.1800428E-1,1.7358924E-1,5.399584E-2,7.586907E-1,-3.423005E-1,9.5324767E-1,3.561086E-1,-3.3555824E-1,-1.1709229E-1,1.4063182E-1,4.2083362E-1,1.0438617E0,-3.5789516E-2,1.454803E-1,1.4432135E-1,-3.716282E-2,9.662812E-3,6.8240374E-2,-7.0483545E-3,-1.0737685E-1,-2.2729322E-2,4.9108494E-2,-6.499466E-2,6.2873185E-2,1.14674605E-1,-1.7243369E-2],"categories":[],"categories_nodes":[],"categories_segments":[],"categories_sizes":[],"default_left":[0,0,0,0,0,0,0,0,0,0,0,0,0,0,0,0,0,0,0,0,0,0,0,0,0,0,0,0,0],"id":10,"left_children":[1,3,5,7,9,11,13,15,17,19,21,-1,23,25,27,-1,-1,-1,-1,-1,-1,-1,-1,-1,-1,-1,-1,-1,-1],"loss_changes":[3.9336777E1,2.2206734E1,1.6532444E1,8.830938E0,1.2956564E1,6.3659167E0,7.243168E0,8.113331E0,4.059911E0,8.584586E0,7.158088E0,0E0,7.263673E0,8.906389E0,5.524189E0,0E0,0E0,0E0,0E0,0E0,0E0,0E0,0E0,0E0,0E0,0E0,0E0,0E0,0E0],"parents":[2147483647,0,0,1,1,2,2,3,3,4,4,5,5,6,6,7,7,8,8,9,9,10,10,12,12,13,13,14,14],"right_children":[2,4,6,8,10,12,14,16,18,20,22,-1,24,26,28,-1,-1,-1,-1,-1,-1,-1,-1,-1,-1,-1,-1,-1,-1],"split_conditions":[1.7388487E-1,8.000406E-1,7.2040606E-1,1.73922E0,1.2167611E0,-1.0240414E0,-4.6472317E-1,1.2054603E0,1.24035895E-1,-4.228504E-1,-5.135107E-1,-1.1709229E-1,8.6683416E-1,-8.85777E-1,-5.186647E-1,-3.5789516E-2,1.454803E-1,1.4432135E-1,-3.716282E-2,9.662812E-3,6.8240374E-2,-7.0483545E-3,-1.0737685E-1,-2.2729322E-2,4.9108494E-2,-6.499466E-2,6.2873185E-2,1.14674605E-1,-1.7243369E-2],"split_indices":[132,131,131,79,82,105,0,40,92,114,119,0,34,112,36,0,0,0,0,0,0,0,0,0,0,0,0,0,0],"split_type":[0,0,0,0,0,0,0,0,0,0,0,0,0,0,0,0,0,0,0,0,0,0,0,0,0,0,0,0,0],"sum_hessian":[5.476609E2,4.1148846E2,1.3617244E2,2.743504E2,1.3713806E2,5.7435062E1,7.873737E1,2.699224E2,4.42803E0,1.01170876E2,3.596719E1,2.9672086E0,5.4467854E1,3.7172676E1,4.1564697E1,2.683942E2,1.5281857E0,3.1673577E0,1.2606723E0,5.7077293E1,4.409358E1,2.7270458E1,8.69673E0,2.6743002E1,2.772485E1,5.6981378E0,3.147454E1,3.837574E1,3.1889565E0],"tree_param":{"num_deleted":"0","num_feature":"133","num_nodes":"29","size_leaf_vector":"1"}},{"base_weights":[5.106538E-4,-9.79465E-2,6.328594E-1,-3.915999E-1,6.174023E-2,1.5543981E-1,8.848752E-1,-6.7627335E-1,-2.5027385E-1,1.1581392E-2,9.5760655E-1,4.7022483E-1,-5.608514E-1,9.451765E-1,-6.4288534E-2,-7.464429E-2,1.1727273E-1,-7.591395E-2,-1.2423706E-2,1.18058305E-2,-3.2890044E-2,1.2302172E-1,-7.9213336E-2,-8.0294594E-2,6.246552E-2,1.0811938E-2,-1.3201603E-1,1.0325604E-1,1.6977778E-2],"categories":[],"categories_nodes":[],"categories_segments":[],"categories_sizes":[],"default_left":[0,0,0,0,0,0,0,0,0,0,0,0,0,0,0,0,0,0,0,0,0,0,0,0,0,0,0,0,0],"id":11,"left_children":[1,3,5,7,9,11,13,15,17,19,21,23,25,27,-1,-1,-1,-1,-1,-1,-1,-1,-1,-1,-1,-1,-1,-1,-1],"loss_changes":[3.383229E1,2.2073236E1,8.6709175E0,6.499689E0,1.3714078E1,6.240425E0,5.002365E0,7.9340286E0,7.1118813E0,1.0561696E1,8.693473E0,4.2290745E0,4.4850025E0,2.961647E0,0E0,0E0,0E0,0E0,0E0,0E0,0E0,0E0,0E0,0E0,0E0,0E0,0E0,0E0,0E0],"parents":[2147483647,0,0,1,1,2,2,3,3,4,4,5,5,6,6,7,7,8,8,9,9,10,10,11,11,12,12,13,13],"right_children":[2,4,6,8,10,12,14,16,18,20,22,24,26,28,-1,-1,-1,-1,-1,-1,-1,-1,-1,-1,-1,-1,-1,-1,-1],"split_conditions":[3.679145E-1,6.727959E-1,7.0591784E-1,-1.1284404E0,3.6666667E0,-5.119735E-1,1.3674705E-1,1.73922E0,5.6332767E-1,-2.8339246E-1,1.3630521E-1,5.197226E-1,5.501958E-2,7.1666664E-1,-6.4288534E-2,-7.464429E-2,1.1727273E-1,-7.591395E-2,-1.2423706E-2,1.18058305E-2,-3.2890044E-2,1.2302172E-1,-7.9213336E-2,-8.0294594E-2,6.246552E-2,1.0811938E-2,-1.3201603E-1,1.0325604E-1,1.6977778E-2],"split_indices":[132,131,131,76,22,119,49,79,34,97,49,131,57,25,0,0,0,0,0,0,0,0,0,0,0,0,0,0,0],"split_type":[0,0,0,0,0,0,0,0,0,0,0,0,0,0,0,0,0,0,0,0,0,0,0,0,0,0,0,0,0],"sum_hessian":[5.414141E2,4.6920386E2,7.2210266E1,1.6476309E2,3.0444077E2,2.5506826E1,4.670344E1,5.3404686E1,1.113584E2,2.8925836E2,1.5182416E1,1.7958305E1,7.548521E0,4.5296886E1,1.4065537E0,5.2026577E1,1.378109E0,2.1108995E1,9.0249405E1,2.208473E2,6.841104E1,1.3392734E1,1.7896825E0,1.4883655E0,1.646994E1,4.468907E0,3.0796142E0,4.0411095E1,4.8857923E0],"tree_param":{"num_deleted":"0","num_feature":"133","num_nodes":"29","size_leaf_vector":"1"}},{"base_weights":[2.7199762E-4,-7.588781E-2,6.9995517E-1,-3.02472E-1,1.1448261E-1,-6.865382E-2,7.734124E-1,-5.1923805E-1,-1.3323003E-1,5.535044E-1,-1.5840861E-3,3.7292078E-1,1.0789907E0,1.0754633E-2,-6.1319526E-2,3.248076E-2,-3.384566E-2,6.887928E-2,-5.4469753E-2,-9.431974E-3,4.3018278E-2,-1.15414284E-1,5.5907726E-2,1.3118617E-1,4.6657667E-2],"categories":[],"categories_nodes":[],"categories_segments":[],"categories_sizes":[],"default_left":[0,0,0,0,0,0,0,0,0,0,0,0,0,0,0,0,0,0,0,0,0,0,0,0,0],"id":12,"left_children":[1,3,5,7,9,-1,11,13,15,17,19,21,23,-1,-1,-1,-1,-1,-1,-1,-1,-1,-1,-1,-1],"loss_changes":[2.8662111E1,2.0958424E1,5.908537E0,8.065859E0,1.3470003E1,0E0,5.7917767E0,5.771208E0,1.1941877E1,8.587324E0,8.451275E0,7.3066325E0,3.406826E0,0E0,0E0,0E0,0E0,0E0,0E0,0E0,0E0,0E0,0E0,0E0,0E0],"parents":[2147483647,0,0,1,1,2,2,3,3,4,4,6,6,7,7,8,8,9,9,10,10,11,11,12,12],"right_children":[2,4,6,8,10,-1,12,14,16,18,20,22,24,-1,-1,-1,-1,-1,-1,-1,-1,-1,-1,-1,-1],"split_conditions":[4.673531E-1,7.1787584E-1,5.34322E-1,9.707271E-3,-2.223398E0,-6.865382E-2,9.329282E-2,8.5347414E-1,-8.701935E-1,1.3646826E-1,1.479003E0,-3.3814228E-1,-2.2232802E0,1.0754633E-2,-6.1319526E-2,3.248076E-2,-3.384566E-2,6.887928E-2,-5.4469753E-2,-9.431974E-3,4.3018278E-2,-1.15414284E-1,5.5907726E-2,1.3118617E-1,4.6657667E-2],"split_indices":[132,131,131,132,41,0,64,124,52,49,34,103,41,0,0,0,0,0,0,0,0,0,0,0,0],"split_type":[0,0,0,0,0,0,0,0,0,0,0,0,0,0,0,0,0,0,0,0,0,0,0,0,0],"sum_hessian":[5.358777E2,4.8407782E2,5.1799847E1,2.2074826E2,2.633296E2,2.1863713E0,4.9613476E1,9.58785E1,1.2486975E2,5.427307E1,2.090565E2,2.2433046E1,2.7180428E1,1.2480042E1,8.339846E1,3.8456787E1,8.6412964E1,4.8652348E1,5.620722E0,1.7273724E2,3.6319263E1,1.8725387E0,2.0560509E1,1.8864912E1,8.3155155E0],"tree_param":{"num_deleted":"0","num_feature":"133","num_nodes":"25","size_leaf_vector":"1"}},{"base_weights":[3.5353334E-4,-1.21415675E-1,3.7805414E-1,-2.2643301E-1,2.389705E-1,1.3024749E-1,7.19275E-1,2.5693402E-1,-2.9329133E-1,-7.8420985E-1,3.4882957E-1,1.0543443E0,4.6223085E-2,9.065192E-2,9.307732E-1,9.602519E-2,-1.1477117E-2,3.848071E-2,-3.4982946E-2,7.6762386E-2,-1.1119074E-1,7.112988E-2,1.0222442E-2,-5.1288463E-2,1.4721242E-1,-3.4935083E-3,1.1929543E-1,-1.2284314E-1,6.513193E-2,1.078934E-1,-1.0568451E-2],"categories":[],"categories_nodes":[],"categories_segments":[],"categories_sizes":[],"default_left":[0,0,0,0,0,0,0,0,0,0,0,0,0,0,0,0,0,0,0,0,0,0,0,0,0,0,0,0,0,0,0],"id":13,"left_children":[1,3,5,7,9,11,13,15,17,19,21,23,25,27,29,-1,-1,-1,-1,-1,-1,-1,-1,-1,-1,-1,-1,-1,-1,-1,-1],"loss_changes":[2.4500294E1,1.53001175E1,1.0887829E1,1.0172817E1,1.0545784E1,5.8877444E0,7.150425E0,1.017489E1,1.0675777E1,5.5160317E0,7.3657665E0,4.897337E0,6.6613684E0,1.1750928E1,6.3500977E0,0E0,0E0,0E0,0E0,0E0,0E0,0E0,0E0,0E0,0E0,0E0,0E0,0E0,0E0,0E0,0E0],"parents":[2147483647,0,0,1,1,2,2,3,3,4,4,5,5,6,6,7,7,8,8,9,9,10,10,11,11,12,12,13,13,14,14],"right_children":[2,4,6,8,10,12,14,16,18,20,22,24,26,28,30,-1,-1,-1,-1,-1,-1,-1,-1,-1,-1,-1,-1,-1,-1,-1,-1],"split_conditions":[1.7388487E-1,8.467564E-1,7.8396666E-1,8.496958E-1,3.06084E-1,-9.433118E-1,7.3524E-5,4.460029E-1,-9.5105654E-1,-3.6091782E-2,-1.2766688E-2,3.3584148E-1,9.828859E-1,2.52546E-1,5.6666665E0,9.602519E-2,-1.1477117E-2,3.848071E-2,-3.4982946E-2,7.6762386E-2,-1.1119074E-1,7.112988E-2,1.0222442E-2,-5.1288463E-2,1.4721242E-1,-3.4935083E-3,1.1929543E-1,-1.2284314E-1,6.513193E-2,1.078934E-1,-1.0568451E-2],"split_indices":[132,131,131,124,23,1,14,20,0,104,73,101,0,132,22,0,0,0,0,0,0,0,0,0,0,0,0,0,0,0,0],"split_type":[0,0,0,0,0,0,0,0,0,0,0,0,0,0,0,0,0,0,0,0,0,0,0,0,0,0,0,0,0,0,0],"sum_hessian":[5.307062E2,4.0183478E2,1.2887143E2,3.114494E2,9.038535E1,7.5455025E1,5.34164E1,3.7499016E1,2.7395038E2,8.168559E0,8.22168E1,5.3264856E0,7.012854E1,1.3807079E1,3.960932E1,1.2418367E1,2.5080648E1,2.0636559E1,2.5331383E2,1.1901319E0,6.9784274E0,3.252541E1,4.9691387E1,1.0731405E0,4.2533455E0,6.63988E1,3.7297397E0,3.7629542E0,1.0044126E1,3.4619507E1,4.989814E0],"tree_param":{"num_deleted":"0","num_feature":"133","num_nodes":"31","size_leaf_vector":"1"}},{"base_weights":[1.138968E-3,-6.433164E-2,6.237097E-1,-3.333044E-1,6.430361E-2,-6.372642E-2,6.938989E-1,-1.6404009E-1,-5.61854E-1,1.02781676E-1,-7.8089255E-1,3.076077E-1,1.00102E0,1.0603815E-1,-2.5297036E-2,1.1825601E-2,-7.018899E-2,2.5338799E-2,-1.5068399E-2,-1.0493653E-1,1.14412345E-1,-1.090729E-1,4.8645943E-2,1.24459945E-1,3.9348345E-2],"categories":[],"categories_nodes":[],"categories_segments":[],"categories_sizes":[],"default_left":[0,0,0,0,0,0,0,0,0,0,0,0,0,0,0,0,0,0,0,0,0,0,0,0,0],"id":14,"left_children":[1,3,5,7,9,-1,11,13,15,17,19,21,23,-1,-1,-1,-1,-1,-1,-1,-1,-1,-1,-1,-1],"loss_changes":[2.1514599E1,1.6546947E1,4.887537E0,5.8918343E0,1.06152935E1,0E0,5.393402E0,1.0098728E1,6.312031E0,1.1899408E1,8.5506E0,6.214855E0,3.4063816E0,0E0,0E0,0E0,0E0,0E0,0E0,0E0,0E0,0E0,0E0,0E0,0E0],"parents":[2147483647,0,0,1,1,2,2,3,3,4,4,6,6,7,7,8,8,9,9,10,10,11,11,12,12],"right_children":[2,4,6,8,10,-1,12,14,16,18,20,22,24,-1,-1,-1,-1,-1,-1,-1,-1,-1,-1,-1,-1],"split_conditions":[4.673531E-1,6.6415167E-1,5.34322E-1,9.896176E-1,1.364873E-1,-6.372642E-2,9.329282E-2,-4.741065E-4,6.6924757E-1,8.27832E-1,7.2757167E-1,-3.3814228E-1,-2.2232802E0,1.0603815E-1,-2.5297036E-2,1.1825601E-2,-7.018899E-2,2.5338799E-2,-1.5068399E-2,-1.0493653E-1,1.14412345E-1,-1.090729E-1,4.8645943E-2,1.24459945E-1,3.9348345E-2],"split_indices":[132,131,131,80,49,0,64,12,95,51,23,103,41,0,0,0,0,0,0,0,0,0,0,0,0],"split_type":[0,0,0,0,0,0,0,0,0,0,0,0,0,0,0,0,0,0,0,0,0,0,0,0,0],"sum_hessian":[5.258505E2,4.7662454E2,4.922599E1,1.5368414E2,3.229404E2,2.169576E0,4.7056416E1,8.928055E1,6.44036E1,3.0971866E2,1.3221736E1,2.1728407E1,2.5328009E1,5.3057327E0,8.3974815E1,1.1023155E1,5.3380447E1,1.9428004E2,1.15438614E2,1.2002663E1,1.2190739E0,1.8858149E0,1.9842592E1,1.7330921E1,7.9970875E0],"tree_param":{"num_deleted":"0","num_feature":"133","num_nodes":"25","size_leaf_vector":"1"}},{"base_weights":[1.1509937E-3,-2.0880935E-1,1.756955E-1,-3.0624542E-1,2.0815389E-1,1.0197187E-2,4.958395E-1,4.6891177E-1,-3.7234727E-1,-1.5683654E-1,8.806254E-1,1.355579E-1,-3.5655016E-1,-3.9947933E-1,5.666761E-1,-6.0974895E-3,1.5720934E-1,-2.3132436E-2,-6.947427E-2,-1.11879505E-1,1.4065198E-2,-1.3483979E-2,1.265992E-1,6.2409725E-2,-8.4613386E-4,-4.7145434E-2,1.1242988E-1,5.7564687E-2,-1.23805285E-1,6.1094534E-2,-9.6891485E-2],"categories":[],"categories_nodes":[],"categories_segments":[],"categories_sizes":[],"default_left":[0,0,0,0,0,0,0,0,0,0,0,0,0,0,0,0,0,0,0,0,0,0,0,0,0,0,0,0,0,0,0],"id":15,"left_children":[1,3,5,7,9,11,13,15,17,19,21,23,25,27,29,-1,-1,-1,-1,-1,-1,-1,-1,-1,-1,-1,-1,-1,-1,-1,-1],"loss_changes":[1.9172514E1,9.7122965E0,1.5130713E1,1.0059156E1,1.1325518E1,8.753381E0,6.3992023E0,9.215286E0,7.946144E0,8.855048E0,6.504987E0,9.984429E0,8.784037E0,7.02757E0,6.751438E0,0E0,0E0,0E0,0E0,0E0,0E0,0E0,0E0,0E0,0E0,0E0,0E0,0E0,0E0,0E0,0E0],"parents":[2147483647,0,0,1,1,2,2,3,3,4,4,5,5,6,6,7,7,8,8,9,9,10,10,11,11,12,12,13,13,14,14],"right_children":[2,4,6,8,10,12,14,16,18,20,22,24,26,28,30,-1,-1,-1,-1,-1,-1,-1,-1,-1,-1,-1,-1,-1,-1,-1,-1],"split_conditions":[1.5097283E-2,8.6977875E-1,8.000406E-1,-9.5105654E-1,7.285444E-5,2.5751714E3,-1.0962108E-3,1.2040057E0,-7.310593E-1,-1.1610076E-1,6.723849E-1,9.6327233E-1,1.0308472E0,-4.215917E-2,1.3674705E-1,-6.0974895E-3,1.5720934E-1,-2.3132436E-2,-6.947427E-2,-1.11879505E-1,1.4065198E-2,-1.3483979E-2,1.265992E-1,6.2409725E-2,-8.4613386E-4,-4.7145434E-2,1.1242988E-1,5.7564687E-2,-1.23805285E-1,6.1094534E-2,-9.6891485E-2],"split_indices":[132,131,131,0,12,9,31,40,60,110,95,80,77,73,49,0,0,0,0,0,0,0,0,0,0,0,0,0,0,0,0],"split_type":[0,0,0,0,0,0,0,0,0,0,0,0,0,0,0,0,0,0,0,0,0,0,0,0,0,0,0,0,0,0,0],"sum_hessian":[5.211603E2,2.364896E2,2.8467065E2,1.9190964E2,4.4579956E1,1.8834015E2,9.633051E1,1.4600467E1,1.7730917E2,2.9393257E1,1.51867E1,1.4083174E2,4.75084E1,6.722603E0,8.960791E1,1.0501198E1,4.099269E0,1.2454706E2,5.2762115E1,6.2907367E0,2.310252E1,4.3566775E0,1.0830022E1,3.1305248E1,1.095265E2,4.472005E1,2.7883499E0,3.2531977E0,3.4694054E0,8.7682274E1,1.9256344E0],"tree_param":{"num_deleted":"0","num_feature":"133","num_nodes":"31","size_leaf_vector":"1"}},{"base_weights":[1.1604389E-3,-5.616344E-2,5.6187755E-1,-2.966494E-1,5.5579364E-2,3.7322012E-1,1.0839489E0,-7.2290623E-1,-2.1075742E-1,-1.8397763E-1,1.8473762E-1,-2.931938E-1,6.324057E-1,1.1974895E-2,1.1592338E-1,4.1894224E-2,-8.6145066E-2,-6.7890184E-3,-5.8535963E-2,-5.0844755E-2,2.318879E-2,7.228022E-2,7.0632803E-3,6.948887E-2,-7.617505E-2,9.85811E-2,2.8270714E-3],"categories":[],"categories_nodes":[],"categories_segments":[],"categories_sizes":[],"default_left":[0,0,0,0,0,0,0,0,0,0,0,0,0,0,0,0,0,0,0,0,0,0,0,0,0,0,0],"id":16,"left_children":[1,3,5,7,9,11,13,15,17,19,21,23,25,-1,-1,-1,-1,-1,-1,-1,-1,-1,-1,-1,-1,-1,-1],"loss_changes":[1.666933E1,1.2660693E1,4.3330545E0,5.318555E0,9.99986E0,6.5517435E0,7.498951E-1,4.260311E0,6.6918125E0,1.5409997E1,1.2827725E1,5.623993E0,5.7055693E0,0E0,0E0,0E0,0E0,0E0,0E0,0E0,0E0,0E0,0E0,0E0,0E0,0E0,0E0],"parents":[2147483647,0,0,1,1,2,2,3,3,4,4,5,5,6,6,7,7,8,8,9,9,10,10,11,11,12,12],"right_children":[2,4,6,8,10,12,14,16,18,20,22,24,26,-1,-1,-1,-1,-1,-1,-1,-1,-1,-1,-1,-1,-1,-1],"split_conditions":[4.673531E-1,6.6282594E-1,8.7522304E-1,-8.9207274E-1,4.6103895E-1,9.764869E-1,-7.348823E-1,-9.648756E-1,-4.1142684E-1,-1.5688009E0,8.542375E-1,1.2315844E0,5.625E-1,1.1974895E-2,1.1592338E-1,4.1894224E-2,-8.6145066E-2,-6.7890184E-3,-5.8535963E-2,-5.0844755E-2,2.318879E-2,7.228022E-2,7.0632803E-3,6.948887E-2,-7.617505E-2,9.85811E-2,2.8270714E-3],"split_indices":[132,131,131,112,25,46,60,0,114,96,124,113,25,0,0,0,0,0,0,0,0,0,0,0,0,0,0],"split_type":[0,0,0,0,0,0,0,0,0,0,0,0,0,0,0,0,0,0,0,0,0,0,0,0,0,0,0],"sum_hessian":[5.166257E2,4.6952454E2,4.710114E1,1.4842934E2,3.2109518E2,3.585819E1,1.1242949E1,2.364913E1,1.24780205E2,1.1232862E2,2.0876657E2,1.0004238E1,2.5853952E1,1.0018995E0,1.024105E1,2.3399518E0,2.130918E1,9.118497E1,3.359524E1,6.297283E1,4.935579E1,3.5592865E1,1.731737E2,3.0626807E0,6.941558E0,1.5913274E1,9.940678E0],"tree_param":{"num_deleted":"0","num_feature":"133","num_nodes":"27","size_leaf_vector":"1"}},{"base_weights":[1.3441024E-3,-1.1997661E-1,2.301801E-1,-4.5777214E-1,-4.4626765E-2,3.8660496E-1,-2.1186036E-1,-7.6002344E-2,-7.3180586E-1,8.4566754E-1,-7.2171E-2,1.3496113E-1,6.0721445E-1,1.0260898E0,-3.293932E-1,-9.303E-2,2.4725182E-2,-1.0355039E-1,-1.265186E-2,-4.2011905E-2,1.2580596E-1,-3.1103982E-2,4.9325717E-3,4.76142E-4,8.762248E-2,-8.30717E-2,6.7149095E-2,1.4106956E-1,-4.381956E-3,-4.1383646E-2,1.2682872E-1],"categories":[],"categories_nodes":[],"categories_segments":[],"categories_sizes":[],"default_left":[0,0,0,0,0,0,0,0,0,0,0,0,0,0,0,0,0,0,0,0,0,0,0,0,0,0,0,0,0,0,0],"id":17,"left_children":[1,3,5,7,9,11,13,15,17,19,21,23,25,27,29,-1,-1,-1,-1,-1,-1,-1,-1,-1,-1,-1,-1,-1,-1,-1,-1],"loss_changes":[1.4276112E1,8.533354E0,1.2401209E1,6.3452797E0,6.826301E0,7.243229E0,7.207575E0,7.5984097E0,6.395052E0,4.891293E0,7.808344E0,6.0688653E0,7.02985E0,1.8464103E0,6.4444327E0,0E0,0E0,0E0,0E0,0E0,0E0,0E0,0E0,0E0,0E0,0E0,0E0,0E0,0E0,0E0,0E0],"parents":[2147483647,0,0,1,1,2,2,3,3,4,4,5,5,6,6,7,7,8,8,9,9,10,10,11,11,12,12,13,13,14,14],"right_children":[2,4,6,8,10,12,14,16,18,20,22,24,26,28,30,-1,-1,-1,-1,-1,-1,-1,-1,-1,-1,-1,-1,-1,-1,-1,-1],"split_conditions":[8.000406E-1,2.2868949E-1,1.2025279E0,-9.5306076E-2,3.7977192E-1,2.5496268E-4,1.3930459E0,5E-1,-6.383016E-2,-5.664658E-1,8.95459E-1,1.3945929E0,-5.2141523E-1,4.1478932E-2,-1.4830409E0,-9.303E-2,2.4725182E-2,-1.0355039E-1,-1.265186E-2,-4.2011905E-2,1.2580596E-1,-3.1103982E-2,4.9325717E-3,4.76142E-4,8.762248E-2,-8.30717E-2,6.7149095E-2,1.4106956E-1,-4.381956E-3,-4.1383646E-2,1.2682872E-1],"split_indices":[131,38,40,128,118,14,39,24,128,72,121,39,36,57,96,0,0,0,0,0,0,0,0,0,0,0,0,0,0,0,0],"split_type":[0,0,0,0,0,0,0,0,0,0,0,0,0,0,0,0,0,0,0,0,0,0,0,0,0,0,0,0,0,0,0],"sum_hessian":[5.1222723E2,3.3506396E2,1.771633E2,6.0183647E1,2.748803E2,1.3094957E2,4.6213722E1,2.5682062E1,3.4501587E1,7.357771E0,2.6752255E2,6.1925003E1,6.9024574E1,3.336872E0,4.287685E1,6.5345645E0,1.9147497E1,2.2501085E1,1.2000501E1,1.8034781E0,5.5542927E0,8.966886E1,1.7785367E2,5.352925E1,8.395754E0,2.4432125E0,6.658136E1,2.2202344E0,1.1166377E0,4.1428196E1,1.4486545E0],"tree_param":{"num_deleted":"0","num_feature":"133","num_nodes":"31","size_leaf_vector":"1"}},{"base_weights":[1.480497E-3,-4.9400665E-2,5.138086E-1,-6.804807E-1,-1.0499308E-2,-6.1720874E-2,5.8389455E-1,3.2588798E-1,-8.579549E-1,-1.7430136E-1,1.2651727E-1,2.1044861E-1,8.963946E-1,-7.852061E-2,1.2595807E-1,-1.3963416E-1,-5.280248E-2,-6.0412653E-2,-8.586123E-3,3.8116972E-3,4.6708215E-2,4.653307E-2,-7.6533884E-2,1.1607494E-1,2.9419055E-2],"categories":[],"categories_nodes":[],"categories_segments":[],"categories_sizes":[],"default_left":[0,0,0,0,0,0,0,0,0,0,0,0,0,0,0,0,0,0,0,0,0,0,0,0,0],"id":18,"left_children":[1,3,5,7,9,-1,11,13,15,17,19,21,23,-1,-1,-1,-1,-1,-1,-1,-1,-1,-1,-1,-1],"loss_changes":[1.3303653E1,1.1390579E1,4.0150747E0,5.0914335E0,9.859683E0,0E0,4.937933E0,5.9308724E0,3.3797512E0,7.553521E0,7.185294E0,5.658572E0,3.4169865E0,0E0,0E0,0E0,0E0,0E0,0E0,0E0,0E0,0E0,0E0,0E0,0E0],"parents":[2147483647,0,0,1,1,2,2,3,3,4,4,6,6,7,7,8,8,9,9,10,10,11,11,12,12],"right_children":[2,4,6,8,10,-1,12,14,16,18,20,22,24,-1,-1,-1,-1,-1,-1,-1,-1,-1,-1,-1,-1],"split_conditions":[4.673531E-1,9.142234E-1,5.34322E-1,1.417723E0,7.1787584E-1,-6.1720874E-2,9.329282E-2,-2.2175932E0,4.685479E-2,-1.1482575E0,1.3944557E0,7.393722E-1,-2.2232802E0,-7.852061E-2,1.2595807E-1,-1.3963416E-1,-5.280248E-2,-6.0412653E-2,-8.586123E-3,3.8116972E-3,4.6708215E-2,4.653307E-2,-7.6533884E-2,1.1607494E-1,2.9419055E-2],"split_indices":[132,106,131,123,131,0,64,41,57,76,39,44,41,0,0,0,0,0,0,0,0,0,0,0,0],"split_type":[0,0,0,0,0,0,0,0,0,0,0,0,0,0,0,0,0,0,0,0,0,0,0,0,0],"sum_hessian":[5.0837344E2,4.6326816E2,4.5105267E1,2.594129E1,4.3732687E2,2.176434E0,4.2928833E1,3.763587E0,2.2177702E1,1.9906927E2,2.382576E2,2.0319693E1,2.260914E1,1.7911501E0,1.9724369E0,7.1986184E0,1.4979084E1,3.297544E1,1.6609383E2,1.9004073E2,4.821687E1,1.6526093E1,3.7936008E0,1.5067378E1,7.5417614E0],"tree_param":{"num_deleted":"0","num_feature":"133","num_nodes":"25","size_leaf_vector":"1"}},{"base_weights":[1.1651324E-3,-2.3736833E-1,9.8157585E-2,-6.132822E-1,-6.720571E-2,1.0790869E-2,4.4059473E-1,-7.121473E-1,5.7926184E-1,8.1353897E-1,-1.7252862E-1,5.3272635E-1,-5.3258315E-2,6.1169043E-2,7.784334E-1,-8.1117705E-2,4.1146155E-2,-5.1119577E-2,1.527728E-1,1.3664116E-1,-4.5028556E-2,-3.389835E-2,4.972442E-2,-8.160206E-4,1.1241827E-1,-3.7155893E-2,4.7767903E-3,4.45695E-2,-2.7371315E-2,9.533071E-2,6.3844617E-3],"categories":[],"categories_nodes":[],"categories_segments":[],"categories_sizes":[],"default_left":[0,0,0,0,0,0,0,0,0,0,0,0,0,0,0,0,0,0,0,0,0,0,0,0,0,0,0,0,0,0,0],"id":19,"left_children":[1,3,5,7,9,11,13,15,17,19,21,23,25,27,29,-1,-1,-1,-1,-1,-1,-1,-1,-1,-1,-1,-1,-1,-1,-1,-1],"loss_changes":[1.1722231E1,9.327751E0,1.0771378E1,5.7790604E0,9.597451E0,9.656138E0,9.334458E0,5.060692E0,4.95533E0,8.34627E0,1.0412548E1,1.0108757E1,8.295904E0,4.7010045E0,4.766758E0,0E0,0E0,0E0,0E0,0E0,0E0,0E0,0E0,0E0,0E0,0E0,0E0,0E0,0E0,0E0,0E0],"parents":[2147483647,0,0,1,1,2,2,3,3,4,4,5,5,6,6,7,7,8,8,9,9,10,10,11,11,12,12,13,13,14,14],"right_children":[2,4,6,8,10,12,14,16,18,20,22,24,26,28,30,-1,-1,-1,-1,-1,-1,-1,-1,-1,-1,-1,-1,-1,-1,-1,-1],"split_conditions":[8.5E-1,9.2759883E-1,8.6093825E-1,-5.173224E-1,8.5297984E-1,-2.6718798E-1,2.5496268E-4,7.5986844E-1,-8.804368E-1,1.3935817E0,7.8494626E-1,4.4294295E-1,4.2857143E-1,-5.538452E-1,-1.0865248E0,-8.1117705E-2,4.1146155E-2,-5.1119577E-2,1.527728E-1,1.3664116E-1,-4.5028556E-2,-3.389835E-2,4.972442E-2,-8.160206E-4,1.1241827E-1,-3.7155893E-2,4.7767903E-3,4.45695E-2,-2.7371315E-2,9.533071E-2,6.3844617E-3],"split_indices":[19,106,131,36,124,99,14,25,112,39,27,25,25,72,76,0,0,0,0,0,0,0,0,0,0,0,0,0,0,0,0],"split_type":[0,0,0,0,0,0,0,0,0,0,0,0,0,0,0,0,0,0,0,0,0,0,0,0,0,0,0,0,0,0,0],"sum_hessian":[5.046604E2,1.4546678E2,3.591936E2,4.451737E1,1.0094941E2,2.8700177E2,7.219186E1,4.1481293E1,3.036077E0,1.006429E1,9.0885124E1,3.057E1,2.5643176E2,3.4559376E1,3.763248E1,3.837698E1,3.1043098E0,1.6267829E0,1.409294E0,6.9449716E0,3.1193182E0,7.3189606E1,1.7695517E1,1.6482744E1,1.4087256E1,6.1135605E1,1.9529616E2,1.5933245E1,1.862613E1,2.9965324E1,7.6671567E0],"tree_param":{"num_deleted":"0","num_feature":"133","num_nodes":"31","size_leaf_vector":"1"}},{"base_weights":[1.6824104E-3,-5.3024735E-2,3.9513704E-1,-6.437741E-1,-1.7315783E-2,9.653022E-1,2.1973577E-1,-8.223516E-1,3.1882435E-1,-1.532673E-1,1.08915165E-1,-6.2061127E-2,1.1462692E0,3.2833263E-2,1.0714906E0,6.0283996E-2,-9.3904085E-2,-8.125249E-2,1.2421694E-1,-7.5963633E-3,-7.061024E-2,-5.0697505E-2,2.017967E-2,1.651275E-2,1.2139078E-1,-3.0481044E-2,4.2473912E-2,1.2372812E-1,-6.1850506E-3],"categories":[],"categories_nodes":[],"categories_segments":[],"categories_sizes":[],"default_left":[0,0,0,0,0,0,0,0,0,0,0,0,0,0,0,0,0,0,0,0,0,0,0,0,0,0,0,0,0],"id":20,"left_children":[1,3,5,7,9,11,13,15,17,19,21,-1,23,25,27,-1,-1,-1,-1,-1,-1,-1,-1,-1,-1,-1,-1,-1,-1],"loss_changes":[1.0838749E1,9.315107E0,5.9351196E0,4.589389E0,7.1889706E0,4.777026E0,7.654183E0,4.143832E0,5.877072E0,8.563457E0,1.2532852E1,0E0,6.666775E-1,5.5073237E0,1.7037287E0,0E0,0E0,0E0,0E0,0E0,0E0,0E0,0E0,0E0,0E0,0E0,0E0,0E0,0E0],"parents":[2147483647,0,0,1,1,2,2,3,3,4,4,5,5,6,6,7,7,8,8,9,9,10,10,12,12,13,13,14,14],"right_children":[2,4,6,8,10,12,14,16,18,20,22,-1,24,26,28,-1,-1,-1,-1,-1,-1,-1,-1,-1,-1,-1,-1,-1,-1],"split_conditions":[3.679145E-1,9.142234E-1,3.080357E-1,4.788453E-2,9.0353423E-1,-8.8771266E-1,5.1235E3,-7.1559894E-1,-5.415588E-1,9.159167E3,5.694841E-1,-6.2061127E-2,-3.3782828E-1,8.572564E-1,1.6426955E-3,6.0283996E-2,-9.3904085E-2,-8.125249E-2,1.2421694E-1,-7.5963633E-3,-7.061024E-2,-5.0697505E-2,2.017967E-2,1.651275E-2,1.2139078E-1,-3.0481044E-2,4.2473912E-2,1.2372812E-1,-6.1850506E-3],"split_indices":[132,106,25,104,121,112,10,1,72,11,131,0,103,124,14,0,0,0,0,0,0,0,0,0,0,0,0,0,0],"split_type":[0,0,0,0,0,0,0,0,0,0,0,0,0,0,0,0,0,0,0,0,0,0,0,0,0,0,0,0,0],"sum_hessian":[5.0157413E2,4.4110654E2,6.046758E1,2.4173018E1,4.1693353E2,1.3166083E1,4.7301495E1,2.0513187E1,3.65983E0,2.0063461E2,2.162989E2,1.0996684E0,1.2066415E1,3.9641434E1,7.660063E0,1.2371371E0,1.927605E1,1.6986011E0,1.9612291E0,1.770192E2,2.3615423E1,2.776081E1,1.885381E2,1.0001343E0,1.106628E1,2.1414316E1,1.8227118E1,6.602505E0,1.0575577E0],"tree_param":{"num_deleted":"0","num_feature":"133","num_nodes":"29","size_leaf_vector":"1"}},{"base_weights":[1.7481525E-3,-1.5324196E-1,1.317883E-1,-5.342287E-1,-6.68277E-2,9.494506E-2,8.3160913E-1,-7.082752E-1,9.099457E-1,1.9710349E-1,-2.4811079E-1,-9.441663E-1,1.3710295E-1,-5.1422834E-1,1.1517339E0,2.7798772E-2,-8.63723E-2,-1.4171471E-2,1.4098503E-1,-6.756668E-4,8.787108E-2,9.937041E-2,-3.1007199E-2,-1.24109425E-1,8.3610736E-2,5.8012035E-2,5.2149747E-3,6.454084E-3,-8.223367E-2,1.4038546E-1,-4.347348E-2],"categories":[],"categories_nodes":[],"categories_segments":[],"categories_sizes":[],"default_left":[0,0,0,0,0,0,0,0,0,0,0,0,0,0,0,0,0,0,0,0,0,0,0,0,0,0,0,0,0,0,0],"id":21,"left_children":[1,3,5,7,9,11,13,15,17,19,21,23,25,27,29,-1,-1,-1,-1,-1,-1,-1,-1,-1,-1,-1,-1,-1,-1,-1,-1],"loss_changes":[1.0100282E1,7.4916773E0,6.9468803E0,1.12335615E1,9.020546E0,1.151887E1,6.408289E0,6.090416E0,2.812018E0,1.0692479E1,8.895259E0,6.4632196E0,9.406111E0,6.3892573E-1,5.0957365E0,0E0,0E0,0E0,0E0,0E0,0E0,0E0,0E0,0E0,0E0,0E0,0E0,0E0,0E0,0E0,0E0],"parents":[2147483647,0,0,1,1,2,2,3,3,4,4,5,5,6,6,7,7,8,8,9,9,10,10,11,11,12,12,13,13,14,14],"right_children":[2,4,6,8,10,12,14,16,18,20,22,24,26,28,30,-1,-1,-1,-1,-1,-1,-1,-1,-1,-1,-1,-1,-1,-1,-1,-1],"split_conditions":[1.5097283E-2,3.809524E-1,-7.311489E-1,-5.168819E-1,-1.2880107E0,1.3935969E0,9.236125E-1,1.9182751E0,-2.1790448E-4,1.2579873E0,7.8005904E-1,6.953085E-4,-8.7070966E-1,-3.6483034E-5,1.2147876E0,2.7798772E-2,-8.63723E-2,-1.4171471E-2,1.4098503E-1,-6.756668E-4,8.787108E-2,9.937041E-2,-3.1007199E-2,-1.24109425E-1,8.3610736E-2,5.8012035E-2,5.2149747E-3,6.454084E-3,-8.223367E-2,1.4038546E-1,-4.347348E-2],"split_indices":[132,23,60,36,111,39,106,100,31,34,67,14,52,12,82,0,0,0,0,0,0,0,0,0,0,0,0,0,0,0,0],"split_type":[0,0,0,0,0,0,0,0,0,0,0,0,0,0,0,0,0,0,0,0,0,0,0,0,0,0,0,0,0,0,0],"sum_hessian":[4.9912988E2,2.27638E2,2.7149188E2,4.112819E1,1.8650981E2,2.5899246E2,1.2499419E1,3.7159435E1,3.9687526E0,7.5907845E1,1.10601974E2,9.263712E0,2.4972874E2,2.285328E0,1.0214091E1,4.952052E0,3.2207386E1,1.5095643E0,2.4591882E0,5.919381E1,1.6714035E1,4.541643E0,1.06060326E2,8.19907E0,1.064642E0,3.924478E1,2.1048396E2,1.0685759E0,1.2167519E0,8.912784E0,1.3013079E0],"tree_param":{"num_deleted":"0","num_feature":"133","num_nodes":"31","size_leaf_vector":"1"}},{"base_weights":[1.8740786E-3,-1.5021513E-1,1.248189E-1,-7.292129E-2,-5.2294993E-1,4.5209828E-1,1.4647598E-2,-1.4732517E-1,4.4264957E-1,9.998627E-1,-6.598764E-1,-6.433714E-1,5.3970295E-1,5.3864226E-2,-9.6036047E-1,-3.3363324E-2,1.1111813E-2,-4.0304955E-2,8.8231035E-2,8.953038E-3,1.4271466E-1,5.2953153E-3,-1.00717984E-1,-1.5237556E-1,4.7902558E-2,6.788957E-2,-2.21716E-2,-3.3402138E-3,4.7333557E-2,-1.942339E-2,-1.6645554E-1],"categories":[],"categories_nodes":[],"categories_segments":[],"categories_sizes":[],"default_left":[0,0,0,0,0,0,0,0,0,0,0,0,0,0,0,0,0,0,0,0,0,0,0,0,0,0,0,0,0,0,0],"id":22,"left_children":[1,3,5,7,9,11,13,15,17,19,21,23,25,27,29,-1,-1,-1,-1,-1,-1,-1,-1,-1,-1,-1,-1,-1,-1,-1,-1],"loss_changes":[9.337646E0,6.3933043E0,9.950062E0,7.202416E0,8.6207E0,7.0181427E0,7.990672E0,7.902013E0,9.172947E0,1.252034E0,8.874693E0,6.2668734E0,7.0297585E0,7.3569393E0,4.0365925E0,0E0,0E0,0E0,0E0,0E0,0E0,0E0,0E0,0E0,0E0,0E0,0E0,0E0,0E0,0E0,0E0],"parents":[2147483647,0,0,1,1,2,2,3,3,4,4,5,5,6,6,7,7,8,8,9,9,10,10,11,11,12,12,13,13,14,14],"right_children":[2,4,6,8,10,12,14,16,18,20,22,24,26,28,30,-1,-1,-1,-1,-1,-1,-1,-1,-1,-1,-1,-1,-1,-1,-1,-1],"split_conditions":[7.1787584E-1,6.806527E-1,-2.223398E0,6.25E-1,-9.5105654E-1,-1.7317351E0,1.1200023E4,-1.1116855E0,-3.2039177E-1,-1.2469982E0,-8.063618E-1,8.956026E-1,1.3646826E-1,1.8333334E0,-1.1251022E0,-3.3363324E-2,1.1111813E-2,-4.0304955E-2,8.8231035E-2,8.953038E-3,1.4271466E-1,5.2953153E-3,-1.00717984E-1,-1.5237556E-1,4.7902558E-2,6.788957E-2,-2.21716E-2,-3.3402138E-3,4.7333557E-2,-1.942339E-2,-1.6645554E-1],"split_indices":[131,23,41,23,0,126,11,76,103,111,68,121,49,22,116,0,0,0,0,0,0,0,0,0,0,0,0,0,0,0,0],"split_type":[0,0,0,0,0,0,0,0,0,0,0,0,0,0,0,0,0,0,0,0,0,0,0,0,0,0,0,0,0,0,0],"sum_hessian":[4.9737442E2,2.2223555E2,2.751389E2,1.8505617E2,3.717938E1,6.851168E1,2.066272E2,1.6234222E2,2.271394E1,2.5473318E0,3.4632046E1,4.6034083E0,6.390827E1,1.9954585E2,7.081348E0,9.416738E1,6.817485E1,7.7978463E0,1.4916093E1,1.2000812E0,1.3472507E0,1.1623238E1,2.3008808E1,2.3794374E0,2.223971E0,5.412265E1,9.785623E0,1.6594351E2,3.3602337E1,4.002579E0,3.078769E0],"tree_param":{"num_deleted":"0","num_feature":"133","num_nodes":"31","size_leaf_vector":"1"}},{"base_weights":[1.3811365E-3,-3.927222E-2,4.3195465E-1,-1.2950713E-2,-6.809423E-1,1.0128267E0,2.723831E-1,-1.8349577E-1,7.8205444E-2,-8.614097E-1,8.340235E-2,1.10257186E-1,1.5628291E-2,7.621332E-2,8.8271064E-1,4.7913503E-2,-2.387791E-2,-9.029865E-3,2.4242079E-2,-1.055576E-1,6.468926E-2,-8.208626E-2,2.7595876E-2,1.0570365E-1,-1.4620154E-2],"categories":[],"categories_nodes":[],"categories_segments":[],"categories_sizes":[],"default_left":[0,0,0,0,0,0,0,0,0,0,0,0,0,0,0,0,0,0,0,0,0,0,0,0,0],"id":23,"left_children":[1,3,5,7,9,11,13,15,17,19,-1,-1,-1,21,23,-1,-1,-1,-1,-1,-1,-1,-1,-1,-1],"loss_changes":[8.680879E0,7.645202E0,3.6898208E0,6.797774E0,5.595256E0,5.081835E-1,4.1150265E0,5.6929765E0,7.9096003E0,5.494789E0,0E0,0E0,0E0,5.159458E0,1.6616068E0,0E0,0E0,0E0,0E0,0E0,0E0,0E0,0E0,0E0,0E0],"parents":[2147483647,0,0,1,1,2,2,3,3,4,4,5,5,6,6,7,7,8,8,9,9,13,13,14,14],"right_children":[2,4,6,8,10,12,14,16,18,20,-1,-1,-1,22,24,-1,-1,-1,-1,-1,-1,-1,-1,-1,-1],"split_conditions":[4.673531E-1,1.3652688E-1,3.080357E-1,6.778202E-1,9.906803E-4,-4.8268196E-1,8.6768615E-1,-2.7514493E-1,9.0395224E-1,6.799414E-1,8.340235E-2,1.10257186E-1,1.5628291E-2,5.797256E-1,6.888889E-1,4.7913503E-2,-2.387791E-2,-9.029865E-3,2.4242079E-2,-1.055576E-1,6.468926E-2,-8.208626E-2,2.7595876E-2,1.0570365E-1,-1.4620154E-2],"split_indices":[132,49,25,131,12,72,124,99,121,53,0,0,0,131,23,0,0,0,0,0,0,0,0,0,0],"split_type":[0,0,0,0,0,0,0,0,0,0,0,0,0,0,0,0,0,0,0,0,0,0,0,0,0],"sum_hessian":[4.9396048E2,4.5217627E2,4.1784225E1,4.353387E2,1.6837545E1,7.852481E0,3.3931744E1,1.5128499E2,2.8405374E2,1.5430783E1,1.406763E0,6.8477654E0,1.0047153E0,2.652956E1,7.402183E0,1.1059379E1,1.402256E2,1.404183E2,1.4363542E2,1.3936828E1,1.4939553E0,4.265089E0,2.2264471E1,6.3063765E0,1.0958066E0],"tree_param":{"num_deleted":"0","num_feature":"133","num_nodes":"25","size_leaf_vector":"1"}},{"base_weights":[1.7258992E-3,-5.8690235E-2,2.6782966E-1,-4.960808E-1,-9.72414E-3,-3.790777E-1,3.8583425E-1,2.6190162E-1,-7.760895E-1,-9.151489E-1,1.1444273E-2,4.7389963E-1,-8.6884296E-1,5.07438E-1,-5.140929E-1,1.1728684E-1,-7.036012E-2,-8.950256E-2,3.684622E-2,2.7676215E-2,-1.2012448E-1,-1.7090067E-2,1.0650593E-2,9.668474E-2,-6.472171E-2,-1.21586815E-1,8.852982E-2,-7.7221952E-3,7.353092E-2,4.53816E-2,-1.2233349E-1],"categories":[],"categories_nodes":[],"categories_segments":[],"categories_sizes":[],"default_left":[0,0,0,0,0,0,0,0,0,0,0,0,0,0,0,0,0,0,0,0,0,0,0,0,0,0,0,0,0,0,0],"id":24,"left_children":[1,3,5,7,9,11,13,15,17,19,21,23,25,27,29,-1,-1,-1,-1,-1,-1,-1,-1,-1,-1,-1,-1,-1,-1,-1,-1],"loss_changes":[7.9269514E0,8.601819E0,7.1106176E0,8.785992E0,6.9566865E0,6.502138E0,8.758652E0,1.1077493E1,4.383974E0,3.1600041E0,6.1739287E0,3.9221408E0,6.9287944E0,9.237637E0,7.241817E0,0E0,0E0,0E0,0E0,0E0,0E0,0E0,0E0,0E0,0E0,0E0,0E0,0E0,0E0,0E0,0E0],"parents":[2147483647,0,0,1,1,2,2,3,3,4,4,5,5,6,6,7,7,8,8,9,9,10,10,11,11,12,12,13,13,14,14],"right_children":[2,4,6,8,10,12,14,16,18,20,22,24,26,28,30,-1,-1,-1,-1,-1,-1,-1,-1,-1,-1,-1,-1,-1,-1,-1,-1],"split_conditions":[8.6977875E-1,4.6346053E-1,9.2242867E-1,-1.6052264E0,-1.169867E0,1.5477788E0,-8.634914E-1,-7.3127526E-1,-2.2155578E0,7.7467513E-1,1E0,-2.0408303E-1,7.859497E-1,-6.448422E-1,7.062386E-1,1.1728684E-1,-7.036012E-2,-8.950256E-2,3.684622E-2,2.7676215E-2,-1.2012448E-1,-1.7090067E-2,1.0650593E-2,9.668474E-2,-6.472171E-2,-1.21586815E-1,8.852982E-2,-7.7221952E-3,7.353092E-2,4.53816E-2,-1.2233349E-1],"split_indices":[131,34,106,96,116,70,112,60,41,90,22,99,91,1,91,0,0,0,0,0,0,0,0,0,0,0,0,0,0,0,0],"split_type":[0,0,0,0,0,0,0,0,0,0,0,0,0,0,0,0,0,0,0,0,0,0,0,0,0,0,0,0,0,0,0],"sum_hessian":[4.9108505E2,4.0085458E2,9.0230484E1,3.9438484E1,3.614161E2,1.3578737E1,7.665174E1,1.0656378E1,2.8782104E1,7.2919E0,3.541242E2,4.964659E0,8.6140785E0,6.7911285E1,8.740461E0,5.3725343E0,5.2838435E0,2.6270245E1,2.51186E0,1.4177988E0,5.8741016E0,1.2107785E2,2.3304634E2,3.5439923E0,1.4206669E0,7.4475694E0,1.1665087E0,1.9230858E1,4.8680424E1,3.8485081E0,4.8919535E0],"tree_param":{"num_deleted":"0","num_feature":"133","num_nodes":"31","size_leaf_vector":"1"}},{"base_weights":[1.2173866E-3,4.1892222E-1,-3.3482943E-2,-2.2854652E-1,6.6123563E-1,3.5393152E-1,-8.603989E-2,6.853832E-1,-9.8321456E-1,1.3202332E0,3.719101E-1,1.8742962E-1,1.4160632E0,-3.2466255E-2,-5.8692724E-1,-4.3934893E-2,1.12080894E-1,-1.3985737E-1,3.826113E-2,1.5350245E-1,1.0299898E-2,6.172052E-2,-4.4091325E-2,5.650996E-2,-1.6933111E-2,1.7405994E-1,-1.7764902E-2,-5.0136927E-3,1.0184177E-1,-7.003208E-2,8.421921E-2],"categories":[],"categories_nodes":[],"categories_segments":[],"categories_sizes":[],"default_left":[0,0,0,0,0,0,0,0,0,0,0,0,0,0,0,0,0,0,0,0,0,0,0,0,0,0,0,0,0,0,0],"id":25,"left_children":[1,3,5,7,9,11,13,15,17,19,21,23,25,27,29,-1,-1,-1,-1,-1,-1,-1,-1,-1,-1,-1,-1,-1,-1,-1,-1],"loss_changes":[7.107226E0,6.05173E0,9.249287E0,8.250636E0,4.7759924E0,9.333914E0,1.0700779E1,3.2142267E0,4.1815925E0,1.9428635E0,4.37712E0,6.573481E0,4.034951E0,6.7722435E0,6.83541E0,0E0,0E0,0E0,0E0,0E0,0E0,0E0,0E0,0E0,0E0,0E0,0E0,0E0,0E0,0E0,0E0],"parents":[2147483647,0,0,1,1,2,2,3,3,4,4,5,5,6,6,7,7,8,8,9,9,10,10,11,11,12,12,13,13,14,14],"right_children":[2,4,6,8,10,12,14,16,18,20,22,24,26,28,30,-1,-1,-1,-1,-1,-1,-1,-1,-1,-1,-1,-1,-1,-1,-1,-1],"split_conditions":[-5.1512255E-4,-3.6806654E-4,1.421285E-1,-4.2766422E-1,1.0714286E-1,8.7935674E-1,1.7185854E0,1.4125963E-1,4.3939394E-1,8.536907E-1,7.9526665E3,8.2769454E-1,1.0192753E0,1.2054603E0,1.1853333E4,-4.3934893E-2,1.12080894E-1,-1.3985737E-1,3.826113E-2,1.5350245E-1,1.0299898E-2,6.172052E-2,-4.4091325E-2,5.650996E-2,-1.6933111E-2,1.7405994E-1,-1.7764902E-2,-5.0136927E-3,1.0184177E-1,-7.003208E-2,8.421921E-2],"split_indices":[12,14,89,114,33,124,79,89,25,1,11,90,80,40,11,0,0,0,0,0,0,0,0,0,0,0,0,0,0,0,0],"split_type":[0,0,0,0,0,0,0,0,0,0,0,0,0,0,0,0,0,0,0,0,0,0,0,0,0,0,0,0,0,0,0],"sum_hessian":[4.883719E2,3.6609756E1,4.5176212E2,9.985368E0,2.662439E1,5.3280426E1,3.984817E2,4.557673E0,5.4276943E0,7.0357957E0,1.9588594E1,4.7077007E1,6.2034197E0,3.6094116E2,3.754053E1,1.2694902E0,3.2881827E0,4.1436114E0,1.2840832E0,5.7585707E0,1.2772245E0,1.5232402E1,4.3561926E0,2.2584688E1,2.449232E1,5.0773287E0,1.1260905E0,3.559088E2,5.032335E0,3.525332E1,2.287213E0],"tree_param":{"num_deleted":"0","num_feature":"133","num_nodes":"31","size_leaf_vector":"1"}},{"base_weights":[2.031529E-3,-6.192119E-2,2.1448211E-1,-6.1014754E-1,-2.7582286E-2,8.0495505E-3,5.7083637E-1,-7.983615E-1,2.8458497E-1,-6.0962208E-2,6.1334074E-1,3.513247E-1,-3.0369392E-1,8.579944E-1,-3.559432E-2,5.4391433E-2,-9.225925E-2,-7.6030515E-2,1.0642648E-1,3.115139E-2,-1.2082868E-2,1.0126509E-3,1.1438991E-1,6.362635E-2,-2.3465173E-2,-8.167919E-2,1.2517153E-2,1.6273841E-2,1.1071598E-1,-4.1197523E-2,7.821693E-2],"categories":[],"categories_nodes":[],"categories_segments":[],"categories_sizes":[],"default_left":[0,0,0,0,0,0,0,0,0,0,0,0,0,0,0,0,0,0,0,0,0,0,0,0,0,0,0,0,0,0,0],"id":26,"left_children":[1,3,5,7,9,11,13,15,17,19,21,23,25,27,29,-1,-1,-1,-1,-1,-1,-1,-1,-1,-1,-1,-1,-1,-1,-1,-1],"loss_changes":[6.641608E0,7.056858E0,8.31542E0,3.9490356E0,7.6247473E0,7.8789945E0,7.2524204E0,3.5905104E0,4.539034E0,7.5747094E0,5.63603E0,5.9981675E0,8.59594E0,4.702282E0,4.719683E0,0E0,0E0,0E0,0E0,0E0,0E0,0E0,0E0,0E0,0E0,0E0,0E0,0E0,0E0,0E0,0E0],"parents":[2147483647,0,0,1,1,2,2,3,3,4,4,5,5,6,6,7,7,8,8,9,9,10,10,11,11,12,12,13,13,14,14],"right_children":[2,4,6,8,10,12,14,16,18,20,22,24,26,28,30,-1,-1,-1,-1,-1,-1,-1,-1,-1,-1,-1,-1,-1,-1,-1,-1],"split_conditions":[1.7388487E-1,9.142234E-1,-9.316871E-2,4.788453E-2,9.8137015E-1,-4.2750427E-1,6.691306E-1,-7.1559894E-1,-5.415588E-1,8.503693E-1,9.2968893E-1,8.950167E3,1.962598E0,6.634827E-1,-1.4512372E0,5.4391433E-2,-9.225925E-2,-7.6030515E-2,1.0642648E-1,3.115139E-2,-1.2082868E-2,1.0126509E-3,1.1438991E-1,6.362635E-2,-2.3465173E-2,-8.167919E-2,1.2517153E-2,1.6273841E-2,1.1071598E-1,-4.1197523E-2,7.821693E-2],"split_indices":[132,106,128,104,1,114,1,1,72,124,106,11,100,34,96,0,0,0,0,0,0,0,0,0,0,0,0,0,0,0,0],"split_type":[0,0,0,0,0,0,0,0,0,0,0,0,0,0,0,0,0,0,0,0,0,0,0,0,0,0,0,0,0,0,0],"sum_hessian":[4.8685077E2,3.7475046E2,1.12100334E2,2.1101006E1,3.5364944E2,7.162896E1,4.047137E1,1.7522682E1,3.5783236E0,3.3700287E2,1.6646568E1,3.402999E1,3.759897E1,2.7184229E1,1.3287145E1,1.1982055E0,1.6324476E1,1.5397172E0,2.0386066E0,4.6082726E1,2.9092014E2,8.266791E0,8.379777E0,2.2838602E1,1.1191389E1,1.6706564E1,2.0892405E1,7.608121E0,1.9576107E1,9.439001E0,3.8481433E0],"tree_param":{"num_deleted":"0","num_feature":"133","num_nodes":"31","size_leaf_vector":"1"}},{"base_weights":[2.3886836E-3,-5.192411E-2,2.4385835E-1,-3.7283656E-1,5.742025E-4,8.881347E-2,7.1644354E-1,7.441159E-2,-6.677569E-1,-8.6424077E-1,2.1158453E-2,-5.344132E-2,7.2456276E-1,-6.780008E-2,8.263836E-1,-4.3087743E-2,7.040602E-2,5.4132592E-2,-8.013697E-2,2.7506346E-2,-1.1481599E-1,-2.5603896E-2,8.709907E-3,-1.4488028E-2,1.2784171E-1,-4.686461E-2,9.391499E-2,9.447913E-2,-5.988605E-2],"categories":[],"categories_nodes":[],"categories_segments":[],"categories_sizes":[],"default_left":[0,0,0,0,0,0,0,0,0,0,0,0,0,0,0,0,0,0,0,0,0,0,0,0,0,0,0,0,0],"id":27,"left_children":[1,3,5,7,9,11,13,15,17,19,21,23,25,-1,27,-1,-1,-1,-1,-1,-1,-1,-1,-1,-1,-1,-1,-1,-1],"loss_changes":[6.3804536E0,6.6921005E0,6.481913E0,7.415838E0,6.112856E0,6.22523E0,3.9217272E0,7.649989E0,5.8867207E0,2.898178E0,6.152532E0,7.1061115E0,3.6602812E0,0E0,4.07174E0,0E0,0E0,0E0,0E0,0E0,0E0,0E0,0E0,0E0,0E0,0E0,0E0,0E0,0E0],"parents":[2147483647,0,0,1,1,2,2,3,3,4,4,5,5,6,6,7,7,8,8,9,9,10,10,11,11,12,12,14,14],"right_children":[2,4,6,8,10,12,14,16,18,20,22,24,26,-1,28,-1,-1,-1,-1,-1,-1,-1,-1,-1,-1,-1,-1,-1,-1],"split_conditions":[8.6977875E-1,5.2677566E-1,7.432432E-1,6.83E2,-1.169867E0,9.062468E-1,-7.5567687E-1,7.5E-1,-2.0536175E-1,7.7467513E-1,5E-1,-2.7604738E-1,-3.6806654E-4,-6.780008E-2,6.1480625E3,-4.3087743E-2,7.040602E-2,5.4132592E-2,-8.013697E-2,2.7506346E-2,-1.1481599E-1,-2.5603896E-2,8.709907E-3,-1.4488028E-2,1.2784171E-1,-4.686461E-2,9.391499E-2,9.447913E-2,-5.988605E-2],"split_indices":[131,34,33,10,116,67,86,19,107,90,24,97,14,0,8,0,0,0,0,0,0,0,0,0,0,0,0,0,0],"split_type":[0,0,0,0,0,0,0,0,0,0,0,0,0,0,0,0,0,0,0,0,0,0,0,0,0,0,0,0,0],"sum_hessian":[4.84539E2,3.962068E2,8.8332214E1,5.4845364E1,3.4136142E2,6.740578E1,2.0926435E1,2.2091377E1,3.2753986E1,6.9833045E0,3.343781E2,5.582938E1,1.1576401E1,1.1516955E0,1.977474E1,1.2431147E1,9.660231E0,2.9557233E0,2.9798264E1,1.3993229E0,5.5839815E0,6.370322E1,2.706749E2,5.3076614E1,2.752764E0,1.5840985E0,9.992302E0,1.856914E1,1.2056012E0],"tree_param":{"num_deleted":"0","num_feature":"133","num_nodes":"29","size_leaf_vector":"1"}},{"base_weights":[2.1670503E-3,3.8735557E-1,-2.9386854E-2,9.248803E-1,1.1342879E-1,-4.4559833E-2,1.0163269E0,1.1916748E0,-2.9740378E-2,8.25038E-1,-2.5363043E-1,-2.2764307E-1,2.5341302E-2,2.0603181E-1,1.371591E-1,-7.064617E-3,1.4858265E-1,1.2527251E-1,-1.7705498E-2,1.2378228E-2,-1.2361465E-1,8.011694E-2,-2.7365891E-2,-1.0354488E-2,1.8341353E-2,-4.1932583E-2,6.978911E-2],"categories":[],"categories_nodes":[],"categories_segments":[],"categories_sizes":[],"default_left":[0,0,0,0,0,0,0,0,0,0,0,0,0,0,0,0,0,0,0,0,0,0,0,0,0,0,0],"id":28,"left_children":[1,3,5,7,9,11,13,15,-1,17,19,21,23,25,-1,-1,-1,-1,-1,-1,-1,-1,-1,-1,-1,-1,-1],"loss_changes":[5.889695E0,5.297409E0,7.152798E0,4.3477726E0,6.855317E0,5.668836E0,1.5737929E0,3.9115E0,0E0,4.0333877E0,6.661021E0,6.012315E0,6.561652E0,1.2591915E0,0E0,0E0,0E0,0E0,0E0,0E0,0E0,0E0,0E0,0E0,0E0,0E0,0E0],"parents":[2147483647,0,0,1,1,2,2,3,3,4,4,5,5,6,6,7,7,9,9,10,10,11,11,12,12,13,13],"right_children":[2,4,6,8,10,12,14,16,-1,18,20,22,24,26,-1,-1,-1,-1,-1,-1,-1,-1,-1,-1,-1,-1,-1],"split_conditions":[-5.1512255E-4,2.3087887E-1,1.7404604E0,8.023744E-1,9.6853185E-1,6.46433E-1,-9.4108826E-1,2.952381E-1,-2.9740378E-2,3.385713E3,-1.1331865E0,-5.4778514E-4,5.7525086E-1,6.6609824E-1,1.371591E-1,-7.064617E-3,1.4858265E-1,1.2527251E-1,-1.7705498E-2,1.2378228E-2,-1.2361465E-1,8.011694E-2,-2.7365891E-2,-1.0354488E-2,1.8341353E-2,-4.1932583E-2,6.978911E-2],"split_indices":[12,38,79,129,80,131,84,23,0,8,76,30,25,34,0,0,0,0,0,0,0,0,0,0,0,0,0],"split_type":[0,0,0,0,0,0,0,0,0,0,0,0,0,0,0,0,0,0,0,0,0,0,0,0,0,0,0],"sum_hessian":[4.826444E2,3.5689945E1,4.4695447E2,1.124587E1,2.4444077E1,4.4150577E2,5.4487214E0,9.251531E0,1.9943391E0,7.893477E0,1.65506E1,1.21367226E2,3.2013852E2,2.1423457E0,3.3063757E0,1.8920074E0,7.359524E0,5.3570237E0,2.5364532E0,1.2588868E1,3.9617317E0,4.493424E0,1.168738E2,1.7653966E2,1.4359888E2,1.0080998E0,1.134246E0],"tree_param":{"num_deleted":"0","num_feature":"133","num_nodes":"27","size_leaf_vector":"1"}},{"base_weights":[2.6617423E-3,-2.9965134E-2,3.6430195E-1,2.14782E-2,-2.8080288E-1,9.6126467E-1,2.1007015E-1,3.3510622E-1,-5.6950774E-2,-8.79249E-1,-1.0507553E-1,1.0397144E-1,2.1549407E-2,-9.123545E-2,6.044592E-1,2.2387339E-2,1.365941E-1,-1.9712005E-2,1.1283796E-2,1.017467E-1,-1.0791131E-1,-3.2290414E-2,4.2466328E-2,-4.5103416E-2,4.4147395E-2,8.323603E-2,-3.834146E-2],"categories":[],"categories_nodes":[],"categories_segments":[],"categories_sizes":[],"default_left":[0,0,0,0,0,0,0,0,0,0,0,0,0,0,0,0,0,0,0,0,0,0,0,0,0,0,0],"id":29,"left_children":[1,3,5,7,9,11,13,15,17,19,21,-1,-1,23,25,-1,-1,-1,-1,-1,-1,-1,-1,-1,-1,-1,-1],"loss_changes":[5.6919065E0,5.7167106E0,3.4734755E0,9.075081E0,7.835506E0,2.3910236E-1,3.976951E0,8.155754E0,7.051845E0,7.533329E0,6.992631E0,0E0,0E0,3.9516478E0,3.5666924E0,0E0,0E0,0E0,0E0,0E0,0E0,0E0,0E0,0E0,0E0,0E0,0E0],"parents":[2147483647,0,0,1,1,2,2,3,3,4,4,5,5,6,6,7,7,8,8,9,9,10,10,13,13,14,14],"right_children":[2,4,6,8,10,12,14,16,18,20,22,-1,-1,24,26,-1,-1,-1,-1,-1,-1,-1,-1,-1,-1,-1,-1],"split_conditions":[4.673531E-1,8.215167E-1,3.080357E-1,8.131414E-1,8.836701E-1,-1.2367672E0,6.6375E3,9.9707496E-1,5.7525086E-1,-9.8572606E-1,7.586207E-1,1.0397144E-1,2.1549407E-2,3.6666667E0,-2.3915963E0,2.2387339E-2,1.365941E-1,-1.9712005E-2,1.1283796E-2,1.017467E-1,-1.0791131E-1,-3.2290414E-2,4.2466328E-2,-4.5103416E-2,4.4147395E-2,8.323603E-2,-3.834146E-2],"split_indices":[132,78,25,90,67,122,11,80,25,0,33,0,0,22,47,0,0,0,0,0,0,0,0,0,0,0,0],"split_type":[0,0,0,0,0,0,0,0,0,0,0,0,0,0,0,0,0,0,0,0,0,0,0,0,0,0,0],"sum_hessian":[4.804729E2,4.4155347E2,3.891944E1,3.67167E2,7.438647E1,6.916428E0,3.2003014E1,7.2795166E1,2.9437183E2,1.59760275E1,5.8410442E1,5.901487E0,1.0149415E0,1.8578255E1,1.3424759E1,6.680383E1,5.99133E0,1.6116277E2,1.3320906E2,1.1330036E0,1.4843023E1,4.1667294E1,1.6743147E1,1.1180275E1,7.39798E0,1.1036157E1,2.3886027E0],"tree_param":{"num_deleted":"0","num_feature":"133","num_nodes":"27","size_leaf_vector":"1"}},{"base_weights":[3.063186E-3,-8.341247E-1,1.6735729E-2,-3.4939744E-2,-1.2166542E-1,-1.3384199E-1,9.9001326E-2,4.6782896E-2,-6.526334E-2,-1.6824406E-1,1.0660375E0,3.0594036E-1,-1.2058368E-3,-8.1683576E-2,-9.480688E-3,1.7228584E-5,1.3648783E-1,1.9549936E-2,1.0749926E-1,-3.370603E-2,1.08079035E-2],"categories":[],"categories_nodes":[],"categories_segments":[],"categories_sizes":[],"default_left":[0,0,0,0,0,0,0,0,0,0,0,0,0,0,0,0,0,0,0,0,0],"id":30,"left_children":[1,3,5,7,-1,9,11,-1,-1,13,15,17,19,-1,-1,-1,-1,-1,-1,-1,-1],"loss_changes":[5.5101767E0,2.3223248E0,5.877811E0,1.4027063E0,0E0,7.101423E0,6.3611326E0,0E0,0E0,7.7283907E0,1.5319481E0,8.289958E0,7.658355E0,0E0,0E0,0E0,0E0,0E0,0E0,0E0,0E0],"parents":[2147483647,0,0,1,1,2,2,3,3,5,5,6,6,9,9,10,10,11,11,12,12],"right_children":[2,4,6,8,-1,10,12,-1,-1,14,16,18,20,-1,-1,-1,-1,-1,-1,-1,-1],"split_conditions":[-1.1720065E0,-7.666977E-2,1E0,2.567865E-4,-1.2166542E-1,1.2054603E0,1.5E0,4.6782896E-2,-6.526334E-2,8.24E2,8.8286114E-1,8.918562E-1,1.8333334E0,-8.1683576E-2,-9.480688E-3,1.7228584E-5,1.3648783E-1,1.9549936E-2,1.0749926E-1,-3.370603E-2,1.08079035E-2],"split_indices":[116,104,22,13,0,40,22,0,0,11,121,67,22,0,0,0,0,0,0,0,0],"split_type":[0,0,0,0,0,0,0,0,0,0,0,0,0,0,0,0,0,0,0,0,0],"sum_hessian":[4.7916632E2,6.7354994E0,4.7243082E2,2.5336041E0,4.201895E0,1.6669247E2,3.0573834E2,1.5304894E0,1.0031147E0,1.628822E2,3.8102584E0,9.9078026E1,2.0666032E2,1.553707E1,1.4734514E2,1.0534678E0,2.7567906E0,8.773316E1,1.1344858E1,5.0224884E1,1.5643544E2],"tree_param":{"num_deleted":"0","num_feature":"133","num_nodes":"21","size_leaf_vector":"1"}},{"base_weights":[2.691125E-3,-1.9845255E-2,4.786238E-1,3.2962784E-2,-2.6373675E-1,-2.1462068E-1,8.2980293E-1,5.8279514E-1,1.7715594E-3,1.164055E0,-3.180743E-1,-7.204528E-1,8.746167E-2,-5.3222585E-1,1.108275E0,7.997287E-2,-3.4106236E-2,-1.9961266E-2,9.158102E-3,3.0332584E-2,1.4449711E-1,-5.89974E-2,-1.5473788E-3,4.8511174E-2,-1.1773087E-1,-9.158676E-2,1.4361425E-2,1.9876333E-3,1.4321059E-1],"categories":[],"categories_nodes":[],"categories_segments":[],"categories_sizes":[],"default_left":[0,0,0,0,0,0,0,0,0,0,0,0,0,0,0,0,0,0,0,0,0,0,0,0,0,0,0,0,0],"id":31,"left_children":[1,3,5,7,9,11,13,15,17,19,21,23,-1,25,27,-1,-1,-1,-1,-1,-1,-1,-1,-1,-1,-1,-1,-1,-1],"loss_changes":[5.146128E0,5.91021E0,5.4589863E0,6.473869E0,6.7061214E0,5.0864573E0,6.128769E0,4.3341537E0,6.4982357E0,3.3752537E-1,6.528384E0,3.9151444E0,0E0,9.4942874E-1,4.359274E0,0E0,0E0,0E0,0E0,0E0,0E0,0E0,0E0,0E0,0E0,0E0,0E0,0E0,0E0],"parents":[2147483647,0,0,1,1,2,2,3,3,4,4,5,5,6,6,7,7,8,8,9,9,10,10,11,11,13,13,14,14],"right_children":[2,4,6,8,10,12,14,16,18,20,22,24,-1,26,28,-1,-1,-1,-1,-1,-1,-1,-1,-1,-1,-1,-1,-1,-1],"split_conditions":[-1.0068786E0,8.2023555E-1,7.5E-1,-5.480253E-4,-2.1597415E-1,4.975233E-1,-2.2090475E2,1.3638139E-1,4.6103895E-1,9.8806655E-1,-1.0584817E0,-2.4182715E-2,8.746167E-2,-8.993095E-1,-7.3432684E-1,7.997287E-2,-3.4106236E-2,-1.9961266E-2,9.158102E-3,3.0332584E-2,1.4449711E-1,-5.89974E-2,-1.5473788E-3,4.8511174E-2,-1.1773087E-1,-9.158676E-2,1.4361425E-2,1.9876333E-3,1.4321059E-1],"split_indices":[98,78,18,12,107,88,9,49,25,80,98,104,0,68,60,0,0,0,0,0,0,0,0,0,0,0,0,0,0],"split_type":[0,0,0,0,0,0,0,0,0,0,0,0,0,0,0,0,0,0,0,0,0,0,0,0,0,0,0,0,0],"sum_hessian":[4.779041E2,4.5721246E2,2.0691637E1,3.7654648E2,8.0666E1,7.088148E0,1.360349E1,1.9264866E1,3.5728162E2,2.2086287E0,7.8457375E1,5.0715413E0,2.0166068E0,2.1544878E0,1.1449001E1,1.5710256E1,3.5546098E0,1.0981511E2,2.474665E2,1.055215E0,1.1534137E0,4.0824818E1,3.7632553E1,1.3767323E0,3.694809E0,1.1477892E0,1.0066986E0,2.8686886E0,8.580313E0],"tree_param":{"num_deleted":"0","num_feature":"133","num_nodes":"29","size_leaf_vector":"1"}},{"base_weights":[2.926076E-3,-4.5464676E-2,2.2047156E-1,-2.0857845E-2,-6.3738966E-1,3.153322E-1,-4.121064E-1,3.1742726E-2,-3.0118108E-1,-9.076052E-1,5.506431E-1,7.1783304E-1,1.5336812E-1,4.053049E-1,-9.044832E-1,1.1160656E-1,1.2986213E-3,1.2773322E-2,-9.666892E-2,-9.496426E-4,-1.12975E-1,9.9994116E-2,-2.6306603E-2,-4.318244E-2,9.2137486E-2,2.3110112E-2,-1.4139846E-1,-4.3247532E-2,7.8203425E-2,3.3214644E-2,-1.3316168E-1],"categories":[],"categories_nodes":[],"categories_segments":[],"categories_sizes":[],"default_left":[0,0,0,0,0,0,0,0,0,0,0,0,0,0,0,0,0,0,0,0,0,0,0,0,0,0,0,0,0,0,0],"id":32,"left_children":[1,3,5,7,9,11,13,15,17,19,21,23,25,27,29,-1,-1,-1,-1,-1,-1,-1,-1,-1,-1,-1,-1,-1,-1,-1,-1],"loss_changes":[5.0405207E0,5.6924653E0,5.357961E0,5.5704465E0,5.5080533E0,4.865845E0,5.1136684E0,6.462223E0,1.7159115E1,2.6003942E0,1.5474943E0,5.4592857E0,7.1129017E0,1.9555686E0,4.493783E0,0E0,0E0,0E0,0E0,0E0,0E0,0E0,0E0,0E0,0E0,0E0,0E0,0E0,0E0,0E0,0E0],"parents":[2147483647,0,0,1,1,2,2,3,3,4,4,5,5,6,6,7,7,8,8,9,9,10,10,11,11,12,12,13,13,14,14],"right_children":[2,4,6,8,10,12,14,16,18,20,22,24,26,28,30,-1,-1,-1,-1,-1,-1,-1,-1,-1,-1,-1,-1,-1,-1,-1,-1],"split_conditions":[8.6977875E-1,1.3652688E-1,7.8494984E-1,-7.310277E-1,-4.402371E-1,-5.0618976E-1,-8.200969E-1,-9.0223694E-1,2.3215802E-1,9.6495986E-1,-2.4867405E-1,9.249727E-1,2.1357E3,-1.4607399E0,-1.1011195E-4,1.1160656E-1,1.2986213E-3,1.2773322E-2,-9.666892E-2,-9.496426E-4,-1.12975E-1,9.9994116E-2,-2.6306603E-2,-4.318244E-2,9.2137486E-2,2.3110112E-2,-1.4139846E-1,-4.3247532E-2,7.8203425E-2,3.3214644E-2,-1.3316168E-1],"split_indices":[131,49,129,60,62,37,68,112,66,77,115,106,9,87,14,0,0,0,0,0,0,0,0,0,0,0,0,0,0,0,0],"split_type":[0,0,0,0,0,0,0,0,0,0,0,0,0,0,0,0,0,0,0,0,0,0,0,0,0,0,0,0,0,0,0],"sum_hessian":[4.7685754E2,3.9073386E2,8.61237E1,3.761329E2,1.4600931E1,7.532897E1,1.079473E1,3.1745215E2,5.868077E1,1.2087662E1,2.5132692E0,2.062966E1,5.4699314E1,4.1244435E0,6.670287E0,4.4031157E0,3.13049E2,3.617461E1,2.2506159E1,2.6037436E0,9.483918E0,1.4717557E0,1.0415134E0,2.9343166E0,1.7695343E1,5.2926952E1,1.7723645E0,1.233463E0,2.8909802E0,1.7695367E0,4.90075E0],"tree_param":{"num_deleted":"0","num_feature":"133","num_nodes":"31","size_leaf_vector":"1"}},{"base_weights":[2.253299E-3,-7.8887975E-1,1.48699805E-2,-4.1837588E-2,-1.1448943E-1,-1.5237552E-1,7.979571E-2,-5.2060615E-2,5.6430668E-2,-2.5710714E-1,3.769717E-1,-2.407384E-1,1.3406624E-1,-1.1440789E-2,-7.6703146E-2,1.0943595E-1,-1.1659662E-2,7.657543E-2,-4.1587498E-2,2.9804842E-3,3.4838334E-2],"categories":[],"categories_nodes":[],"categories_segments":[],"categories_sizes":[],"default_left":[0,0,0,0,0,0,0,0,0,0,0,0,0,0,0,0,0,0,0,0,0],"id":33,"left_children":[1,3,5,7,-1,9,11,-1,-1,13,15,17,19,-1,-1,-1,-1,-1,-1,-1,-1],"loss_changes":[4.758547E0,1.9424057E0,5.105671E0,1.2959279E0,0E0,7.388297E0,5.9217043E0,0E0,0E0,7.944936E0,7.9629517E0,9.022857E0,6.473674E0,0E0,0E0,0E0,0E0,0E0,0E0,0E0,0E0],"parents":[2147483647,0,0,1,1,2,2,3,3,5,5,6,6,9,9,10,10,11,11,12,12],"right_children":[2,4,6,8,-1,10,12,-1,-1,14,16,18,20,-1,-1,-1,-1,-1,-1,-1,-1],"split_conditions":[-1.1720065E0,-7.666977E-2,6.634827E-1,-1.6573277E0,-1.1448943E-1,8.7963074E-1,6.666667E-1,-5.2060615E-2,5.6430668E-2,1.7140943E0,6.83E2,-2.922588E-4,8.0146396E-1,-1.1440789E-2,-7.6703146E-2,1.0943595E-1,-1.1659662E-2,7.657543E-2,-4.1587498E-2,2.9804842E-3,3.4838334E-2],"split_indices":[116,104,34,126,0,124,22,0,0,79,10,13,131,0,0,0,0,0,0,0,0],"split_type":[0,0,0,0,0,0,0,0,0,0,0,0,0,0,0,0,0,0,0,0,0],"sum_hessian":[4.7456265E2,6.4835396E0,4.680791E2,2.4532614E0,4.030278E0,1.3051974E2,3.375594E2,1.4494883E0,1.0037732E0,1.09390976E2,2.1128769E1,4.838003E1,2.8917935E2,8.6428764E1,2.2962208E1,8.115652E0,1.3013117E1,6.6708684E0,4.170916E1,1.953057E2,9.387364E1],"tree_param":{"num_deleted":"0","num_feature":"133","num_nodes":"21","size_leaf_vector":"1"}},{"base_weights":[1.887931E-3,-3.7719408E-1,2.7266113E-2,-6.9763047E-1,1.4590877E-1,-5.0127488E-3,3.9383006E-1,1.1205733E-1,-9.6985364E-1,9.697779E-1,-3.1909242E-1,-4.9751115E-1,2.1699246E-2,2.7140213E-2,7.326023E-1,1.6715185E-1,-6.0059834E-2,-1.167989E-1,-3.836597E-3,-4.309821E-2,1.6735823E-1,1.06789745E-1,-6.469228E-2,7.377731E-2,-6.2168546E-2,-1.11069335E-2,1.4653659E-2,3.007947E-2,-8.67173E-2,1.0310321E-1,1.1541507E-2],"categories":[],"categories_nodes":[],"categories_segments":[],"categories_sizes":[],"default_left":[0,0,0,0,0,0,0,0,0,0,0,0,0,0,0,0,0,0,0,0,0,0,0,0,0,0,0,0,0,0,0],"id":34,"left_children":[1,3,5,7,9,11,13,15,17,19,21,23,25,27,29,-1,-1,-1,-1,-1,-1,-1,-1,-1,-1,-1,-1,-1,-1,-1,-1],"loss_changes":[4.567587E0,5.095367E0,5.266397E0,4.2188005E0,4.961708E0,5.4032865E0,4.4547505E0,7.214508E0,2.5498962E0,5.284647E0,4.5625525E0,3.6998181E0,6.476514E0,4.7482715E0,3.3224564E0,0E0,0E0,0E0,0E0,0E0,0E0,0E0,0E0,0E0,0E0,0E0,0E0,0E0,0E0,0E0,0E0],"parents":[2147483647,0,0,1,1,2,2,3,3,4,4,5,5,6,6,7,7,8,8,9,9,10,10,11,11,12,12,13,13,14,14],"right_children":[2,4,6,8,10,12,14,16,18,20,22,24,26,28,30,-1,-1,-1,-1,-1,-1,-1,-1,-1,-1,-1,-1,-1,-1,-1,-1],"split_conditions":[5.3587115E-1,1.7059523E0,4.673531E-1,-1.4654161E-4,-5.202759E-1,9.142234E-1,9.329282E-2,7.915618E-1,-1.9024849E-1,-3.284432E-4,-4.599176E-1,-7.1559894E-1,9.0353423E-1,7.393722E-1,5.8040935E-1,1.6715185E-1,-6.0059834E-2,-1.167989E-1,-3.836597E-3,-4.309821E-2,1.6735823E-1,1.06789745E-1,-6.469228E-2,7.377731E-2,-6.2168546E-2,-1.11069335E-2,1.4653659E-2,3.007947E-2,-8.67173E-2,1.0310321E-1,1.1541507E-2],"split_indices":[131,79,132,30,36,106,64,78,99,32,114,1,121,44,25,0,0,0,0,0,0,0,0,0,0,0,0,0,0,0,0],"split_type":[0,0,0,0,0,0,0,0,0,0,0,0,0,0,0,0,0,0,0,0,0,0,0,0,0,0,0,0,0,0,0],"sum_hessian":[4.7271176E2,2.8790842E1,4.4392093E2,1.7647127E1,1.1143716E1,4.0890033E2,3.502059E1,4.588291E0,1.3058836E1,3.6288095E0,7.5149064E0,2.0130075E1,3.8877023E2,1.7336037E1,1.7684555E1,1.0171171E0,3.571174E0,1.0558959E1,2.4998767E0,1.3431733E0,2.2856362E0,1.0050893E0,6.509817E0,1.3873461E0,1.874273E1,1.884538E2,2.0031645E2,1.3782372E1,3.553665E0,1.146859E1,6.2159653E0],"tree_param":{"num_deleted":"0","num_feature":"133","num_nodes":"31","size_leaf_vector":"1"}},{"base_weights":[2.09056E-3,-1.8128313E-2,4.3915108E-1,3.1358622E-2,-2.4787992E-1,-1.9627647E-1,7.645724E-1,-8.656158E-2,1.54078E-1,1.0845233E0,-2.992388E-1,-6.778985E-1,8.207513E-2,-5.050153E-1,1.0304893E0,-2.9362246E-2,5.7014707E-3,1.08585125E-2,1.1033809E-1,2.7786179E-2,1.3416596E-1,2.1939581E-2,-4.2697117E-2,4.2509813E-2,-1.1121295E-1,-6.5849684E-2,-1.130765E-2,-1.4304551E-3,1.3463955E-1],"categories":[],"categories_nodes":[],"categories_segments":[],"categories_sizes":[],"default_left":[0,0,0,0,0,0,0,0,0,0,0,0,0,0,0,0,0,0,0,0,0,0,0,0,0,0,0,0,0],"id":35,"left_children":[1,3,5,7,9,11,13,15,17,19,21,23,-1,25,27,-1,-1,-1,-1,-1,-1,-1,-1,-1,-1,-1,-1,-1,-1],"loss_changes":[4.175714E0,5.143913E0,4.4703856E0,5.4048204E0,5.8106203E0,4.4121923E0,5.254073E0,5.6842833E0,7.780263E0,2.892511E-1,5.259451E0,3.293676E0,0E0,1.1197907E-1,3.954194E0,0E0,0E0,0E0,0E0,0E0,0E0,0E0,0E0,0E0,0E0,0E0,0E0,0E0,0E0],"parents":[2147483647,0,0,1,1,2,2,3,3,4,4,5,5,6,6,7,7,8,8,9,9,10,10,11,11,13,13,14,14],"right_children":[2,4,6,8,10,12,14,16,18,20,22,24,-1,26,28,-1,-1,-1,-1,-1,-1,-1,-1,-1,-1,-1,-1,-1,-1],"split_conditions":[-1.0068786E0,8.2023555E-1,7.5E-1,1.1E0,-2.1597415E-1,4.975233E-1,-2.2090475E2,2.0995781E0,7.818205E-1,9.8806655E-1,1.4525377E0,-2.4182715E-2,8.207513E-2,1.3944829E0,-7.3432684E-1,-2.9362246E-2,5.7014707E-3,1.08585125E-2,1.1033809E-1,2.7786179E-2,1.3416596E-1,2.1939581E-2,-4.2697117E-2,4.2509813E-2,-1.1121295E-1,-6.5849684E-2,-1.130765E-2,-1.4304551E-3,1.3463955E-1],"split_indices":[98,78,18,19,107,88,9,63,91,80,123,104,0,39,60,0,0,0,0,0,0,0,0,0,0,0,0,0,0],"split_type":[0,0,0,0,0,0,0,0,0,0,0,0,0,0,0,0,0,0,0,0,0,0,0,0,0,0,0,0,0],"sum_hessian":[4.7063223E2,4.5073907E2,1.9893137E1,3.7156912E2,7.916995E1,6.8718357E0,1.30213E1,1.8964E2,1.8192914E2,2.19179E0,7.6978165E1,4.8897195E0,1.9821165E0,2.0993009E0,1.0922E1,7.722445E1,1.1241555E2,1.7467278E2,7.2563567E0,1.0327027E0,1.1590874E0,1.5070292E1,6.190787E1,1.3871727E0,3.5025465E0,1.0198363E0,1.0794646E0,2.7573512E0,8.164649E0],"tree_param":{"num_deleted":"0","num_feature":"133","num_nodes":"29","size_leaf_vector":"1"}},{"base_weights":[2.5167179E-3,-7.493651E-1,1.423064E-2,-4.2940557E-2,-1.0891526E-1,-1.5420751E-2,3.615181E-1,-5.1229574E-2,5.401015E-2,-4.351685E-1,1.2007524E-2,1.3375671E-1,1.2563385E0,1.4018117E-2,-7.242634E-2,-1.3622123E-2,9.581248E-3,-2.2322297E-2,9.094297E-2,1.5269604E-1,1.9406436E-2],"categories":[],"categories_nodes":[],"categories_segments":[],"categories_sizes":[],"default_left":[0,0,0,0,0,0,0,0,0,0,0,0,0,0,0,0,0,0,0,0,0],"id":36,"left_children":[1,3,5,7,-1,9,11,-1,-1,13,15,17,19,-1,-1,-1,-1,-1,-1,-1,-1],"loss_changes":[4.1578298E0,1.6915545E0,4.7900915E0,1.2052225E0,0E0,4.9447007E0,7.2892246E0,0E0,0E0,4.4830923E0,5.0278587E0,8.589038E0,1.8035717E0,0E0,0E0,0E0,0E0,0E0,0E0,0E0,0E0],"parents":[2147483647,0,0,1,1,2,2,3,3,5,5,6,6,9,9,10,10,11,11,12,12],"right_children":[2,4,6,8,-1,10,12,-1,-1,14,16,18,20,-1,-1,-1,-1,-1,-1,-1,-1],"split_conditions":[-1.1720065E0,-7.666977E-2,1E0,1.3531883E-1,-1.0891526E-1,5.3587115E-1,1.3613436E-1,-5.1229574E-2,5.401015E-2,-1.4585764E-4,1E0,7.92447E-1,-8.0303925E-1,1.4018117E-2,-7.242634E-2,-1.3622123E-2,9.581248E-3,-2.2322297E-2,9.094297E-2,1.5269604E-1,1.9406436E-2],"split_indices":[116,104,21,49,0,131,49,0,0,30,22,131,94,0,0,0,0,0,0,0,0],"split_type":[0,0,0,0,0,0,0,0,0,0,0,0,0,0,0,0,0,0,0,0,0],"sum_hessian":[4.6986835E2,6.24198E0,4.6362634E2,2.3930855E0,3.8488948E0,4.2803622E2,3.559012E1,1.3930252E0,1.0000603E0,2.5342493E1,4.0269376E2,2.9285473E1,6.3046446E0,8.647516E0,1.6694975E1,1.4521733E2,2.574764E2,2.054328E1,8.742194E0,4.6759644E0,1.6286801E0],"tree_param":{"num_deleted":"0","num_feature":"133","num_nodes":"21","size_leaf_vector":"1"}},{"base_weights":[2.3608655E-3,-5.491416E-3,1.0782564E-1,1.2069035E-2,-7.730106E-1,4.1674992E-1,-2.5908489E-2,-9.469552E-1,1.0626552E-2,8.6160086E-2,-2.8437728E-2,3.0266682E-3,-8.25639E-2,-1.1166667E-1,-1.6606807E-3],"categories":[],"categories_nodes":[],"categories_segments":[],"categories_sizes":[],"default_left":[0,0,0,0,0,0,0,0,0,0,0,0,0,0,0],"id":37,"left_children":[1,3,-1,5,7,9,11,13,-1,-1,-1,-1,-1,-1,-1],"loss_changes":[3.9690964E0,6.2996235E0,0E0,7.038236E0,1.6996098E0,1.2498924E1,1.8847034E1,1.3754516E0,0E0,0E0,0E0,0E0,0E0,0E0,0E0],"parents":[2147483647,0,0,1,1,3,3,4,4,5,5,6,6,7,7],"right_children":[2,4,-1,6,8,10,12,14,-1,-1,-1,-1,-1,-1,-1],"split_conditions":[8.322175E-1,1.0117583E0,1.0782564E-1,4.3159194E-2,-5.168819E-1,3.674309E-5,-7.310277E-1,-2.1583468E-3,1.0626552E-2,8.6160086E-2,-2.8437728E-2,3.0266682E-3,-8.25639E-2,-1.1166667E-1,-1.6606807E-3],"split_indices":[51,46,0,57,36,32,60,73,0,0,0,0,0,0,0],"split_type":[0,0,0,0,0,0,0,0,0,0,0,0,0,0,0],"sum_hessian":[4.6811285E2,4.6570886E2,2.4040189E0,4.5625427E2,9.454592E0,3.8288292E1,4.1796597E2,7.8288603E0,1.6257311E0,2.328534E1,1.5002953E1,3.9143286E2,2.6533117E1,6.4516935E0,1.377167E0],"tree_param":{"num_deleted":"0","num_feature":"133","num_nodes":"15","size_leaf_vector":"1"}},{"base_weights":[1.9075284E-3,-2.9222214E-1,2.8499026E-2,-3.8142893E-1,1.1183292E-1,4.4437364E-1,1.9017906E-3,-1.3016522E-1,-8.4900993E-1,1.4406967E-1,2.2266221E-1,-1.1930437E-2,9.1098523E-1,-8.241564E-2,2.2551058E-2,-1.02101006E-1,4.019048E-2,5.467213E-2,-4.5639884E-2,-3.9433103E-2,1.5591484E-3,1.12667345E-1,6.9102796E-4],"categories":[],"categories_nodes":[],"categories_segments":[],"categories_sizes":[],"default_left":[0,0,0,0,0,0,0,0,0,0,0,0,0,0,0,0,0,0,0,0,0,0,0],"id":38,"left_children":[1,3,5,7,-1,9,11,13,15,-1,17,19,21,-1,-1,-1,-1,-1,-1,-1,-1,-1,-1],"loss_changes":[3.6714878E0,5.3239975E0,4.7602253E0,4.2777667E0,0E0,5.393638E0,5.1106915E0,6.4744368E0,3.1804333E0,0E0,5.1662893E0,4.22088E0,1.1800127E0,0E0,0E0,0E0,0E0,0E0,0E0,0E0,0E0,0E0,0E0],"parents":[2147483647,0,0,1,1,2,2,3,3,5,5,6,6,7,7,8,8,10,10,11,11,12,12],"right_children":[2,4,6,8,-1,10,12,14,16,-1,18,20,22,-1,-1,-1,-1,-1,-1,-1,-1,-1,-1],"split_conditions":[2.992674E-1,-5.167492E-1,-5.480253E-4,-7.2806695E-5,1.1183292E-1,5.1374733E-2,1.7404604E0,1.1765816E0,7.918416E-1,1.4406967E-1,4.907368E-1,-1.1602566E0,4.0844634E-1,-8.241564E-2,2.2551058E-2,-1.02101006E-1,4.019048E-2,5.467213E-2,-4.5639884E-2,-3.9433103E-2,1.5591484E-3,1.12667345E-1,6.9102796E-4],"split_indices":[23,36,12,30,0,132,79,130,129,0,117,116,118,0,0,0,0,0,0,0,0,0,0],"split_type":[0,0,0,0,0,0,0,0,0,0,0,0,0,0,0,0,0,0,0,0,0,0,0],"sum_hessian":[4.6735394E2,3.7920822E1,4.2943314E2,3.6351456E1,1.5693678E0,2.4869284E1,4.0456384E2,2.4476768E1,1.1874686E1,3.526024E0,2.1343258E1,3.994725E2,5.0913277E0,7.847549E0,1.662922E1,1.06008625E1,1.2738237E0,1.4580223E1,6.763036E0,2.5925488E1,3.7354703E2,3.911848E0,1.1794795E0],"tree_param":{"num_deleted":"0","num_feature":"133","num_nodes":"23","size_leaf_vector":"1"}},{"base_weights":[2.1522942E-3,-1.0729607E-1,7.1504734E-2,4.8185113E-1,-1.5864559E-1,4.117569E-2,6.589629E-1,1.0909816E0,-6.707492E-1,-1.1028688E-1,-9.901382E-1,6.893543E-2,-5.300059E-1,-4.6628058E-1,9.0254706E-1,-7.108937E-2,1.4658254E-1,2.968028E-2,-9.391058E-2,-4.0718265E-2,-7.555581E-4,-1.08206466E-1,-1.2990693E-2,2.6391018E-3,4.9362116E-2,3.4601223E-2,-1.0406061E-1,2.5889695E-2,-9.66214E-2,-4.1114267E-2,1.1060832E-1],"categories":[],"categories_nodes":[],"categories_segments":[],"categories_sizes":[],"default_left":[0,0,0,0,0,0,0,0,0,0,0,0,0,0,0,0,0,0,0,0,0,0,0,0,0,0,0,0,0,0,0],"id":39,"left_children":[1,3,5,7,9,11,13,15,17,19,21,23,25,27,29,-1,-1,-1,-1,-1,-1,-1,-1,-1,-1,-1,-1,-1,-1,-1,-1],"loss_changes":[3.5563788E0,5.574488E0,5.082436E0,1.1135229E1,6.6428895E0,4.377355E0,4.261476E0,7.8471117E0,1.7698097E0,4.871421E0,5.793581E-1,4.7201376E0,6.0870852E0,1.3931851E0,3.62576E0,0E0,0E0,0E0,0E0,0E0,0E0,0E0,0E0,0E0,0E0,0E0,0E0,0E0,0E0,0E0,0E0],"parents":[2147483647,0,0,1,1,2,2,3,3,4,4,5,5,6,6,7,7,8,8,9,9,10,10,11,11,12,12,13,13,14,14],"right_children":[2,4,6,8,10,12,14,16,18,20,22,24,26,28,30,-1,-1,-1,-1,-1,-1,-1,-1,-1,-1,-1,-1,-1,-1,-1,-1],"split_conditions":[6.984489E-1,1.3932502E0,8.407662E-4,1.0117583E0,9.652938E-1,1.364873E-1,9.2711323E-1,-1.3411885E0,-1.1060666E0,4.2857143E-1,8.7935674E-1,3.679145E-1,-1.3869202E0,5.744681E-1,-8.7311834E-1,-7.108937E-2,1.4658254E-1,2.968028E-2,-9.391058E-2,-4.0718265E-2,-7.555581E-4,-1.08206466E-1,-1.2990693E-2,2.6391018E-3,4.9362116E-2,3.4601223E-2,-1.0406061E-1,2.5889695E-2,-9.66214E-2,-4.1114267E-2,1.1060832E-1],"split_indices":[131,39,12,46,65,49,106,43,93,25,124,132,43,27,102,0,0,0,0,0,0,0,0,0,0,0,0,0,0,0,0],"split_type":[0,0,0,0,0,0,0,0,0,0,0,0,0,0,0,0,0,0,0,0,0,0,0,0,0,0,0,0,0,0,0],"sum_hessian":[4.6651883E2,1.8073898E2,2.8577985E2,1.381796E1,1.6692102E2,2.727676E2,1.3012239E1,9.075281E0,4.742678E0,1.5881703E2,8.103991E0,2.6096393E2,1.1803679E1,2.1528487E0,1.085939E1,1.4084331E0,7.6668487E0,1.0067759E0,3.7359025E0,4.0064922E1,1.18752106E2,7.0886073E0,1.0153828E0,2.3816685E2,2.2797075E1,4.4652157E0,7.338464E0,1.0752639E0,1.0775847E0,1.3199562E0,9.539434E0],"tree_param":{"num_deleted":"0","num_feature":"133","num_nodes":"31","size_leaf_vector":"1"}},{"base_weights":[1.4296864E-3,2.503727E-2,-3.1433812E-1,-9.741654E-3,5.086692E-1,2.2350265E-2,-1.0095823E0,-4.7292548E-1,1.7585028E-2,8.585419E-1,-2.5098503E-1,-9.915962E-2,2.3111671E-1,4.683156E-2,-1.2162371E0,-5.8215777E-3,-9.9260025E-2,1.0692338E-2,-1.2166108E-2,1.0487167E-1,-1.639991E-2,3.0267192E-2,-9.167042E-2,5.2832555E-2,-5.8819085E-2,-1.4968264E-2,-1.3343774E-1],"categories":[],"categories_nodes":[],"categories_segments":[],"categories_sizes":[],"default_left":[0,0,0,0,0,0,0,0,0,0,0,0,0,0,0,0,0,0,0,0,0,0,0,0,0,0,0],"id":40,"left_children":[1,3,5,7,9,11,13,15,17,19,21,-1,23,-1,25,-1,-1,-1,-1,-1,-1,-1,-1,-1,-1,-1,-1],"loss_changes":[3.4759448E0,7.3014784E0,7.615237E0,5.143048E0,7.955344E0,5.0621114E0,3.8083792E0,4.8206472E0,4.790448E0,4.0931864E0,3.9472954E0,0E0,5.1185927E0,0E0,1.0075865E0,0E0,0E0,0E0,0E0,0E0,0E0,0E0,0E0,0E0,0E0,0E0,0E0],"parents":[2147483647,0,0,1,1,2,2,3,3,4,4,5,5,6,6,7,7,8,8,9,9,10,10,12,12,14,14],"right_children":[2,4,6,8,10,12,14,16,18,20,22,-1,24,-1,26,-1,-1,-1,-1,-1,-1,-1,-1,-1,-1,-1,-1],"split_conditions":[3.0314666E3,5.1484546E3,7.4528897E-1,5.3587115E-1,-5.9523657E-3,5.6741744E-1,-8.953836E-1,1.222631E0,1.70365E0,1.0089451E0,-8.5032696E-1,-9.915962E-2,1.4985996E0,4.683156E-2,-8.482301E-1,-5.8215777E-3,-9.9260025E-2,1.0692338E-2,-1.2166108E-2,1.0487167E-1,-1.639991E-2,3.0267192E-2,-9.167042E-2,5.2832555E-2,-5.8819085E-2,-1.4968264E-2,-1.3343774E-1],"split_indices":[9,10,44,131,73,131,112,69,79,80,94,0,81,0,94,0,0,0,0,0,0,0,0,0,0,0,0],"split_type":[0,0,0,0,0,0,0,0,0,0,0,0,0,0,0,0,0,0,0,0,0,0,0,0,0,0,0],"sum_hessian":[4.6423148E2,4.3279535E2,3.143614E1,4.046743E2,2.8121065E1,2.183155E1,9.60459E0,2.1636246E1,3.8303802E2,1.9164383E1,8.956684E0,3.0872872E0,1.8744265E1,1.0229263E0,8.581664E0,1.265186E1,8.9843855E0,2.3347552E2,1.495625E2,1.6137491E1,3.0268898E0,5.1876388E0,3.7690449E0,1.4015287E1,4.728976E0,1.0818515E0,7.499812E0],"tree_param":{"num_deleted":"0","num_feature":"133","num_nodes":"27","size_leaf_vector":"1"}},{"base_weights":[5.817029E-4,-8.4867173E-1,9.204594E-3,-9.064915E-3,-1.0661956E-1,-1.3672543E-1,6.4828396E-2,-2.3524687E-1,3.4632477E-1,3.4642383E-2,6.143615E-1,-1.0504453E-2,-7.0309415E-2,6.262838E-2,-5.874021E-2,-4.041943E-2,6.8103224E-3,1.4269987E-1,1.834074E-2],"categories":[],"categories_nodes":[],"categories_segments":[],"categories_sizes":[],"default_left":[0,0,0,0,0,0,0,0,0,0,0,0,0,0,0,0,0,0,0],"id":41,"left_children":[1,3,5,-1,-1,7,9,11,13,15,17,-1,-1,-1,-1,-1,-1,-1,-1],"loss_changes":[3.4076903E0,6.745875E-1,3.7476013E0,0E0,0E0,6.1461782E0,5.5218515E0,6.4100285E0,6.1168613E0,4.6943603E0,5.810917E0,0E0,0E0,0E0,0E0,0E0,0E0,0E0,0E0],"parents":[2147483647,0,0,1,1,2,2,5,5,6,6,7,7,8,8,9,9,10,10],"right_children":[2,4,6,-1,-1,8,10,12,14,16,18,-1,-1,-1,-1,-1,-1,-1,-1],"split_conditions":[-1.2242931E0,5.2678573E-1,6.634827E-1,-9.064915E-3,-1.0661956E-1,8.7963074E-1,1.8497975E-1,1.7140943E0,1.3940998E0,-1.1602566E0,3.34E2,-1.0504453E-2,-7.0309415E-2,6.262838E-2,-5.874021E-2,-4.041943E-2,6.8103224E-3,1.4269987E-1,1.834074E-2],"split_indices":[98,25,34,0,0,124,89,79,39,116,9,0,0,0,0,0,0,0,0],"split_type":[0,0,0,0,0,0,0,0,0,0,0,0,0,0,0,0,0,0,0],"sum_hessian":[4.6327277E2,3.677339E0,4.5959543E2,1.1358576E0,2.5414815E0,1.2643443E2,3.33161E2,1.0544183E2,2.0992596E1,3.1682098E2,1.6340029E1,8.3443855E1,2.1997976E1,1.640358E1,4.5890164E0,2.1660843E1,2.9516013E2,4.8615313E0,1.14784975E1],"tree_param":{"num_deleted":"0","num_feature":"133","num_nodes":"19","size_leaf_vector":"1"}},{"base_weights":[2.7708462E-4,-1.8055385E-2,4.0553272E-1,2.5159838E-2,-2.201213E-1,-1.7040707E-1,7.0006096E-1,2.684669E-1,-2.9562324E-2,9.8172134E-1,-2.673295E-1,-6.38536E-1,7.9505906E-2,-4.7253665E-1,9.5287746E-1,1.0059097E-1,1.3508769E-2,-8.990027E-3,2.5418684E-2,2.81193E-2,1.1929878E-1,-5.09905E-2,2.3474924E-4,4.064045E-2,-1.05928116E-1,-5.9031595E-2,-1.2211894E-2,-3.381452E-3,1.2589858E-1],"categories":[],"categories_nodes":[],"categories_segments":[],"categories_sizes":[],"default_left":[0,0,0,0,0,0,0,0,0,0,0,0,0,0,0,0,0,0,0,0,0,0,0,0,0,0,0,0,0],"id":42,"left_children":[1,3,5,7,9,11,13,15,17,19,21,23,-1,25,27,-1,-1,-1,-1,-1,-1,-1,-1,-1,-1,-1,-1,-1,-1],"loss_changes":[3.454931E0,3.8907843E0,3.5333457E0,4.9000626E0,4.715873E0,3.9489737E0,4.4560094E0,6.50978E0,5.1739864E0,1.3527513E-1,4.993304E0,2.9287775E0,0E0,5.441296E-2,3.50002E0,0E0,0E0,0E0,0E0,0E0,0E0,0E0,0E0,0E0,0E0,0E0,0E0,0E0,0E0],"parents":[2147483647,0,0,1,1,2,2,3,3,4,4,5,5,6,6,7,7,8,8,9,9,10,10,11,11,13,13,14,14],"right_children":[2,4,6,8,10,12,14,16,18,20,22,24,-1,26,28,-1,-1,-1,-1,-1,-1,-1,-1,-1,-1,-1,-1,-1,-1],"split_conditions":[-1.0068786E0,8.2023555E-1,7.5E-1,8.131414E-1,-2.1597415E-1,4.975233E-1,-2.2090475E2,-1.1151651E0,1.7388487E-1,8.8235295E-1,-1.0584817E0,-2.4182715E-2,7.9505906E-2,-1.1125556E-1,-7.3432684E-1,1.0059097E-1,1.3508769E-2,-8.990027E-3,2.5418684E-2,2.81193E-2,1.1929878E-1,-5.09905E-2,2.3474924E-4,4.064045E-2,-1.05928116E-1,-5.9031595E-2,-1.2211894E-2,-3.381452E-3,1.2589858E-1],"split_indices":[98,78,18,90,107,88,9,76,132,33,98,104,0,73,60,0,0,0,0,0,0,0,0,0,0,0,0,0,0],"split_type":[0,0,0,0,0,0,0,0,0,0,0,0,0,0,0,0,0,0,0,0,0,0,0,0,0,0,0,0,0],"sum_hessian":[4.630534E2,4.43927E2,1.9126392E1,3.664343E2,7.749271E1,6.614125E0,1.2512268E1,6.656506E1,2.9986923E2,2.1806798E0,7.531203E1,4.6823845E0,1.93174E0,2.0650756E0,1.0447192E1,9.193457E0,5.7371605E1,2.4784856E2,5.2020683E1,1.0453713E0,1.1353086E0,3.9179302E1,3.613272E1,1.3539268E0,3.3284578E0,1.0331993E0,1.0318763E0,2.6843019E0,7.7628903E0],"tree_param":{"num_deleted":"0","num_feature":"133","num_nodes":"29","size_leaf_vector":"1"}},{"base_weights":[8.846869E-4,1.2486423E-2,-6.402174E-1,2.4376947E-3,7.7380055E-1,-1.0779925E-1,1.641725E-1,-3.7458834E-1,3.2957036E-2,-5.9631325E-2,1.288471E-1,-5.4431032E-2,6.761092E-2,2.2966629E-2,-6.7500055E-2,4.0328104E-2,-9.2951575E-4],"categories":[],"categories_nodes":[],"categories_segments":[],"categories_sizes":[],"default_left":[0,0,0,0,0,0,0,0,0,0,0,0,0,0,0,0,0],"id":43,"left_children":[1,3,5,7,9,-1,11,13,15,-1,-1,-1,-1,-1,-1,-1,-1],"loss_changes":[3.4484897E0,3.4814336E0,3.0790234E0,5.1948347E0,4.948804E0,0E0,1.7362012E0,6.292203E0,6.537692E0,0E0,0E0,0E0,0E0,0E0,0E0,0E0,0E0],"parents":[2147483647,0,0,1,1,2,2,3,3,4,4,6,6,7,7,8,8],"right_children":[2,4,6,8,10,-1,12,14,16,-1,-1,-1,-1,-1,-1,-1,-1],"split_conditions":[8.005867E-1,1.2054603E0,7.9641235E-1,5.5E-1,3.8798714E-1,-1.0779925E-1,-9.902667E-1,-1.0850376E-1,1.9370209E0,-5.9631325E-2,1.288471E-1,-5.4431032E-2,6.761092E-2,2.2966629E-2,-6.7500055E-2,4.0328104E-2,-9.2951575E-4],"split_indices":[108,40,131,19,118,0,105,128,100,0,0,0,0,0,0,0,0],"split_type":[0,0,0,0,0,0,0,0,0,0,0,0,0,0,0,0,0],"sum_hessian":[4.6156287E2,4.5432175E2,7.2411323E0,4.493933E2,4.9284253E0,4.4688845E0,2.7722476E0,3.280891E1,4.165844E2,1.3024687E0,3.6259565E0,1.1363646E0,1.635883E0,1.0973037E1,2.1835873E1,4.178762E1,3.7479678E2],"tree_param":{"num_deleted":"0","num_feature":"133","num_nodes":"17","size_leaf_vector":"1"}},{"base_weights":[6.503998E-4,-2.4749393E-2,2.8169015E-1,2.6444342E-2,-2.2229005E-1,8.235611E-2,1.1313682E0,-5.245092E-2,2.533887E-1,4.1535988E-1,-3.863089E-1,4.4144997E-1,-4.2335722E-1,1.3746274E0,1.7419059E-2,4.3354046E-2,-1.3598043E-2,4.1472744E-2,-4.6277493E-2,6.574165E-2,-1.1150988E-1,6.816357E-2,-5.3030264E-2,-1.5316944E-2,9.609055E-2,5.4325994E-2,-7.9639874E-2,3.510407E-2,1.5767644E-1],"categories":[],"categories_nodes":[],"categories_segments":[],"categories_sizes":[],"default_left":[0,0,0,0,0,0,0,0,0,0,0,0,0,0,0,0,0,0,0,0,0,0,0,0,0,0,0,0,0],"id":44,"left_children":[1,3,5,7,9,11,13,15,17,19,21,23,25,27,-1,-1,-1,-1,-1,-1,-1,-1,-1,-1,-1,-1,-1,-1,-1],"loss_changes":[3.3049262E0,4.3000965E0,6.40637E0,6.0674124E0,9.312035E0,6.027349E0,1.4401636E0,1.0277912E1,1.0290081E1,7.543793E0,1.1143994E1,6.107465E0,5.432144E0,6.06534E-1,0E0,0E0,0E0,0E0,0E0,0E0,0E0,0E0,0E0,0E0,0E0,0E0,0E0,0E0,0E0],"parents":[2147483647,0,0,1,1,2,2,3,3,4,4,5,5,6,6,7,7,8,8,9,9,10,10,11,11,12,12,13,13],"right_children":[2,4,6,8,10,12,14,16,18,20,22,24,26,28,-1,-1,-1,-1,-1,-1,-1,-1,-1,-1,-1,-1,-1,-1,-1],"split_conditions":[1E0,2.203533E-4,1.3613436E-1,6.3866454E-1,3.3333334E-1,1.2246469E-16,-8.0303925E-1,4.3159194E-2,-7.310277E-1,7.1164024E-1,-9.5105654E-1,7.0200706E-1,5.6864214E-1,1.092021E-4,1.7419059E-2,4.3354046E-2,-1.3598043E-2,4.1472744E-2,-4.6277493E-2,6.574165E-2,-1.1150988E-1,6.816357E-2,-5.3030264E-2,-1.5316944E-2,9.609055E-2,5.4325994E-2,-7.9639874E-2,3.510407E-2,1.5767644E-1],"split_indices":[21,12,49,0,27,0,94,57,60,23,0,131,109,30,0,0,0,0,0,0,0,0,0,0,0,0,0,0,0],"split_type":[0,0,0,0,0,0,0,0,0,0,0,0,0,0,0,0,0,0,0,0,0,0,0,0,0,0,0,0,0],"sum_hessian":[4.6100504E2,4.2363016E2,3.737488E1,3.3712778E2,8.650237E1,3.1161367E1,6.2135153E0,2.5073187E2,8.639591E1,1.7384584E1,6.911778E1,1.8296543E1,1.2864823E1,4.6066465E0,1.606869E0,3.615934E1,2.1457254E2,7.085456E1,1.554135E1,1.5503071E1,1.881513E0,7.7684526E0,6.1349335E1,8.85984E0,9.436703E0,3.4552796E0,9.409544E0,1.2110004E0,3.395646E0],"tree_param":{"num_deleted":"0","num_feature":"133","num_nodes":"29","size_leaf_vector":"1"}},{"base_weights":[1.059585E-3,-2.797835E-1,2.6277876E-2,-3.6015663E-1,1.0078236E-1,1.4186048E-2,8.089765E-1,-4.750443E-1,4.7459784E-1,4.116607E-1,-1.0684108E-2,8.00104E-3,1.1191081E-1,-6.709648E-2,2.7019536E-2,1.1661555E-1,-1.9701751E-2,1.3458842E-1,1.947993E-2,-2.5037054E-2,3.6256511E-3],"categories":[],"categories_nodes":[],"categories_segments":[],"categories_sizes":[],"default_left":[0,0,0,0,0,0,0,0,0,0,0,0,0,0,0,0,0,0,0,0,0],"id":45,"left_children":[1,3,5,7,-1,9,11,13,15,17,19,-1,-1,-1,-1,-1,-1,-1,-1,-1,-1],"loss_changes":[3.2728367E0,4.303464E0,4.0013227E0,3.7332034E0,0E0,4.1419945E0,1.3647466E0,4.948561E0,2.5173147E0,4.736442E0,4.4519925E0,0E0,0E0,0E0,0E0,0E0,0E0,0E0,0E0,0E0,0E0],"parents":[2147483647,0,0,1,1,2,2,3,3,5,5,6,6,7,7,8,8,9,9,10,10],"right_children":[2,4,6,8,-1,10,12,14,16,18,20,-1,-1,-1,-1,-1,-1,-1,-1,-1,-1],"split_conditions":[2.992674E-1,-5.167492E-1,1.7404604E0,1E0,1.0078236E-1,-5.480253E-4,-9.4108826E-1,9.173849E-1,4.47E2,5.1374733E-2,3.6349098E-5,8.00104E-3,1.1191081E-1,-6.709648E-2,2.7019536E-2,1.1661555E-1,-1.9701751E-2,1.3458842E-1,1.947993E-2,-2.5037054E-2,3.6256511E-3],"split_indices":[23,36,79,5,0,12,84,121,9,132,14,0,0,0,0,0,0,0,0,0,0],"split_type":[0,0,0,0,0,0,0,0,0,0,0,0,0,0,0,0,0,0,0,0,0],"sum_hessian":[4.6007147E2,3.7076393E1,4.229951E2,3.5576008E1,1.5003846E0,4.1756235E2,5.4327517E0,3.165081E1,3.925199E0,2.3672718E1,3.9388962E2,1.9969344E0,3.4358172E0,2.5141006E1,6.5098033E0,1.571102E0,2.3540971E0,3.4790454E0,2.0193672E1,6.379716E1,3.3009247E2],"tree_param":{"num_deleted":"0","num_feature":"133","num_nodes":"21","size_leaf_vector":"1"}},{"base_weights":[1.8293174E-3,-1.0476563E-1,8.473449E-3,-1.1802098E-2,3.675054E-1,-6.9291466E-1,5.466872E-4,5.1867217E-1,-6.303592E-1,-1.1649408E-1,3.2069515E-2,4.367869E-2,-2.548182E-3,1.4353938E-2,8.5279174E-2,1.01003E-2,-9.7526684E-2],"categories":[],"categories_nodes":[],"categories_segments":[],"categories_sizes":[],"default_left":[0,0,0,0,0,0,0,0,0,0,0,0,0,0,0,0,0],"id":46,"left_children":[1,-1,3,5,7,9,11,13,15,-1,-1,-1,-1,-1,-1,-1,-1],"loss_changes":[3.2176898E0,0E0,3.3404102E0,3.6570308E0,4.0268526E0,4.07804E0,4.8710275E0,2.6162143E0,1.0263671E0,0E0,0E0,0E0,0E0,0E0,0E0,0E0,0E0],"parents":[2147483647,0,0,2,2,3,3,4,4,5,5,6,6,7,7,8,8],"right_children":[2,-1,4,6,8,10,12,14,16,-1,-1,-1,-1,-1,-1,-1,-1],"split_conditions":[-1.9962555E0,-1.0476563E-1,-6.6149396E-1,-1.1668612E-3,9.259703E-1,-1.615437E-3,-5.480253E-4,-4.2497015E-1,9.078228E-1,-1.1649408E-1,3.2069515E-2,4.367869E-2,-2.548182E-3,1.4353938E-2,8.5279174E-2,1.01003E-2,-9.7526684E-2],"split_indices":[71,0,86,31,121,104,12,114,77,0,0,0,0,0,0,0,0],"split_type":[0,0,0,0,0,0,0,0,0,0,0,0,0,0,0,0,0],"sum_hessian":[4.5918195E2,1.9030362E0,4.572789E2,4.337509E2,2.352801E1,6.7425976E0,4.270083E2,2.08497E1,2.6783087E0,4.498431E0,2.244166E0,2.3154562E1,4.0385373E2,1.0495491E1,1.035421E1,1.0849266E0,1.5933821E0],"tree_param":{"num_deleted":"0","num_feature":"133","num_nodes":"17","size_leaf_vector":"1"}},{"base_weights":[1.3747652E-3,1.3571026E-2,-5.587483E-1,5.237583E-1,-3.760595E-3,-8.141824E-1,6.0889628E-2,1.2819808E0,5.7264823E-2,-9.2457783E-1,7.4855457E-3,-1.0496218E0,1.5191013E-2,1.2615507E-2,1.5150005E-1,9.0726756E-2,-3.4394525E-2,1.2919112E-2,-1.2401688E-1,5.16886E-3,-2.1587633E-2,-1.4566876E-2,-1.2592134E-1],"categories":[],"categories_nodes":[],"categories_segments":[],"categories_sizes":[],"default_left":[0,0,0,0,0,0,0,0,0,0,0,0,0,0,0,0,0,0,0,0,0,0,0],"id":47,"left_children":[1,3,5,7,9,11,-1,13,15,17,19,21,-1,-1,-1,-1,-1,-1,-1,-1,-1,-1,-1],"loss_changes":[3.1474745E0,3.9881778E0,3.424167E0,5.167942E0,4.5322237E0,2.08918E0,0E0,1.3164673E0,3.797659E0,1.9163609E0,4.2834086E0,1.1329412E0,0E0,0E0,0E0,0E0,0E0,0E0,0E0,0E0,0E0,0E0,0E0],"parents":[2147483647,0,0,1,1,2,2,3,3,4,4,5,5,7,7,8,8,9,9,10,10,11,11],"right_children":[2,4,6,8,10,12,-1,14,16,18,20,22,-1,-1,-1,-1,-1,-1,-1,-1,-1,-1,-1],"split_conditions":[8.023744E-1,5.263158E-2,4.7142857E-1,3.3333334E-1,6.666667E-2,9.005483E-1,6.0889628E-2,-5.8491284E-1,-8.816339E-1,-5.5258304E-1,-7.310593E-1,1.6768366E-2,1.5191013E-2,1.2615507E-2,1.5150005E-1,9.0726756E-2,-3.4394525E-2,1.2919112E-2,-1.2401688E-1,5.16886E-3,-2.1587633E-2,-1.4566876E-2,-1.2592134E-1],"split_indices":[129,33,25,23,33,67,0,72,112,72,60,132,0,0,0,0,0,0,0,0,0,0,0],"split_type":[0,0,0,0,0,0,0,0,0,0,0,0,0,0,0,0,0,0,0,0,0,0,0],"sum_hessian":[4.5862598E2,4.4980753E2,8.818451E0,1.3818399E1,4.3598914E2,7.4839706E0,1.3344806E0,4.5975604E0,9.220839E0,4.2806783E0,4.3170847E2,5.9479723E0,1.5359981E0,1.02999E0,3.5675707E0,2.5522723E0,6.668566E0,1.1226728E0,3.1580055E0,3.610297E2,7.0678764E1,1.4385638E0,4.5094085E0],"tree_param":{"num_deleted":"0","num_feature":"133","num_nodes":"23","size_leaf_vector":"1"}},{"base_weights":[1.2540009E-3,3.2759145E-2,-2.1727815E-1,8.563249E-3,7.3787147E-1,-1.3495554E0,-1.0989269E-1,-9.253175E-2,1.4379531E-1,1.1140928E0,-2.7303857E-1,-1.6246058E-1,-1.3616174E-2,-2.7207965E-1,6.7106026E-1,5.074611E-3,-2.7734233E-2,-2.4644254E-2,2.4797468E-2,7.2638034E-3,1.2573102E-1,5.0437566E-2,-1.0427002E-1,-4.0782E-2,8.002012E-2,8.739571E-2,-1.1658289E-2],"categories":[],"categories_nodes":[],"categories_segments":[],"categories_sizes":[],"default_left":[0,0,0,0,0,0,0,0,0,0,0,0,0,0,0,0,0,0,0,0,0,0,0,0,0,0,0],"id":48,"left_children":[1,3,5,7,9,11,13,15,17,19,21,-1,-1,23,25,-1,-1,-1,-1,-1,-1,-1,-1,-1,-1,-1,-1],"loss_changes":[3.1672142E0,6.8525715E0,6.899618E0,5.341E0,5.372439E0,1.4249926E0,7.026306E0,5.9349422E0,6.8543377E0,1.3865776E0,3.1691015E0,0E0,0E0,6.9419556E0,1.6328874E0,0E0,0E0,0E0,0E0,0E0,0E0,0E0,0E0,0E0,0E0,0E0,0E0],"parents":[2147483647,0,0,1,1,2,2,3,3,4,4,5,5,6,6,7,7,8,8,9,9,10,10,13,13,14,14],"right_children":[2,4,6,8,10,12,14,16,18,20,22,-1,-1,24,26,-1,-1,-1,-1,-1,-1,-1,-1,-1,-1,-1,-1],"split_conditions":[2.589E3,5.1484546E3,3.6199636E3,3.6479043E-5,-2.8140247E-3,7.8592104E-1,3.079139E-1,9.3582034E-1,-3.2287923E-1,3.3129486E-1,5.1098716E3,-1.6246058E-1,-1.3616174E-2,-4.8268196E-1,8.274619E-1,5.074611E-3,-2.7734233E-2,-2.4644254E-2,2.4797468E-2,7.2638034E-3,1.2573102E-1,5.0437566E-2,-1.0427002E-1,-4.0782E-2,8.002012E-2,8.739571E-2,-1.1658289E-2],"split_indices":[9,10,8,30,73,95,132,106,103,56,8,0,0,72,78,0,0,0,0,0,0,0,0,0,0,0,0],"split_type":[0,0,0,0,0,0,0,0,0,0,0,0,0,0,0,0,0,0,0,0,0,0,0,0,0,0,0],"sum_hessian":[4.579903E2,4.0102567E2,5.6964615E1,3.8869962E2,1.2326065E1,3.9325223E0,5.303209E1,2.22604E2,1.660956E2,8.908572E0,3.4174929E0,2.9295595E0,1.0029627E0,4.4451984E1,8.580105E0,1.2580035E2,9.6803665E1,3.4710503E1,1.313851E2,1.2591817E0,7.6493907E0,1.8716595E0,1.5458335E0,4.000714E1,4.444845E0,6.7354646E0,1.8446405E0],"tree_param":{"num_deleted":"0","num_feature":"133","num_nodes":"27","size_leaf_vector":"1"}},{"base_weights":[1.1237127E-3,-5.80955E-3,9.6438475E-2,-6.342753E-1,1.1700006E-2,4.9157113E-1,-9.106289E-1,2.3508633E-2,-6.6863793E-1,-3.5715684E-2,1.06943905E-1,-1.0504577E-1,6.0147163E-3,5.4610092E-2,-5.1955966E-4,-3.5142712E-3,-1.0153238E-1],"categories":[],"categories_nodes":[],"categories_segments":[],"categories_sizes":[],"default_left":[0,0,0,0,0,0,0,0,0,0,0,0,0,0,0,0,0],"id":49,"left_children":[1,3,-1,5,7,9,11,13,15,-1,-1,-1,-1,-1,-1,-1,-1],"loss_changes":[3.0657718E0,5.024532E0,0E0,4.2983103E0,3.5871887E0,1.8967836E0,1.4596615E0,6.572112E0,1.6375046E0,0E0,0E0,0E0,0E0,0E0,0E0,0E0,0E0],"parents":[2147483647,0,0,1,1,3,3,4,4,5,5,6,6,7,7,8,8],"right_children":[2,4,-1,6,8,10,12,14,16,-1,-1,-1,-1,-1,-1,-1,-1],"split_conditions":[8.322175E-1,4.5E-1,9.6438475E-2,8.95204E-1,1.0117583E0,7.626773E-1,-4.0795168E-1,1.3932502E0,-4.722014E-1,-3.5715684E-2,1.06943905E-1,-1.0504577E-1,6.0147163E-3,5.4610092E-2,-5.1955966E-4,-3.5142712E-3,-1.0153238E-1],"split_indices":[51,19,0,121,46,34,114,39,62,0,0,0,0,0,0,0,0],"split_type":[0,0,0,0,0,0,0,0,0,0,0,0,0,0,0,0,0],"sum_hessian":[4.5720917E2,4.549287E2,2.2804708E0,1.1376339E1,4.4355237E2,2.0886285E0,9.28771E0,4.3693396E2,6.618417E0,1.0007476E0,1.087881E0,8.046611E0,1.2410994E0,