{"learner":{"attributes":{"best_iteration":"46","best_score":"0.5429704921389068"},"feature_names":[],"feature_types":[],"gradient_booster":{"model":{"cats":{"enc":[],"feature_segments":[],"sorted_idx":[]},"gbtree_model_param":{"num_parallel_tree":"1","num_trees":"62"},"iteration_indptr":[0,1,2,3,4,5,6,7,8,9,10,11,12,13,14,15,16,17,18,19,20,21,22,23,24,25,26,27,28,29,30,31,32,33,34,35,36,37,38,39,40,41,42,43,44,45,46,47,48,49,50,51,52,53,54,55,56,57,58,59,60,61,62],"tree_info":[0,0,0,0,0,0,0,0,0,0,0,0,0,0,0,0,0,0,0,0,0,0,0,0,0,0,0,0,0,0,0,0,0,0,0,0,0,0,0,0,0,0,0,0,0,0,0,0,0,0,0,0,0,0,0,0,0,0,0,0,0,0],"trees":[{"base_weights":[1.5618109E-2,-1.5213764E0,5.825837E-1,-8.287361E-1,-1.0015551E-1,2.6768452E-1,9.447282E-2,-9.223965E-1,3.1484094E-2,4.3765157E-2,6.1860526E-1,-4.9593057E-2,-0E0,5.211913E-3,-3.0936936E-2,4.9237085E-5,4.1718107E-2],"categories":[],"categories_nodes":[],"categories_segments":[],"categories_sizes":[],"default_left":[0,0,0,0,0,0,0,0,0,0,0,0,0,0,0,0,0],"id":0,"left_children":[1,3,5,7,-1,9,-1,11,-1,13,15,-1,-1,-1,-1,-1,-1],"loss_changes":[5.813283E2,5.3770966E1,1.9788872E2,1.2099384E1,0E0,3.0450693E1,0E0,5.5079346E0,0E0,9.471269E0,1.9499565E1,0E0,0E0,0E0,0E0,0E0,0E0],"parents":[2147483647,0,0,1,1,2,2,3,3,5,5,7,7,9,9,10,10],"right_children":[2,4,6,8,-1,10,-1,12,-1,14,16,-1,-1,-1,-1,-1,-1],"split_conditions":[1.2441045E0,2.192876E0,3.769949E0,8.878011E-3,-1.0015551E-1,1.5396085E-1,9.447282E-2,3.872316E-4,3.1484094E-2,1.0720019E-2,-2.4453169E-3,-4.9593057E-2,-0E0,5.211913E-3,-3.0936936E-2,4.9237085E-5,4.1718107E-2],"split_indices":[9,8,29,67,0,60,0,64,0,70,66,0,0,0,0,0,0],"split_type":[0,0,0,0,0,0,0,0,0,0,0,0,0,0,0,0,0],"sum_hessian":[6.641454E2,1.7758832E2,4.8655704E2,7.593087E1,1.0165745E2,3.9464072E2,9.191632E1,7.268383E1,3.2470438E0,2.4402783E2,1.5061288E2,6.818792E1,4.495907E0,2.2654376E2,1.7484083E1,4.0712936E1,1.0989995E2],"tree_param":{"num_deleted":"0","num_feature":"72","num_nodes":"17","size_leaf_vector":"1"}},{"base_weights":[-4.2582557E-2,-1.5305245E0,5.150472E-1,-8.951792E-1,-9.312985E-2,2.0803957E-1,9.0263404E-2,-8.0012254E-2,-1.0060596E0,-5.865135E-2,4.8908487E-1,-2.2892302E-2,4.883371E-3,-0E0,-5.2785393E-2,1.3226941E-2,-8.040955E-3,-5.584721E-3,3.1302378E-2],"categories":[],"categories_nodes":[],"categories_segments":[],"categories_sizes":[],"default_left":[0,0,0,0,0,0,0,0,0,0,0,0,0,0,0,0,0,0,0],"id":1,"left_children":[1,3,5,7,-1,9,-1,11,13,15,17,-1,-1,-1,-1,-1,-1,-1,-1],"loss_changes":[5.480216E2,3.1924591E1,1.8703955E2,4.7849846E0,0E0,2.9715895E1,0E0,1.2044175E0,2.2642632E0,6.5868745E0,1.6445244E1,0E0,0E0,0E0,0E0,0E0,0E0,0E0,0E0],"parents":[2147483647,0,0,1,1,2,2,3,3,5,5,7,7,8,8,9,9,10,10],"right_children":[2,4,6,8,-1,10,-1,12,14,16,18,-1,-1,-1,-1,-1,-1,-1,-1],"split_conditions":[8.379541E-1,1.399515E0,3.3067853E0,-8.666187E-3,-9.312985E-2,1.2417567E0,9.0263404E-2,7.376267E-2,4.7827E-1,-2.251968E-3,-2.4696726E-3,-2.2892302E-2,4.883371E-3,-0E0,-5.2785393E-2,1.3226941E-2,-8.040955E-3,-5.584721E-3,3.1302378E-2],"split_indices":[20,58,4,70,0,46,0,59,57,66,66,0,0,0,0,0,0,0,0],"split_type":[0,0,0,0,0,0,0,0,0,0,0,0,0,0,0,0,0,0,0],"sum_hessian":[6.553652E2,1.7819241E2,4.771728E2,6.4736565E1,1.1345585E2,3.8795627E2,8.9216515E1,9.243373E0,5.549319E1,1.9804802E2,1.8990823E2,3.7479322E0,5.495441E0,3.2488682E0,5.224432E1,4.445522E1,1.535928E2,3.39697E1,1.5593854E2],"tree_param":{"num_deleted":"0","num_feature":"72","num_nodes":"19","size_leaf_vector":"1"}},{"base_weights":[-1.8204862E-2,-1.4016687E0,5.214268E-1,-7.6157326E-1,-1.7739985E0,2.1606372E-1,8.6713225E-2,-2.606108E-1,-1.072759E0,-9.023344E-2,-2.5077302E-2,-3.5805937E-2,4.5635277E-1,-2.1900496E-2,1.8899212E-2,-5.814349E-3,-5.663519E-2,1.810222E-2,-5.263722E-3,-5.837998E-3,3.0198231E-2],"categories":[],"categories_nodes":[],"categories_segments":[],"categories_sizes":[],"default_left":[0,0,0,0,0,0,0,0,0,0,0,0,0,0,0,0,0,0,0,0,0],"id":2,"left_children":[1,3,5,7,9,11,-1,13,15,-1,-1,17,19,-1,-1,-1,-1,-1,-1,-1,-1],"loss_changes":[4.9307095E2,3.8974335E1,1.7277838E2,9.443264E0,3.635559E-1,2.3539358E1,0E0,3.9862828E0,9.5186996E-1,0E0,0E0,4.9618363E0,1.7327244E1,0E0,0E0,0E0,0E0,0E0,0E0,0E0,0E0],"parents":[2147483647,0,0,1,1,2,2,3,3,4,4,5,5,7,7,8,8,11,11,12,12],"right_children":[2,4,6,8,10,12,-1,14,16,-1,-1,18,20,-1,-1,-1,-1,-1,-1,-1,-1],"split_conditions":[3.4564906E-1,1.3341807E0,3.769949E0,1.0550001E-3,9.756913E-3,1.3437455E0,8.6713225E-2,4.72435E-3,2.2647166E-1,-9.023344E-2,-2.5077302E-2,-1.649771E-2,-2.4696726E-3,-2.1900496E-2,1.8899212E-2,-5.814349E-3,-5.663519E-2,1.810222E-2,-5.263722E-3,-5.837998E-3,3.0198231E-2],"split_indices":[59,39,29,69,71,0,0,71,43,0,0,71,66,0,0,0,0,0,0,0,0],"split_type":[0,0,0,0,0,0,0,0,0,0,0,0,0,0,0,0,0,0,0,0,0],"sum_hessian":[6.553195E2,1.8350992E2,4.718096E2,7.0715385E1,1.1279453E2,3.7945328E2,9.235631E1,2.9734985E1,4.0980396E1,1.08555595E2,4.2389374E0,1.8406143E2,1.9539186E2,2.498766E1,4.747325E0,3.7474992E0,3.72329E1,2.396933E1,1.600921E2,3.8716404E1,1.5667546E2],"tree_param":{"num_deleted":"0","num_feature":"72","num_nodes":"21","size_leaf_vector":"1"}},{"base_weights":[-2.9337872E-3,-1.3115215E0,4.9521977E-1,-7.3336107E-1,-8.615326E-2,1.7437282E-1,1.5614243E0,-8.1648886E-1,5.4691103E-3,-4.0642723E-2,4.0333378E-1,8.1474744E-2,-0E0,-4.320888E-2,-0E0,3.6958584E-3,-1.1069622E-2,3.8302954E-2,1.1247802E-2],"categories":[],"categories_nodes":[],"categories_segments":[],"categories_sizes":[],"default_left":[0,0,0,0,0,0,0,0,0,0,0,0,0,0,0,0,0,0,0],"id":3,"left_children":[1,3,5,7,-1,9,11,13,-1,15,17,-1,-1,-1,-1,-1,-1,-1,-1],"loss_changes":[4.3660345E2,3.900482E1,1.6316882E2,6.585949E0,0E0,1.8844093E1,1.1504578E1,3.2432861E0,0E0,4.172885E0,1.0564415E1,0E0,0E0,0E0,0E0,0E0,0E0,0E0,0E0],"parents":[2147483647,0,0,1,1,2,2,3,3,5,5,6,6,7,7,9,9,10,10],"right_children":[2,4,6,8,-1,10,12,14,-1,16,18,-1,-1,-1,-1,-1,-1,-1,-1],"split_conditions":[6.1242588E-2,1.6405246E0,2.6009696E0,8.832746E-3,-8.615326E-2,1.3178271E0,8.089423E-3,3.872316E-4,5.4691103E-3,3.5878022E-3,2.6377523E-3,8.1474744E-2,-0E0,-4.320888E-2,-0E0,3.6958584E-3,-1.1069622E-2,3.8302954E-2,1.1247802E-2],"split_indices":[0,43,57,67,0,0,67,64,0,70,67,0,0,0,0,0,0,0,0],"split_type":[0,0,0,0,0,0,0,0,0,0,0,0,0,0,0,0,0,0,0],"sum_hessian":[6.6451794E2,1.828736E2,4.8164438E2,7.9367455E1,1.0350614E2,3.7274216E2,1.0890222E2,7.337836E1,5.989097E0,1.9082098E2,1.8192117E2,1.04162834E2,4.739392E0,6.963145E1,3.746911E0,1.14132774E2,7.668822E1,5.595112E1,1.2597005E2],"tree_param":{"num_deleted":"0","num_feature":"72","num_nodes":"19","size_leaf_vector":"1"}},{"base_weights":[-9.792167E-3,-1.2242237E0,4.914472E-1,-5.100413E-1,-1.6306403E0,1.9962586E-1,8.084833E-2,2.1129788E-1,-6.902213E-1,-8.291275E-2,-1.56123685E-2,3.4594756E-2,6.0639745E-1,2.553356E-2,-8.445912E-3,-3.977182E-2,-3.7622682E-3,4.00095E-3,-3.6162306E-2,4.2709995E-2,1.0418216E-2],"categories":[],"categories_nodes":[],"categories_segments":[],"categories_sizes":[],"default_left":[0,0,0,0,0,0,0,0,0,0,0,0,0,0,0,0,0,0,0,0,0],"id":4,"left_children":[1,3,5,7,9,11,-1,13,15,-1,-1,17,19,-1,-1,-1,-1,-1,-1,-1,-1],"loss_changes":[4.030859E2,5.241446E1,1.5102878E2,1.0394745E1,1.4223938E0,2.4429548E1,0E0,2.2468886E0,2.945404E0,0E0,0E0,8.766752E0,9.046257E0,0E0,0E0,0E0,0E0,0E0,0E0,0E0,0E0],"parents":[2147483647,0,0,1,1,2,2,3,3,4,4,5,5,7,7,8,8,11,11,12,12],"right_children":[2,4,6,8,10,12,-1,14,16,-1,-1,18,20,-1,-1,-1,-1,-1,-1,-1,-1],"split_conditions":[1.0494751E-1,1.2755957E0,2.6202092E0,8.014074E-1,3.98329E-3,1.5842185E0,8.084833E-2,8.768296E-1,2.2900868E-3,-8.291275E-2,-1.56123685E-2,2.589064E-2,2.3739352E-3,2.553356E-2,-8.445912E-3,-3.977182E-2,-3.7622682E-3,4.00095E-3,-3.6162306E-2,4.2709995E-2,1.0418216E-2],"split_indices":[0,43,19,57,65,15,0,43,65,0,0,71,65,0,0,0,0,0,0,0,0],"split_type":[0,0,0,0,0,0,0,0,0,0,0,0,0,0,0,0,0,0,0,0,0],"sum_hessian":[6.570045E2,1.9168628E2,4.6531827E2,7.2048416E1,1.19637856E2,3.7208768E2,9.323059E1,1.3221512E1,5.882691E1,1.1593543E2,3.702423E0,2.6799005E2,1.0409763E2,8.484714E0,4.7367983E0,4.8343025E1,1.0483884E1,2.5576793E2,1.2222121E1,6.1195103E1,4.290253E1],"tree_param":{"num_deleted":"0","num_feature":"72","num_nodes":"21","size_leaf_vector":"1"}},{"base_weights":[-2.406448E-2,-1.2436708E0,4.375514E-1,-7.3686326E-1,-8.123148E-2,1.5700294E-1,1.520391E0,7.6916046E-3,-8.6436975E-1,-8.3571024E-2,3.7909803E-1,1.149355E-2,7.746206E-2,-9.104616E-3,2.2803344E-2,-4.6014052E-2,-0E0,6.8095983E-3,-1.0615749E-2,2.7780792E-2,4.4866404E-3],"categories":[],"categories_nodes":[],"categories_segments":[],"categories_sizes":[],"default_left":[0,0,0,0,0,0,0,0,0,0,0,0,0,0,0,0,0,0,0,0,0],"id":5,"left_children":[1,3,5,7,-1,9,11,13,15,17,19,-1,-1,-1,-1,-1,-1,-1,-1,-1,-1],"loss_changes":[3.7304343E2,3.0407745E1,1.4339682E2,8.743961E0,0E0,2.0849117E1,1.1434326E0,1.543111E0,4.0214844E0,5.3276234E0,9.569046E0,0E0,0E0,0E0,0E0,0E0,0E0,0E0,0E0,0E0,0E0],"parents":[2147483647,0,0,1,1,2,2,3,3,5,5,6,6,7,7,8,8,9,9,10,10],"right_children":[2,4,6,8,-1,10,12,14,16,18,20,-1,-1,-1,-1,-1,-1,-1,-1,-1,-1],"split_conditions":[6.1242588E-2,2.08294E0,3.57827E0,-3.1263942E-3,-8.123148E-2,1.303802E0,-3.1263942E-3,7.9943925E-1,3.872316E-4,1.5461722E-3,3.817848E-3,1.149355E-2,7.746206E-2,-9.104616E-3,2.2803344E-2,-4.6014052E-2,-0E0,6.8095983E-3,-1.0615749E-2,2.7780792E-2,4.4866404E-3],"split_indices":[0,62,37,66,0,0,66,20,64,70,67,0,0,0,0,0,0,0,0,0,0],"split_type":[0,0,0,0,0,0,0,0,0,0,0,0,0,0,0,0,0,0,0,0,0],"sum_hessian":[6.572465E2,1.801257E2,4.7712082E2,8.0940346E1,9.9185356E1,3.8149448E2,9.562636E1,1.0962588E1,6.997776E1,1.8156627E2,1.9992819E2,3.2411542E0,9.238521E1,6.969921E0,3.992667E0,6.624586E1,3.7318978E0,6.4161316E1,1.1740496E2,1.2088821E2,7.903999E1],"tree_param":{"num_deleted":"0","num_feature":"72","num_nodes":"21","size_leaf_vector":"1"}},{"base_weights":[-1.8323197E-3,-1.19949E0,4.378679E-1,-6.8925416E-1,-7.772385E-2,1.8070033E-1,1.4645557E0,-7.8583294E-1,2.9929304E-2,-0E0,3.7496576E-1,3.8268033E-3,7.500042E-2,-4.1801345E-2,-0E0,4.596013E-3,-1.213853E-2,9.577497E-3,3.897942E-2],"categories":[],"categories_nodes":[],"categories_segments":[],"categories_sizes":[],"default_left":[0,0,0,0,0,0,0,0,0,0,0,0,0,0,0,0,0,0,0],"id":6,"left_children":[1,3,5,7,-1,9,11,13,-1,15,17,-1,-1,-1,-1,-1,-1,-1,-1],"loss_changes":[3.420801E2,2.7249756E1,1.2283981E2,1.0631836E1,0E0,1.3191827E1,2.8087769E0,3.5205536E0,0E0,4.451764E0,1.2272179E1,0E0,0E0,0E0,0E0,0E0,0E0,0E0,0E0],"parents":[2147483647,0,0,1,1,2,2,3,3,5,5,6,6,7,7,9,9,10,10],"right_children":[2,4,6,8,-1,10,12,14,-1,16,18,-1,-1,-1,-1,-1,-1,-1,-1],"split_conditions":[8.379541E-1,2.0042195E0,4.9559817E-1,3.872316E-4,-7.772385E-2,1.3676958E0,-1.6232222E-4,4.9033773E-1,2.9929304E-2,1.6510245E0,-1.4235291E-3,3.8268033E-3,7.500042E-2,-4.1801345E-2,-0E0,4.596013E-3,-1.213853E-2,9.577497E-3,3.897942E-2],"split_indices":[20,8,41,64,0,0,64,52,0,57,66,0,0,0,0,0,0,0,0],"split_type":[0,0,0,0,0,0,0,0,0,0,0,0,0,0,0,0,0,0,0],"sum_hessian":[6.4414764E2,1.7266371E2,4.7148395E2,7.4410736E1,9.8252975E1,3.7970132E2,9.178261E1,7.0667305E1,3.7434344E0,1.9922981E2,1.8047153E2,3.1457655E0,8.863684E1,6.7240524E1,3.4267766E0,1.4706654E2,5.216327E1,1.2790865E2,5.2562878E1],"tree_param":{"num_deleted":"0","num_feature":"72","num_nodes":"19","size_leaf_vector":"1"}},{"base_weights":[5.9964266E-3,-9.8428154E-1,4.8502058E-1,-4.4868755E-1,-7.327043E-2,2.3842695E-1,1.4325839E0,-8.1287926E-1,-3.0681717E-1,1.2318452E-1,5.364723E-1,7.372834E-2,-0E0,-5.110773E-2,-1.620583E-2,8.159696E-3,-1.8893404E-2,2.4133265E-2,1.9788751E-3,4.952432E-2,9.623729E-3],"categories":[],"categories_nodes":[],"categories_segments":[],"categories_sizes":[],"default_left":[0,0,0,0,0,0,0,0,0,0,0,0,0,0,0,0,0,0,0,0,0],"id":7,"left_children":[1,3,5,7,-1,9,11,13,15,17,19,-1,-1,-1,-1,-1,-1,-1,-1,-1,-1],"loss_changes":[3.1193805E2,5.1930313E1,1.0152621E2,3.81489E0,0E0,1.1436062E1,4.050598E0,6.804409E-1,3.03856E0,7.306526E0,1.3468674E1,0E0,0E0,0E0,0E0,0E0,0E0,0E0,0E0,0E0,0E0],"parents":[2147483647,0,0,1,1,2,2,3,3,5,5,6,6,7,7,8,8,9,9,10,10],"right_children":[2,4,6,8,-1,10,12,14,16,18,20,-1,-1,-1,-1,-1,-1,-1,-1,-1,-1],"split_conditions":[5.172867E-1,1.2661421E0,7.623587E-1,2.1982621E-3,-7.327043E-2,3.293433E0,2.849972E-3,1.4689561E0,1.0545689E-3,2.1446159E-3,1.7565977E-3,7.372834E-2,-0E0,-5.110773E-2,-1.620583E-2,8.159696E-3,-1.8893404E-2,2.4133265E-2,1.9788751E-3,4.952432E-2,9.623729E-3],"split_indices":[59,58,19,67,0,9,65,9,65,67,65,0,0,0,0,0,0,0,0,0,0],"split_type":[0,0,0,0,0,0,0,0,0,0,0,0,0,0,0,0,0,0,0,0,0],"sum_hessian":[6.546276E2,2.1205437E2,4.4257324E2,1.0315978E2,1.0889458E2,3.5400552E2,8.8567726E1,2.4292076E1,7.886771E1,2.5975162E2,9.425392E1,8.534688E1,3.2208433E0,1.4048343E1,1.0243733E1,8.167892E0,7.0699814E1,4.4954838E1,2.1479677E2,3.775654E1,5.6497383E1],"tree_param":{"num_deleted":"0","num_feature":"72","num_nodes":"21","size_leaf_vector":"1"}},{"base_weights":[1.9922372E-2,-1.0597498E0,4.342913E-1,-5.3460896E-1,-7.324089E-2,2.1391855E-1,7.190915E-2,-5.786542E-1,3.4167357E-3,2.4942176E-3,4.20885E-1,-5.3929754E-2,-2.3079969E-2,4.1758064E-3,-1.8072614E-2,2.8202672E-2,-0E0],"categories":[],"categories_nodes":[],"categories_segments":[],"categories_sizes":[],"default_left":[0,0,0,0,0,0,0,0,0,0,0,0,0,0,0,0,0],"id":8,"left_children":[1,3,5,7,-1,9,-1,11,-1,13,15,-1,-1,-1,-1,-1,-1],"loss_changes":[2.8406125E2,3.383618E1,9.9598656E1,2.7349472E0,0E0,1.6234644E1,0E0,1.9729023E0,0E0,5.465927E0,1.150576E1,0E0,0E0,0E0,0E0,0E0,0E0],"parents":[2147483647,0,0,1,1,2,2,3,3,5,5,7,7,9,9,10,10],"right_children":[2,4,6,8,-1,10,-1,12,-1,14,16,-1,-1,-1,-1,-1,-1],"split_conditions":[1.2441045E0,2.0042195E0,3.769949E0,3.9266807E-4,-7.324089E-2,1.3676958E0,7.190915E-2,9.944498E-4,3.4167357E-3,3.6723781E-3,2.4394724E-3,-5.3929754E-2,-2.3079969E-2,4.1758064E-3,-1.8072614E-2,2.8202672E-2,-0E0],"split_indices":[9,8,29,64,0,0,0,65,0,69,65,0,0,0,0,0,0],"split_type":[0,0,0,0,0,0,0,0,0,0,0,0,0,0,0,0,0],"sum_hessian":[6.322809E2,1.7382841E2,4.5845248E2,7.879056E1,9.503786E1,3.7873538E2,7.9717094E1,7.504741E1,3.743147E0,1.907414E2,1.8799399E2,9.500203E0,6.55472E1,1.5951811E2,3.1223278E1,1.3994943E2,4.804456E1],"tree_param":{"num_deleted":"0","num_feature":"72","num_nodes":"17","size_leaf_vector":"1"}},{"base_weights":[1.331308E-3,-1.0392507E0,3.9366594E-1,-4.4503638E-1,-1.3372797E0,1.6777518E-1,7.0334665E-2,-5.3843766E-1,1.6476734E-2,-0E0,-1.3807185E0,-1.802438E-1,2.6638758E-1,-2.9294524E-2,-0E0,-7.008181E-2,-1.2713638E-2,6.3944845E-3,-2.2437349E-2,-8.130403E-3,1.5742565E-2],"categories":[],"categories_nodes":[],"categories_segments":[],"categories_sizes":[],"default_left":[0,0,0,0,0,0,0,0,0,0,0,0,0,0,0,0,0,0,0,0,0],"id":9,"left_children":[1,3,5,7,9,11,-1,13,-1,-1,15,17,19,-1,-1,-1,-1,-1,-1,-1,-1],"loss_changes":[2.567088E2,2.7469757E1,1.0286681E2,5.015709E0,5.202713E0,1.3153227E1,0E0,1.5130157E0,0E0,0E0,1.7922974E-1,7.253258E0,6.4409637E0,0E0,0E0,0E0,0E0,0E0,0E0,0E0,0E0],"parents":[2147483647,0,0,1,1,2,2,3,3,4,4,5,5,7,7,10,10,11,11,12,12],"right_children":[2,4,6,8,10,12,-1,14,-1,-1,16,18,20,-1,-1,-1,-1,-1,-1,-1,-1],"split_conditions":[1.2441045E0,1.109289E0,3.3067853E0,5.903795E-1,-3.572922E-3,1.4068613E0,7.0334665E-2,9.917145E-3,1.6476734E-2,-0E0,7.2269742E-3,5.72772E-1,-4.081282E-3,-2.9294524E-2,-0E0,-7.008181E-2,-1.2713638E-2,6.3944845E-3,-2.2437349E-2,-8.130403E-3,1.5742565E-2],"split_indices":[9,43,4,62,66,20,0,70,0,0,70,46,66,0,0,0,0,0,0,0,0],"split_type":[0,0,0,0,0,0,0,0,0,0,0,0,0,0,0,0,0,0,0,0,0],"sum_hessian":[6.2637024E2,1.6990025E2,4.5646997E2,5.9536808E1,1.1036344E2,3.759556E2,8.051439E1,5.482635E1,4.710459E0,4.229806E0,1.0613364E2,8.040327E1,2.9555234E2,5.040177E1,4.4245777E0,1.0284744E2,3.2861905E0,3.619222E1,4.4211052E1,2.742698E1,2.6812534E2],"tree_param":{"num_deleted":"0","num_feature":"72","num_nodes":"21","size_leaf_vector":"1"}},{"base_weights":[-0E0,-7.982851E-1,4.8809332E-1,-3.4805065E-1,-6.935519E-2,2.3399596E-1,1.3439819E0,-3.7766433E-1,1.2077785E-2,-4.3469585E-2,3.3329663E-1,6.862664E-2,8.609379E-3,1.9053131E-3,-2.0488743E-2,3.800395E-2,-6.4269076E-3,-1.9319374E-2,2.0058904E-2],"categories":[],"categories_nodes":[],"categories_segments":[],"categories_sizes":[],"default_left":[0,0,0,0,0,0,0,0,0,0,0,0,0,0,0,0,0,0,0],"id":10,"left_children":[1,3,5,7,-1,9,11,13,-1,15,17,-1,-1,-1,-1,-1,-1,-1,-1],"loss_changes":[2.4449666E2,6.0414032E1,8.2491776E1,2.7376251E0,0E0,8.684444E0,9.211273E-1,2.1960812E0,0E0,4.97352E0,1.1389406E1,0E0,0E0,0E0,0E0,0E0,0E0,0E0,0E0],"parents":[2147483647,0,0,1,1,2,2,3,3,5,5,6,6,7,7,9,9,10,10],"right_children":[2,4,6,8,-1,10,12,14,-1,16,18,-1,-1,-1,-1,-1,-1,-1,-1],"split_conditions":[1.8769206E0,1.6405246E0,7.623587E-1,3.872316E-4,-6.935519E-2,7.4189E-1,2.849972E-3,-4.3223207E-3,1.2077785E-2,6.343293E-1,-2.8490808E-4,6.862664E-2,8.609379E-3,1.9053131E-3,-2.0488743E-2,3.800395E-2,-6.4269076E-3,-1.9319374E-2,2.0058904E-2],"split_indices":[9,43,19,64,0,15,65,66,0,46,64,0,0,0,0,0,0,0,0],"split_type":[0,0,0,0,0,0,0,0,0,0,0,0,0,0,0,0,0,0,0],"sum_hessian":[6.235303E2,2.3607321E2,3.8745706E2,1.3654553E2,9.952769E1,3.016253E2,8.583177E1,1.3231483E2,4.2306924E0,7.71387E1,2.2448659E2,8.2622635E1,3.2091315E0,7.2267065E0,1.2508813E2,4.7400136E0,7.239868E1,1.7270264E1,2.0721632E2],"tree_param":{"num_deleted":"0","num_feature":"72","num_nodes":"19","size_leaf_vector":"1"}},{"base_weights":[1.1937778E-2,-1.0152692E0,3.3763546E-1,-5.6786877E-1,-6.869941E-2,1.3954173E-1,6.7365065E-2,-3.9632227E-2,-6.465318E-1,-1.3839025E-2,4.1002014E-1,-1.9598238E-2,7.5701787E-3,-2.1425208E-2,-4.64188E-2,1.7315803E-2,-5.761804E-3,-8.952334E-3,2.6596485E-2],"categories":[],"categories_nodes":[],"categories_segments":[],"categories_sizes":[],"default_left":[0,0,0,0,0,0,0,0,0,0,0,0,0,0,0,0,0,0,0],"id":11,"left_children":[1,3,5,7,-1,9,-1,11,13,15,17,-1,-1,-1,-1,-1,-1,-1,-1],"loss_changes":[2.0912581E2,2.06091E1,9.350516E1,2.2337494E0,0E0,1.7071371E1,0E0,1.237367E0,1.562582E0,9.1937E0,1.1155617E1,0E0,0E0,0E0,0E0,0E0,0E0,0E0,0E0],"parents":[2147483647,0,0,1,1,2,2,3,3,5,5,7,7,8,8,9,9,10,10],"right_children":[2,4,6,8,-1,10,-1,12,14,16,18,-1,-1,-1,-1,-1,-1,-1,-1],"split_conditions":[2.4632733E-1,3.1800697E0,2.764909E0,-3.1263942E-3,-6.869941E-2,1.6663024E-1,6.7365065E-2,7.8541476E-1,1.109289E0,2.1446159E-3,-4.0558414E-3,-1.9598238E-2,7.5701787E-3,-2.1425208E-2,-4.64188E-2,1.7315803E-2,-5.761804E-3,-8.952334E-3,2.6596485E-2],"split_indices":[23,58,29,66,0,60,0,58,43,67,66,0,0,0,0,0,0,0,0],"split_type":[0,0,0,0,0,0,0,0,0,0,0,0,0,0,0,0,0,0,0],"sum_hessian":[6.2305536E2,1.4823555E2,4.7481985E2,6.9503456E1,7.873209E1,3.996721E2,7.5147766E1,1.1046212E1,5.8457245E1,2.5389554E2,1.4577655E2,4.984398E0,6.061814E0,3.7802757E1,2.0654488E1,5.254969E1,2.0134584E2,2.3428736E1,1.2234781E2],"tree_param":{"num_deleted":"0","num_feature":"72","num_nodes":"19","size_leaf_vector":"1"}},{"base_weights":[6.0616196E-3,-1.1115233E0,3.056448E-1,-4.0094063E-1,-1.2815306E0,1.250906E-1,6.606438E-2,-6.6969234E-1,2.3595008E-1,-6.514305E-2,-8.791038E-3,-2.0794151E-2,3.4332624E-1,-3.863838E-2,-4.3548523E-3,3.7678562E-2,-8.10721E-3,9.117183E-3,-8.929089E-3,-1.311736E-3,2.1490557E-2],"categories":[],"categories_nodes":[],"categories_segments":[],"categories_sizes":[],"default_left":[0,0,0,0,0,0,0,0,0,0,0,0,0,0,0,0,0,0,0,0,0],"id":12,"left_children":[1,3,5,7,9,11,-1,13,15,-1,-1,17,19,-1,-1,-1,-1,-1,-1,-1,-1],"loss_changes":[2.0880844E2,1.3193207E1,8.888463E1,5.7926044E0,5.203552E-1,1.3798127E1,0E0,3.4731674E-1,2.7145915E0,0E0,0E0,8.156405E0,5.9318676E0,0E0,0E0,0E0,0E0,0E0,0E0,0E0,0E0],"parents":[2147483647,0,0,1,1,2,2,3,3,4,4,5,5,7,7,8,8,11,11,12,12],"right_children":[2,4,6,8,10,12,-1,14,16,-1,-1,18,20,-1,-1,-1,-1,-1,-1,-1,-1],"split_conditions":[2.595362E-2,1.2755957E0,6.0756745E0,5.903795E-1,6.126551E-3,1.3467644E0,6.606438E-2,5.7111485E-3,1.8860624E-3,-6.514305E-2,-8.791038E-3,8.692609E-4,-2.476034E-3,-3.863838E-2,-4.3548523E-3,3.7678562E-2,-8.10721E-3,9.117183E-3,-8.929089E-3,-1.311736E-3,2.1490557E-2],"split_indices":[23,43,9,62,70,46,0,70,65,0,0,69,66,0,0,0,0,0,0,0,0],"split_type":[0,0,0,0,0,0,0,0,0,0,0,0,0,0,0,0,0,0,0,0,0],"sum_hessian":[6.220408E2,1.2964523E2,4.9239557E2,2.7461754E1,1.0218348E2,4.2081653E2,7.1579025E1,2.0344158E1,7.1175957E0,9.901243E1,3.1710536E0,2.5055464E2,1.702619E2,1.52727375E1,5.07142E0,3.4099243E0,3.7076712E0,1.0662953E2,1.4392511E2,3.0360067E1,1.3990182E2],"tree_param":{"num_deleted":"0","num_feature":"72","num_nodes":"21","size_leaf_vector":"1"}},{"base_weights":[-1.1088266E-2,3.108725E-1,-9.81242E-1,8.236765E-2,1.1374779E0,-5.610827E-1,-6.5622985E-2,1.4797647E-1,-2.3905513E-1,-3.8872913E-2,1.2300035E0,-6.594798E-1,4.393407E-3,2.559758E-3,3.312611E-2,9.285241E-3,-1.7109368E-2,-1.3402352E-2,9.686937E-4,6.5533295E-2,-0E0,-3.5137665E-2,-3.2039457E-3,-8.282631E-3,1.3197224E-2],"categories":[],"categories_nodes":[],"categories_segments":[],"categories_sizes":[],"default_left":[0,0,0,0,0,0,0,0,0,0,0,0,0,0,0,0,0,0,0,0,0,0,0,0,0],"id":13,"left_children":[1,3,5,7,9,11,-1,13,15,17,19,21,23,-1,-1,-1,-1,-1,-1,-1,-1,-1,-1,-1,-1],"loss_changes":[1.9316608E2,8.585634E1,1.8130722E1,7.6778326E0,1.2056808E1,4.7146034E0,0E0,1.4505742E1,2.9147139E0,3.7073487E-1,8.322464E0,7.811489E-1,6.835322E-1,0E0,0E0,0E0,0E0,0E0,0E0,0E0,0E0,0E0,0E0,0E0,0E0],"parents":[2147483647,0,0,1,1,2,2,3,3,4,4,5,5,7,7,8,8,9,9,10,10,11,11,12,12],"right_children":[2,4,6,8,10,12,-1,14,16,18,20,22,24,-1,-1,-1,-1,-1,-1,-1,-1,-1,-1,-1,-1],"split_conditions":[3.4744903E-1,1.7868485E0,3.037018E0,4.058179E-3,-2.8490808E-4,3.2983734E-3,-6.5622985E-2,3.3197806E0,-3.4783155E-4,-3.4783155E-4,4.152263E-3,2.210142E-2,6.554073E-1,2.559758E-3,3.312611E-2,9.285241E-3,-1.7109368E-2,-1.3402352E-2,9.686937E-4,6.5533295E-2,-0E0,-3.5137665E-2,-3.2039457E-3,-8.282631E-3,1.3197224E-2],"split_indices":[43,23,43,69,64,65,0,9,64,64,65,71,62,0,0,0,0,0,0,0,0,0,0,0,0],"split_type":[0,0,0,0,0,0,0,0,0,0,0,0,0,0,0,0,0,0,0,0,0,0,0,0,0],"sum_hessian":[6.1232605E2,4.5999716E2,1.5232892E2,3.630465E2,9.695066E1,7.085475E1,8.147417E1,3.0498364E2,5.806285E1,6.366047E0,9.058461E1,6.157601E1,9.278737E0,2.6018726E2,4.4796375E1,9.136347E0,4.8926506E1,3.3094363E0,3.0566106E0,8.438412E1,6.200493E0,5.5502E1,6.0740147E0,3.7153492E0,5.563388E0],"tree_param":{"num_deleted":"0","num_feature":"72","num_nodes":"25","size_leaf_vector":"1"}},{"base_weights":[1.9590878E-3,-9.458209E-1,3.0127934E-1,-5.287958E-1,-6.472E-2,1.2175784E-1,6.3636914E-2,-5.917394E-1,1.1535476E-2,-5.6626845E-2,2.3439035E-1,-3.24778E-2,7.2754244E-3,2.7077658E-2,-5.7673356E-3,3.0872947E-2,6.774179E-3],"categories":[],"categories_nodes":[],"categories_segments":[],"categories_sizes":[],"default_left":[0,0,0,0,0,0,0,0,0,0,0,0,0,0,0,0,0],"id":14,"left_children":[1,3,5,7,-1,9,-1,11,-1,13,15,-1,-1,-1,-1,-1,-1],"loss_changes":[1.7096951E2,1.77975E1,7.861188E1,4.0009937E0,0E0,8.076013E0,0E0,3.5411148E0,0E0,4.9607124E0,8.323585E0,0E0,0E0,0E0,0E0,0E0,0E0],"parents":[2147483647,0,0,1,1,2,2,3,3,5,5,7,7,9,9,10,10],"right_children":[2,4,6,8,-1,10,-1,12,-1,14,16,-1,-1,-1,-1,-1,-1],"split_conditions":[7.7799034E-1,3.414438E0,2.6202092E0,3.872316E-4,-6.472E-2,9.69495E-1,6.3636914E-2,1.2441045E0,1.1535476E-2,-3.7111063E-3,1.0249297E-3,-3.24778E-2,7.2754244E-3,2.7077658E-2,-5.7673356E-3,3.0872947E-2,6.774179E-3],"split_indices":[20,43,19,64,0,23,0,9,0,66,65,0,0,0,0,0,0],"split_type":[0,0,0,0,0,0,0,0,0,0,0,0,0,0,0,0,0],"sum_hessian":[6.0092676E2,1.4239156E2,4.585352E2,6.842892E1,7.396265E1,3.8978467E2,6.875052E1,6.4815765E1,3.6131485E0,1.478072E2,2.4197748E2,6.1580753E1,3.2350116E0,1.0220056E1,1.3758714E2,4.5429935E1,1.9654753E2],"tree_param":{"num_deleted":"0","num_feature":"72","num_nodes":"17","size_leaf_vector":"1"}},{"base_weights":[-2.4186608E-3,-9.2401147E-1,2.8703395E-1,-5.00093E-1,-6.275452E-2,1.0673305E-1,6.2695615E-2,-5.906449E-1,2.1276658E-2,1.7136553E-1,-1.3431181E-1,-3.1780064E-2,-0E0,-5.6891427E-3,1.198233E-2,-2.0920826E-2,6.9433185E-3],"categories":[],"categories_nodes":[],"categories_segments":[],"categories_sizes":[],"default_left":[0,0,0,0,0,0,0,0,0,0,0,0,0,0,0,0,0],"id":15,"left_children":[1,3,5,7,-1,9,-1,11,-1,13,15,-1,-1,-1,-1,-1,-1],"loss_changes":[1.605567E2,1.7215416E1,7.776048E1,6.3542786E0,0E0,6.110417E0,0E0,1.9427414E0,0E0,6.2011433E0,6.5776286E0,0E0,0E0,0E0,0E0,0E0,0E0],"parents":[2147483647,0,0,1,1,2,2,3,3,5,5,7,7,9,9,10,10],"right_children":[2,4,6,8,-1,10,-1,12,-1,14,16,-1,-1,-1,-1,-1,-1],"split_conditions":[1.1528437E0,2.5391219E0,3.3067853E0,3.872316E-4,-6.275452E-2,1.64078E-4,6.2695615E-2,2.2611655E-2,2.1276658E-2,3.334692E-1,1.5022364E-1,-3.1780064E-2,-0E0,-5.6891427E-3,1.198233E-2,-2.0920826E-2,6.9433185E-3],"split_indices":[9,39,4,64,0,68,0,71,0,15,60,0,0,0,0,0,0],"split_type":[0,0,0,0,0,0,0,0,0,0,0,0,0,0,0,0,0],"sum_hessian":[5.9550635E2,1.4211008E2,4.5339627E2,6.5843925E1,7.626615E1,3.848799E2,6.851636E1,6.161993E1,4.2239976E0,3.0722815E2,7.765178E1,5.774737E1,3.8725579E0,5.626826E1,2.5095988E2,3.9337822E1,3.8313957E1],"tree_param":{"num_deleted":"0","num_feature":"72","num_nodes":"17","size_leaf_vector":"1"}},{"base_weights":[-3.3815058E-3,-8.961572E-1,2.8314757E-1,-4.4281358E-1,-6.2258597E-2,1.15218036E-1,6.155922E-2,1.7292475E-2,-5.7414746E-1,-2.8827261E-2,3.1168783E-1,-3.0916447E-2,-0E0,-3.8950543E-3,1.6984401E-2,7.7303834E-3,3.255385E-2],"categories":[],"categories_nodes":[],"categories_segments":[],"categories_sizes":[],"default_left":[0,0,0,0,0,0,0,0,0,0,0,0,0,0,0,0,0],"id":16,"left_children":[1,3,5,7,-1,9,-1,-1,11,13,15,-1,-1,-1,-1,-1,-1],"loss_changes":[1.5023358E2,1.9828201E1,6.873122E1,7.516884E0,0E0,1.1014168E1,0E0,0E0,1.8131466E0,3.7211134E0,7.695713E0,0E0,0E0,0E0,0E0,0E0,0E0],"parents":[2147483647,0,0,1,1,2,2,3,3,5,5,8,8,9,9,10,10],"right_children":[2,4,6,8,-1,10,-1,-1,12,14,16,-1,-1,-1,-1,-1,-1],"split_conditions":[1.1572714E0,2.192876E0,2.764909E0,-4.2478372E-3,-6.2258597E-2,1.3467644E0,6.155922E-2,1.7292475E-2,4.675932E-1,-1.1114349E-3,-1.277467E-3,-3.0916447E-2,-0E0,-3.8950543E-3,1.6984401E-2,7.7303834E-3,3.255385E-2],"split_indices":[57,8,29,66,0,46,0,0,52,66,66,0,0,0,0,0,0],"split_type":[0,0,0,0,0,0,0,0,0,0,0,0,0,0,0,0,0],"sum_hessian":[5.809143E2,1.4095558E2,4.3995874E2,6.453378E1,7.642179E1,3.765558E2,6.3402946E1,7.6592035E0,5.6874584E1,2.1531241E2,1.612434E2,5.350399E1,3.370591E0,1.937961E2,2.1516306E1,1.1423113E2,4.701225E1],"tree_param":{"num_deleted":"0","num_feature":"72","num_nodes":"17","size_leaf_vector":"1"}},{"base_weights":[2.935424E-2,2.241422E-1,-1.1711718E0,6.280405E-2,1.101127E0,-6.002608E-2,-6.034659E-3,-2.0824976E-1,1.4310506E-1,1.1760057E0,-0E0,-2.1140547E-2,1.2097805E-2,9.557917E-3,-1.6260216E-2,6.069065E-2,4.635149E-3],"categories":[],"categories_nodes":[],"categories_segments":[],"categories_sizes":[],"default_left":[0,0,0,0,0,0,0,0,0,0,0,0,0,0,0,0,0],"id":17,"left_children":[1,3,5,7,9,-1,-1,11,13,15,-1,-1,-1,-1,-1,-1,-1],"loss_changes":[1.3542685E2,6.975814E1,8.7718964E-1,9.294408E0,6.113556E0,0E0,0E0,9.622036E0,7.498715E0,1.4126587E0,0E0,0E0,0E0,0E0,0E0,0E0,0E0],"parents":[2147483647,0,0,1,1,2,2,3,3,4,4,7,7,8,8,9,9],"right_children":[2,4,6,8,10,-1,-1,12,14,16,-1,-1,-1,-1,-1,-1,-1],"split_conditions":[1.399515E0,5.1906724E-2,9.164636E-3,3.3279422E-1,1.2899319E-2,-6.002608E-2,-6.034659E-3,2.2900868E-3,1.2899319E-2,4.1071107E-3,-0E0,-2.1140547E-2,1.2097805E-2,9.557917E-3,-1.6260216E-2,6.069065E-2,4.635149E-3],"split_indices":[58,4,71,46,70,0,0,65,70,65,0,0,0,0,0,0,0],"split_type":[0,0,0,0,0,0,0,0,0,0,0,0,0,0,0,0,0],"sum_hessian":[5.7892804E2,5.0022504E2,7.870304E1,4.2527167E2,7.495336E1,7.53599E1,3.3431358E0,9.362002E1,3.3165164E2,6.988632E1,5.067037E0,6.498979E1,2.8630226E1,3.0379788E2,2.7853767E1,6.640475E1,3.481575E0],"tree_param":{"num_deleted":"0","num_feature":"72","num_nodes":"17","size_leaf_vector":"1"}},{"base_weights":[-4.4387584E-3,1.8754712E-1,-1.1398342E0,2.4650998E-2,1.145703E0,-5.84264E-2,-1.5919084E-3,1.0313488E-1,-2.2898036E-1,5.9433002E-2,-0E0,8.272289E-3,-6.327071E-3,1.8088475E-3,-2.0909121E-2],"categories":[],"categories_nodes":[],"categories_segments":[],"categories_sizes":[],"default_left":[0,0,0,0,0,0,0,0,0,0,0,0,0,0,0],"id":18,"left_children":[1,3,5,7,9,-1,-1,11,13,-1,-1,-1,-1,-1,-1],"loss_changes":[1.2920886E2,7.7214554E1,1.4547348E0,8.530343E0,2.7530365E0,0E0,0E0,4.870339E0,5.419658E0,0E0,0E0,0E0,0E0,0E0,0E0],"parents":[2147483647,0,0,1,1,2,2,3,3,4,4,7,7,8,8],"right_children":[2,4,6,8,10,-1,-1,12,14,-1,-1,-1,-1,-1,-1],"split_conditions":[1.2755957E0,4.0367368E-1,3.460984E-2,6.062047E-2,3.98329E-3,-5.84264E-2,-1.5919084E-3,4.058179E-3,2.52654E-3,5.9433002E-2,-0E0,8.272289E-3,-6.327071E-3,1.8088475E-3,-2.0909121E-2],"split_indices":[43,41,59,43,65,0,0,69,70,0,0,0,0,0,0],"split_type":[0,0,0,0,0,0,0,0,0,0,0,0,0,0,0],"sum_hessian":[5.844258E2,5.0057208E2,8.385367E1,4.304811E2,7.009099E1,8.075068E1,3.1029947E0,3.3266916E2,9.781193E1,6.6923035E1,3.1679602E0,2.6554138E2,6.71278E1,3.920304E1,5.8608887E1],"tree_param":{"num_deleted":"0","num_feature":"72","num_nodes":"15","size_leaf_vector":"1"}},{"base_weights":[4.29095E-2,2.1840541E-1,-1.1145356E0,8.568125E-2,1.1374114E0,-7.2330283E-3,-5.7688214E-2,-2.2113055E-1,1.857502E-1,-0E0,5.9215236E-2,-1.4904833E-2,4.176221E-3,3.460273E-3,1.695033E-2],"categories":[],"categories_nodes":[],"categories_segments":[],"categories_sizes":[],"default_left":[0,0,0,0,0,0,0,0,0,0,0,0,0,0,0],"id":19,"left_children":[1,3,5,7,9,-1,-1,11,13,-1,-1,-1,-1,-1,-1],"loss_changes":[1.16890785E2,6.004046E1,1.2443924E0,1.36599455E1,2.5812988E0,0E0,0E0,2.785133E0,5.5799637E0,0E0,0E0,0E0,0E0,0E0,0E0],"parents":[2147483647,0,0,1,1,2,2,3,3,4,4,7,7,8,8],"right_children":[2,4,6,8,10,-1,-1,12,14,-1,-1,-1,-1,-1,-1],"split_conditions":[1.5388837E0,1.3706971E0,5.386425E-1,5.284644E-1,-1.3258184E-4,-7.2330283E-3,-5.7688214E-2,2.2900868E-3,1.5981263E-1,-0E0,5.9215236E-2,-1.4904833E-2,4.176221E-3,3.460273E-3,1.695033E-2],"split_indices":[58,4,52,59,64,0,0,65,60,0,0,0,0,0,0],"split_type":[0,0,0,0,0,0,0,0,0,0,0,0,0,0,0],"sum_hessian":[5.754719E2,5.018641E2,7.360783E1,4.413922E2,6.0471897E1,4.2169247E0,6.939091E1,1.0550397E2,3.3588824E2,3.008899E0,5.7463E1,8.6880486E1,1.862348E1,1.9615166E2,1.3973657E2],"tree_param":{"num_deleted":"0","num_feature":"72","num_nodes":"15","size_leaf_vector":"1"}},{"base_weights":[3.1895757E-2,1.8639001E-1,-5.752927E-2,4.825569E-2,1.1181084E0,-2.707444E-1,1.3283822E-1,6.8778335E-3,5.8001E-2,1.4843635E-2,-1.8041044E-2,8.211836E-3,-2.0045338E-2],"categories":[],"categories_nodes":[],"categories_segments":[],"categories_sizes":[],"default_left":[0,0,0,0,0,0,0,0,0,0,0,0,0],"id":20,"left_children":[1,3,-1,5,7,9,11,-1,-1,-1,-1,-1,-1],"loss_changes":[1.0401224E2,6.418597E1,0E0,1.1967175E1,1.0399933E0,4.9639997E0,5.8665977E0,0E0,0E0,0E0,0E0,0E0,0E0],"parents":[2147483647,0,0,1,1,3,3,4,4,5,5,6,6],"right_children":[2,4,-1,6,8,10,12,-1,-1,-1,-1,-1,-1],"split_conditions":[2.192876E0,1.099568E0,-5.752927E-2,1.0505238E0,-1.3258184E-4,4.7827E-1,3.0093357E-2,6.8778335E-3,5.8001E-2,1.4843635E-2,-1.8041044E-2,8.211836E-3,-2.0045338E-2],"split_indices":[8,4,0,20,64,57,71,0,0,0,0,0,0],"split_type":[0,0,0,0,0,0,0,0,0,0,0,0,0],"sum_hessian":[5.702781E2,5.0661758E2,6.3660484E1,4.439722E2,6.2645386E1,8.9646996E1,3.543252E2,3.8969662E0,5.8748417E1,1.0128569E1,7.9518425E1,3.3771655E2,1.6608643E1],"tree_param":{"num_deleted":"0","num_feature":"72","num_nodes":"13","size_leaf_vector":"1"}},{"base_weights":[-1.0209239E-2,-6.9106954E-1,2.4326187E-1,-3.5243917E-1,-5.7497382E-2,1.06572315E-1,5.734421E-2,4.1650617E-1,-4.4987595E-1,1.41120115E-2,3.5710502E-1,4.3503016E-2,-0E0,-9.850318E-3,-3.303839E-2,1.5482823E-2,-2.2859008E-3,3.7036236E-2,5.0069885E-3],"categories":[],"categories_nodes":[],"categories_segments":[],"categories_sizes":[],"default_left":[0,0,0,0,0,0,0,0,0,0,0,0,0,0,0,0,0,0,0],"id":21,"left_children":[1,3,5,7,-1,9,-1,11,13,15,17,-1,-1,-1,-1,-1,-1,-1,-1],"loss_changes":[9.831601E1,2.175808E1,4.942005E1,7.396225E0,0E0,7.986576E0,0E0,2.8190193E0,3.4092197E0,5.0463223E0,8.314595E0,0E0,0E0,0E0,0E0,0E0,0E0,0E0,0E0],"parents":[2147483647,0,0,1,1,2,2,3,3,5,5,7,7,8,8,9,9,10,10],"right_children":[2,4,6,8,-1,10,-1,12,14,16,18,-1,-1,-1,-1,-1,-1,-1,-1],"split_conditions":[1.0505238E0,2.192876E0,3.769949E0,4.7827E-1,-5.7497382E-2,2.0021458E0,5.734421E-2,1.2101801E-4,2.902461E-3,2.1480324E-3,1.7565977E-3,4.3503016E-2,-0E0,-9.850318E-3,-3.303839E-2,1.5482823E-2,-2.2859008E-3,3.7036236E-2,5.0069885E-3],"split_indices":[20,8,29,57,0,0,0,64,67,67,65,0,0,0,0,0,0,0,0],"split_type":[0,0,0,0,0,0,0,0,0,0,0,0,0,0,0,0,0,0,0],"sum_hessian":[5.631459E2,1.5290723E2,4.1023868E2,9.126977E1,6.1637455E1,3.5923956E2,5.099909E1,8.373781E0,8.289599E1,2.6685837E2,9.238122E1,4.101196E0,4.272585E0,4.1611664E1,4.1284325E1,4.6335598E1,2.2052277E2,3.39865E1,5.8394714E1],"tree_param":{"num_deleted":"0","num_feature":"72","num_nodes":"19","size_leaf_vector":"1"}},{"base_weights":[-0E0,-8.257757E-1,1.999273E-1,-3.5968947E-1,-5.49297E-2,7.196324E-2,5.6829788E-2,-5.458103E-1,1.3282449E-2,-6.106806E-2,2.6009613E-1,-3.1429928E-2,-0E0,2.4986174E-2,-1.0908335E-2,-4.767729E-3,3.4329023E-2,-7.4329334E-3,1.824004E-2],"categories":[],"categories_nodes":[],"categories_segments":[],"categories_sizes":[],"default_left":[0,0,0,0,0,0,0,0,0,0,0,0,0,0,0,0,0,0,0],"id":22,"left_children":[1,3,5,7,-1,9,-1,11,13,15,17,-1,-1,-1,-1,-1,-1,-1,-1],"loss_changes":[9.292956E1,1.1711235E1,5.2805115E1,3.6612134E0,0E0,1.0260603E1,0E0,1.4899826E0,2.1994505E0,5.519141E0,7.578574E0,0E0,0E0,0E0,0E0,0E0,0E0,0E0,0E0],"parents":[2147483647,0,0,1,1,2,2,3,3,5,5,7,7,8,8,9,9,10,10],"right_children":[2,4,6,8,-1,10,-1,12,14,16,18,-1,-1,-1,-1,-1,-1,-1,-1],"split_conditions":[1.4452098E-1,1.5388837E0,3.769949E0,7.4745584E-1,-5.49297E-2,1.3371882E0,5.6829788E-2,1.784619E-4,-2.1603673E-3,4.5087147E-3,-2.4587607E-3,-3.1429928E-2,-0E0,2.4986174E-2,-1.0908335E-2,-4.767729E-3,3.4329023E-2,-7.4329334E-3,1.824004E-2],"split_indices":[23,58,29,58,0,46,0,64,66,65,66,0,0,0,0,0,0,0,0],"split_type":[0,0,0,0,0,0,0,0,0,0,0,0,0,0,0,0,0,0,0],"sum_hessian":[5.577892E2,1.0778428E2,4.5000488E2,4.286147E1,6.4922806E1,3.9875043E2,5.1254482E1,2.9763304E1,1.3098165E1,2.3125928E2,1.6749113E2,2.5718428E1,4.044876E0,4.8684473E0,8.229717E0,2.2406624E2,7.193036E0,3.2036007E1,1.3545514E2],"tree_param":{"num_deleted":"0","num_feature":"72","num_nodes":"19","size_leaf_vector":"1"}},{"base_weights":[1.6986586E-2,1.6688335E-1,-5.3881522E-2,5.68208E-2,5.6237776E-2,-9.386815E-2,1.8593381E-1,-7.627703E-3,1.5494727E-2,6.988582E-3,5.3374153E-2],"categories":[],"categories_nodes":[],"categories_segments":[],"categories_sizes":[],"default_left":[0,0,0,0,0,0,0,0,0,0,0],"id":23,"left_children":[1,3,-1,5,-1,7,9,-1,-1,-1,-1],"loss_changes":[9.267195E1,5.164184E1,0E0,8.950997E0,0E0,4.843021E0,8.60691E0,0E0,0E0,0E0,0E0],"parents":[2147483647,0,0,1,1,3,3,5,5,6,6],"right_children":[2,4,-1,6,-1,8,10,-1,-1,-1,-1],"split_conditions":[1.399515E0,3.3067853E0,-5.3881522E-2,7.4189E-1,5.6237776E-2,2.6172458E-3,3.744764E-4,-7.627703E-3,1.5494727E-2,6.988582E-3,5.3374153E-2],"split_indices":[58,4,0,15,0,65,64,0,0,0,0],"split_type":[0,0,0,0,0,0,0,0,0,0,0],"sum_hessian":[5.661575E2,5.0026047E2,6.589698E1,4.5153973E2,4.872073E1,2.0503839E2,2.4650134E2,1.8226733E2,2.2771059E1,2.3751537E2,8.985979E0],"tree_param":{"num_deleted":"0","num_feature":"72","num_nodes":"11","size_leaf_vector":"1"}},{"base_weights":[3.5518367E-2,1.8466881E-1,-1.0764097E0,-1.6020263E-2,6.8235105E-1,-5.599445E-2,-0E0,-2.4748339E-1,4.9868118E-2,4.3248674E-1,5.5523273E-2,-1.1165269E-3,-2.8918425E-2,1.1910365E-2,-2.2573792E-3,1.2495235E-2,4.6376925E-2],"categories":[],"categories_nodes":[],"categories_segments":[],"categories_sizes":[],"default_left":[0,0,0,0,0,0,0,0,0,0,0,0,0,0,0,0,0],"id":24,"left_children":[1,3,5,7,9,-1,-1,11,13,15,-1,-1,-1,-1,-1,-1,-1],"loss_changes":[9.049428E1,4.9254402E1,2.2381592E0,5.514895E0,1.2601799E1,0E0,0E0,5.3779073E0,5.018389E0,6.8480415E0,0E0,0E0,0E0,0E0,0E0,0E0,0E0],"parents":[2147483647,0,0,1,1,2,2,3,3,4,4,7,7,8,8,9,9],"right_children":[2,4,6,8,10,-1,-1,12,14,16,-1,-1,-1,-1,-1,-1,-1],"split_conditions":[1.6405246E0,1.6929109E0,7.6347804E-3,1.0185511E0,3.769949E0,-5.599445E-2,-0E0,3.383972E-3,8.755068E-1,-1.4235291E-3,5.5523273E-2,-1.1165269E-3,-2.8918425E-2,1.1910365E-2,-2.2573792E-3,1.2495235E-2,4.6376925E-2],"split_indices":[43,46,67,20,29,0,0,70,46,66,0,0,0,0,0,0,0],"split_type":[0,0,0,0,0,0,0,0,0,0,0,0,0,0,0,0,0],"sum_hessian":[5.46637E2,4.8424863E2,6.2388367E1,3.450389E2,1.3920973E2,5.9270313E1,3.1180556E0,7.8596756E1,2.6644214E2,9.191866E1,4.7291073E1,4.9839993E1,2.8756763E1,9.186291E1,1.7457922E2,7.082647E1,2.1092194E1],"tree_param":{"num_deleted":"0","num_feature":"72","num_nodes":"17","size_leaf_vector":"1"}},{"base_weights":[-2.0021932E-2,1.5929547E-1,-8.076827E-1,3.2828093E-2,1.0478616E0,-4.343143E-1,-5.4840263E-2,-6.766133E-2,2.1999717E-1,5.434201E-2,2.099858E-3,1.0014326E-2,-7.9589045E-1,-9.921571E-4,-2.4394346E-2,-3.1286236E-2,1.6403208E-2,3.1473745E-2,-1.055979E-2,-4.7704343E-2,-1.2832509E-2],"categories":[],"categories_nodes":[],"categories_segments":[],"categories_sizes":[],"default_left":[0,0,0,0,0,0,0,0,0,0,0,0,0,0,0,0,0,0,0,0,0],"id":25,"left_children":[1,3,5,7,9,11,-1,13,15,-1,-1,17,19,-1,-1,-1,-1,-1,-1,-1,-1],"loss_changes":[7.912389E1,4.9613728E1,8.749275E0,7.6772733E0,9.454155E-1,8.872322E0,0E0,4.6440487E0,1.3196638E1,0E0,0E0,3.8731701E0,7.7013016E-1,0E0,0E0,0E0,0E0,0E0,0E0,0E0,0E0],"parents":[2147483647,0,0,1,1,2,2,3,3,4,4,5,5,7,7,8,8,11,11,12,12],"right_children":[2,4,6,8,10,12,-1,14,16,-1,-1,18,20,-1,-1,-1,-1,-1,-1,-1,-1],"split_conditions":[5.28399E-1,1.099568E0,2.0042195E0,1.2497932E0,7.916202E-3,5.1230716E-4,-5.4840263E-2,1.1776625E0,-2.78249E-4,5.434201E-2,2.099858E-3,4.572352E-5,3.4029393E-3,-9.921571E-4,-2.4394346E-2,-3.1286236E-2,1.6403208E-2,3.1473745E-2,-1.055979E-2,-4.7704343E-2,-1.2832509E-2],"split_indices":[43,4,8,23,67,69,0,23,64,0,0,64,69,0,0,0,0,0,0,0,0],"split_type":[0,0,0,0,0,0,0,0,0,0,0,0,0,0,0,0,0,0,0,0,0],"sum_hessian":[5.5179126E2,4.49732E2,1.0205922E2,3.9649866E2,5.3233356E1,4.8233856E1,5.3825363E1,2.5534201E2,1.4115663E2,5.013537E1,3.0979898E0,2.1272161E1,2.6961695E1,2.3327174E2,2.2070274E1,1.3859521E1,1.2729712E2,5.8157E0,1.5456462E1,1.8222643E1,8.739052E0],"tree_param":{"num_deleted":"0","num_feature":"72","num_nodes":"21","size_leaf_vector":"1"}},{"base_weights":[-2.0354174E-2,1.0152253E-1,-5.447792E-2,-3.3687197E-2,8.198947E-1,-2.1965405E-1,2.6860587E-2,9.5582575E-1,-8.339906E-3,4.6561956E-3,-1.506792E-2,-0E0,2.9301358E-2,5.353544E-2,-0E0,2.3570647E-2,-3.4122687E-2],"categories":[],"categories_nodes":[],"categories_segments":[],"categories_sizes":[],"default_left":[0,0,0,0,0,0,0,0,0,0,0,0,0,0,0,0,0],"id":26,"left_children":[1,3,-1,5,7,9,11,13,15,-1,-1,-1,-1,-1,-1,-1,-1],"loss_changes":[7.1992935E1,4.8299442E1,0E0,4.843129E0,9.817585E0,2.9593334E0,4.7914352E0,7.741745E0,4.74613E0,0E0,0E0,0E0,0E0,0E0,0E0,0E0,0E0],"parents":[2147483647,0,0,1,1,3,3,4,4,5,5,6,6,7,7,8,8],"right_children":[2,4,-1,6,8,10,12,14,16,-1,-1,-1,-1,-1,-1,-1,-1],"split_conditions":[2.0042195E0,1.7559731E0,-5.447792E-2,-1.2743888E-4,8.069411E-3,1.166115E-3,3.1090651E-3,1.4542885E-2,1.4564996E-4,4.6561956E-3,-1.506792E-2,-0E0,2.9301358E-2,5.353544E-2,-0E0,2.3570647E-2,-3.4122687E-2],"split_indices":[8,23,0,64,67,65,69,70,64,0,0,0,0,0,0,0,0],"split_type":[0,0,0,0,0,0,0,0,0,0,0,0,0,0,0,0,0],"sum_hessian":[5.4119E2,4.8659833E2,5.4591663E1,4.0995255E2,7.664578E1,1.0345635E2,3.064962E2,6.6612526E1,1.0033263E1,1.88348E1,8.462155E1,2.9389627E2,1.2599901E1,5.943168E1,7.1808424E0,5.3463397E0,4.6869235E0],"tree_param":{"num_deleted":"0","num_feature":"72","num_nodes":"17","size_leaf_vector":"1"}},{"base_weights":[-2.216345E-2,1.1454429E-1,-9.173442E-1,1.1623688E-2,5.3911444E-2,-9.8154235E-1,-0E0,1.7254882E-1,-9.21185E-2,-5.2013647E-2,-2.4872317E-3,3.7110576E-3,2.1006463E-2,-4.391934E-2,-2.2891136E-3],"categories":[],"categories_nodes":[],"categories_segments":[],"categories_sizes":[],"default_left":[0,0,0,0,0,0,0,0,0,0,0,0,0,0,0],"id":27,"left_children":[1,3,5,7,-1,9,-1,11,13,-1,-1,-1,-1,-1,-1],"loss_changes":[6.8318924E1,4.6287514E1,3.6841354E0,7.370607E0,0E0,2.555603E0,0E0,3.7008724E0,8.536351E0,0E0,0E0,0E0,0E0,0E0,0E0],"parents":[2147483647,0,0,1,1,2,2,3,3,5,5,7,7,8,8],"right_children":[2,4,6,8,-1,10,-1,12,14,-1,-1,-1,-1,-1,-1],"split_conditions":[1.0336193E0,2.919109E0,6.090008E-3,1.0156804E-3,5.3911444E-2,1.0908504E-2,-0E0,6.42992E-5,1.0311679E-3,-5.2013647E-2,-2.4872317E-3,3.7110576E-3,2.1006463E-2,-4.391934E-2,-2.2891136E-3],"split_indices":[43,41,67,69,0,71,0,69,71,0,0,0,0,0,0],"split_type":[0,0,0,0,0,0,0,0,0,0,0,0,0,0,0],"sum_hessian":[5.4798364E2,4.7592902E2,7.205462E1,4.3277127E2,4.3157753E1,6.650828E1,5.5463433E0,1.7289262E2,2.5987866E2,6.133627E1,5.172009E0,1.284978E2,4.4394817E1,1.1263085E1,2.4861557E2],"tree_param":{"num_deleted":"0","num_feature":"72","num_nodes":"15","size_leaf_vector":"1"}},{"base_weights":[-3.3121041E-3,-6.563189E-1,1.9177201E-1,-3.3497813E-1,-5.148625E-2,7.8279644E-2,1.0001813E0,-4.7805348E-1,1.723892E-2,1.0449623E-2,3.3478403E-1,-0E0,5.298713E-2,-2.9274246E-2,-8.432733E-3,1.1310902E-2,-2.4674121E-2,1.3686809E-3,-3.19372E-2,1.8179268E-3,3.7346214E-2],"categories":[],"categories_nodes":[],"categories_segments":[],"categories_sizes":[],"default_left":[0,0,0,0,0,0,0,0,0,0,0,0,0,0,0,0,0,0,0,0,0],"id":28,"left_children":[1,3,5,7,-1,9,11,13,15,17,19,-1,-1,-1,-1,-1,-1,-1,-1,-1,-1],"loss_changes":[6.947256E1,1.3038193E1,3.6926952E1,4.1060543E0,0E0,6.0503426E0,2.4397545E0,8.1988144E-1,2.166648E0,2.677702E0,8.240851E0,0E0,0E0,0E0,0E0,0E0,0E0,0E0,0E0,0E0,0E0],"parents":[2147483647,0,0,1,1,2,2,3,3,5,5,6,6,7,7,8,8,9,9,10,10],"right_children":[2,4,6,8,-1,10,12,14,16,18,20,-1,-1,-1,-1,-1,-1,-1,-1,-1,-1],"split_conditions":[6.1242588E-2,1.5388837E0,1.0249727E0,4.936126E-1,-5.148625E-2,2.4530306E0,-4.0343073E-3,1.1572714E0,-1.2419272E-3,1.0473702E0,-1.976887E-3,-0E0,5.298713E-2,-2.9274246E-2,-8.432733E-3,1.1310902E-2,-2.4674121E-2,1.3686809E-3,-3.19372E-2,1.8179268E-3,3.7346214E-2],"split_indices":[0,58,4,62,0,20,66,57,66,37,66,0,0,0,0,0,0,0,0,0,0],"split_type":[0,0,0,0,0,0,0,0,0,0,0,0,0,0,0,0,0,0,0,0,0],"sum_hessian":[5.377253E2,1.2378294E2,4.1394232E2,7.000834E1,5.377461E1,3.6599155E2,4.7950798E1,5.1295876E1,1.8712461E1,2.9417892E2,7.181263E1,3.2845993E0,4.46662E1,3.435142E1,1.6944454E1,1.5459015E1,3.253447E0,2.9007297E2,4.105945E0,4.432225E1,2.7490377E1],"tree_param":{"num_deleted":"0","num_feature":"72","num_nodes":"21","size_leaf_vector":"1"}},{"base_weights":[1.1760784E-2,-6.834386E-1,1.9658287E-1,-3.140002E-1,-9.807997E-1,8.7024875E-2,9.132039E-1,3.232182E-2,-5.4448605E-1,-5.183022E-2,-2.2826115E-4,1.7259704E-4,3.3540043E-1,1.0002533E0,-0E0,1.9442962E-2,-2.7966602E-2,-3.0798469E-2,-0E0,1.1485695E-3,-2.2568075E-2,2.5443232E-2,-4.4928333E-3,5.425368E-2,-0E0],"categories":[],"categories_nodes":[],"categories_segments":[],"categories_sizes":[],"default_left":[0,0,0,0,0,0,0,0,0,0,0,0,0,0,0,0,0,0,0,0,0,0,0,0,0],"id":29,"left_children":[1,3,5,7,9,11,13,15,17,-1,-1,19,21,23,-1,-1,-1,-1,-1,-1,-1,-1,-1,-1,-1],"loss_changes":[6.860473E1,1.0371735E1,3.2273495E1,4.881802E0,2.1910324E0,7.705992E0,5.0575905E0,4.8742123E0,1.457344E0,0E0,0E0,2.4869893E0,7.414913E0,4.4487762E0,0E0,0E0,0E0,0E0,0E0,0E0,0E0,0E0,0E0,0E0,0E0],"parents":[2147483647,0,0,1,1,2,2,3,3,4,4,5,5,6,6,7,7,8,8,11,11,12,12,13,13],"right_children":[2,4,6,8,10,12,14,16,18,-1,-1,20,22,24,-1,-1,-1,-1,-1,-1,-1,-1,-1,-1,-1],"split_conditions":[7.7799034E-1,1.4372169E0,4.3940634E-2,1.3685337E-3,6.706016E-3,8.119149E-1,1.2899319E-2,1.4398144E-1,2.210142E-2,-5.183022E-2,-2.2826115E-4,1.4599609E0,4.058179E-3,8.089423E-3,-0E0,1.9442962E-2,-2.7966602E-2,-3.0798469E-2,-0E0,1.1485695E-3,-2.2568075E-2,2.5443232E-2,-4.4928333E-3,5.425368E-2,-0E0],"split_indices":[20,43,19,71,67,37,70,59,71,0,0,23,69,67,0,0,0,0,0,0,0,0,0,0,0],"split_type":[0,0,0,0,0,0,0,0,0,0,0,0,0,0,0,0,0,0,0,0,0,0,0,0,0],"sum_hessian":[5.336358E2,1.0980464E2,4.2383115E2,5.2301098E1,5.750354E1,3.7078357E2,5.304758E1,1.9852352E1,3.244875E1,5.3308243E1,4.1952963E0,2.7918524E2,9.15983E1,4.8938232E1,4.109346E0,1.386989E1,5.982461E0,2.8758125E1,3.6906235E0,2.6968146E2,9.503793E0,6.645097E1,2.514733E1,4.5064327E1,3.8739073E0],"tree_param":{"num_deleted":"0","num_feature":"72","num_nodes":"25","size_leaf_vector":"1"}},{"base_weights":[1.2031679E-2,1.4400235E-1,-8.798551E-1,2.1990476E-2,8.401325E-1,-3.991344E-1,-5.1896986E-2,-2.2585714E-2,2.58153E-1,1.0079842E0,-4.2647846E-2,6.7195515E-3,-3.2636244E-2,2.3524044E-2,-2.2646647E-3,3.7978157E-2,1.9132422E-4,5.5586487E-2,-0E0,4.9754786E-3,-2.3937488E-2],"categories":[],"categories_nodes":[],"categories_segments":[],"categories_sizes":[],"default_left":[0,0,0,0,0,0,0,0,0,0,0,0,0,0,0,0,0,0,0,0,0],"id":30,"left_children":[1,3,5,7,9,11,-1,13,15,17,19,-1,-1,-1,-1,-1,-1,-1,-1,-1,-1],"loss_changes":[6.2803997E1,3.911184E1,2.948288E0,4.5012217E0,1.1271923E1,3.6423936E0,0E0,3.4041345E0,7.88772E0,5.7531395E0,1.217644E0,0E0,0E0,0E0,0E0,0E0,0E0,0E0,0E0,0E0,0E0],"parents":[2147483647,0,0,1,1,2,2,3,3,4,4,5,5,7,7,8,8,9,9,10,10],"right_children":[2,4,6,8,10,12,-1,14,16,18,20,-1,-1,-1,-1,-1,-1,-1,-1,-1,-1],"split_conditions":[1.0336193E0,2.3658767E0,2.192876E0,3.3062854E0,4.6987017E-3,4.1562903E-1,-5.1896986E-2,8.014074E-1,1.7541082E0,8.315288E-3,6.914102E-1,6.7195515E-3,-3.2636244E-2,2.3524044E-2,-2.2646647E-3,3.7978157E-2,1.9132422E-4,5.5586487E-2,-0E0,4.9754786E-3,-2.3937488E-2],"split_indices":[43,46,8,9,69,57,0,57,59,67,4,0,0,0,0,0,0,0,0,0,0],"split_type":[0,0,0,0,0,0,0,0,0,0,0,0,0,0,0,0,0,0,0,0,0],"sum_hessian":[5.356796E2,4.6907056E2,6.660911E1,4.0209448E2,6.697607E1,1.9793686E1,4.6815422E1,3.362087E2,6.588578E1,5.698926E1,9.986805E0,5.4094815E0,1.4384205E1,1.1126844E1,3.2508185E2,1.9512121E1,4.6373653E1,5.1148186E1,5.8410764E0,6.96651E0,3.0202951E0],"tree_param":{"num_deleted":"0","num_feature":"72","num_nodes":"21","size_leaf_vector":"1"}},{"base_weights":[1.2828427E-2,1.3157676E-1,-8.4598756E-1,4.7598228E-2,5.1948298E-2,-0E0,-9.2572916E-1,-2.190707E-2,2.61303E-1,-9.783223E-1,-4.851731E-3,1.9060484E-3,-1.7192608E-2,3.5053305E-2,3.014758E-4,-5.0548326E-2,-3.7427067E-3],"categories":[],"categories_nodes":[],"categories_segments":[],"categories_sizes":[],"default_left":[0,0,0,0,0,0,0,0,0,0,0,0,0,0,0,0,0],"id":31,"left_children":[1,3,5,7,-1,-1,9,11,13,15,-1,-1,-1,-1,-1,-1,-1],"loss_changes":[5.343603E1,3.442425E1,4.6710052E0,6.6502366E0,0E0,0E0,1.2829361E0,6.5820966E0,1.1567915E1,3.442955E-1,0E0,0E0,0E0,0E0,0E0,0E0,0E0],"parents":[2147483647,0,0,1,1,2,2,3,3,6,6,7,7,8,8,9,9],"right_children":[2,4,6,8,-1,-1,10,12,14,16,-1,-1,-1,-1,-1,-1,-1],"split_conditions":[1.0336193E0,3.3067853E0,-2.8479511E-3,1.5630414E0,5.1948298E-2,-0E0,9.756913E-3,2.019258E0,1.7814612E-3,7.465506E-1,-4.851731E-3,1.9060484E-3,-1.7192608E-2,3.5053305E-2,3.014758E-4,-5.0548326E-2,-3.7427067E-3],"split_indices":[43,4,66,15,0,0,71,20,65,57,0,0,0,0,0,0,0],"split_type":[0,0,0,0,0,0,0,0,0,0,0,0,0,0,0,0,0],"sum_hessian":[5.2679236E2,4.6531174E2,6.148059E1,4.2883063E2,3.6481136E1,5.014737E0,5.6465855E1,3.214107E2,1.0741992E2,5.1621838E1,4.844016E0,2.697683E2,5.1642387E1,3.6731697E1,7.0688225E1,4.8523758E1,3.0980828E0],"tree_param":{"num_deleted":"0","num_feature":"72","num_nodes":"17","size_leaf_vector":"1"}},{"base_weights":[-1.0219442E-2,-4.706625E-1,2.1594225E-1,-2.8523678E-1,-4.949207E-2,1.14614174E-1,5.181229E-2,-6.1371315E-2,-5.8612245E-1,5.4595258E-2,2.6358905E-1,-9.567614E-3,2.05349E-2,-3.232578E-2,-0E0,4.433003E-3,-3.4455016E-2,2.3544813E-2,-1.3436158E-2],"categories":[],"categories_nodes":[],"categories_segments":[],"categories_sizes":[],"default_left":[0,0,0,0,0,0,0,0,0,0,0,0,0,0,0,0,0,0,0],"id":32,"left_children":[1,3,5,7,-1,9,-1,11,13,15,17,-1,-1,-1,-1,-1,-1,-1,-1],"loss_changes":[5.4951756E1,1.4955002E1,2.7773752E1,8.224E0,0E0,2.4749599E0,0E0,4.8632593E0,2.5178814E0,5.4062176E0,9.871422E0,0E0,0E0,0E0,0E0,0E0,0E0,0E0,0E0],"parents":[2147483647,0,0,1,1,2,2,3,3,5,5,7,7,8,8,9,9,10,10],"right_children":[2,4,6,8,-1,10,-1,12,14,16,18,-1,-1,-1,-1,-1,-1,-1,-1],"split_conditions":[6.504722E-1,2.1154907E0,2.5656724E0,3.2175367E-3,-4.949207E-2,2.0021458E0,5.181229E-2,4.2837337E-3,7.477791E-1,4.5161122E-1,5.1410343E-3,-9.567614E-3,2.05349E-2,-3.232578E-2,-0E0,4.433003E-3,-3.4455016E-2,2.3544813E-2,-1.3436158E-2],"split_indices":[23,8,5,70,0,0,0,71,62,60,67,0,0,0,0,0,0,0,0],"split_type":[0,0,0,0,0,0,0,0,0,0,0,0,0,0,0,0,0,0,0],"sum_hessian":[5.2130133E2,1.724564E2,3.488449E2,1.3077484E2,4.168157E1,3.1360532E2,3.523962E1,7.8270996E1,5.250385E1,2.3027695E2,8.332836E1,6.3966034E1,1.4304959E1,4.8820587E1,3.6832626E0,2.231613E2,7.115644E0,6.149046E1,2.18379E1],"tree_param":{"num_deleted":"0","num_feature":"72","num_nodes":"19","size_leaf_vector":"1"}},{"base_weights":[-3.8543209E-3,9.246694E-2,-4.954538E-2,1.5127745E-2,5.100417E-2,2.9708984E-1,-3.902324E-2,-2.9590473E-2,2.1919744E-2,-6.3518807E-3,6.2659862E-3],"categories":[],"categories_nodes":[],"categories_segments":[],"categories_sizes":[],"default_left":[0,0,0,0,0,0,0,0,0,0,0],"id":33,"left_children":[1,3,-1,5,-1,7,9,-1,-1,-1,-1],"loss_changes":[5.0565998E1,3.3018982E1,0E0,7.0234284E0,0E0,9.70416E0,5.3742213E0,0E0,0E0,0E0,0E0],"parents":[2147483647,0,0,1,1,3,3,5,5,6,6],"right_children":[2,4,-1,6,-1,8,10,-1,-1,-1,-1],"split_conditions":[1.5388837E0,3.649067E0,-4.954538E-2,1.0128698E-3,5.100417E-2,3.0117628E-1,1.5981263E-1,-2.9590473E-2,2.1919744E-2,-6.3518807E-3,6.2659862E-3],"split_indices":[58,5,0,65,0,46,60,0,0,0,0],"split_type":[0,0,0,0,0,0,0,0,0,0,0],"sum_hessian":[5.1848083E2,4.7311188E2,4.536894E1,4.3957346E2,3.35384E1,7.234904E1,3.6722443E2,8.078275E0,6.427076E1,2.4340628E2,1.2381815E2],"tree_param":{"num_deleted":"0","num_feature":"72","num_nodes":"11","size_leaf_vector":"1"}},{"base_weights":[7.338336E-3,-9.2859364E-1,1.1454593E-1,-4.984693E-2,-0E0,5.440604E-4,6.8310755E-1,3.2244075E-2,-3.2938135E-1,-2.3613742E-1,8.1515247E-1,-0E0,2.5579184E-2,-3.146904E-2,1.5122296E-2,1.1938191E-2,-4.0787663E-2,4.8092756E-2,-1.2993272E-3],"categories":[],"categories_nodes":[],"categories_segments":[],"categories_sizes":[],"default_left":[0,0,0,0,0,0,0,0,0,0,0,0,0,0,0,0,0,0,0],"id":34,"left_children":[1,3,5,-1,-1,7,9,11,13,15,17,-1,-1,-1,-1,-1,-1,-1,-1],"loss_changes":[5.0712578E1,2.8158913E0,2.9234203E1,0E0,0E0,3.7816136E0,1.01437645E1,5.0926967E0,6.6634865E0,3.7462668E0,9.318733E0,0E0,0E0,0E0,0E0,0E0,0E0,0E0,0E0],"parents":[2147483647,0,0,1,1,2,2,5,5,6,6,7,7,8,8,9,9,10,10],"right_children":[2,4,6,-1,-1,8,10,12,14,16,18,-1,-1,-1,-1,-1,-1,-1,-1],"split_conditions":[6.739212E-2,9.756913E-3,2.154353E0,-4.984693E-2,-0E0,1.2279356E-2,-4.1018184E-3,2.0940335E-2,3.34804E-4,-4.2478372E-3,1.5486725E-2,-0E0,2.5579184E-2,-3.146904E-2,1.5122296E-2,1.1938191E-2,-4.0787663E-2,4.8092756E-2,-1.2993272E-3],"split_indices":[20,71,57,0,0,70,66,71,68,66,70,0,0,0,0,0,0,0,0],"split_type":[0,0,0,0,0,0,0,0,0,0,0,0,0,0,0,0,0,0,0],"sum_hessian":[5.0940515E2,4.982011E1,4.5958505E2,4.579184E1,4.0282702E0,3.859577E2,7.362736E1,3.5653635E2,2.9421331E1,8.098561E0,6.552879E1,3.3765335E2,1.888302E1,2.1027617E1,8.393717E0,4.1495376E0,3.9490232E0,5.6565132E1,8.963659E0],"tree_param":{"num_deleted":"0","num_feature":"72","num_nodes":"19","size_leaf_vector":"1"}},{"base_weights":[-0E0,-4.851808E-2,8.293283E-2,1.4732862E-2,5.0028052E-2,4.135474E-1,-2.1097664E-2,1.0918247E-2,4.3332204E-2,-9.64421E-3,2.54615E-3],"categories":[],"categories_nodes":[],"categories_segments":[],"categories_sizes":[],"default_left":[0,0,0,0,0,0,0,0,0,0,0],"id":35,"left_children":[1,-1,3,5,-1,7,9,-1,-1,-1,-1],"loss_changes":[4.135138E1,0E0,2.8899319E1,6.817691E0,0E0,2.0177016E0,5.2472577E0,0E0,0E0,0E0,0E0],"parents":[2147483647,0,0,2,2,3,3,5,5,6,6],"right_children":[2,-1,4,6,-1,8,10,-1,-1,-1,-1],"split_conditions":[1.1269987E-1,-4.851808E-2,3.769949E0,-2.0677952E-2,5.0028052E-2,-4.9984907E-3,6.553665E-1,1.0918247E-2,4.3332204E-2,-9.64421E-3,2.54615E-3],"split_indices":[57,0,29,71,0,69,59,0,0,0,0],"split_type":[0,0,0,0,0,0,0,0,0,0,0],"sum_hessian":[5.148971E2,3.8421013E1,4.764761E2,4.4641922E2,3.0056894E1,3.7363823E1,4.090554E2,2.9728472E1,7.6353526E0,1.2394512E2,2.8511026E2],"tree_param":{"num_deleted":"0","num_feature":"72","num_nodes":"11","size_leaf_vector":"1"}},{"base_weights":[2.659574E-2,1.0824552E-1,-4.7678757E-2,3.971729E-2,4.9872424E-2,-1.9122247E-1,1.22921385E-1,-1.2364591E-2,2.031157E-2,8.176497E-3,-1.0508046E-2],"categories":[],"categories_nodes":[],"categories_segments":[],"categories_sizes":[],"default_left":[0,0,0,0,0,0,0,0,0,0,0],"id":36,"left_children":[1,3,-1,5,-1,7,9,-1,-1,-1,-1],"loss_changes":[3.9828583E1,2.7493103E1,0E0,8.41487E0,0E0,3.8569126E0,4.4471955E0,0E0,0E0,0E0,0E0],"parents":[2147483647,0,0,1,1,3,3,5,5,6,6],"right_children":[2,4,-1,6,-1,8,10,-1,-1,-1,-1],"split_conditions":[2.0042195E0,3.769949E0,-4.7678757E-2,5.284644E-1,4.9872424E-2,2.2289367E-2,1.2899319E-2,-1.2364591E-2,2.031157E-2,8.176497E-3,-1.0508046E-2],"split_indices":[8,29,0,59,0,71,70,0,0,0,0],"split_type":[0,0,0,0,0,0,0,0,0,0,0],"sum_hessian":[5.0364908E2,4.6750455E2,3.614451E1,4.3703732E2,3.0467236E1,1.1188269E2,3.2515463E2,1.04885445E2,6.997247E0,2.934039E2,3.1750729E1],"tree_param":{"num_deleted":"0","num_feature":"72","num_nodes":"11","size_leaf_vector":"1"}},{"base_weights":[-8.484146E-3,6.502452E-2,-4.9550068E-2,-2.1853691E-2,7.2396374E-1,-1.8688715E-1,7.9985015E-2,9.206148E-1,-0E0,-2.883854E-2,-5.552713E-3,6.1129476E-3,-1.5253352E-2,4.9104482E-2,-0E0,-7.7886307E-3,2.6118616E-2],"categories":[],"categories_nodes":[],"categories_segments":[],"categories_sizes":[],"default_left":[0,0,0,0,0,0,0,0,0,0,0,0,0,0,0,0,0],"id":37,"left_children":[1,3,-1,5,7,9,11,13,15,-1,-1,-1,-1,-1,-1,-1,-1],"loss_changes":[3.8101833E1,2.8107944E1,0E0,7.247292E0,7.3388405E0,4.085861E0,4.112278E0,1.5065231E0,1.708641E0,0E0,0E0,0E0,0E0,0E0,0E0,0E0,0E0],"parents":[2147483647,0,0,1,1,3,3,4,4,5,5,6,6,7,7,8,8],"right_children":[2,4,-1,6,8,10,12,14,16,-1,-1,-1,-1,-1,-1,-1,-1],"split_conditions":[2.192876E0,1.7868485E0,-4.9550068E-2,7.6145285E-1,5.2378546E-3,9.5236854E-4,2.3312658E-2,1.6554728E-2,8.67969E-3,-2.883854E-2,-5.552713E-3,6.1129476E-3,-1.5253352E-2,4.9104482E-2,-0E0,-7.7886307E-3,2.6118616E-2],"split_indices":[8,23,0,59,67,65,71,70,67,0,0,0,0,0,0,0,0],"split_type":[0,0,0,0,0,0,0,0,0,0,0,0,0,0,0,0,0],"sum_hessian":[5.1094888E2,4.7617303E2,3.4775837E1,4.2107257E2,5.5100468E1,1.6379149E2,2.572811E2,4.1970676E1,1.3129792E1,2.2371778E1,1.4141971E2,2.353992E2,2.1881887E1,3.8200165E1,3.7705116E0,9.928887E0,3.2009041E0],"tree_param":{"num_deleted":"0","num_feature":"72","num_nodes":"17","size_leaf_vector":"1"}},{"base_weights":[1.6370399E-2,8.582251E-2,-4.723754E-2,2.350392E-2,4.91883E-2,-9.917322E-2,7.289787E-2,-0E0,-2.2162216E-2,8.642021E-3,-2.4085774E-3],"categories":[],"categories_nodes":[],"categories_segments":[],"categories_sizes":[],"default_left":[0,0,0,0,0,0,0,0,0,0,0],"id":38,"left_children":[1,3,-1,5,-1,7,9,-1,-1,-1,-1],"loss_changes":[3.352874E1,2.586129E1,0E0,2.732253E0,0E0,4.015983E0,4.1321826E0,0E0,0E0,0E0,0E0],"parents":[2147483647,0,0,1,1,3,3,5,5,6,6],"right_children":[2,4,-1,6,-1,8,10,-1,-1,-1,-1],"split_conditions":[2.3863025E0,3.3067853E0,-4.723754E-2,3.1999493E-1,4.91883E-2,1.4230827E0,3.6090103E-3,-0E0,-2.2162216E-2,8.642021E-3,-2.4085774E-3],"split_indices":[62,4,0,15,0,57,67,0,0,0,0],"split_type":[0,0,0,0,0,0,0,0,0,0,0],"sum_hessian":[5.1072717E2,4.789774E2,3.1749784E1,4.508535E2,2.8123882E1,1.2302982E2,3.2782367E2,9.83295E1,2.470032E1,1.8363657E2,1.441871E2],"tree_param":{"num_deleted":"0","num_feature":"72","num_nodes":"11","size_leaf_vector":"1"}},{"base_weights":[-2.244036E-2,4.30251E-2,-4.5767523E-2,-1.1985157E-2,4.8187554E-2,-1.7787096E-1,9.1002405E-2,4.4456348E-4,-1.8396977E-2,1.7749948E-2,-1.5079126E-3],"categories":[],"categories_nodes":[],"categories_segments":[],"categories_sizes":[],"default_left":[0,0,0,0,0,0,0,0,0,0,0],"id":39,"left_children":[1,3,-1,5,-1,7,9,-1,-1,-1,-1],"loss_changes":[2.9504389E1,2.406938E1,0E0,7.486148E0,0E0,6.384746E0,8.779276E0,0E0,0E0,0E0,0E0],"parents":[2147483647,0,0,1,1,3,3,5,5,6,6],"right_children":[2,4,-1,6,-1,8,10,-1,-1,-1,-1],"split_conditions":[2.1154907E0,3.769949E0,-4.5767523E-2,8.838744E-1,4.8187554E-2,2.5730375E-3,2.527841E-3,4.4456348E-4,-1.8396977E-2,1.7749948E-2,-1.5079126E-3],"split_indices":[8,29,0,23,0,70,67,0,0,0,0],"split_type":[0,0,0,0,0,0,0,0,0,0,0],"sum_hessian":[4.8646826E2,4.5396838E2,3.249989E1,4.2921228E2,2.475611E1,1.6756497E2,2.616473E2,8.282547E1,8.47395E1,8.3689674E1,1.7795763E2],"tree_param":{"num_deleted":"0","num_feature":"72","num_nodes":"11","size_leaf_vector":"1"}},{"base_weights":[-0E0,7.150771E-2,-4.486082E-2,-0E0,7.9381776E-1,3.6477756E-2,-1.2520574E-2,-1.1077967E-2,9.5340705E-1,-1.223028E-2,6.2193855E-4,5.090412E-2,-0E0],"categories":[],"categories_nodes":[],"categories_segments":[],"categories_sizes":[],"default_left":[0,0,0,0,0,0,0,0,0,0,0,0,0],"id":40,"left_children":[1,3,-1,5,7,-1,9,-1,11,-1,-1,-1,-1],"loss_changes":[3.252625E1,2.3207531E1,0E0,4.4518914E0,7.729061E0,0E0,2.6521852E0,0E0,1.4527931E0,0E0,0E0,0E0,0E0],"parents":[2147483647,0,0,1,1,3,3,4,4,6,6,8,8],"right_children":[2,4,-1,6,8,-1,10,-1,12,-1,-1,-1,-1],"split_conditions":[1.5388837E0,1.9909095E0,-4.486082E-2,-8.724922E-3,-4.1018184E-3,3.6477756E-2,6.886897E-1,-1.1077967E-2,1.7049585E-2,-1.223028E-2,6.2193855E-4,5.090412E-2,-0E0],"split_indices":[58,23,0,69,66,0,20,0,70,0,0,0,0],"split_type":[0,0,0,0,0,0,0,0,0,0,0,0,0],"sum_hessian":[4.950098E2,4.5953607E2,3.5473732E1,4.2096213E2,3.857394E1,6.2415376E0,4.147206E2,4.2827168E0,3.429122E1,4.245128E1,3.7226932E2,3.1228409E1,3.0628126E0],"tree_param":{"num_deleted":"0","num_feature":"72","num_nodes":"13","size_leaf_vector":"1"}},{"base_weights":[-1.7581861E-2,-8.124537E-2,4.5355752E-2,-1.8516343E-2,-4.4916462E-2,3.2239046E-2,-3.0961055E-1,-4.569569E-4,1.7354721E-2,-2.5048072E-2,-5.717398E-4],"categories":[],"categories_nodes":[],"categories_segments":[],"categories_sizes":[],"default_left":[0,0,0,0,0,0,0,0,0,0,0],"id":41,"left_children":[1,3,-1,5,-1,7,9,-1,-1,-1,-1],"loss_changes":[2.8168781E1,2.2693981E1,0E0,6.6739473E0,0E0,5.1178E0,3.3099627E0,0E0,0E0,0E0,0E0],"parents":[2147483647,0,0,1,1,3,3,5,5,6,6],"right_children":[2,4,-1,6,-1,8,10,-1,-1,-1,-1],"split_conditions":[1.3706971E0,2.0042195E0,4.5355752E-2,4.406263E-3,-4.4916462E-2,1.8134924E0,6.955139E-3,-4.569569E-4,1.7354721E-2,-2.5048072E-2,-5.717398E-4],"split_indices":[4,8,0,69,0,59,69,0,0,0,0],"split_type":[0,0,0,0,0,0,0,0,0,0,0],"sum_hessian":[4.8802075E2,4.593043E2,2.871646E1,4.2959286E2,2.9711445E1,3.6439914E2,6.51937E1,3.2098172E2,4.3417423E1,3.683888E1,2.8354828E1],"tree_param":{"num_deleted":"0","num_feature":"72","num_nodes":"11","size_leaf_vector":"1"}},{"base_weights":[-2.62824E-2,3.309219E-2,-8.2148796E-1,-1.4419349E-2,4.6974264E-2,-0E0,-4.506551E-2,9.413619E-2,-1.1299161E-1,4.5482462E-5,1.5803708E-2,-1.7635988E-2,-1.480833E-3],"categories":[],"categories_nodes":[],"categories_segments":[],"categories_sizes":[],"default_left":[0,0,0,0,0,0,0,0,0,0,0,0,0],"id":42,"left_children":[1,3,5,7,-1,-1,-1,9,11,-1,-1,-1,-1],"loss_changes":[2.390713E1,2.0559649E1,2.3238869E0,4.679388E0,0E0,0E0,0E0,3.874155E0,4.25305E0,0E0,0E0,0E0,0E0],"parents":[2147483647,0,0,1,1,2,2,3,3,7,7,8,8],"right_children":[2,4,6,8,-1,-1,-1,10,12,-1,-1,-1,-1],"split_conditions":[1.5863686E0,6.190239E0,-3.572922E-3,1.2819051E-3,4.6974264E-2,-0E0,-4.506551E-2,1.3467644E0,1.8142186E0,4.5482462E-5,1.5803708E-2,-1.7635988E-2,-1.480833E-3],"split_indices":[58,15,66,69,0,0,0,46,9,0,0,0,0],"split_type":[0,0,0,0,0,0,0,0,0,0,0,0,0],"sum_hessian":[4.864965E2,4.5330908E2,3.3187412E1,4.3155276E2,2.1756332E1,3.0959182E0,3.0091494E1,2.0059114E2,2.3096161E2,1.4584283E2,5.4748306E1,5.483613E1,1.7612549E2],"tree_param":{"num_deleted":"0","num_feature":"72","num_nodes":"13","size_leaf_vector":"1"}},{"base_weights":[3.487556E-2,-6.88838E-1,1.2061221E-1,-2.7247715E-1,-4.686385E-2,6.9523506E-2,4.697628E-2,-5.0079936E-1,1.1012087E-2,1.7579824E-2,2.2010456E-1,-0E0,-3.015844E-2,1.9149523E-2,-8.012067E-5,1.8484265E-2,-6.0309484E-3],"categories":[],"categories_nodes":[],"categories_segments":[],"categories_sizes":[],"default_left":[0,0,0,0,0,0,0,0,0,0,0,0,0,0,0,0,0],"id":43,"left_children":[1,3,5,7,-1,9,-1,11,-1,13,15,-1,-1,-1,-1,-1,-1],"loss_changes":[2.9684166E1,3.4950275E0,1.712056E1,3.107351E0,0E0,2.9938588E0,0E0,6.4711094E-1,0E0,2.5907936E0,5.4912505E0,0E0,0E0,0E0,0E0,0E0,0E0],"parents":[2147483647,0,0,1,1,2,2,3,3,5,5,7,7,9,9,10,10],"right_children":[2,4,6,8,-1,10,-1,12,-1,14,16,-1,-1,-1,-1,-1,-1],"split_conditions":[2.6200548E-1,2.192876E0,3.769949E0,1.3323315E0,-4.686385E-2,2.2774255E0,4.697628E-2,5.5564463E-1,1.1012087E-2,9.231677E-1,5.8973506E-3,-0E0,-3.015844E-2,1.9149523E-2,-8.012067E-5,1.8484265E-2,-6.0309484E-3],"split_indices":[20,8,29,62,0,20,0,39,0,57,67,0,0,0,0,0,0],"split_type":[0,0,0,0,0,0,0,0,0,0,0,0,0,0,0,0,0],"sum_hessian":[4.8288028E2,4.8420937E1,4.3445935E2,2.1166492E1,2.7254442E1,4.121386E2,2.2320744E1,1.5828459E1,5.3380337E0,3.130313E2,9.910728E1,3.7594314E0,1.2069028E1,1.632122E1,2.967101E2,7.07933E1,2.8313976E1],"tree_param":{"num_deleted":"0","num_feature":"72","num_nodes":"17","size_leaf_vector":"1"}},{"base_weights":[-5.94745E-3,4.9636286E-2,-4.319212E-2,2.4377552E-4,4.6493594E-2,-6.831863E-2,2.0041624E-1,-1.7279489E-3,-2.1494018E-2,-8.23948E-3,1.6498273E-2],"categories":[],"categories_nodes":[],"categories_segments":[],"categories_sizes":[],"default_left":[0,0,0,0,0,0,0,0,0,0,0],"id":44,"left_children":[1,3,-1,5,-1,7,9,-1,-1,-1,-1],"loss_changes":[2.395777E1,1.8847918E1,0E0,6.11341E0,0E0,3.4229696E0,5.7106166E0,0E0,0E0,0E0,0E0],"parents":[2147483647,0,0,1,1,3,3,5,5,6,6],"right_children":[2,4,-1,6,-1,8,10,-1,-1,-1,-1],"split_conditions":[1.5863686E0,3.769949E0,-4.319212E-2,1.8757432E0,4.6493594E-2,1.2943305E0,-2.4453169E-3,-1.7279489E-3,-2.1494018E-2,-8.23948E-3,1.6498273E-2],"split_indices":[58,29,0,57,0,23,66,0,0,0,0],"split_type":[0,0,0,0,0,0,0,0,0,0,0],"sum_hessian":[4.815442E2,4.5291788E2,2.8626293E1,4.3182364E2,2.1094234E1,3.189125E2,1.1291114E2,2.9621164E2,2.2700855E1,2.7401577E1,8.550957E1],"tree_param":{"num_deleted":"0","num_feature":"72","num_nodes":"11","size_leaf_vector":"1"}},{"base_weights":[1.000732E-2,-4.1228943E-2,7.228559E-2,2.705441E-2,4.5985065E-2,-0E0,6.7035186E-1,1.6801136E-3,-1.4026033E-2,-0E0,4.2160645E-2],"categories":[],"categories_nodes":[],"categories_segments":[],"categories_sizes":[],"default_left":[0,0,0,0,0,0,0,0,0,0,0],"id":45,"left_children":[1,-1,3,5,-1,7,9,-1,-1,-1,-1],"loss_changes":[2.4641932E1,0E0,1.6461226E1,6.9683385E0,0E0,3.7650256E0,1.9808793E0,0E0,0E0,0E0,0E0],"parents":[2147483647,0,0,2,2,3,3,5,5,6,6],"right_children":[2,-1,4,6,-1,8,10,-1,-1,-1,-1],"split_conditions":[3.6198264E-1,-4.1228943E-2,3.649067E0,3.744764E-4,4.5985065E-2,1.2899319E-2,3.9508164E-1,1.6801136E-3,-1.4026033E-2,-0E0,4.2160645E-2],"split_indices":[57,0,5,64,0,70,59,0,0,0,0],"split_type":[0,0,0,0,0,0,0,0,0,0,0],"sum_hessian":[4.8427698E2,3.0813276E1,4.534637E2,4.3356586E2,1.9897854E1,4.1934955E2,1.4216304E1,3.7897073E2,4.037882E1,3.1812527E0,1.103505E1],"tree_param":{"num_deleted":"0","num_feature":"72","num_nodes":"11","size_leaf_vector":"1"}},{"base_weights":[6.8859555E-2,1.19528204E-1,-4.2978052E-2,6.2638864E-2,7.184076E-1,1.8623285E-1,-1.0207202E-2,8.17453E-1,-0E0,-4.020762E-3,1.3788971E-2,-1.8813878E-2,4.3472997E-3,4.758178E-2,8.4372434E-5],"categories":[],"categories_nodes":[],"categories_segments":[],"categories_sizes":[],"default_left":[0,0,0,0,0,0,0,0,0,0,0,0,0,0,0],"id":46,"left_children":[1,3,-1,5,7,9,11,13,-1,-1,-1,-1,-1,-1,-1],"loss_changes":[2.244934E1,1.500812E1,0E0,4.0454955E0,2.8949394E0,4.16551E0,9.848644E0,2.790945E0,0E0,0E0,0E0,0E0,0E0,0E0,0E0],"parents":[2147483647,0,0,1,1,3,3,4,4,5,5,6,6,7,7],"right_children":[2,4,-1,6,8,10,12,14,-1,-1,-1,-1,-1,-1,-1],"split_conditions":[3.414438E0,3.7221715E-2,-4.2978052E-2,8.267702E-4,8.089423E-3,1.2441045E0,4.625781E-3,2.1251203E-2,-0E0,-4.020762E-3,1.3788971E-2,-1.8813878E-2,4.3472997E-3,4.758178E-2,8.4372434E-5],"split_indices":[43,19,0,69,67,9,71,71,0,0,0,0,0,0,0],"split_type":[0,0,0,0,0,0,0,0,0,0,0,0,0,0,0],"sum_hessian":[4.8658423E2,4.6407678E2,2.250743E1,4.273596E2,3.6717197E1,1.624144E2,2.649452E2,3.223562E1,4.481579E0,3.807445E1,1.2433994E2,5.652136E1,2.0842384E2,2.634351E1,5.8921075E0],"tree_param":{"num_deleted":"0","num_feature":"72","num_nodes":"15","size_leaf_vector":"1"}},{"base_weights":[-2.529556E-2,-1.00906014E-1,6.221654E-1,-4.8549276E-2,-4.229834E-2,8.537103E-1,-1.1205789E-2,1.5086709E-1,-1.0248252E-1,-5.431436E-3,4.9420636E-2,-3.5160843E-1,1.8566199E-2,-1.0994058E-2,2.9175201E-2,-9.58838E-3,2.9078051E-3,-0E0,-3.5238545E-2],"categories":[],"categories_nodes":[],"categories_segments":[],"categories_sizes":[],"default_left":[0,0,0,0,0,0,0,0,0,0,0,0,0,0,0,0,0,0,0],"id":47,"left_children":[1,3,5,7,-1,9,11,13,15,-1,-1,17,-1,-1,-1,-1,-1,-1,-1],"loss_changes":[2.3093256E1,1.5904068E1,8.057793E0,4.3674526E0,0E0,5.9057083E0,2.058422E0,1.4038276E1,4.8323154E0,0E0,0E0,1.6851968E0,0E0,0E0,0E0,0E0,0E0,0E0,0E0],"parents":[2147483647,0,0,1,1,2,2,3,3,5,5,6,6,7,7,8,8,11,11],"right_children":[2,4,6,8,-1,10,12,14,16,-1,-1,18,-1,-1,-1,-1,-1,-1,-1],"split_conditions":[1.7760919E0,2.5391219E0,5.7893405E-3,1.0249297E-3,-4.229834E-2,-3.34804E-4,8.67969E-3,8.346301E-1,2.3910043E-5,-5.431436E-3,4.9420636E-2,4.152263E-3,1.8566199E-2,-1.0994058E-2,2.9175201E-2,-9.58838E-3,2.9078051E-3,-0E0,-3.5238545E-2],"split_indices":[23,39,67,65,0,64,67,59,64,0,0,65,0,0,0,0,0,0,0],"split_type":[0,0,0,0,0,0,0,0,0,0,0,0,0,0,0,0,0,0,0],"sum_hessian":[4.7780887E2,4.3073987E2,4.7068985E1,4.057029E2,2.5036968E1,3.511492E1,1.1954063E1,8.165399E1,3.2404892E2,3.4476473E0,3.1667273E1,7.7941284E0,4.1599355E0,4.3257015E1,3.8396976E1,2.1203477E2,1.1201415E2,3.9636097E0,3.8305185E0],"tree_param":{"num_deleted":"0","num_feature":"72","num_nodes":"19","size_leaf_vector":"1"}},{"base_weights":[-3.3218393E-3,-8.148654E-2,5.7240665E-1,-3.4555193E-2,-4.2391807E-2,4.8965767E-2,2.8649935E-1,3.8392588E-1,-5.191648E-2,-1.3079918E-2,3.7865147E-1,-3.6657162E-3,3.331765E-2,2.661517E-2,-3.2289082E-3,-0E0,2.6128879E-2],"categories":[],"categories_nodes":[],"categories_segments":[],"categories_sizes":[],"default_left":[0,0,0,0,0,0,0,0,0,0,0,0,0,0,0,0,0],"id":48,"left_children":[1,3,5,7,-1,-1,9,11,13,-1,15,-1,-1,-1,-1,-1,-1],"loss_changes":[2.162058E1,1.4670665E1,4.8283596E0,2.7036228E0,0E0,0E0,2.2278848E0,2.5462801E0,2.55966E0,0E0,2.345316E0,0E0,0E0,0E0,0E0,0E0,0E0],"parents":[2147483647,0,0,1,1,2,2,3,3,6,6,7,7,8,8,10,10],"right_children":[2,4,6,8,-1,-1,10,12,14,-1,16,-1,-1,-1,-1,-1,-1],"split_conditions":[2.2649877E0,2.3863025E0,1.7565977E-3,-4.4452297E-3,-4.2391807E-2,4.8965767E-2,1.848349E-3,1.6518228E-5,-8.801877E-3,-1.3079918E-2,-4.162419E-3,-3.6657162E-3,3.331765E-2,2.661517E-2,-3.2289082E-3,-0E0,2.6128879E-2],"split_indices":[59,62,65,66,0,0,65,64,69,0,66,0,0,0,0,0,0],"split_type":[0,0,0,0,0,0,0,0,0,0,0,0,0,0,0,0,0],"sum_hessian":[4.872758E2,4.320691E2,5.520669E1,4.1033517E2,2.1733908E1,1.9337286E1,3.5869408E1,1.2368732E1,3.9796646E2,3.0715356E0,3.279787E1,3.9362166E0,8.432516E0,5.0255227E0,3.9294092E2,7.940058E0,2.4857813E1],"tree_param":{"num_deleted":"0","num_feature":"72","num_nodes":"17","size_leaf_vector":"1"}},{"base_weights":[-2.5837783E-2,1.84775E-2,-4.3282725E-2,-1.8032346E-2,4.4659507E-2,-8.738254E-2,9.7967856E-2,-5.6464085E-3,3.0132353E-2,-7.3298174E-3,1.2820259E-2],"categories":[],"categories_nodes":[],"categories_segments":[],"categories_sizes":[],"default_left":[0,0,0,0,0,0,0,0,0,0,0],"id":49,"left_children":[1,3,-1,5,-1,7,9,-1,-1,-1,-1],"loss_changes":[1.8923265E1,1.5641321E1,0E0,3.5762768E0,0E0,4.6554346E0,6.4457808E0,0E0,0E0,0E0,0E0],"parents":[2147483647,0,0,1,1,3,3,5,5,6,6],"right_children":[2,4,-1,6,-1,8,10,-1,-1,-1,-1],"split_conditions":[2.0042195E0,3.769949E0,-4.3282725E-2,1.7717113E0,4.4659507E-2,3.9618174E-4,2.965163E-3,-5.6464085E-3,3.0132353E-2,-7.3298174E-3,1.2820259E-2],"split_indices":[8,29,0,57,0,64,71,0,0,0,0],"split_type":[0,0,0,0,0,0,0,0,0,0,0],"sum_hessian":[4.8283853E2,4.5936414E2,2.3474377E1,4.4174173E2,1.7622427E1,2.8216483E2,1.5957689E2,2.7510214E2,7.0626745E0,6.0313953E1,9.926293E1],"tree_param":{"num_deleted":"0","num_feature":"72","num_nodes":"11","size_leaf_vector":"1"}},{"base_weights":[1.4590325E-2,6.330825E-2,-4.267186E-2,1.0369968E-2,8.022283E-1,3.3492976E-1,-7.0526735E-3,8.7629104E-1,-0E0,-4.1674036E-3,3.0716866E-2,-3.8940713E-2,1.2347995E-3,1.9499519E-3,4.800693E-2],"categories":[],"categories_nodes":[],"categories_segments":[],"categories_sizes":[],"default_left":[0,0,0,0,0,0,0,0,0,0,0,0,0,0,0],"id":50,"left_children":[1,3,-1,5,7,9,11,13,-1,-1,-1,-1,-1,-1,-1],"loss_changes":[1.9294056E1,1.6782356E1,0E0,2.7268918E0,1.2416115E0,3.5010087E0,1.06151085E1,7.3464966E-1,0E0,0E0,0E0,0E0,0E0,0E0,0E0],"parents":[2147483647,0,0,1,1,3,3,4,4,5,5,6,6,7,7],"right_children":[2,4,-1,6,8,10,12,14,-1,-1,-1,-1,-1,-1,-1],"split_conditions":[2.0042195E0,2.0289135E0,-4.267186E-2,-4.3223207E-3,2.1251203E-2,1.6518228E-5,-4.0558414E-3,-4.1018184E-3,-0E0,-4.1674036E-3,3.0716866E-2,-3.8940713E-2,1.2347995E-3,1.9499519E-3,4.800693E-2],"split_indices":[8,23,0,66,71,64,66,66,0,0,0,0,0,0,0],"split_type":[0,0,0,0,0,0,0,0,0,0,0,0,0,0,0],"sum_hessian":[4.7037738E2,4.4822687E2,2.21505E1,4.214168E2,2.6810074E1,2.253677E1,3.9888004E2,2.3762829E1,3.0472453E0,8.154195E0,1.4382575E1,1.5145763E1,3.8373428E2,3.5153706E0,2.0247458E1],"tree_param":{"num_deleted":"0","num_feature":"72","num_nodes":"15","size_leaf_vector":"1"}},{"base_weights":[2.1276655E-2,7.302141E-2,-8.0129075E-1,-0E0,4.4864216E-1,-4.2986605E-2,-6.0524576E-4,3.137048E-2,-4.2946258E-1,4.7809064E-2,2.0386064E-1,-0E0,2.1457924E-2,-2.940624E-2,7.6545067E-3,3.817669E-2,2.2112783E-3],"categories":[],"categories_nodes":[],"categories_segments":[],"categories_sizes":[],"default_left":[0,0,0,0,0,0,0,0,0,0,0,0,0,0,0,0,0],"id":51,"left_children":[1,3,5,7,9,-1,-1,11,13,-1,15,-1,-1,-1,-1,-1,-1],"loss_changes":[1.9728077E1,1.2125855E1,3.6666298E-1,4.9231358E0,7.4239845E0,0E0,0E0,4.1029344E0,2.9049625E0,0E0,3.8242986E0,0E0,0E0,0E0,0E0,0E0,0E0],"parents":[2147483647,0,0,1,1,2,2,3,3,4,4,7,7,8,8,10,10],"right_children":[2,4,6,8,10,-1,-1,12,14,-1,16,-1,-1,-1,-1,-1,-1],"split_conditions":[1.6405246E0,1.4369376E0,5.2378546E-3,1.0640731E0,3.3273764E-3,-4.2986605E-2,-6.0524576E-4,8.4517956E-1,-1.4291271E-3,4.7809064E-2,-9.207139E-3,-0E0,2.1457924E-2,-2.940624E-2,7.6545067E-3,3.817669E-2,2.2112783E-3],"split_indices":[43,37,67,37,67,0,0,37,66,0,70,0,0,0,0,0,0],"split_type":[0,0,0,0,0,0,0,0,0,0,0,0,0,0,0,0,0],"sum_hessian":[4.7585782E2,4.5055328E2,2.5304525E1,3.8032086E2,7.023242E1,2.2213634E1,3.090891E0,3.5754666E2,2.2774181E1,1.9630991E1,5.060143E1,3.353484E2,2.2198282E1,1.923331E1,3.5408719E0,8.160571E0,4.2440857E1],"tree_param":{"num_deleted":"0","num_feature":"72","num_nodes":"17","size_leaf_vector":"1"}},{"base_weights":[-0E0,3.8900193E-2,-4.2978954E-2,3.2941734E-3,4.351292E-2,-1.2112275E-1,7.4583836E-2,-2.8362288E-4,-1.9223688E-2,-1.7187903E-3,1.267155E-2],"categories":[],"categories_nodes":[],"categories_segments":[],"categories_sizes":[],"default_left":[0,0,0,0,0,0,0,0,0,0,0],"id":52,"left_children":[1,3,-1,5,-1,7,9,-1,-1,-1,-1],"loss_changes":[1.6225441E1,1.2645848E1,0E0,3.885747E0,0E0,4.360849E0,5.8273196E0,0E0,0E0,0E0,0E0],"parents":[2147483647,0,0,1,1,3,3,5,5,6,6],"right_children":[2,4,-1,6,-1,8,10,-1,-1,-1,-1],"split_conditions":[3.037018E0,3.769949E0,-4.2978954E-2,7.400878E-1,4.351292E-2,-1.1979081E-3,-1.63609E-3,-2.8362288E-4,-1.9223688E-2,-1.7187903E-3,1.267155E-2],"split_indices":[43,29,0,59,0,66,66,0,0,0,0],"split_type":[0,0,0,0,0,0,0,0,0,0,0],"sum_hessian":[4.7393314E2,4.5490927E2,1.9023863E1,4.3930518E2,1.5604108E1,1.544059E2,2.8489926E2,1.11406685E2,4.2999218E1,1.7456978E2,1.1032949E2],"tree_param":{"num_deleted":"0","num_feature":"72","num_nodes":"11","size_leaf_vector":"1"}},{"base_weights":[3.21796E-2,8.33495E-2,-6.604856E-1,4.370633E-2,7.473194E-1,1.6150815E-2,-4.387051E-2,-2.4958959E-1,7.012469E-2,-0E0,4.2114742E-2,1.5187121E-2,-2.17227E-2,3.3778347E-2,2.4740708E-3],"categories":[],"categories_nodes":[],"categories_segments":[],"categories_sizes":[],"default_left":[0,0,0,0,0,0,0,0,0,0,0,0,0,0,0],"id":53,"left_children":[1,3,5,7,9,-1,-1,11,13,-1,-1,-1,-1,-1,-1],"loss_changes":[1.6538683E1,1.09861355E1,7.9239426E0,3.1726835E0,1.4483404E0,0E0,0E0,3.7381177E0,4.1751885E0,0E0,0E0,0E0,0E0,0E0,0E0],"parents":[2147483647,0,0,1,1,2,2,3,3,4,4,7,7,8,8],"right_children":[2,4,6,8,10,-1,-1,12,14,-1,-1,-1,-1,-1,-1],"split_conditions":[1.3341807E0,3.4193754E0,-3.572922E-3,-2.5668563E-4,-2.0185532E-4,1.6150815E-2,-4.387051E-2,9.8412937E-1,-2.2723968E-4,-0E0,4.2114742E-2,1.5187121E-2,-2.17227E-2,3.3778347E-2,2.4740708E-3],"split_indices":[39,37,66,64,64,0,0,59,64,0,0,0,0,0,0],"split_type":[0,0,0,0,0,0,0,0,0,0,0,0,0,0,0],"sum_hessian":[4.7779633E2,4.4791046E2,2.988587E1,4.2610693E2,2.1803518E1,4.390769E0,2.54951E1,3.0685856E1,3.9542108E2,3.0239573E0,1.877956E1,6.00784E0,2.4678015E1,9.348469E0,3.8607263E2],"tree_param":{"num_deleted":"0","num_feature":"72","num_nodes":"15","size_leaf_vector":"1"}},{"base_weights":[-2.6218067E-3,3.1135261E-2,-4.0076498E-2,-3.7661104E-3,7.4580777E-1,3.6420156E-3,-4.0738266E-2,4.197706E-2,1.265436E-3,-2.2035495E-3,1.3155036E-2],"categories":[],"categories_nodes":[],"categories_segments":[],"categories_sizes":[],"default_left":[0,0,0,0,0,0,0,0,0,0,0],"id":54,"left_children":[1,3,-1,5,7,9,-1,-1,-1,-1,-1],"loss_changes":[1.3400877E1,1.1929595E1,0E0,3.3889618E0,5.931196E-1,5.5032244E0,0E0,0E0,0E0,0E0,0E0],"parents":[2147483647,0,0,1,1,3,3,4,4,5,5],"right_children":[2,4,-1,6,8,10,-1,-1,-1,-1,-1],"split_conditions":[3.037018E0,1.0211104E0,-4.0076498E-2,6.914102E-1,1.4863223E-4,1.4908664E0,-4.0738266E-2,4.197706E-2,1.265436E-3,-2.2035495E-3,1.3155036E-2],"split_indices":[43,19,0,4,64,23,0,0,0,0,0],"split_type":[0,0,0,0,0,0,0,0,0,0,0],"sum_hessian":[4.644862E2,4.4629865E2,1.8187557E1,4.26081E2,2.021765E1,4.2297528E2,3.1057243E0,1.6369667E1,3.8479826E0,3.5542136E2,6.7553894E1],"tree_param":{"num_deleted":"0","num_feature":"72","num_nodes":"11","size_leaf_vector":"1"}},{"base_weights":[1.6050085E-2,-6.9917314E-2,3.8569558E-1,-3.0508967E-2,-3.8594943E-2,4.1319422E-2,-0E0,2.092825E-1,-8.7369256E-2,6.591355E-1,-2.053736E-1,1.8700546E-2,-1.7974263E-2,-1.29984915E-2,-0E0,-0E0,4.1973084E-2,2.463792E-2,-1.6048172E-2],"categories":[],"categories_nodes":[],"categories_segments":[],"categories_sizes":[],"default_left":[0,0,0,0,0,0,0,0,0,0,0,0,0,0,0,0,0,0,0],"id":55,"left_children":[1,3,5,7,-1,-1,9,11,13,15,17,-1,-1,-1,-1,-1,-1,-1,-1],"loss_changes":[1.5034881E1,9.494499E0,1.5441431E1,4.7886543E0,0E0,0E0,6.8471713E0,6.4423857E0,4.340788E0,8.6398125E-1,3.3346963E0,0E0,0E0,0E0,0E0,0E0,0E0,0E0,0E0],"parents":[2147483647,0,0,1,1,2,2,3,3,6,6,7,7,8,8,9,9,10,10],"right_children":[2,4,6,8,-1,-1,10,12,14,16,18,-1,-1,-1,-1,-1,-1,-1,-1],"split_conditions":[2.4530306E0,2.3863025E0,3.8986127E-3,-9.373004E-3,-3.8594943E-2,4.1319422E-2,-9.207139E-3,1.1269114E0,4.1765366E-3,1.3798956E0,-4.4259243E-3,1.8700546E-2,-1.7974263E-2,-1.29984915E-2,-0E0,-0E0,4.1973084E-2,2.463792E-2,-1.6048172E-2],"split_indices":[20,62,67,71,0,0,70,23,71,37,66,0,0,0,0,0,0,0,0],"split_type":[0,0,0,0,0,0,0,0,0,0,0,0,0,0,0,0,0,0,0],"sum_hessian":[4.5949594E2,3.7191675E2,8.757921E1,3.5547244E2,1.6444307E1,4.012414E1,4.7455063E1,6.3736084E1,2.9173636E2,9.922271E0,3.753279E1,5.131662E1,1.2419464E1,9.540412E1,1.9633223E2,3.3459113E0,6.5763593E0,3.1756206E0,3.435717E1],"tree_param":{"num_deleted":"0","num_feature":"72","num_nodes":"19","size_leaf_vector":"1"}},{"base_weights":[-1.791195E-2,-3.8798332E-1,6.1669394E-2,-5.0135565E-1,3.5902433E-2,2.7411377E-2,4.164514E-2,-3.5467497E-1,-4.3559533E-2,-1.763036E-2,4.6705747E-1,5.127403E-2,7.7122175E-3,-4.6365955E-4,-3.0115355E-2,-0E0,3.5770636E-2,-1.1006485E-2,2.8163178E-3],"categories":[],"categories_nodes":[],"categories_segments":[],"categories_sizes":[],"default_left":[0,0,0,0,0,0,0,0,0,0,0,0,0,0,0,0,0,0,0],"id":56,"left_children":[1,3,5,7,9,11,-1,13,-1,-1,15,-1,17,-1,-1,-1,-1,-1,-1],"loss_changes":[1.4055295E1,4.572584E0,9.182259E0,1.8901958E0,3.4391317E0,6.203932E0,0E0,4.046922E0,0E0,0E0,1.0800455E0,0E0,3.901147E0,0E0,0E0,0E0,0E0,0E0,0E0],"parents":[2147483647,0,0,1,1,2,2,3,3,4,4,5,5,7,7,10,10,12,12],"right_children":[2,4,6,8,10,12,-1,14,-1,-1,16,-1,18,-1,-1,-1,-1,-1,-1],"split_conditions":[3.4220225E-1,1.5181964E-4,3.769949E0,3.278194E-2,2.6479608E-1,9.885052E-1,4.164514E-2,4.4742772E-1,-4.3559533E-2,-1.763036E-2,-1.2619778E-2,5.127403E-2,-2.476034E-3,-4.6365955E-4,-3.0115355E-2,-0E0,3.5770636E-2,-1.1006485E-2,2.8163178E-3],"split_indices":[23,64,29,45,9,57,0,9,0,0,70,0,66,0,0,0,0,0,0],"split_type":[0,0,0,0,0,0,0,0,0,0,0,0,0,0,0,0,0,0,0],"sum_hessian":[4.625422E2,8.271478E1,3.7982742E2,6.68332E1,1.588158E1,3.668976E2,1.2929802E1,5.259526E1,1.4237941E1,7.3255796E0,8.556E0,4.1424074E0,3.627552E2,2.4514763E1,2.8080498E1,3.946664E0,4.609336E0,5.8931614E1,3.0382358E2],"tree_param":{"num_deleted":"0","num_feature":"72","num_nodes":"19","size_leaf_vector":"1"}},{"base_weights":[-6.2250894E-2,-4.6266034E-1,3.1924326E-2,-5.741311E-1,-0E0,-0E0,4.3637697E-2,-6.181651E-1,-0E0,4.6511245E-1,-5.9305006E-1,-6.3531E-2,1.9355516E-1,-3.2858174E-2,-0E0,3.4822207E-2,-0E0,-0E0,-4.1186772E-2,2.147649E-2,-4.72407E-3,2.2296894E-2,-2.4789348E-4],"categories":[],"categories_nodes":[],"categories_segments":[],"categories_sizes":[],"default_left":[0,0,0,0,0,0,0,0,0,0,0,0,0,0,0,0,0,0,0,0,0,0,0],"id":57,"left_children":[1,3,5,7,9,11,-1,13,-1,15,17,19,21,-1,-1,-1,-1,-1,-1,-1,-1,-1,-1],"loss_changes":[1.8078815E1,4.587307E0,1.013419E1,2.2553291E0,6.1016703E0,4.5311933E0,0E0,1.7404385E0,0E0,1.0901754E0,5.27226E-1,3.976575E0,5.0087676E0,0E0,0E0,0E0,0E0,0E0,0E0,0E0,0E0,0E0,0E0],"parents":[2147483647,0,0,1,1,2,2,3,3,4,4,5,5,7,7,9,9,10,10,11,11,12,12],"right_children":[2,4,6,8,10,12,-1,14,-1,16,18,20,22,-1,-1,-1,-1,-1,-1,-1,-1,-1,-1],"split_conditions":[1.2979541E0,1.1572714E0,1.5051682E-3,4.260558E-3,1.5550362E-3,2.3910043E-5,4.3637697E-2,1.0218217E-2,-0E0,1.2425259E0,-1.2333812E-4,3.7593502E-1,1.6049371E-4,-3.2858174E-2,-0E0,3.4822207E-2,-0E0,-0E0,-4.1186772E-2,2.147649E-2,-4.72407E-3,2.2296894E-2,-2.4789348E-4],"split_indices":[9,57,36,65,69,64,0,70,0,57,64,59,64,0,0,0,0,0,0,0,0,0,0],"split_type":[0,0,0,0,0,0,0,0,0,0,0,0,0,0,0,0,0,0,0,0,0,0,0],"sum_hessian":[4.6522812E2,8.911718E1,3.7611096E2,7.108684E1,1.803034E1,3.6430032E2,1.1810626E1,6.694726E1,4.139579E0,1.0162795E1,7.8675456E0,2.7521747E2,8.908286E1,6.3036995E1,3.9102662E0,5.6723375E0,4.490457E0,3.9758904E0,3.8916552E0,1.2825934E1,2.623915E2,4.034028E1,4.8742588E1],"tree_param":{"num_deleted":"0","num_feature":"72","num_nodes":"23","size_leaf_vector":"1"}},{"base_weights":[1.2005861E-2,-2.9086065E-1,1.251366E-1,-1.6841811E-1,-4.120761E-2,9.089232E-2,4.0950753E-2,-2.2912915E-1,1.8626386E-1,5.8806356E-2,3.592586E-2,-3.1863996E-3,-2.0637186E-2,2.8958647E-2,-0E0,8.795808E-3,-4.9005556E-3],"categories":[],"categories_nodes":[],"categories_segments":[],"categories_sizes":[],"default_left":[0,0,0,0,0,0,0,0,0,0,0,0,0,0,0,0,0],"id":58,"left_children":[1,3,5,7,-1,9,-1,11,13,15,-1,-1,-1,-1,-1,-1,-1],"loss_changes":[1.5513604E1,6.70053E0,6.9112024E0,2.3528707E0,0E0,5.6480894E0,0E0,2.2503161E0,1.475373E0,5.828227E0,0E0,0E0,0E0,0E0,0E0,0E0,0E0],"parents":[2147483647,0,0,1,1,2,2,3,3,5,5,7,7,8,8,9,9],"right_children":[2,4,6,8,-1,10,-1,12,14,16,-1,-1,-1,-1,-1,-1,-1],"split_conditions":[5.284644E-1,1.6405246E0,3.769949E0,5.903795E-1,-4.120761E-2,3.6170997E-4,4.0950753E-2,1.6122237E-3,1.0872179E0,3.6268858E-3,3.592586E-2,-3.1863996E-3,-2.0637186E-2,2.8958647E-2,-0E0,8.795808E-3,-4.9005556E-3],"split_indices":[59,43,29,62,0,64,0,69,43,67,0,0,0,0,0,0,0],"split_type":[0,0,0,0,0,0,0,0,0,0,0,0,0,0,0,0,0],"sum_hessian":[4.5348553E2,1.20067375E2,3.3341818E2,1.0131292E2,1.8754452E1,3.212662E2,1.2151968E1,8.951757E1,1.1795354E1,3.092378E2,1.2028413E1,5.1377098E1,3.8140472E1,3.825139E0,7.970215E0,1.8054315E2,1.2869464E2],"tree_param":{"num_deleted":"0","num_feature":"72","num_nodes":"17","size_leaf_vector":"1"}},{"base_weights":[-7.736846E-3,2.0488078E-2,-4.261836E-2,-3.7091058E-2,3.8690048E-1,-8.94585E-3,-4.3483528E-1,4.5467287E-2,1.1895786E-1,-2.3033756E-3,2.0700838E-2,-2.9948104E-2,1.0102553E-2,5.0504185E-2,-4.628425E-3],"categories":[],"categories_nodes":[],"categories_segments":[],"categories_sizes":[],"default_left":[0,0,0,0,0,0,0,0,0,0,0,0,0,0,0],"id":59,"left_children":[1,3,-1,5,7,9,11,-1,13,-1,-1,-1,-1,-1,-1],"loss_changes":[1.1908395E1,9.851204E0,0E0,3.8861637E0,7.6454983E0,5.4209785E0,3.0658398E0,0E0,9.689542E0,0E0,0E0,0E0,0E0,0E0,0E0],"parents":[2147483647,0,0,1,1,3,3,4,4,5,5,6,6,8,8],"right_children":[2,4,-1,6,8,10,12,-1,14,-1,-1,-1,-1,-1,-1],"split_conditions":[3.037018E0,1.4369376E0,-4.261836E-2,1.0640731E0,1.6518661E-3,2.286923E0,-1.4291271E-3,4.5467287E-2,-9.207139E-3,-2.3033756E-3,2.0700838E-2,-2.9948104E-2,1.0102553E-2,5.0504185E-2,-4.628425E-3],"split_indices":[43,37,0,37,65,20,66,0,70,0,0,0,0,0,0],"split_type":[0,0,0,0,0,0,0,0,0,0,0,0,0,0,0],"sum_hessian":[4.6116113E2,4.4699158E2,1.4169534E1,3.854839E2,6.15077E1,3.6426678E2,2.1217112E1,1.796299E1,4.3544712E1,3.38688E2,2.5578787E1,1.8212856E1,3.0042543E0,7.811837E0,3.5732876E1],"tree_param":{"num_deleted":"0","num_feature":"72","num_nodes":"15","size_leaf_vector":"1"}},{"base_weights":[1.8337926E-2,-3.0214248E-2,5.800786E-1,-1.9036587E-3,-4.0758695E-2,7.3371667E-1,1.9408038E-2,-1.3866162E-1,6.146222E-2,4.0645264E-2,5.0753164E-3,1.9183407E-2,-9.82526E-2,-1.6584345E-4,-1.8215908E-2,6.1615333E-3,-1.0673855E-2,3.4074266E-3,-2.0376502E-2],"categories":[],"categories_nodes":[],"categories_segments":[],"categories_sizes":[],"default_left":[0,0,0,0,0,0,0,0,0,0,0,0,0,0,0,0,0,0,0],"id":60,"left_children":[1,3,5,7,-1,9,11,13,15,-1,-1,-1,17,-1,-1,-1,-1,-1,-1],"loss_changes":[1.3397859E1,8.79509E0,2.5875168E0,3.7412493E0,0E0,3.8468838E-1,8.6940664E-1,3.8711314E0,4.7851524E0,0E0,0E0,0E0,8.316877E-1,0E0,0E0,0E0,0E0,0E0,0E0],"parents":[2147483647,0,0,1,1,2,2,3,3,5,5,6,6,7,7,8,8,12,12],"right_children":[2,4,6,8,-1,10,12,14,16,-1,-1,-1,18,-1,-1,-1,-1,-1,-1],"split_conditions":[1.7868485E0,6.958054E0,5.7893405E-3,1.9107507E0,-4.0758695E-2,7.32089E-3,-1.084138E-4,1.7573427E-3,1.0640731E0,4.0645264E-2,5.0753164E-3,1.9183407E-2,2.9376421E-2,-1.6584345E-4,-1.8215908E-2,6.1615333E-3,-1.0673855E-2,3.4074266E-3,-2.0376502E-2],"split_indices":[23,62,67,9,0,69,64,69,37,0,0,0,4,0,0,0,0,0,0],"split_type":[0,0,0,0,0,0,0,0,0,0,0,0,0,0,0,0,0,0,0],"sum_hessian":[4.6779053E2,4.3067853E2,3.711201E1,4.1885092E2,1.1827601E1,2.7245255E1,9.866757E0,1.3686658E2,2.8198434E2,2.2298798E1,4.9464564E0,3.3800457E0,6.4867115E0,8.959187E1,4.72747E1,2.3412589E2,4.785847E1,3.1291115E0,3.3576002E0],"tree_param":{"num_deleted":"0","num_feature":"72","num_nodes":"19","size_leaf_vector":"1"}},{"base_weights":[-4.7721017E-2,-9.7041264E-2,4.0742284E-1,-6.735723E-2,-3.909824E-2,-3.5188058E-1,6.673987E-1,-8.919044E-2,4.1585284E-1,9.066793E-3,-3.8095824E-2,7.709994E-1,-0E0,-3.132459E-2,-3.484074E-3,-0E0,3.1600222E-2,1.1033671E-3,4.082617E-2],"categories":[],"categories_nodes":[],"categories_segments":[],"categories_sizes":[],"default_left":[0,0,0,0,0,0,0,0,0,0,0,0,0,0,0,0,0,0,0],"id":61,"left_children":[1,3,5,7,-1,9,11,13,15,-1,-1,17,-1,-1,-1,-1,-1,-1,-1],"loss_changes":[1.0087036E1,7.5502644E0,9.340982E0,4.0153046E0,0E0,3.3457186E0,3.0560923E0,3.311567E0,2.056741E0,0E0,0E0,1.6821861E-1,0E0,0E0,0E0,0E0,0E0,0E0,0E0],"parents":[2147483647,0,0,1,1,2,2,3,3,5,5,6,6,7,7,8,8,11,11],"right_children":[2,4,6,8,-1,10,12,14,16,-1,-1,18,-1,-1,-1,-1,-1,-1,-1],"split_conditions":[2.6380324E0,3.037018E0,-4.1018184E-3,8.878011E-3,-3.909824E-2,-4.310322E-3,3.1963766E-2,-4.2883456E-3,1.1262997E0,9.066793E-3,-3.8095824E-2,4.158036E0,-0E0,-3.132459E-2,-3.484074E-3,-0E0,3.1600222E-2,1.1033671E-3,4.082617E-2],"split_indices":[15,43,66,67,0,66,71,66,9,0,0,9,0,0,0,0,0,0,0],"split_type":[0,0,0,0,0,0,0,0,0,0,0,0,0,0,0,0,0,0,0],"sum_hessian":[4.5765933E2,4.1631714E2,4.1342216E1,4.0252856E2,1.3788562E1,9.383265E0,3.1958954E1,3.8866748E2,1.3861091E1,3.5037022E0,5.8795624E0,2.8586973E1,3.3719795E0,9.641581E0,3.7902588E2,3.844814E0,1.0016276E1,3.066978E0,2.5519995E1],"tree_param":{"num_deleted":"0","num_feature":"72","num_nodes":"19","size_leaf_vector":"1"}}]},"name":"gbtree"},"learner_model_param":{"base_score":"[5.150794E-1]","boost_from_average":"1","num_class":"0","num_feature":"72","num_target":"1"},"objective":{"name":"binary:logistic","reg_loss_param":{"scale_pos_weight":"1"}}},"version":[3,1,2]}