{"learner":{"attributes":{"best_iteration":"19","best_score":"0.47448004151766116"},"feature_names":[],"feature_types":[],"gradient_booster":{"model":{"cats":{"enc":[],"feature_segments":[],"sorted_idx":[]},"gbtree_model_param":{"num_parallel_tree":"1","num_trees":"40"},"iteration_indptr":[0,1,2,3,4,5,6,7,8,9,10,11,12,13,14,15,16,17,18,19,20,21,22,23,24,25,26,27,28,29,30,31,32,33,34,35,36,37,38,39,40],"tree_info":[0,0,0,0,0,0,0,0,0,0,0,0,0,0,0,0,0,0,0,0,0,0,0,0,0,0,0,0,0,0,0,0,0,0,0,0,0,0,0,0],"trees":[{"base_weights":[-5.5690296E-3,-7.264409E-1,1.1656816E0,-1.1120683E0,9.639441E-2,1.2549384E-1,2.263951E-2,2.5855726E-1,-1.5584857E0,-6.401926E-2,8.8580996E-2,-1.3219616E-1,-2.0061085E0,7.7830784E-2,-1.1216303E-1,-2.4086292E-1,-2.7977064E-2],"categories":[],"categories_nodes":[],"categories_segments":[],"categories_sizes":[],"default_left":[0,0,0,0,0,0,0,0,0,0,0,0,0,0,0,0,0],"id":0,"left_children":[1,3,5,7,-1,-1,-1,9,11,-1,-1,13,15,-1,-1,-1,-1],"loss_changes":[1.9472008E1,1.0444992E1,3.017702E-1,7.9989834E0,0E0,0E0,0E0,2.7341526E0,5.523243E0,0E0,0E0,3.9429657E0,3.9436207E0,0E0,0E0,0E0,0E0],"parents":[2147483647,0,0,1,1,2,2,3,3,7,7,8,8,11,11,12,12],"right_children":[2,4,6,8,-1,-1,-1,10,12,-1,-1,14,16,-1,-1,-1,-1],"split_conditions":[1.7092938E0,7.166336E-1,-5.8405492E-2,-6.7213655E-1,9.639441E-2,1.2549384E-1,2.263951E-2,-1.1607672E-2,-5.583889E-1,-6.401926E-2,8.8580996E-2,3.515779E-1,1.975016E0,7.7830784E-2,-1.1216303E-1,-2.4086292E-1,-2.7977064E-2],"split_indices":[59,139,3,160,0,0,0,7,95,0,0,48,130,0,0,0,0],"split_type":[0,0,0,0,0,0,0,0,0,0,0,0,0,0,0,0,0],"sum_hessian":[2.11114E1,1.3356192E1,7.755208E0,1.1201967E1,2.1542244E0,6.678096E0,1.0771122E0,2.8004918E0,8.401476E0,1.0771122E0,1.7233796E0,2.369647E0,6.031829E0,1.2925347E0,1.0771122E0,4.5238714E0,1.5079572E0],"tree_param":{"num_deleted":"0","num_feature":"224","num_nodes":"17","size_leaf_vector":"1"}},{"base_weights":[-0E0,8.373462E-1,-8.181144E-1,-3.0070895E-1,1.2340706E-1,6.2497575E-2,-1.2264177E0,-9.843783E-2,6.631837E-2,-1.8261131E0,2.0013162E-1,-2.1391308E-1,-9.483305E-3,8.39308E-2,-6.1452597E-2],"categories":[],"categories_nodes":[],"categories_segments":[],"categories_sizes":[],"default_left":[0,0,0,0,0,0,0,0,0,0,0,0,0,0,0],"id":1,"left_children":[1,3,5,7,-1,-1,9,-1,-1,11,13,-1,-1,-1,-1],"loss_changes":[1.5349449E1,5.446857E0,7.5277233E0,3.0516522E0,0E0,0E0,8.4467745E0,0E0,0E0,3.1855888E0,2.4083362E0,0E0,0E0,0E0,0E0],"parents":[2147483647,0,0,1,1,2,2,3,3,6,6,9,9,10,10],"right_children":[2,4,6,8,-1,-1,10,-1,-1,12,14,-1,-1,-1,-1],"split_conditions":[-2.0725622E0,-4.358081E-1,-6.7213655E-1,-1.9635822E-1,1.2340706E-1,6.2497575E-2,2.3284507E-1,-9.843783E-2,6.631837E-2,2.4247403E0,2.4613266E-1,-2.1391308E-1,-9.483305E-3,8.39308E-2,-6.1452597E-2],"split_indices":[122,121,160,117,0,0,139,0,0,171,138,0,0,0,0],"split_type":[0,0,0,0,0,0,0,0,0,0,0,0,0,0,0],"sum_hessian":[2.0408276E1,1.0035413E1,1.0372862E1,2.5914524E0,7.44396E0,2.1165683E0,8.256294E0,1.5643698E0,1.0270826E0,5.6648865E0,2.5914073E0,4.54907E0,1.1158167E0,1.5039265E0,1.0874809E0],"tree_param":{"num_deleted":"0","num_feature":"224","num_nodes":"15","size_leaf_vector":"1"}},{"base_weights":[-8.805241E-2,7.2774833E-1,-9.366319E-1,1.0340954E0,-9.613498E-2,4.77867E-2,-1.2428285E0,1.2178381E-1,-2.2602044E-2,-1.6522818E0,1.4417774E-2,-3.1342454E-2,-1.9089362E-1,-6.0899395E-2,6.889772E-2],"categories":[],"categories_nodes":[],"categories_segments":[],"categories_sizes":[],"default_left":[0,0,0,0,0,0,0,0,0,0,0,0,0,0,0],"id":2,"left_children":[1,3,5,7,-1,-1,9,-1,-1,11,13,-1,-1,-1,-1],"loss_changes":[1.4888285E1,6.6676154E0,5.236018E0,2.6437378E0,0E0,0E0,4.8213625E0,0E0,0E0,1.5362587E0,1.7491707E0,0E0,0E0,0E0,0E0],"parents":[2147483647,0,0,1,1,2,2,3,3,6,6,9,9,10,10],"right_children":[2,4,6,8,-1,-1,10,-1,-1,12,14,-1,-1,-1,-1],"split_conditions":[-2.069208E0,2.9530881E-3,-4.328453E-1,1.3190894E-1,-9.613498E-2,4.77867E-2,2.7523652E-1,1.2178381E-1,-2.2602044E-2,-6.4799523E-1,5.207807E-1,-3.1342454E-2,-1.9089362E-1,-6.0899395E-2,6.889772E-2],"split_indices":[122,219,121,142,0,0,139,0,0,131,53,0,0,0,0],"split_type":[0,0,0,0,0,0,0,0,0,0,0,0,0,0,0],"sum_hessian":[1.9491611E1,9.950258E0,9.541353E0,8.801026E0,1.149232E0,1.5399933E0,8.00136E0,7.7795644E0,1.0214615E0,5.858671E0,2.142689E0,1.3624046E0,4.4962664E0,1.0870321E0,1.0556569E0],"tree_param":{"num_deleted":"0","num_feature":"224","num_nodes":"15","size_leaf_vector":"1"}},{"base_weights":[8.7519355E-2,-3.943558E-1,1.1357093E-1,8.07271E-2,-7.1750975E-1,5.1985588E-2,-9.5407623E-1,7.542719E-2,-1.3129214E0,8.5186385E-2,-8.549382E-2,2.6992498E-2,-1.5898505E0,-1.8822445E-1,-3.0565753E-3],"categories":[],"categories_nodes":[],"categories_segments":[],"categories_sizes":[],"default_left":[0,0,0,0,0,0,0,0,0,0,0,0,0,0,0],"id":3,"left_children":[1,3,-1,-1,5,-1,7,9,11,-1,-1,-1,13,-1,-1],"loss_changes":[1.1766115E1,6.754978E0,0E0,0E0,4.387713E0,0E0,4.455453E0,3.4982615E0,4.340583E0,0E0,0E0,0E0,3.1876183E0,0E0,0E0],"parents":[2147483647,0,0,1,1,4,4,6,6,7,7,8,8,12,12],"right_children":[2,4,-1,-1,6,-1,8,10,12,-1,-1,-1,14,-1,-1],"split_conditions":[1.7092938E0,-7.275725E-1,1.1357093E-1,8.07271E-2,-3.0900604E-1,5.1985588E-2,-6.0836494E-1,-3.7562478E-1,-1.1890348E0,8.5186385E-2,-8.549382E-2,2.6992498E-2,1.0334089E-1,-1.8822445E-1,-3.0565753E-3],"split_indices":[59,152,0,0,18,0,150,155,4,0,0,0,139,0,0],"split_type":[0,0,0,0,0,0,0,0,0,0,0,0,0,0,0],"sum_hessian":[2.1261293E1,1.49272785E1,6.334015E0,2.780526E0,1.2146753E1,1.6895115E0,1.0457241E1,2.8349855E0,7.622256E0,1.6499125E0,1.1850731E0,1.0849854E0,6.5372705E0,5.276567E0,1.2607034E0],"tree_param":{"num_deleted":"0","num_feature":"224","num_nodes":"15","size_leaf_vector":"1"}},{"base_weights":[-2.2357918E-2,8.985713E-1,-7.1932626E-1,-9.822282E-3,1.1376226E-1,5.3988118E-2,-1.0151936E0,-1.324729E0,7.3905095E-2,-0E0,-1.6206274E0,-1.0712727E-2,-1.8348613E-1],"categories":[],"categories_nodes":[],"categories_segments":[],"categories_sizes":[],"default_left":[0,0,0,0,0,0,0,0,0,0,0,0,0],"id":4,"left_children":[1,3,5,-1,-1,-1,7,9,-1,-1,11,-1,-1],"loss_changes":[1.4561077E1,2.5350852E0,5.4287977E0,0E0,0E0,0E0,6.9651203E0,3.7040062E0,0E0,0E0,2.1648731E0,0E0,0E0],"parents":[2147483647,0,0,1,1,2,2,6,6,7,7,10,10],"right_children":[2,4,6,-1,-1,-1,8,10,-1,-1,12,-1,-1],"split_conditions":[-5.563449E-1,-7.291086E-1,-1.5636945E-2,-9.822282E-3,1.1376226E-1,5.3988118E-2,1.7394918E0,-3.5297044E-4,7.3905095E-2,-0E0,-7.546246E-1,-1.0712727E-2,-1.8348613E-1],"split_indices":[95,153,194,0,0,0,172,213,0,0,155,0,0],"split_type":[0,0,0,0,0,0,0,0,0,0,0,0,0],"sum_hessian":[2.0706705E1,8.733751E0,1.1972954E1,1.7224187E0,7.011333E0,2.0567448E0,9.916209E0,8.685506E0,1.230704E0,1.803651E0,6.8818545E0,1.0972102E0,5.784644E0],"tree_param":{"num_deleted":"0","num_feature":"224","num_nodes":"13","size_leaf_vector":"1"}},{"base_weights":[-5.3587623E-2,-5.3339434E-1,9.492953E-1,6.923287E-2,-8.169035E-1,9.036151E-3,1.0553797E-1,-1.0349917E0,7.0334636E-2,-1.2999153E0,8.8556506E-2,-1.5743552E0,8.983996E-3,6.895457E-2,-4.8693597E-2,-4.295878E-2,-1.7726111E-1],"categories":[],"categories_nodes":[],"categories_segments":[],"categories_sizes":[],"default_left":[0,0,0,0,0,0,0,0,0,0,0,0,0,0,0,0,0],"id":5,"left_children":[1,3,5,-1,7,-1,-1,9,-1,11,13,15,-1,-1,-1,-1,-1],"loss_changes":[1.0958891E1,5.950077E0,4.59764E-1,0E0,5.09778E0,0E0,0E0,3.7786818E0,0E0,4.014759E0,1.4402993E0,8.951607E-1,0E0,0E0,0E0,0E0,0E0],"parents":[2147483647,0,0,1,1,2,2,4,4,7,7,9,9,10,10,11,11],"right_children":[2,4,6,-1,8,-1,-1,10,-1,12,14,16,-1,-1,-1,-1,-1],"split_conditions":[1.7092938E0,8.619938E-2,-7.440488E-1,6.923287E-2,1.7394918E0,9.036151E-3,1.0553797E-1,5.9238183E-1,7.0334636E-2,-8.413141E-1,-6.0836494E-1,-7.394957E-1,8.983996E-3,6.895457E-2,-4.8693597E-2,-4.295878E-2,-1.7726111E-1],"split_indices":[59,12,129,0,172,0,0,41,0,8,150,156,0,0,0,0,0],"split_type":[0,0,0,0,0,0,0,0,0,0,0,0,0,0,0,0,0],"sum_hessian":[2.080871E1,1.4458986E1,6.349725E0,2.3789809E0,1.2080006E1,1.0052178E0,5.3445067E0,1.090115E1,1.1788554E0,8.766185E0,2.1349647E0,7.269731E0,1.4964541E0,1.0324028E0,1.102562E0,1.6150954E0,5.6546354E0],"tree_param":{"num_deleted":"0","num_feature":"224","num_nodes":"17","size_leaf_vector":"1"}},{"base_weights":[1.0076302E-1,-2.9585075E-1,1.0352615E-1,2.142197E-2,-1.0906203E0,5.537394E-1,-6.112221E-1,-1.3614441E-1,-1.4882385E-2,9.1396403E-1,-2.7766794E-2,-1.0417613E0,3.712681E-2,1.0308023E-1,1.661623E-2,-1.3809736E-1,-0E0],"categories":[],"categories_nodes":[],"categories_segments":[],"categories_sizes":[],"default_left":[0,0,0,0,0,0,0,0,0,0,0,0,0,0,0,0,0],"id":6,"left_children":[1,3,-1,5,7,9,11,-1,-1,13,-1,15,-1,-1,-1,-1,-1],"loss_changes":[7.92498E0,3.911055E0,0E0,4.241454E0,7.652998E-1,2.3879924E0,2.8619785E0,0E0,0E0,1.5816736E-1,0E0,1.4652963E0,0E0,0E0,0E0,0E0,0E0],"parents":[2147483647,0,0,1,1,3,3,4,4,5,5,6,6,9,9,11,11],"right_children":[2,4,-1,6,8,10,12,-1,-1,14,-1,16,-1,-1,-1,-1,-1],"split_conditions":[1.7092938E0,2.7673426E0,1.0352615E-1,1.7849898E0,-2.0503022E-1,1.9260932E-2,1.4990892E0,-1.3614441E-1,-1.4882385E-2,2.0352008E0,-2.7766794E-2,-7.0455724E-1,3.712681E-2,1.0308023E-1,1.661623E-2,-1.3809736E-1,-0E0],"split_indices":[59,157,0,143,181,222,35,0,0,135,0,135,0,0,0,0,0],"split_type":[0,0,0,0,0,0,0,0,0,0,0,0,0,0,0,0,0],"sum_hessian":[1.9356298E1,1.3993621E1,5.362678E0,1.0606657E1,3.3869634E0,5.913623E0,4.693034E0,2.201994E0,1.1849695E0,4.140601E0,1.7730216E0,3.2919264E0,1.4011078E0,3.1381252E0,1.0024762E0,2.210749E0,1.0811776E0],"tree_param":{"num_deleted":"0","num_feature":"224","num_nodes":"17","size_leaf_vector":"1"}},{"base_weights":[3.3408727E-2,6.830229E-1,-6.0831815E-1,-1.371294E-1,1.0484246E-1,-8.9052796E-1,7.8973226E-2,-8.708011E-2,6.759662E-2,-1.142105E0,3.1343568E-2,1.1784442E-2,-1.4532369E0,-1.590464E-1,-4.0932335E-2],"categories":[],"categories_nodes":[],"categories_segments":[],"categories_sizes":[],"default_left":[0,0,0,0,0,0,0,0,0,0,0,0,0,0,0],"id":7,"left_children":[1,3,5,7,-1,9,-1,-1,-1,11,-1,-1,13,-1,-1],"loss_changes":[8.048208E0,3.123376E0,4.5219145E0,2.8574755E0,0E0,3.0339708E0,0E0,0E0,0E0,3.1921873E0,0E0,0E0,1.5058517E-2,0E0,0E0],"parents":[2147483647,0,0,1,1,2,2,3,3,5,5,9,9,12,12],"right_children":[2,4,6,8,-1,10,-1,-1,-1,12,-1,-1,14,-1,-1],"split_conditions":[-2.0725622E0,-5.699399E-1,-2.4732995E-1,-2.2364242E-1,1.0484246E-1,1.7135328E0,7.8973226E-2,-8.708011E-2,6.759662E-2,-7.265025E-1,3.1343568E-2,1.1784442E-2,1.9906324E0,-1.590464E-1,-4.0932335E-2],"split_indices":[122,139,99,133,0,172,0,0,0,177,0,0,174,0,0],"split_type":[0,0,0,0,0,0,0,0,0,0,0,0,0,0,0],"sum_hessian":[1.7291443E1,8.638374E0,8.653069E0,2.7706447E0,5.8677297E0,7.561298E0,1.0917705E0,1.4838E0,1.2868446E0,6.3655977E0,1.1957002E0,1.3200006E0,5.045597E0,3.9119954E0,1.1336014E0],"tree_param":{"num_deleted":"0","num_feature":"224","num_nodes":"15","size_leaf_vector":"1"}},{"base_weights":[8.477401E-3,7.472245E-1,-4.1843188E-1,1.0188806E-1,-2.8295636E-2,-1.1711679E0,-1.1411718E-2,-1.4476795E-1,-7.633289E-3,7.594865E-2,-4.077894E-1,2.3897222E-1,-1.1165197E-1,7.5332455E-2,-6.31991E-2],"categories":[],"categories_nodes":[],"categories_segments":[],"categories_sizes":[],"default_left":[0,0,0,0,0,0,0,0,0,0,0,0,0,0,0],"id":8,"left_children":[1,3,5,-1,-1,7,9,-1,-1,-1,11,13,-1,-1,-1],"loss_changes":[6.447047E0,2.4692712E0,3.795045E0,0E0,0E0,1.0696964E0,3.1512997E0,0E0,0E0,0E0,3.5420923E0,2.4529986E0,0E0,0E0,0E0],"parents":[2147483647,0,0,1,1,2,2,5,5,6,6,10,10,11,11],"right_children":[2,4,6,-1,-1,8,10,-1,-1,-1,12,14,-1,-1,-1],"split_conditions":[-5.563449E-1,9.0316767E-1,-6.8168175E-1,1.0188806E-1,-2.8295636E-2,-2.8549366E-5,-6.235245E-1,-1.4476795E-1,-7.633289E-3,7.594865E-2,-5.87313E-1,-1.1729588E-1,-1.1165197E-1,7.5332455E-2,-6.31991E-2],"split_indices":[95,72,159,0,0,213,152,0,0,0,149,16,0,0,0],"split_type":[0,0,0,0,0,0,0,0,0,0,0,0,0,0,0],"sum_hessian":[1.8346643E1,6.530258E0,1.1816385E1,5.253075E0,1.2771832E0,3.4018872E0,8.414498E0,2.3857281E0,1.0161589E0,2.46061E0,5.9538884E0,3.3858256E0,2.568063E0,2.28581E0,1.1000156E0],"tree_param":{"num_deleted":"0","num_feature":"224","num_nodes":"15","size_leaf_vector":"1"}},{"base_weights":[-7.781851E-2,6.3400865E-1,-4.9775848E-1,9.1400504E-1,-5.5427648E-2,-7.6449335E-1,3.7354612E-1,1.6407363E-2,9.996303E-2,-1.0399277E0,2.6365656E-2,7.673621E-2,-2.2630215E-2,-4.4906892E-2,-1.3248475E0,3.1668615E-2,-4.3752E-2,-1.9313779E-2,-1.4898725E-1],"categories":[],"categories_nodes":[],"categories_segments":[],"categories_sizes":[],"default_left":[0,0,0,0,0,0,0,0,0,0,0,0,0,0,0,0,0,0,0],"id":9,"left_children":[1,3,5,7,-1,9,11,-1,-1,13,-1,-1,-1,15,17,-1,-1,-1,-1],"loss_changes":[6.313911E0,3.1424043E0,3.415218E0,1.5430355E-1,0E0,3.352838E0,1.101975E0,0E0,0E0,2.2521753E0,0E0,0E0,0E0,5.81632E-1,7.768059E-1,0E0,0E0,0E0,0E0],"parents":[2147483647,0,0,1,1,2,2,3,3,5,5,6,6,9,9,13,13,14,14],"right_children":[2,4,6,8,-1,10,12,-1,-1,14,-1,-1,-1,16,18,-1,-1,-1,-1],"split_conditions":[-5.563449E-1,2.8163496E-1,-8.670773E-1,-4.8739347E-1,-5.5427648E-2,5.2107424E-1,4.0945563E-1,1.6407363E-2,9.996303E-2,-2.0756245E0,2.6365656E-2,7.673621E-2,-2.2630215E-2,-6.825087E-1,-1.9055285E-1,3.1668615E-2,-4.3752E-2,-1.9313779E-2,-1.4898725E-1],"split_indices":[95,183,79,138,0,139,28,0,0,22,0,0,0,156,27,0,0,0,0],"split_type":[0,0,0,0,0,0,0,0,0,0,0,0,0,0,0,0,0,0,0],"sum_hessian":[1.911193E1,6.8139415E0,1.229799E1,5.769456E0,1.0444857E0,9.597301E0,2.7006893E0,1.0097576E0,4.7596984E0,7.6371627E0,1.9601378E0,1.5623889E0,1.1383004E0,2.0358794E0,5.601283E0,1.0278888E0,1.0079907E0,1.0661508E0,4.5351324E0],"tree_param":{"num_deleted":"0","num_feature":"224","num_nodes":"19","size_leaf_vector":"1"}},{"base_weights":[5.5108123E-2,4.3033722E-1,-7.4497575E-1,6.971027E-1,-7.654893E-2,-1.0188313E0,2.8111307E-2,-3.259478E-1,9.8722005E-1,-1.2677187E-1,-0E0,-9.049836E-2,3.585197E-2,-1.0346507E-2,1.13368824E-1],"categories":[],"categories_nodes":[],"categories_segments":[],"categories_sizes":[],"default_left":[0,0,0,0,0,0,0,0,0,0,0,0,0,0,0],"id":10,"left_children":[1,3,5,7,-1,9,-1,11,13,-1,-1,-1,-1,-1,-1],"loss_changes":[6.286512E0,5.0943317E0,2.231328E0,4.038112E0,0E0,1.3025255E0,0E0,1.7237319E0,1.8027506E0,0E0,0E0,0E0,0E0,0E0,0E0],"parents":[2147483647,0,0,1,1,2,2,3,3,5,5,7,7,8,8],"right_children":[2,4,6,8,-1,10,-1,12,14,-1,-1,-1,-1,-1,-1],"split_conditions":[5.4336518E-2,2.8590044E-2,-6.070522E-1,-2.0011133E-2,-7.654893E-2,1.3830674E0,2.8111307E-2,9.287443E-2,-7.3270845E-1,-1.2677187E-1,-0E0,-9.049836E-2,3.585197E-2,-1.0346507E-2,1.13368824E-1],"split_indices":[189,222,159,29,0,158,0,45,174,0,0,0,0,0,0],"split_type":[0,0,0,0,0,0,0,0,0,0,0,0,0,0,0],"sum_hessian":[1.8976982E1,1.33180895E1,5.6588917E0,1.1298331E1,2.0197587E0,4.5492587E0,1.109633E0,2.3926957E0,8.905635E0,3.394689E0,1.1545699E0,1.2007933E0,1.1919023E0,1.0082785E0,7.8973565E0],"tree_param":{"num_deleted":"0","num_feature":"224","num_nodes":"15","size_leaf_vector":"1"}},{"base_weights":[-1.4812061E-1,-5.090869E-1,6.556534E-1,6.80962E-2,-7.1368754E-1,8.916714E-2,-6.545599E-3,-9.200433E-1,6.292152E-2,2.7211536E-2,-1.1216851E0,-1.2960094E0,-0E0,-2.4588816E-2,-1.4228171E-1],"categories":[],"categories_nodes":[],"categories_segments":[],"categories_sizes":[],"default_left":[0,0,0,0,0,0,0,0,0,0,0,0,0,0,0],"id":11,"left_children":[1,3,5,-1,7,-1,-1,9,-1,-1,11,13,-1,-1,-1],"loss_changes":[5.4093986E0,3.595161E0,1.1261518E0,0E0,3.7794728E0,0E0,0E0,2.88805E0,0E0,0E0,1.8924971E0,5.4648685E-1,0E0,0E0,0E0],"parents":[2147483647,0,0,1,1,2,2,4,4,7,7,10,10,11,11],"right_children":[2,4,6,-1,8,-1,-1,10,-1,-1,12,14,-1,-1,-1],"split_conditions":[1.6978948E0,-3.1907606E-1,8.750612E-3,6.80962E-2,1.7135328E0,8.916714E-2,-6.545599E-3,8.386758E-2,6.292152E-2,2.7211536E-2,6.082776E-1,1.9634949E-1,-0E0,-2.4588816E-2,-1.4228171E-1],"split_indices":[59,18,207,0,172,0,0,12,0,0,41,93,0,0,0],"split_type":[0,0,0,0,0,0,0,0,0,0,0,0,0,0,0],"sum_hessian":[1.654447E1,1.1756013E1,4.788457E0,1.3113874E0,1.0444625E1,3.533949E0,1.2545081E0,9.390928E0,1.0536971E0,1.2362821E0,8.154646E0,6.9842496E0,1.1703963E0,1.1541498E0,5.8300996E0],"tree_param":{"num_deleted":"0","num_feature":"224","num_nodes":"15","size_leaf_vector":"1"}},{"base_weights":[-5.9463326E-2,-3.7402788E-1,7.368801E-1,1.2620537E-1,-6.803808E-1,8.607347E-2,5.7761515E-3,7.171079E-2,-5.489625E-1,-9.5475554E-1,4.1181445E-2,-8.787119E-2,3.1929195E-3,-1.2686251E-1,7.3054903E-3,3.9342545E-2,-2.7867133E-2],"categories":[],"categories_nodes":[],"categories_segments":[],"categories_sizes":[],"default_left":[0,0,0,0,0,0,0,0,0,0,0,0,0,0,0,0,0],"id":12,"left_children":[1,3,5,7,9,-1,-1,-1,11,13,15,-1,-1,-1,-1,-1,-1],"loss_changes":[4.63507E0,2.1844294E0,2.9711843E-1,2.7177925E0,1.8231802E0,0E0,0E0,0E0,7.231296E-1,2.2560625E0,4.83156E-1,0E0,0E0,0E0,0E0,0E0,0E0],"parents":[2147483647,0,0,1,1,2,2,3,3,4,4,8,8,9,9,10,10],"right_children":[2,4,6,8,10,-1,-1,-1,12,14,16,-1,-1,-1,-1,-1,-1],"split_conditions":[1.7092938E0,-6.792117E-1,-1.8635991E-1,1.6895573E0,-4.3839055E-1,8.607347E-2,5.7761515E-3,7.171079E-2,1.0507432E0,2.0602462E-1,-1.0681049E0,-8.787119E-2,3.1929195E-3,-1.2686251E-1,7.3054903E-3,3.9342545E-2,-2.7867133E-2],"split_indices":[59,161,47,188,149,0,0,0,180,12,11,0,0,0,0,0,0],"split_type":[0,0,0,0,0,0,0,0,0,0,0,0,0,0,0,0,0],"sum_hessian":[1.6547771E1,1.2332276E1,4.2154946E0,4.7833414E0,7.5489354E0,3.214559E0,1.0009356E0,2.5967104E0,2.1866307E0,5.335512E0,2.2134233E0,1.1776052E0,1.0090257E0,3.982381E0,1.3531309E0,1.0926951E0,1.1207281E0],"tree_param":{"num_deleted":"0","num_feature":"224","num_nodes":"17","size_leaf_vector":"1"}},{"base_weights":[-2.9246561E-2,-2.9476723E-1,7.039958E-1,1.8011986E-1,-6.9679224E-1,5.8133914E-3,8.2906984E-2,-7.119116E-2,5.27925E-1,-1.0354596E0,1.743306E-2,-2.9535297E-2,8.006037E-1,-1.6233558E-2,-1.2270919E-1,9.302917E-2,1.6398763E-2],"categories":[],"categories_nodes":[],"categories_segments":[],"categories_sizes":[],"default_left":[0,0,0,0,0,0,0,0,0,0,0,0,0,0,0,0,0],"id":13,"left_children":[1,3,5,7,9,-1,-1,-1,11,13,-1,-1,15,-1,-1,-1,-1],"loss_changes":[3.6239223E0,2.8198514E0,2.601974E-1,2.5374405E0,2.5723708E0,0E0,0E0,0E0,1.5688851E0,6.414113E-1,0E0,0E0,1.2194872E-1,0E0,0E0,0E0,0E0],"parents":[2147483647,0,0,1,1,2,2,3,3,4,4,8,8,9,9,12,12],"right_children":[2,4,6,8,10,-1,-1,-1,12,14,-1,-1,16,-1,-1,-1,-1],"split_conditions":[1.7092938E0,-6.9907E-1,-2.800183E0,9.2696175E-2,6.894412E-1,5.8133914E-3,8.2906984E-2,-7.119116E-2,-8.145064E-1,-6.7227983E-1,1.743306E-2,-2.9535297E-2,4.3636177E-2,-1.6233558E-2,-1.2270919E-1,9.302917E-2,1.6398763E-2],"split_indices":[59,163,36,130,19,0,0,0,148,152,0,0,215,0,0,0,0],"split_type":[0,0,0,0,0,0,0,0,0,0,0,0,0,0,0,0,0],"sum_hessian":[1.6758038E1,1.2842064E1,3.915974E0,6.0265293E0,6.815535E0,1.0026699E0,2.913304E0,1.3162634E0,4.7102656E0,4.8544216E0,1.9611135E0,1.0600004E0,3.6502655E0,1.3000456E0,3.554376E0,2.5187676E0,1.1314979E0],"tree_param":{"num_deleted":"0","num_feature":"224","num_nodes":"17","size_leaf_vector":"1"}},{"base_weights":[2.8431004E-2,7.2410844E-2,-1.7738365E-1,-7.045441E-1,1.2769818E-1,-1.08967304E-1,1.8735794E-2,-3.9886606E-1,5.431384E-1,-8.237941E-2,3.1021345E-2,9.427152E-2,-1.7313382E-2],"categories":[],"categories_nodes":[],"categories_segments":[],"categories_sizes":[],"default_left":[0,0,0,0,0,0,0,0,0,0,0,0,0],"id":14,"left_children":[1,-1,3,5,7,-1,-1,9,11,-1,-1,-1,-1],"loss_changes":[2.7209852E0,0E0,2.4588296E0,2.1978915E0,2.3812265E0,0E0,0E0,1.7547522E0,1.9642317E0,0E0,0E0,0E0,0E0],"parents":[2147483647,0,0,2,2,3,3,4,4,7,7,8,8],"right_children":[2,-1,4,6,8,-1,-1,10,12,-1,-1,-1,-1],"split_conditions":[-5.910172E-1,7.2410844E-2,1.5657715E0,1.0248003E0,-1.9620873E-3,-1.08967304E-1,1.8735794E-2,-4.1156656E-1,-6.5205055E-1,-8.237941E-2,3.1021345E-2,9.427152E-2,-1.7313382E-2],"split_indices":[95,0,74,186,192,0,0,165,163,0,0,0,0],"split_type":[0,0,0,0,0,0,0,0,0,0,0,0,0],"sum_hessian":[1.6724941E1,3.3543773E0,1.3370564E1,4.541531E0,8.829034E0,3.095328E0,1.4462028E0,3.8051941E0,5.02384E0,2.3663607E0,1.4388335E0,3.1115265E0,1.9123133E0],"tree_param":{"num_deleted":"0","num_feature":"224","num_nodes":"13","size_leaf_vector":"1"}},{"base_weights":[2.9308485E-2,6.7361265E-1,-3.5157794E-1,9.520086E-2,-3.381703E-2,5.9845317E-2,-5.971328E-1,-1.16470814E-1,-1.3841802E-1,-5.423616E-1,6.2476605E-2,-9.685924E-2,2.5466023E-2],"categories":[],"categories_nodes":[],"categories_segments":[],"categories_sizes":[],"default_left":[0,0,0,0,0,0,0,0,0,0,0,0,0],"id":15,"left_children":[1,3,5,-1,-1,-1,7,-1,9,11,-1,-1,-1],"loss_changes":[4.356556E0,2.250469E0,2.9297578E0,0E0,0E0,0E0,2.14195E0,0E0,2.304056E0,1.9510185E0,0E0,0E0,0E0],"parents":[2147483647,0,0,1,1,2,2,6,6,8,8,9,9],"right_children":[2,4,6,-1,-1,-1,8,-1,10,12,-1,-1,-1],"split_conditions":[-5.43349E-1,2.1996951E-1,-2.0875706E-1,9.520086E-2,-3.381703E-2,5.9845317E-2,-6.573418E-1,-1.16470814E-1,-4.375746E-1,-6.6001767E-1,6.2476605E-2,-9.685924E-2,2.5466023E-2],"split_indices":[95,183,27,0,0,0,159,0,146,158,0,0,0],"split_type":[0,0,0,0,0,0,0,0,0,0,0,0,0],"sum_hessian":[1.5656128E1,5.6286902E0,1.0027438E1,4.537966E0,1.0907247E0,1.6806722E0,8.3467655E0,2.9453578E0,5.4014077E0,3.8068595E0,1.5945485E0,2.421887E0,1.3849726E0],"tree_param":{"num_deleted":"0","num_feature":"224","num_nodes":"13","size_leaf_vector":"1"}},{"base_weights":[1.5255135E-3,5.5642414E-1,-3.3862323E-1,8.84172E-2,-3.050161E-2,-6.33429E-1,5.0993558E-2,9.888285E-3,-8.828047E-1,-0E0,-1.1015476E0,-1.2323566E-1,-2.6578857E-2],"categories":[],"categories_nodes":[],"categories_segments":[],"categories_sizes":[],"default_left":[0,0,0,0,0,0,0,0,0,0,0,0,0],"id":16,"left_children":[1,3,5,-1,-1,7,-1,-1,9,-1,11,-1,-1],"loss_changes":[3.0071218E0,2.0559216E0,2.7611027E0,0E0,0E0,1.5773468E0,0E0,0E0,1.082336E0,0E0,3.9277554E-2,0E0,0E0],"parents":[2147483647,0,0,1,1,2,2,5,5,8,8,10,10],"right_children":[2,4,6,-1,-1,8,-1,-1,10,-1,12,-1,-1],"split_conditions":[-5.43349E-1,-9.228431E-1,-8.670773E-1,8.84172E-2,-3.050161E-2,-6.952026E-1,5.0993558E-2,9.888285E-3,-2.3078328E-1,-0E0,-6.585243E-1,-1.2323566E-1,-2.6578857E-2],"split_indices":[95,4,79,0,0,178,0,0,140,0,181,0,0],"split_type":[0,0,0,0,0,0,0,0,0,0,0,0,0],"sum_hessian":[1.381829E1,5.1215153E0,8.6967745E0,3.7749681E0,1.3465471E0,6.7300096E0,1.966765E0,1.7610426E0,4.968967E0,1.2432524E0,3.7257144E0,2.7077265E0,1.0179878E0],"tree_param":{"num_deleted":"0","num_feature":"224","num_nodes":"13","size_leaf_vector":"1"}},{"base_weights":[3.583968E-2,-3.7867177E-1,5.1605874E-1,-9.440621E-2,4.551181E-2,-6.603795E-2,8.777715E-2,-5.165824E-1,5.1830655E-1,6.3006304E-2,-6.250766E-2,-0E0,-7.4565426E-2,8.0576144E-2,-8.622597E-3],"categories":[],"categories_nodes":[],"categories_segments":[],"categories_sizes":[],"default_left":[0,0,0,0,0,0,0,0,0,0,0,0,0,0,0],"id":17,"left_children":[1,3,5,-1,7,9,-1,11,13,-1,-1,-1,-1,-1,-1],"loss_changes":[3.2913592E0,2.2374701E0,1.7621713E0,0E0,1.8270738E0,1.8636658E0,0E0,3.0855638E-1,7.987133E-1,0E0,0E0,0E0,0E0,0E0,0E0],"parents":[2147483647,0,0,1,1,2,2,4,4,5,5,7,7,8,8],"right_children":[2,4,6,-1,8,10,-1,12,14,-1,-1,-1,-1,-1,-1],"split_conditions":[-2.1807389E-1,-6.585243E-1,-7.0344573E-1,-9.440621E-2,1.5661869E0,-7.0402837E-1,8.777715E-2,-3.096877E-2,5.4336518E-2,6.3006304E-2,-6.250766E-2,-0E0,-7.4565426E-2,8.0576144E-2,-8.622597E-3],"split_indices":[134,181,135,0,74,163,0,1,189,0,0,0,0,0,0],"split_type":[0,0,0,0,0,0,0,0,0,0,0,0,0,0,0],"sum_hessian":[1.448408E1,7.7756133E0,6.708467E0,2.908736E0,4.8668776E0,2.778329E0,3.930138E0,2.0845199E0,2.7823577E0,1.1012071E0,1.6771219E0,1.0491191E0,1.0354006E0,1.772219E0,1.0101388E0],"tree_param":{"num_deleted":"0","num_feature":"224","num_nodes":"15","size_leaf_vector":"1"}},{"base_weights":[-2.6361912E-2,-2.8190523E-1,7.825222E-2,2.954702E-1,-5.656381E-1,-4.897696E-2,7.0976295E-2,4.527123E-2,-8.078103E-1,-0E0,-1.0032691E0,-2.4197267E-2,-1.09241165E-1],"categories":[],"categories_nodes":[],"categories_segments":[],"categories_sizes":[],"default_left":[0,0,0,0,0,0,0,0,0,0,0,0,0],"id":18,"left_children":[1,3,-1,5,7,-1,-1,-1,9,-1,11,-1,-1],"loss_changes":[3.2344902E0,2.1752827E0,0E0,1.8418407E0,2.5141916E0,0E0,0E0,0E0,1.179627E0,0E0,5.592346E-3,0E0,0E0],"parents":[2147483647,0,0,1,1,3,3,4,4,8,8,10,10],"right_children":[2,4,-1,6,8,-1,-1,-1,10,-1,12,-1,-1],"split_conditions":[1.7092938E0,-7.25546E-1,7.825222E-2,-8.145064E-1,-1.531651E0,-4.897696E-2,7.0976295E-2,4.527123E-2,-6.941976E-2,-0E0,1.6019487E0,-2.4197267E-2,-1.09241165E-1],"split_indices":[59,156,0,148,111,0,0,0,73,0,123,0,0],"split_type":[0,0,0,0,0,0,0,0,0,0,0,0,0],"sum_hessian":[1.3822844E1,1.1093342E1,2.7295015E0,3.5254672E0,7.5678754E0,1.0713327E0,2.4541345E0,1.2075855E0,6.3602896E0,1.4165747E0,4.943715E0,1.0251303E0,3.9185848E0],"tree_param":{"num_deleted":"0","num_feature":"224","num_nodes":"13","size_leaf_vector":"1"}},{"base_weights":[1.9645022E-2,3.64726E-1,-5.295564E-1,-1.9656582E-1,7.988929E-1,2.5328144E-2,-8.348731E-1,4.9102046E-2,-6.126454E-1,2.6997802E-4,9.481584E-2,-1.0412923E-1,-9.560317E-3,-8.626324E-2,-0E0],"categories":[],"categories_nodes":[],"categories_segments":[],"categories_sizes":[],"default_left":[0,0,0,0,0,0,0,0,0,0,0,0,0,0,0],"id":19,"left_children":[1,3,5,7,9,-1,11,-1,13,-1,-1,-1,-1,-1,-1],"loss_changes":[2.9196334E0,2.5548873E0,1.6752355E0,1.7107637E0,5.8055425E-1,0E0,4.8192692E-1,0E0,5.1455164E-1,0E0,0E0,0E0,0E0,0E0,0E0],"parents":[2147483647,0,0,1,1,2,2,3,3,4,4,6,6,8,8],"right_children":[2,4,6,8,10,-1,12,-1,14,-1,-1,-1,-1,-1,-1],"split_conditions":[-8.795077E-2,-6.7291504E-1,4.5393157E-1,-1.1035649E-3,-7.943787E-1,2.5328144E-2,-6.7853975E-1,4.9102046E-2,-1.3261601E-1,2.6997802E-4,9.481584E-2,-1.0412923E-1,-9.560317E-3,-8.626324E-2,-0E0],"split_indices":[189,135,135,140,137,0,163,0,160,0,0,0,0,0,0],"split_type":[0,0,0,0,0,0,0,0,0,0,0,0,0,0,0],"sum_hessian":[1.3473344E1,8.592425E0,4.8809185E0,3.8857944E0,4.706631E0,1.3254193E0,3.555499E0,1.3064269E0,2.5793674E0,1.0095661E0,3.6970654E0,2.3543158E0,1.2011831E0,1.4968753E0,1.0824922E0],"tree_param":{"num_deleted":"0","num_feature":"224","num_nodes":"15","size_leaf_vector":"1"}},{"base_weights":[-3.3466816E-2,7.43132E-2,-2.4469735E-1,-7.4733824E-1,6.838342E-2,-1.0226341E-1,9.041796E-3,3.210594E-1,-7.113428E-2,5.887571E-1,-5.107667E-2,-2.2338076E-2,8.796441E-2],"categories":[],"categories_nodes":[],"categories_segments":[],"categories_sizes":[],"default_left":[0,0,0,0,0,0,0,0,0,0,0,0,0],"id":20,"left_children":[1,-1,3,5,7,-1,-1,9,-1,11,-1,-1,-1],"loss_changes":[2.557809E0,0E0,2.082817E0,1.3379273E0,1.8606894E0,0E0,0E0,1.9101982E0,0E0,1.6788759E0,0E0,0E0,0E0],"parents":[2147483647,0,0,2,2,3,3,4,4,7,7,9,9],"right_children":[2,-1,4,6,8,-1,-1,10,-1,12,-1,-1,-1],"split_conditions":[-5.910172E-1,7.43132E-2,1.5661869E0,1.0248003E0,1.3310384E0,-1.0226341E-1,9.041796E-3,3.0924451E0,-7.113428E-2,-7.6006544E-1,-5.107667E-2,-2.2338076E-2,8.796441E-2],"split_indices":[95,0,74,186,144,0,0,157,0,132,0,0,0],"split_type":[0,0,0,0,0,0,0,0,0,0,0,0,0],"sum_hessian":[1.3787794E1,2.3085988E0,1.1479196E1,3.9960415E0,7.483154E0,2.931427E0,1.0646147E0,6.192817E0,1.2903367E0,4.997087E0,1.1957302E0,1.2883608E0,3.7087262E0],"tree_param":{"num_deleted":"0","num_feature":"224","num_nodes":"13","size_leaf_vector":"1"}},{"base_weights":[5.1928866E-3,-2.891589E-1,4.2255276E-1,3.7223987E-2,-5.7172227E-1,7.7148247E-1,-5.3309586E-2,-7.8615046E-1,1.6282128E-2,8.643584E-2,1.5826965E-2,-9.739153E-2,-0E0],"categories":[],"categories_nodes":[],"categories_segments":[],"categories_sizes":[],"default_left":[0,0,0,0,0,0,0,0,0,0,0,0,0],"id":21,"left_children":[1,3,5,-1,7,9,-1,11,-1,-1,-1,-1,-1],"loss_changes":[1.7460085E0,1.7541609E0,2.4253569E0,0E0,1.1675339E0,3.7581682E-2,0E0,6.759417E-1,0E0,0E0,0E0,0E0,0E0],"parents":[2147483647,0,0,1,1,2,2,4,4,5,5,7,7],"right_children":[2,4,6,-1,8,10,-1,12,-1,-1,-1,-1,-1],"split_conditions":[-2.0083207E-1,-2.0276682E-1,-2.2138097E0,3.7223987E-2,5.257873E-3,-9.7813314E-1,-5.3309586E-2,9.357916E-1,1.6282128E-2,8.643584E-2,1.5826965E-2,-9.739153E-2,-0E0],"split_indices":[103,27,36,0,212,79,0,134,0,0,0,0,0],"split_type":[0,0,0,0,0,0,0,0,0,0,0,0,0],"sum_hessian":[1.2109287E1,7.140717E0,4.96857E0,1.9365485E0,5.2041683E0,3.8574712E0,1.1110989E0,4.079238E0,1.1249304E0,2.8527653E0,1.004706E0,3.0221741E0,1.0570639E0],"tree_param":{"num_deleted":"0","num_feature":"224","num_nodes":"13","size_leaf_vector":"1"}},{"base_weights":[-3.125729E-2,1.1758888E-1,-7.980102E-2,6.087108E-1,-8.742666E-2,8.306032E-2,-0E0,-4.4232997E-1,3.2739714E-1,-9.444167E-2,2.1738024E-2,-2.6544485E-2,6.53873E-2,5.480496E-2,-6.5197654E-2],"categories":[],"categories_nodes":[],"categories_segments":[],"categories_sizes":[],"default_left":[0,0,0,0,0,0,0,0,0,0,0,0,0,0,0],"id":22,"left_children":[1,3,-1,5,7,-1,-1,9,11,-1,13,-1,-1,-1,-1],"loss_changes":[1.7729406E0,1.3723749E0,0E0,5.7706726E-1,1.5709038E0,0E0,0E0,1.4487233E0,1.1559637E0,0E0,1.7133361E0,0E0,0E0,0E0,0E0],"parents":[2147483647,0,0,1,1,3,3,4,4,7,7,8,8,10,10],"right_children":[2,4,-1,6,8,-1,-1,10,12,-1,14,-1,-1,-1,-1],"split_conditions":[3.8842848E-1,-6.0623485E-1,-7.980102E-2,-5.3923685E-2,-6.585243E-1,8.306032E-2,-0E0,2.8156735E-2,-6.15527E-4,-9.444167E-2,8.1822944E-1,-2.6544485E-2,6.53873E-2,5.480496E-2,-6.5197654E-2],"split_indices":[155,150,0,96,181,0,0,187,219,0,40,0,0,0,0],"split_type":[0,0,0,0,0,0,0,0,0,0,0,0,0,0,0],"sum_hessian":[1.311624E1,1.1583758E1,1.5324807E0,2.97521E0,8.608549E0,1.9714341E0,1.003776E0,4.733528E0,3.8750207E0,1.8799579E0,2.85357E0,1.333741E0,2.5412798E0,1.7900915E0,1.0634786E0],"tree_param":{"num_deleted":"0","num_feature":"224","num_nodes":"15","size_leaf_vector":"1"}},{"base_weights":[6.6682165E-3,1.8079005E-1,-6.903228E-2,8.068695E-2,-1.17408976E-1,-5.7290536E-1,2.4879459E-1,-9.090609E-2,3.817676E-3,-5.367309E-2,6.8476754E-1,7.9762794E-2,1.3759608E-2],"categories":[],"categories_nodes":[],"categories_segments":[],"categories_sizes":[],"default_left":[0,0,0,0,0,0,0,0,0,0,0,0,0],"id":23,"left_children":[1,3,-1,-1,5,7,9,-1,-1,-1,11,-1,-1],"loss_changes":[1.751913E0,2.398518E0,0E0,0E0,1.655038E0,1.0213153E0,2.263943E0,0E0,0E0,0E0,4.711044E-2,0E0,0E0],"parents":[2147483647,0,0,1,1,4,4,5,5,6,6,10,10],"right_children":[2,4,-1,-1,6,8,10,-1,-1,-1,12,-1,-1],"split_conditions":[1.9072382E-1,-5.7566446E-1,-6.903228E-2,8.068695E-2,-6.173076E-1,-3.4916925E-1,-6.2546426E-1,-9.090609E-2,3.817676E-3,-5.367309E-2,1.6093673E0,7.9762794E-2,1.3759608E-2],"split_indices":[155,150,0,0,135,28,147,0,0,0,74,0,0],"split_type":[0,0,0,0,0,0,0,0,0,0,0,0,0],"sum_hessian":[1.2826994E1,1.097045E1,1.8565433E0,3.0972347E0,7.8732157E0,3.378968E0,4.4942474E0,1.9708338E0,1.4081342E0,1.4397173E0,3.0545301E0,2.00126E0,1.0532702E0],"tree_param":{"num_deleted":"0","num_feature":"224","num_nodes":"13","size_leaf_vector":"1"}},{"base_weights":[-3.3595957E-2,1.1239217E-1,-6.5860905E-2,-3.732076E-1,3.9019352E-1,2.755869E-2,-6.6921896E-1,5.8942646E-1,-3.236405E-2,-6.1609116E-3,-8.7946795E-2,-9.521977E-3,8.183069E-1,9.251239E-2,1.7925503E-2],"categories":[],"categories_nodes":[],"categories_segments":[],"categories_sizes":[],"default_left":[0,0,0,0,0,0,0,0,0,0,0,0,0,0,0],"id":24,"left_children":[1,3,-1,5,7,-1,9,11,-1,-1,-1,-1,13,-1,-1],"loss_changes":[1.3537793E0,1.7133919E0,0E0,1.1081219E0,1.3557233E0,0E0,3.0643845E-1,1.2035506E0,0E0,0E0,0E0,0E0,8.219695E-2,0E0,0E0],"parents":[2147483647,0,0,1,1,3,3,4,4,6,6,7,7,12,12],"right_children":[2,4,-1,6,8,-1,10,12,-1,-1,-1,-1,14,-1,-1],"split_conditions":[1.3788493E-1,-1.8281683E0,-6.5860905E-2,1.6311673E0,3.0924451E0,2.755869E-2,5.047948E-1,-7.035297E-1,-3.236405E-2,-6.1609116E-3,-8.7946795E-2,-9.521977E-3,5.7753533E-1,9.251239E-2,1.7925503E-2],"split_indices":[155,104,0,123,157,0,0,157,0,0,0,0,134,0,0],"split_type":[0,0,0,0,0,0,0,0,0,0,0,0,0,0,0],"sum_hessian":[1.2426948E1,1.0609096E1,1.8178517E0,3.6046774E0,7.0044184E0,1.0451351E0,2.5595424E0,5.721814E0,1.2826041E0,1.1126609E0,1.4468815E0,1.4704243E0,4.2513895E0,3.1249282E0,1.1264615E0],"tree_param":{"num_deleted":"0","num_feature":"224","num_nodes":"15","size_leaf_vector":"1"}},{"base_weights":[-2.9325683E-2,-3.921619E-1,2.601933E-1,2.7038235E-2,-6.571401E-1,-5.1689215E-2,5.202328E-1,1.2126622E-3,-8.705675E-2,7.273787E-1,-1.9053532E-2,8.27016E-2,1.1053785E-2],"categories":[],"categories_nodes":[],"categories_segments":[],"categories_sizes":[],"default_left":[0,0,0,0,0,0,0,0,0,0,0,0,0],"id":25,"left_children":[1,3,5,-1,7,-1,9,-1,-1,11,-1,-1,-1],"loss_changes":[1.431459E0,1.2895372E0,1.7679791E0,0E0,7.77158E-1,0E0,1.0980526E0,0E0,0E0,1.2705874E-1,0E0,0E0,0E0],"parents":[2147483647,0,0,1,1,2,2,4,4,6,6,9,9],"right_children":[2,4,6,-1,8,-1,10,-1,-1,12,-1,-1,-1],"split_conditions":[-5.378074E-1,-5.316114E-1,-7.982309E-1,2.7038235E-2,-3.8676494E-1,-5.1689215E-2,1.906591E0,1.2126622E-3,-8.705675E-2,9.8314874E-2,-1.9053532E-2,8.27016E-2,1.1053785E-2],"split_indices":[139,31,162,0,169,0,188,0,0,152,0,0,0],"split_type":[0,0,0,0,0,0,0,0,0,0,0,0,0],"sum_hessian":[1.1529746E1,5.112916E0,6.41683E0,1.3470371E0,3.7658787E0,1.2648206E0,5.1520095E0,1.025318E0,2.7405608E0,4.080201E0,1.0718086E0,3.0798702E0,1.0003308E0],"tree_param":{"num_deleted":"0","num_feature":"224","num_nodes":"13","size_leaf_vector":"1"}},{"base_weights":[-1.4431551E-1,-5.9208184E-1,2.862012E-1,-8.1733227E-1,1.8726522E-2,6.60501E-2,-1.6286215E-1,-1.4908062E-2,-9.9530205E-2,-6.528916E-2,4.598949E-2],"categories":[],"categories_nodes":[],"categories_segments":[],"categories_sizes":[],"default_left":[0,0,0,0,0,0,0,0,0,0,0],"id":26,"left_children":[1,3,5,7,-1,-1,9,-1,-1,-1,-1],"loss_changes":[2.568447E0,1.3504794E0,1.3043387E0,3.6740088E-1,0E0,0E0,1.4739919E0,0E0,0E0,0E0,0E0],"parents":[2147483647,0,0,1,1,2,2,3,3,6,6],"right_children":[2,4,6,8,-1,-1,10,-1,-1,-1,-1],"split_conditions":[-2.1807389E-1,1.7092938E0,2.697528E-1,-6.5731937E-1,1.8726522E-2,6.60501E-2,1.6835946E-1,-1.4908062E-2,-9.9530205E-2,-6.528916E-2,4.598949E-2],"split_indices":[134,59,127,152,0,0,169,0,0,0,0],"split_type":[0,0,0,0,0,0,0,0,0,0,0],"sum_hessian":[1.1286108E1,5.4621263E0,5.823982E0,4.299142E0,1.1629846E0,3.0410633E0,2.7829185E0,1.4088128E0,2.890329E0,1.6202097E0,1.1627088E0],"tree_param":{"num_deleted":"0","num_feature":"224","num_nodes":"11","size_leaf_vector":"1"}},{"base_weights":[1.9282889E-2,1.5912458E-1,-6.1528135E-2,4.4893995E-1,-2.7199894E-1,6.15905E-1,-1.628552E-2,1.6138373E-1,-7.616762E-2,7.80983E-1,-2.678034E-3,5.7989445E-2,-3.155708E-2,9.067943E-2,9.099514E-3],"categories":[],"categories_nodes":[],"categories_segments":[],"categories_sizes":[],"default_left":[0,0,0,0,0,0,0,0,0,0,0,0,0,0,0],"id":27,"left_children":[1,3,-1,5,7,9,-1,11,-1,13,-1,-1,-1,-1,-1],"loss_changes":[1.1910148E0,1.5690334E0,0E0,8.970525E-1,1.2615159E0,7.452779E-1,0E0,8.9069754E-1,0E0,2.5380063E-1,0E0,0E0,0E0,0E0,0E0],"parents":[2147483647,0,0,1,1,3,3,4,4,5,5,7,7,9,9],"right_children":[2,4,-1,6,8,10,-1,12,-1,14,-1,-1,-1,-1,-1],"split_conditions":[3.8842848E-1,3.944307E-4,-6.1528135E-2,1.3540615E0,-1.3026195E0,1.4276644E0,-1.628552E-2,-2.0575995E0,-7.616762E-2,-1.0646851E-1,-2.678034E-3,5.7989445E-2,-3.155708E-2,9.067943E-2,9.099514E-3],"split_indices":[155,45,0,144,94,154,0,90,0,132,0,0,0,0,0],"split_type":[0,0,0,0,0,0,0,0,0,0,0,0,0,0,0],"sum_hessian":[1.1832352E1,1.0438746E1,1.3936057E0,6.3563952E0,4.0823507E0,5.116725E0,1.2396702E0,2.412983E0,1.6693679E0,4.0236373E0,1.0930879E0,1.2819517E0,1.1310313E0,3.0147793E0,1.0088581E0],"tree_param":{"num_deleted":"0","num_feature":"224","num_nodes":"15","size_leaf_vector":"1"}},{"base_weights":[2.7218778E-2,-1.5489475E-1,5.979221E-2,4.649939E-1,-4.1219026E-1,6.127539E-2,1.9910957E-3,9.265462E-2,-8.1224754E-2,6.498855E-2,-3.7917443E-2],"categories":[],"categories_nodes":[],"categories_segments":[],"categories_sizes":[],"default_left":[0,0,0,0,0,0,0,0,0,0,0],"id":28,"left_children":[1,3,-1,5,7,-1,-1,9,-1,-1,-1],"loss_changes":[1.416886E0,1.7809415E0,0E0,1.4079493E-1,1.7042161E0,0E0,0E0,1.3765166E0,0E0,0E0,0E0],"parents":[2147483647,0,0,1,1,3,3,4,4,7,7],"right_children":[2,4,-1,6,8,-1,-1,10,-1,-1,-1],"split_conditions":[1.975016E0,-5.1283586E-1,5.979221E-2,-6.250127E-1,3.8955437E-3,6.127539E-2,1.9910957E-3,-5.4118633E-1,-8.1224754E-2,6.498855E-2,-3.7917443E-2],"split_indices":[130,33,0,148,198,0,0,95,0,0,0],"split_type":[0,0,0,0,0,0,0,0,0,0,0],"sum_hessian":[1.1315344E1,8.997557E0,2.3177865E0,2.2883823E0,6.7091746E0,1.2665225E0,1.0218596E0,3.1953254E0,3.5138495E0,1.38922E0,1.8061053E0],"tree_param":{"num_deleted":"0","num_feature":"224","num_nodes":"11","size_leaf_vector":"1"}},{"base_weights":[-2.5119547E-2,3.3568704E-1,-3.08893E-1,-3.9762117E-2,5.8911836E-1,-5.539962E-1,2.6511505E-2,7.8928374E-2,-2.4411215E-3,2.2945867E-3,-7.1841973E-1,-5.689125E-3,-8.833447E-2],"categories":[],"categories_nodes":[],"categories_segments":[],"categories_sizes":[],"default_left":[0,0,0,0,0,0,0,0,0,0,0,0,0],"id":29,"left_children":[1,3,5,-1,7,9,-1,-1,-1,-1,11,-1,-1],"loss_changes":[1.4007001E0,1.3521905E0,1.2705294E0,0E0,6.972953E-1,6.455976E-1,0E0,0E0,0E0,0E0,3.7464476E-1,0E0,0E0],"parents":[2147483647,0,0,1,1,2,2,4,4,5,5,10,10],"right_children":[2,4,6,-1,8,10,-1,-1,-1,-1,12,-1,-1],"split_conditions":[4.146147E-2,5.414982E-1,1.6835946E-1,-3.9762117E-2,1.6605835E0,-2.70424E-1,2.6511505E-2,7.8928374E-2,-2.4411215E-3,2.2945867E-3,4.0037975E-2,-5.689125E-3,-8.833447E-2],"split_indices":[223,40,169,0,74,140,0,0,0,0,73,0,0],"split_type":[0,0,0,0,0,0,0,0,0,0,0,0,0],"sum_hessian":[1.1693838E1,4.9124813E0,6.781357E0,1.014236E0,3.898245E0,4.8986816E0,1.8826753E0,2.846195E0,1.0520501E0,1.1424E0,3.7562816E0,1.1389886E0,2.6172931E0],"tree_param":{"num_deleted":"0","num_feature":"224","num_nodes":"13","size_leaf_vector":"1"}},{"base_weights":[-1.5473871E-2,5.742302E-2,-2.1176745E-1,2.3166484E-1,-4.3997765E-1,-3.5293866E-2,6.9828145E-2,2.478172E-2,-6.357797E-1,-8.980622E-2,-0E0],"categories":[],"categories_nodes":[],"categories_segments":[],"categories_sizes":[],"default_left":[0,0,0,0,0,0,0,0,0,0,0],"id":30,"left_children":[1,-1,3,5,7,-1,-1,-1,9,-1,-1],"loss_changes":[1.4761121E0,0E0,1.1217555E0,1.3340639E0,1.1405979E0,0E0,0E0,0E0,9.262457E-1,0E0,0E0],"parents":[2147483647,0,0,2,2,3,3,4,4,8,8],"right_children":[2,-1,4,6,8,-1,-1,-1,10,-1,-1],"split_conditions":[-1.1772604E0,5.742302E-2,-7.275772E-1,-7.982309E-1,-6.3174623E-1,-3.5293866E-2,6.9828145E-2,2.478172E-2,-6.4111E-2,-8.980622E-2,-0E0],"split_indices":[4,0,156,162,150,0,0,0,64,0,0],"split_type":[0,0,0,0,0,0,0,0,0,0,0],"sum_hessian":[1.1014632E1,2.14271E0,8.8719225E0,2.860463E0,6.0114594E0,1.2827166E0,1.5777463E0,1.1600773E0,4.851382E0,3.0810945E0,1.7702873E0],"tree_param":{"num_deleted":"0","num_feature":"224","num_nodes":"11","size_leaf_vector":"1"}},{"base_weights":[-0E0,-3.5101858E-1,2.6784497E-1,-7.05919E-2,1.6479015E-2,-2.4622983E-1,6.5408003E-1,-6.777727E-2,2.3352956E-2,7.900923E-2,4.2518186E-3],"categories":[],"categories_nodes":[],"categories_segments":[],"categories_sizes":[],"default_left":[0,0,0,0,0,0,0,0,0,0,0],"id":31,"left_children":[1,3,5,-1,-1,7,9,-1,-1,-1,-1],"loss_changes":[1.2150342E0,1.2042572E0,1.6387918E0,0E0,0E0,9.7291493E-1,2.5886345E-1,0E0,0E0,0E0,0E0],"parents":[2147483647,0,0,1,1,2,2,5,5,6,6],"right_children":[2,4,6,-1,-1,8,10,-1,-1,-1,-1],"split_conditions":[2.484584E-1,-8.037321E-2,-1.9620873E-3,-7.05919E-2,1.6479015E-2,-6.4727527E-1,-6.6811055E-1,-6.777727E-2,2.3352956E-2,7.900923E-2,4.2518186E-3],"split_indices":[87,69,192,0,0,165,137,0,0,0,0],"split_type":[0,0,0,0,0,0,0,0,0,0,0],"sum_hessian":[1.088449E1,4.647393E0,6.237097E0,2.6496286E0,1.9977648E0,2.7201643E0,3.5169325E0,1.3244904E0,1.3956739E0,2.5044897E0,1.0124428E0],"tree_param":{"num_deleted":"0","num_feature":"224","num_nodes":"11","size_leaf_vector":"1"}},{"base_weights":[-0E0,3.8761958E-1,-2.2310129E-1,7.769134E-2,-4.442368E-2,-4.3457666E-1,3.147537E-2,1.28413765E-2,-7.327233E-1,-1.0641008E-2,-8.711082E-2],"categories":[],"categories_nodes":[],"categories_segments":[],"categories_sizes":[],"default_left":[0,0,0,0,0,0,0,0,0,0,0],"id":32,"left_children":[1,3,5,-1,-1,7,-1,-1,9,-1,-1],"loss_changes":[1.0753753E0,1.8750961E0,1.019331E0,0E0,0E0,1.1695733E0,0E0,0E0,1.7520452E-1,0E0,0E0],"parents":[2147483647,0,0,1,1,2,2,5,5,8,8],"right_children":[2,4,6,-1,-1,8,-1,-1,10,-1,-1],"split_conditions":[-5.4118633E-1,4.857194E-1,-2.7035102E-1,7.769134E-2,-4.442368E-2,-6.3174623E-1,3.147537E-2,1.28413765E-2,-5.447667E-1,-1.0641008E-2,-8.711082E-2],"split_indices":[95,63,57,0,0,150,0,0,21,0,0],"split_type":[0,0,0,0,0,0,0,0,0,0,0],"sum_hessian":[1.02755375E1,3.621761E0,6.653776E0,2.5940528E0,1.027708E0,5.047233E0,1.6065432E0,1.828453E0,3.2187803E0,1.033382E0,2.185398E0],"tree_param":{"num_deleted":"0","num_feature":"224","num_nodes":"11","size_leaf_vector":"1"}},{"base_weights":[2.1138879E-2,-3.6736938E-1,2.2506924E-1,9.884982E-3,-6.37145E-2,4.7743857E-1,-2.5428656E-1,-1.836375E-2,6.836625E-1,-6.298113E-2,2.0069443E-2,5.777691E-3,8.16492E-2],"categories":[],"categories_nodes":[],"categories_segments":[],"categories_sizes":[],"default_left":[0,0,0,0,0,0,0,0,0,0,0,0,0],"id":33,"left_children":[1,3,5,-1,-1,7,9,-1,11,-1,-1,-1,-1],"loss_changes":[9.2062235E-1,6.090297E-1,1.0924438E0,0E0,0E0,9.41955E-1,7.195734E-1,0E0,2.4882507E-1,0E0,0E0,0E0,0E0],"parents":[2147483647,0,0,1,1,2,2,5,5,6,6,8,8],"right_children":[2,4,6,-1,-1,8,10,-1,12,-1,-1,-1,-1],"split_conditions":[-6.197314E-1,-9.651773E-1,-2.9223585E-1,9.884982E-3,-6.37145E-2,-2.193615E0,1.656763E0,-1.836375E-2,-2.6139512E-3,-6.298113E-2,2.0069443E-2,5.777691E-3,8.16492E-2],"split_indices":[147,79,132,0,0,22,59,0,192,0,0,0,0],"split_type":[0,0,0,0,0,0,0,0,0,0,0,0,0],"sum_hessian":[9.755818E0,2.9134977E0,6.842321E0,1.1642969E0,1.7492008E0,4.6217127E0,2.220608E0,1.0096785E0,3.6120343E0,1.1264272E0,1.094181E0,1.0153891E0,2.596645E0],"tree_param":{"num_deleted":"0","num_feature":"224","num_nodes":"13","size_leaf_vector":"1"}},{"base_weights":[-1.333933E-1,-5.40521E-1,2.8510243E-1,-7.160813E-1,5.2733882E-3,-1.4430426E-2,5.534647E-1,-8.141378E-2,-1.2594461E-2,-0E0,7.278047E-2],"categories":[],"categories_nodes":[],"categories_segments":[],"categories_sizes":[],"default_left":[0,0,0,0,0,0,0,0,0,0,0],"id":34,"left_children":[1,3,5,7,-1,-1,9,-1,-1,-1,-1],"loss_changes":[2.0143785E0,7.2117317E-1,7.9418254E-1,7.950878E-2,0E0,0E0,3.4221232E-1,0E0,0E0,0E0,0E0],"parents":[2147483647,0,0,1,1,2,2,3,3,6,6],"right_children":[2,4,6,8,-1,-1,10,-1,-1,-1,-1],"split_conditions":[-2.1807389E-1,1.18899345E-1,-6.653612E-1,5.7355887E-1,5.2733882E-3,-1.4430426E-2,4.4637147E-1,-8.141378E-2,-1.2594461E-2,-0E0,7.278047E-2],"split_indices":[134,164,151,41,0,0,172,0,0,0,0],"split_type":[0,0,0,0,0,0,0,0,0,0,0],"sum_hessian":[9.768396E0,4.9247713E0,4.843625E0,3.770501E0,1.1542706E0,1.8973391E0,2.9462862E0,2.7624655E0,1.0080355E0,1.0181153E0,1.9281709E0],"tree_param":{"num_deleted":"0","num_feature":"224","num_nodes":"11","size_leaf_vector":"1"}},{"base_weights":[4.327223E-2,3.084059E-1,-3.333284E-1,-3.483121E-2,5.0246805E-1,1.415838E-2,-6.519601E-2,-1.6240847E-3,7.622697E-2],"categories":[],"categories_nodes":[],"categories_segments":[],"categories_sizes":[],"default_left":[0,0,0,0,0,0,0,0,0],"id":35,"left_children":[1,3,5,-1,7,-1,-1,-1,-1],"loss_changes":[1.1267548E0,1.0453273E0,8.3517826E-1,0E0,8.5577774E-1,0E0,0E0,0E0,0E0],"parents":[2147483647,0,0,1,1,2,2,4,4],"right_children":[2,4,6,-1,8,-1,-1,-1,-1],"split_conditions":[-6.606964E-1,9.2696175E-2,-2.0924685E0,-3.483121E-2,-2.0564594E-3,1.415838E-2,-6.519601E-2,-1.6240847E-3,7.622697E-2],"split_indices":[156,130,122,0,192,0,0,0,0],"split_type":[0,0,0,0,0,0,0,0,0],"sum_hessian":[9.279936E0,5.708008E0,3.571928E0,1.0031477E0,4.70486E0,1.5313298E0,2.0405982E0,1.7544931E0,2.9503672E0],"tree_param":{"num_deleted":"0","num_feature":"224","num_nodes":"9","size_leaf_vector":"1"}},{"base_weights":[3.368154E-2,-5.795441E-2,2.1808876E-1,-2.3987614E-1,4.1665336E-1,1.6311869E-2,-5.7846326E-2,6.0880625E-1,-1.063176E-2,7.69472E-2,-0E0],"categories":[],"categories_nodes":[],"categories_segments":[],"categories_sizes":[],"default_left":[0,0,0,0,0,0,0,0,0,0,0],"id":36,"left_children":[1,-1,3,5,7,-1,-1,9,-1,-1,-1],"loss_changes":[1.2160997E0,0E0,8.911365E-1,5.5273974E-1,7.632593E-1,0E0,0E0,4.6041238E-1,0E0,0E0,0E0],"parents":[2147483647,0,0,2,2,3,3,4,4,7,7],"right_children":[2,-1,4,6,8,-1,-1,10,-1,-1,-1],"split_conditions":[-5.35097E-1,-5.795441E-2,-6.886408E-1,5.9395533E-2,2.1553258E-3,1.6311869E-2,-5.7846326E-2,1.471244E0,-1.063176E-2,7.69472E-2,-0E0],"split_indices":[110,0,159,223,211,0,0,170,0,0,0],"split_type":[0,0,0,0,0,0,0,0,0,0,0],"sum_hessian":[8.955969E0,1.4498005E0,7.5061684E0,2.054969E0,5.4511995E0,1.0400125E0,1.0149566E0,4.006276E0,1.444923E0,2.9115262E0,1.0947499E0],"tree_param":{"num_deleted":"0","num_feature":"224","num_nodes":"11","size_leaf_vector":"1"}},{"base_weights":[-3.2875806E-2,-2.6897916E-1,2.8246295E-1,-4.5248464E-1,3.0874941E-2,6.113118E-2,-1.2089587E-2,-6.5913427E-1,1.6494235E-2,-1.2978457E-2,-7.981172E-2],"categories":[],"categories_nodes":[],"categories_segments":[],"categories_sizes":[],"default_left":[0,0,0,0,0,0,0,0,0,0,0],"id":37,"left_children":[1,3,5,7,-1,-1,-1,9,-1,-1,-1],"loss_changes":[8.3820623E-1,8.493694E-1,7.460499E-1,8.617166E-1,0E0,0E0,0E0,1.3123822E-1,0E0,0E0,0E0],"parents":[2147483647,0,0,1,1,2,2,3,3,7,7],"right_children":[2,4,6,8,-1,-1,-1,10,-1,-1,-1],"split_conditions":[1.5875937E0,-8.3835196E-1,1.5171405E-2,-6.970529E-1,3.0874941E-2,6.113118E-2,-1.2089587E-2,-7.153498E-1,1.6494235E-2,-1.2978457E-2,-7.981172E-2],"split_indices":[74,8,138,166,0,0,0,145,0,0,0],"split_type":[0,0,0,0,0,0,0,0,0,0,0],"sum_hessian":[9.255901E0,5.558342E0,3.697559E0,4.514324E0,1.0440181E0,1.8894778E0,1.8080812E0,3.453026E0,1.0612979E0,1.2698456E0,2.1831806E0],"tree_param":{"num_deleted":"0","num_feature":"224","num_nodes":"11","size_leaf_vector":"1"}},{"base_weights":[-0E0,1.7923447E-1,-3.4059379E-1,-4.3030974E-2,3.600285E-1,-5.916618E-2,1.1326423E-2,-3.068815E-2,7.637245E-2,3.7053656E-2,-3.627258E-2],"categories":[],"categories_nodes":[],"categories_segments":[],"categories_sizes":[],"default_left":[0,0,0,0,0,0,0,0,0,0,0],"id":38,"left_children":[1,3,5,-1,7,-1,-1,9,-1,-1,-1],"loss_changes":[7.0566654E-1,9.750564E-1,5.711657E-1,0E0,1.1156576E0,0E0,0E0,6.8225384E-1,0E0,0E0,0E0],"parents":[2147483647,0,0,1,1,2,2,4,4,7,7],"right_children":[2,4,6,-1,8,-1,-1,10,-1,-1,-1],"split_conditions":[5.4336518E-2,-8.0574745E-1,9.2696175E-2,-4.3030974E-2,-6.168228E-1,-5.916618E-2,1.1326423E-2,-5.3861254E-1,7.637245E-2,3.7053656E-2,-3.627258E-2],"split_indices":[189,137,130,0,141,0,0,95,0,0,0],"split_type":[0,0,0,0,0,0,0,0,0,0,0],"sum_hessian":[9.510382E0,6.5058627E0,3.0045187E0,1.0460149E0,5.459848E0,1.8807946E0,1.1237241E0,3.1181862E0,2.341662E0,1.2231044E0,1.8950819E0],"tree_param":{"num_deleted":"0","num_feature":"224","num_nodes":"11","size_leaf_vector":"1"}},{"base_weights":[-4.2752545E-2,-2.7678227E-1,3.789689E-1,4.457425E-2,-5.373933E-1,6.153917E-2,-0E0,-7.028737E-1,1.9750153E-3,-8.0806434E-2,-1.5557635E-2],"categories":[],"categories_nodes":[],"categories_segments":[],"categories_sizes":[],"default_left":[0,0,0,0,0,0,0,0,0,0,0],"id":39,"left_children":[1,3,5,-1,7,-1,-1,9,-1,-1,-1],"loss_changes":[1.0608085E0,1.5716623E0,3.7881225E-1,0E0,6.0942376E-1,0E0,0E0,4.1289806E-2,0E0,0E0,0E0],"parents":[2147483647,0,0,1,1,2,2,4,4,7,7],"right_children":[2,4,6,-1,8,-1,-1,10,-1,-1,-1],"split_conditions":[1.0334089E-1,-5.4470646E-1,8.1822944E-1,4.457425E-2,5.188516E-1,6.153917E-2,-0E0,1.6462568E0,1.9750153E-3,-8.0806434E-2,-1.5557635E-2],"split_indices":[139,33,40,0,26,0,0,171,0,0,0],"split_type":[0,0,0,0,0,0,0,0,0,0,0],"sum_hessian":[8.789067E0,6.025879E0,2.763188E0,1.307326E0,4.718553E0,1.4273958E0,1.3357921E0,3.5747235E0,1.1438296E0,2.4455156E0,1.1292078E0],"tree_param":{"num_deleted":"0","num_feature":"224","num_nodes":"11","size_leaf_vector":"1"}}]},"name":"gbtree"},"learner_model_param":{"base_score":"[6.859504E-1]","boost_from_average":"1","num_class":"0","num_feature":"224","num_target":"1"},"objective":{"name":"binary:logistic","reg_loss_param":{"scale_pos_weight":"1"}}},"version":[3,1,2]}