{"learner":{"attributes":{"best_iteration":"0","best_score":"0.7739287041700803"},"feature_names":[],"feature_types":[],"gradient_booster":{"model":{"cats":{"enc":[],"feature_segments":[],"sorted_idx":[]},"gbtree_model_param":{"num_parallel_tree":"1","num_trees":"21"},"iteration_indptr":[0,1,2,3,4,5,6,7,8,9,10,11,12,13,14,15,16,17,18,19,20,21],"tree_info":[0,0,0,0,0,0,0,0,0,0,0,0,0,0,0,0,0,0,0,0,0],"trees":[{"base_weights":[8.113577E-2,8.846614E-1,-9.6091044E-1,1.8601956E0,2.1661727E-1,6.9065504E-2,-1.24907434E-1,2.3744845E-1,3.318516E-2,8.708425E-1,-7.807606E-2,-6.7853115E-2,1.3743334E0,1.8918966E-1,-1.8953608E-2],"categories":[],"categories_nodes":[],"categories_segments":[],"categories_sizes":[],"default_left":[0,0,0,0,0,0,0,0,0,0,0,0,0,0,0],"id":0,"left_children":[1,3,5,7,9,-1,-1,-1,-1,11,-1,-1,13,-1,-1],"loss_changes":[1.8829739E1,7.668643E0,5.5721254E0,2.8486767E0,6.387347E0,0E0,0E0,0E0,0E0,5.5321617E0,0E0,0E0,4.383217E0,0E0,0E0],"parents":[2147483647,0,0,1,1,2,2,3,3,4,4,9,9,12,12],"right_children":[2,4,6,8,10,-1,-1,-1,-1,12,-1,-1,14,-1,-1],"split_conditions":[4.3536088E-1,-6.9732964E-1,-5.9719086E-1,-3.8440373E-2,-8.63318E-1,6.9065504E-2,-1.24907434E-1,2.3744845E-1,3.318516E-2,-6.6667306E-1,-7.807606E-2,-6.7853115E-2,1.0878156E-1,1.8918966E-1,-1.8953608E-2],"split_indices":[78,183,184,154,8,0,0,0,0,183,0,0,73,0,0],"split_type":[0,0,0,0,0,0,0,0,0,0,0,0,0,0,0],"sum_hessian":[2.0482208E1,1.1704119E1,8.77809E0,3.9710402E0,7.7330785E0,1.0450106E0,7.7330785E0,2.5080254E0,1.4630148E0,4.807049E0,2.9260297E0,1.0450106E0,3.7620382E0,2.7170277E0,1.0450106E0],"tree_param":{"num_deleted":"0","num_feature":"224","num_nodes":"15","size_leaf_vector":"1"}},{"base_weights":[-2.6143936E-3,-5.3918153E-1,8.252751E-1,7.0686406E-1,-9.672019E-1,-5.2530356E-2,1.294382E0,-4.5528796E-2,1.7893891E-1,-1.22940555E-1,4.6004042E-2,-3.4281533E-2,1.7722065E0,2.3105708E-1,-1.861552E-2],"categories":[],"categories_nodes":[],"categories_segments":[],"categories_sizes":[],"default_left":[0,0,0,0,0,0,0,0,0,0,0,0,0,0,0],"id":1,"left_children":[1,3,5,7,9,-1,11,-1,-1,-1,-1,-1,13,-1,-1],"loss_changes":[9.628888E0,7.7824745E0,6.1277742E0,5.8654304E0,4.5168114E0,0E0,5.9414015E0,0E0,0E0,0E0,0E0,0E0,6.2787E0,0E0,0E0],"parents":[2147483647,0,0,1,1,2,2,3,3,4,4,6,6,12,12],"right_children":[2,4,6,8,10,-1,12,-1,-1,-1,-1,-1,14,-1,-1],"split_conditions":[-3.0734044E-1,-6.339184E-1,-6.193017E-2,-7.056136E-1,8.84887E-1,-5.2530356E-2,-6.713028E-1,-4.5528796E-2,1.7893891E-1,-1.22940555E-1,4.6004042E-2,-3.4281533E-2,2.707646E0,2.3105708E-1,-1.861552E-2],"split_indices":[60,147,7,153,58,0,134,0,0,0,0,0,173,0,0],"split_type":[0,0,0,0,0,0,0,0,0,0,0,0,0,0,0],"sum_hessian":[1.9738731E1,1.2261436E1,7.4772964E0,2.9086673E0,9.352769E0,1.8417764E0,5.63552E0,1.6376265E0,1.2710409E0,8.077502E0,1.2752662E0,1.2897263E0,4.3457937E0,3.3077025E0,1.0380911E0],"tree_param":{"num_deleted":"0","num_feature":"224","num_nodes":"15","size_leaf_vector":"1"}},{"base_weights":[-1.6351333E-1,-8.317673E-1,5.006702E-1,-1.0648185E0,1.1778034E-2,1.1184083E0,-2.3086548E-1,-1.15632854E-1,-1.4835908E-2,-7.0092894E-2,1.9397907E-1,8.166129E-2,-7.822627E-1,-7.3338665E-2,6.287322E-2,-1.4377317E-2,-9.0705454E-2],"categories":[],"categories_nodes":[],"categories_segments":[],"categories_sizes":[],"default_left":[0,0,0,0,0,0,0,0,0,0,0,0,0,0,0,0,0],"id":2,"left_children":[1,3,5,7,-1,9,11,-1,-1,13,-1,-1,15,-1,-1,-1,-1],"loss_changes":[9.107942E0,2.471754E0,5.0163555E0,3.985815E-1,0E0,6.03124E0,3.8036578E0,0E0,0E0,2.0035396E0,0E0,0E0,9.652805E-2,0E0,0E0,0E0,0E0],"parents":[2147483647,0,0,1,1,2,2,3,3,5,5,6,6,9,9,12,12],"right_children":[2,4,6,8,-1,10,12,-1,-1,14,-1,-1,16,-1,-1,-1,-1],"split_conditions":[-5.406658E-1,6.4236164E-4,1.2352359E0,1.3434192E0,1.1778034E-2,3.0838788E-1,-1.5368913E0,-1.15632854E-1,-1.4835908E-2,-1.0632881E0,1.9397907E-1,8.166129E-2,-6.664646E-1,-7.3338665E-2,6.287322E-2,-1.4377317E-2,-9.0705454E-2],"split_indices":[95,208,15,158,0,26,111,0,0,11,0,0,134,0,0,0,0],"split_type":[0,0,0,0,0,0,0,0,0,0,0,0,0,0,0,0,0],"sum_hessian":[1.8507767E1,9.174891E0,9.332874E0,7.35391E0,1.8209817E0,4.847391E0,4.485483E0,6.349092E0,1.004818E0,2.3050346E0,2.5423567E0,1.3184686E0,3.1670146E0,1.2306228E0,1.0744117E0,1.0006566E0,2.1663578E0],"tree_param":{"num_deleted":"0","num_feature":"224","num_nodes":"17","size_leaf_vector":"1"}},{"base_weights":[1.1961135E-1,-2.8002745E-1,1.2399482E0,-9.898771E-1,1.6435075E-1,1.695805E-1,-3.493692E-3,-1.0929831E-1,-1.5796585E-2,-7.7693444E-1,1.1630428E0,-1.0351153E-1,1.3418771E-2,1.8681237E-1,1.1655492E-1,-6.682865E-2,8.368937E-2],"categories":[],"categories_nodes":[],"categories_segments":[],"categories_sizes":[],"default_left":[0,0,0,0,0,0,0,0,0,0,0,0,0,0,0,0,0],"id":3,"left_children":[1,3,5,7,9,-1,-1,-1,-1,11,13,-1,-1,-1,15,-1,-1],"loss_changes":[1.0032277E1,5.461376E0,3.643221E0,2.6797104E-1,1.1226965E1,0E0,0E0,0E0,0E0,1.6827724E0,3.8341932E0,0E0,0E0,0E0,2.5223475E0,0E0,0E0],"parents":[2147483647,0,0,1,1,2,2,3,3,4,4,9,9,10,10,14,14],"right_children":[2,4,6,8,10,-1,-1,-1,-1,12,14,-1,-1,-1,16,-1,-1],"split_conditions":[-1.3849214E0,-2.75395E0,2.2861898E-1,2.7154174E-1,1.3406606E0,1.695805E-1,-3.493692E-3,-1.0929831E-1,-1.5796585E-2,-5.9115446E-1,1.2352359E0,-1.0351153E-1,1.3418771E-2,1.8681237E-1,-1.7250491E0,-6.682865E-2,8.368937E-2],"split_indices":[81,36,110,10,35,0,0,0,0,155,15,0,0,0,104,0,0],"split_type":[0,0,0,0,0,0,0,0,0,0,0,0,0,0,0,0,0],"sum_hessian":[2.0417072E1,1.5535976E1,4.881095E0,5.5953865E0,9.94059E0,3.410049E0,1.471046E0,4.592207E0,1.0031796E0,5.180136E0,4.760454E0,4.0158486E0,1.1642874E0,2.3179917E0,2.4424624E0,1.1370417E0,1.3054209E0],"tree_param":{"num_deleted":"0","num_feature":"224","num_nodes":"17","size_leaf_vector":"1"}},{"base_weights":[-0E0,9.839162E-1,-3.3465138E-1,1.3449348E0,-2.3295192E-2,-8.8735837E-1,4.4934577E-1,3.669069E-2,1.6020058E-1,-1.0485958E0,2.3151118E-2,-5.7744402E-2,9.866778E-1,-1.1343729E-1,-1.6327519E-2,-3.300887E-2,1.5438412E-1],"categories":[],"categories_nodes":[],"categories_segments":[],"categories_sizes":[],"default_left":[0,0,0,0,0,0,0,0,0,0,0,0,0,0,0,0,0],"id":4,"left_children":[1,3,5,7,-1,9,11,-1,-1,13,-1,-1,15,-1,-1,-1,-1],"loss_changes":[7.219239E0,2.863225E0,7.5818195E0,3.4474277E-1,0E0,2.1419015E0,4.6942873E0,0E0,0E0,3.7336636E-1,0E0,0E0,4.513432E0,0E0,0E0,0E0,0E0],"parents":[2147483647,0,0,1,1,2,2,3,3,5,5,6,6,9,9,12,12],"right_children":[2,4,6,8,-1,10,12,-1,-1,14,-1,-1,16,-1,-1,-1,-1],"split_conditions":[-2.4037037E0,6.520197E-1,7.772154E-1,-6.36309E-1,-2.3295192E-2,-1.590628E0,1.6022301E0,3.669069E-2,1.6020058E-1,1.7671467E0,2.3151118E-2,-5.7744402E-2,-6.9327766E-1,-1.1343729E-1,-1.6327519E-2,-3.300887E-2,1.5438412E-1],"split_indices":[101,170,221,135,0,104,123,0,0,105,0,0,144,0,0,0,0],"split_type":[0,0,0,0,0,0,0,0,0,0,0,0,0,0,0,0,0],"sum_hessian":[2.0026987E1,4.551227E0,1.547576E1,3.492124E0,1.0591028E0,9.074253E0,6.4015083E0,1.3130137E0,2.1791105E0,8.06431E0,1.009943E0,2.1095693E0,4.291939E0,6.992549E0,1.0717609E0,1.3439062E0,2.9480326E0],"tree_param":{"num_deleted":"0","num_feature":"224","num_nodes":"17","size_leaf_vector":"1"}},{"base_weights":[-2.8389165E-2,9.379591E-1,-3.818728E-1,-6.598642E-2,1.4298859E0,-8.798038E-1,3.1973186E-1,1.6423026E-1,3.5839554E-2,-1.1376723E-1,4.6922375E-2,8.9397544E-1,-8.2298815E-2,-1.2569844E-2,1.4312E-1],"categories":[],"categories_nodes":[],"categories_segments":[],"categories_sizes":[],"default_left":[0,0,0,0,0,0,0,0,0,0,0,0,0,0,0],"id":5,"left_children":[1,3,5,-1,7,9,11,-1,-1,-1,-1,13,-1,-1,-1],"loss_changes":[7.5250583E0,5.63946E0,6.020344E0,0E0,3.1673527E-1,4.032311E0,5.600509E0,0E0,0E0,0E0,0E0,3.3038387E0,0E0,0E0,0E0],"parents":[2147483647,0,0,1,1,2,2,4,4,5,5,6,6,11,11],"right_children":[2,4,6,-1,8,10,12,-1,-1,-1,-1,14,-1,-1,-1],"split_conditions":[-2.4037037E0,-1.2171606E0,1.7701767E-2,-6.598642E-2,-5.0836205E-1,5.3371227E-1,-6.3116443E-1,1.6423026E-1,3.5839554E-2,-1.1376723E-1,4.6922375E-2,1.6022301E0,-8.2298815E-2,-1.2569844E-2,1.4312E-1],"split_indices":[101,42,222,0,95,63,183,0,0,0,0,123,0,0,0],"split_type":[0,0,0,0,0,0,0,0,0,0,0,0,0,0,0],"sum_hessian":[2.0143831E1,4.876408E0,1.5267423E1,1.0196906E0,3.8567176E0,8.864677E0,6.4027457E0,2.6961637E0,1.1605539E0,7.6358695E0,1.2288077E0,4.464445E0,1.9383004E0,1.7405989E0,2.7238464E0],"tree_param":{"num_deleted":"0","num_feature":"224","num_nodes":"15","size_leaf_vector":"1"}},{"base_weights":[1.1002625E-1,-8.3161324E-1,4.3642646E-1,-1.3965818E-2,-9.376663E-2,7.8305966E-1,-3.6220583E-1,-3.449726E-1,1.096054E0,7.370707E-2,-9.422627E-2,-6.481465E-2,9.401518E-3,-2.1322364E-2,1.3233954E0,1.6073848E0,1.3235434E-2,1.8236713E-1,3.5192396E-2],"categories":[],"categories_nodes":[],"categories_segments":[],"categories_sizes":[],"default_left":[0,0,0,0,0,0,0,0,0,0,0,0,0,0,0,0,0,0,0],"id":6,"left_children":[1,3,5,-1,-1,7,9,11,13,-1,-1,-1,-1,-1,15,17,-1,-1,-1],"loss_changes":[6.3705373E0,1.5243292E-1,4.573761E0,0E0,0E0,4.373786E0,4.056851E0,5.2933794E-1,3.0724344E0,0E0,0E0,0E0,0E0,0E0,2.2763805E0,8.24173E-1,0E0,0E0,0E0],"parents":[2147483647,0,0,1,1,2,2,5,5,6,6,7,7,8,8,14,14,15,15],"right_children":[2,4,6,-1,-1,8,10,12,14,-1,-1,-1,-1,-1,16,18,-1,-1,-1],"split_conditions":[-1.2387157E-5,-4.0252227E-1,4.792238E-2,-1.3965818E-2,-9.376663E-2,-6.937332E-1,-7.4880326E-1,-3.6807856E-1,-7.175864E-1,7.370707E-2,-9.422627E-2,-6.481465E-2,9.401518E-3,-2.1322364E-2,-6.083079E-1,1.1459467E0,1.3235434E-2,1.8236713E-1,3.5192396E-2],"split_indices":[208,187,160,0,0,178,170,121,162,0,0,0,0,0,163,124,0,0,0],"split_type":[0,0,0,0,0,0,0,0,0,0,0,0,0,0,0,0,0,0,0],"sum_hessian":[1.8674938E1,4.329747E0,1.4345192E1,1.0086292E0,3.3211179E0,1.01043005E1,4.2408915E0,2.1030915E0,8.001209E0,1.3117971E0,2.9290946E0,1.0968943E0,1.0061972E0,1.1278813E0,6.8733277E0,5.199941E0,1.6733862E0,3.9817379E0,1.2182035E0],"tree_param":{"num_deleted":"0","num_feature":"224","num_nodes":"19","size_leaf_vector":"1"}},{"base_weights":[9.115573E-2,8.171171E-1,-4.3042424E-1,1.1283177E0,-3.675862E-2,2.8442183E-1,-9.143503E-1,1.4174298E0,8.184464E-3,1.419263E-1,-6.439721E-2,-1.0234264E-1,-1.0989391E-2,1.585234E-1,3.9148595E-2],"categories":[],"categories_nodes":[],"categories_segments":[],"categories_sizes":[],"default_left":[0,0,0,0,0,0,0,0,0,0,0,0,0,0,0],"id":7,"left_children":[1,3,5,7,-1,9,11,13,-1,-1,-1,-1,-1,-1,-1],"loss_changes":[7.2665815E0,3.4467568E0,4.1775527E0,1.749711E0,0E0,6.446207E0,3.8535976E-1,5.6964874E-2,0E0,0E0,0E0,0E0,0E0,0E0,0E0],"parents":[2147483647,0,0,1,1,2,2,3,3,5,5,6,6,7,7],"right_children":[2,4,6,8,-1,10,12,14,-1,-1,-1,-1,-1,-1,-1],"split_conditions":[5.941905E-1,-1.3293106E-2,2.8579083E-1,5.030335E-1,-3.675862E-2,-4.5372185E-1,2.2641518E0,1.341444E0,8.184464E-3,1.419263E-1,-6.439721E-2,-1.0234264E-1,-1.0989391E-2,1.585234E-1,3.9148595E-2],"split_indices":[72,69,93,178,0,131,143,188,0,0,0,0,0,0,0],"split_type":[0,0,0,0,0,0,0,0,0,0,0,0,0,0,0],"sum_hessian":[1.7159939E1,7.0175977E0,1.0142341E1,5.6622334E0,1.3553643E0,4.1773133E0,5.9650273E0,4.0839157E0,1.5783174E0,1.6902211E0,2.4870925E0,4.90364E0,1.0613874E0,2.9575577E0,1.1263582E0],"tree_param":{"num_deleted":"0","num_feature":"224","num_nodes":"15","size_leaf_vector":"1"}},{"base_weights":[8.717556E-2,-9.289522E-2,3.5352746E-1,-2.0763119E-1,7.288074E-1,-6.610974E-1,6.631291E-2,-4.9502026E-2,1.0566161E0,-9.421637E-2,1.9363059E-2,1.3018582E0,-2.2926167E-2,1.5238261E-1,3.460734E-2],"categories":[],"categories_nodes":[],"categories_segments":[],"categories_sizes":[],"default_left":[0,0,0,0,0,0,0,0,0,0,0,0,0,0,0],"id":8,"left_children":[1,-1,3,5,7,9,-1,-1,11,-1,-1,13,-1,-1,-1],"loss_changes":[5.441181E0,0E0,3.5599117E0,3.2254293E0,4.542676E0,1.5108027E0,0E0,0E0,2.9839678E0,0E0,0E0,7.879753E-1,0E0,0E0,0E0],"parents":[2147483647,0,0,2,2,3,3,4,4,5,5,8,8,11,11],"right_children":[2,-1,4,6,8,10,-1,-1,12,-1,-1,14,-1,-1,-1],"split_conditions":[-4.3155E-3,-9.289522E-2,6.160215E-2,8.254256E-3,-6.904669E-1,2.282191E0,6.631291E-2,-4.9502026E-2,1.8616699E0,-9.421637E-2,1.9363059E-2,1.9609956E0,-2.2926167E-2,1.5238261E-1,3.460734E-2],"split_indices":[205,0,29,133,134,143,0,0,180,0,0,143,0,0,0],"split_type":[0,0,0,0,0,0,0,0,0,0,0,0,0,0,0],"sum_hessian":[1.8103495E1,3.1651962E0,1.4938298E1,6.0587983E0,8.8795E0,4.2178764E0,1.8409219E0,1.7037275E0,7.1757727E0,3.185173E0,1.0327034E0,6.081291E0,1.0944815E0,4.3679495E0,1.7133418E0],"tree_param":{"num_deleted":"0","num_feature":"224","num_nodes":"15","size_leaf_vector":"1"}},{"base_weights":[-0E0,6.014629E-1,-5.8520824E-1,1.3904284E-1,7.55582E-2,-8.456152E-1,6.172782E-2,-3.838279E-1,1.16649725E-1,-1.0825878E-1,3.6548983E-2,-9.444632E-2,4.121097E-1,5.322591E-3,5.169803E-2],"categories":[],"categories_nodes":[],"categories_segments":[],"categories_sizes":[],"default_left":[0,0,0,0,0,0,0,0,0,0,0,0,0,0,0],"id":9,"left_children":[1,3,5,-1,7,9,-1,11,-1,-1,-1,-1,13,-1,-1],"loss_changes":[7.2954273E0,3.9814472E0,3.84077E0,0E0,4.16202E0,3.0912137E0,0E0,3.0275922E0,0E0,0E0,0E0,0E0,2.9000223E-2,0E0,0E0],"parents":[2147483647,0,0,1,1,2,2,4,4,5,5,7,7,12,12],"right_children":[2,4,6,-1,8,10,-1,12,-1,-1,-1,-1,14,-1,-1],"split_conditions":[-1.8190223E0,1.1599752E-1,7.879164E-3,1.3904284E-1,9.4330883E-1,-7.89772E-1,6.172782E-2,8.073477E-1,1.16649725E-1,-1.0825878E-1,3.6548983E-2,-9.444632E-2,-1.8505673E0,5.322591E-3,5.169803E-2],"split_indices":[13,29,210,0,161,4,0,144,0,0,0,0,13,0,0],"split_type":[0,0,0,0,0,0,0,0,0,0,0,0,0,0,0],"sum_hessian":[1.8727842E1,9.202201E0,9.525642E0,2.9470263E0,6.2551746E0,8.142306E0,1.3833355E0,4.7932687E0,1.4619057E0,6.9676557E0,1.1746511E0,2.7765684E0,2.0167003E0,1.0125811E0,1.0041192E0],"tree_param":{"num_deleted":"0","num_feature":"224","num_nodes":"15","size_leaf_vector":"1"}},{"base_weights":[6.632387E-2,3.712747E-1,-5.6397897E-1,-6.676672E-2,6.513582E-1,4.7072545E-2,-9.750285E-2,-3.9172973E-2,8.436597E-1,-1.0024828E-2,1.1287593E0,7.4306E-2,-7.23703E-2,2.8292902E-2,1.530389E-1,-3.3051506E-2,4.435706E-2],"categories":[],"categories_nodes":[],"categories_segments":[],"categories_sizes":[],"default_left":[0,0,0,0,0,0,0,0,0,0,0,0,0,0,0,0,0],"id":10,"left_children":[1,3,5,-1,7,-1,-1,-1,9,11,13,-1,-1,15,-1,-1,-1],"loss_changes":[4.0012765E0,4.528293E0,3.3824856E0,0E0,2.7158356E0,0E0,0E0,0E0,2.6175284E0,2.4003484E0,3.2391672E0,0E0,0E0,6.295812E-1,0E0,0E0,0E0],"parents":[2147483647,0,0,1,1,2,2,4,4,8,8,9,9,10,10,13,13],"right_children":[2,4,6,-1,8,-1,-1,-1,10,12,14,-1,-1,16,-1,-1,-1],"split_conditions":[4.792238E-2,-6.9643974E-1,-7.16754E-1,-6.676672E-2,-6.8168175E-1,4.7072545E-2,-9.750285E-2,-3.9172973E-2,-6.7250884E-1,-7.513773E-1,-4.6386844E-1,7.4306E-2,-7.23703E-2,-6.0117424E-1,1.530389E-1,-3.3051506E-2,4.435706E-2],"split_indices":[160,178,183,0,159,0,0,0,135,170,188,0,0,131,0,0,0],"split_type":[0,0,0,0,0,0,0,0,0,0,0,0,0,0,0,0,0],"sum_hessian":[1.8827938E1,1.3072743E1,5.7551956E0,2.4062276E0,1.0666515E1,1.5258434E0,4.229352E0,1.4179814E0,9.248534E0,2.4691489E0,6.7793856E0,1.1131967E0,1.3559521E0,2.165458E0,4.6139274E0,1.14203E0,1.023428E0],"tree_param":{"num_deleted":"0","num_feature":"224","num_nodes":"17","size_leaf_vector":"1"}},{"base_weights":[7.562654E-2,4.861427E-1,-4.078385E-1,7.202678E-1,-4.796078E-2,3.3688027E-2,-6.857347E-1,9.8414725E-1,-1.2337207E-2,-9.921185E-2,3.2019358E-2,1.2389835E-1,-0E0],"categories":[],"categories_nodes":[],"categories_segments":[],"categories_sizes":[],"default_left":[0,0,0,0,0,0,0,0,0,0,0,0,0],"id":11,"left_children":[1,3,5,7,-1,-1,9,11,-1,-1,-1,-1,-1],"loss_changes":[3.6696947E0,2.6318917E0,2.0137613E0,2.1078815E0,0E0,0E0,2.4121282E0,1.7873402E0,0E0,0E0,0E0,0E0,0E0],"parents":[2147483647,0,0,1,1,2,2,3,3,6,6,7,7],"right_children":[2,4,6,8,-1,-1,10,12,-1,-1,-1,-1,-1],"split_conditions":[1.2405561E0,-4.5590502E-1,-6.2701136E-1,2.701202E-1,-4.796078E-2,3.3688027E-2,2.1076405E0,-4.1942987E-1,-1.2337207E-2,-9.921185E-2,3.2019358E-2,1.2389835E-1,-0E0],"split_indices":[15,183,173,52,0,0,174,151,0,0,0,0,0],"split_type":[0,0,0,0,0,0,0,0,0,0,0,0,0],"sum_hessian":[1.645147E1,9.005818E0,7.44565E0,7.536495E0,1.4693233E0,1.8678916E0,5.577759E0,5.704262E0,1.8322333E0,4.3622513E0,1.2155075E0,4.394327E0,1.3099344E0],"tree_param":{"num_deleted":"0","num_feature":"224","num_nodes":"13","size_leaf_vector":"1"}},{"base_weights":[-1.4951976E-2,-8.467086E-2,2.0030934E-1,-1.2865642E-1,8.9883584E-1,7.353441E-2,-4.378951E-1,1.1569392E-1,-0E0,1.9200589E-1,-9.399592E-2,7.882521E-2,-4.9893614E-2],"categories":[],"categories_nodes":[],"categories_segments":[],"categories_sizes":[],"default_left":[0,0,0,0,0,0,0,0,0,0,0,0,0],"id":12,"left_children":[1,-1,3,5,7,-1,9,-1,-1,11,-1,-1,-1],"loss_changes":[3.3081365E0,0E0,3.4905639E0,3.106836E0,1.087939E0,0E0,2.9338202E0,0E0,0E0,2.2755258E0,0E0,0E0,0E0],"parents":[2147483647,0,0,2,2,3,3,4,4,6,6,9,9],"right_children":[2,-1,4,6,8,-1,10,-1,-1,12,-1,-1,-1],"split_conditions":[-4.3155E-3,-8.467086E-2,4.935035E-2,-1.777332E-1,-3.1455377E-1,7.353441E-2,6.411749E-1,1.1569392E-1,-0E0,-2.0631053E-4,-9.399592E-2,7.882521E-2,-4.9893614E-2],"split_indices":[205,0,133,27,152,0,72,0,0,213,0,0,0],"split_type":[0,0,0,0,0,0,0,0,0,0,0,0,0],"sum_hessian":[1.6168266E1,2.816528E0,1.3351739E1,9.534294E0,3.8174448E0,2.0645978E0,7.4696965E0,2.7205458E0,1.0968989E0,3.498628E0,3.9710684E0,1.8800972E0,1.6185308E0],"tree_param":{"num_deleted":"0","num_feature":"224","num_nodes":"13","size_leaf_vector":"1"}},{"base_weights":[1.9644551E-2,3.4377214E-1,-7.114151E-1,9.013548E-1,-4.0832266E-2,-8.967974E-2,8.426841E-4,-0E0,1.1141721E-1,7.159644E-2,-3.304521E-1,-7.024086E-1,3.9125808E-2,2.8119192E-3,-9.1905735E-2],"categories":[],"categories_nodes":[],"categories_segments":[],"categories_sizes":[],"default_left":[0,0,0,0,0,0,0,0,0,0,0,0,0,0,0],"id":13,"left_children":[1,3,5,7,9,-1,-1,-1,-1,-1,11,13,-1,-1,-1],"loss_changes":[4.33506E0,2.8756166E0,8.412013E-1,9.406581E-1,2.0495014E0,0E0,0E0,0E0,0E0,0E0,2.1552355E0,9.055152E-1,0E0,0E0,0E0],"parents":[2147483647,0,0,1,1,2,2,3,3,4,4,10,10,11,11],"right_children":[2,4,6,8,10,-1,-1,-1,-1,-1,12,14,-1,-1,-1],"split_conditions":[1.6967337E0,-6.968895E-1,2.694963E0,4.0335682E-1,9.6253043E-1,-8.967974E-2,8.426841E-4,-0E0,1.1141721E-1,7.159644E-2,7.0064807E-1,1.1733114E-1,3.9125808E-2,2.8119192E-3,-9.1905735E-2],"split_indices":[123,183,24,130,124,0,0,0,0,0,19,12,0,0,0],"split_type":[0,0,0,0,0,0,0,0,0,0,0,0,0,0,0],"sum_hessian":[1.6417786E1,1.1836448E1,4.5813384E0,4.3893614E0,7.4470863E0,3.5581064E0,1.023232E0,1.1044563E0,3.2849052E0,1.5581551E0,5.8889313E0,3.9951873E0,1.893744E0,1.0072905E0,2.9878967E0],"tree_param":{"num_deleted":"0","num_feature":"224","num_nodes":"15","size_leaf_vector":"1"}},{"base_weights":[1.50767E-1,-7.244644E-2,3.1005457E-1,1.5161049E-2,8.4245056E-1,-4.3221894E-1,4.2199245E-1,-2.3906166E-2,1.1632029E-1,2.4147299E-1,-9.0251096E-2,9.759158E-1,-2.4760252E-1,-3.0327741E-2,7.222562E-2,1.12902045E-1,2.1981083E-2,-6.636596E-2,2.6145805E-2],"categories":[],"categories_nodes":[],"categories_segments":[],"categories_sizes":[],"default_left":[0,0,0,0,0,0,0,0,0,0,0,0,0,0,0,0,0,0,0],"id":14,"left_children":[1,-1,3,5,7,9,11,-1,-1,13,-1,15,17,-1,-1,-1,-1,-1,-1],"loss_changes":[2.7092323E0,0E0,2.433286E0,2.2775803E0,2.3162785E0,2.1413522E0,2.782825E0,0E0,0E0,1.0758483E0,0E0,7.145095E-2,1.0034927E0,0E0,0E0,0E0,0E0,0E0,0E0],"parents":[2147483647,0,0,2,2,3,3,4,4,5,5,6,6,9,9,11,11,12,12],"right_children":[2,-1,4,6,8,10,12,-1,-1,14,-1,16,18,-1,-1,-1,-1,-1,-1],"split_conditions":[2.2699726E-3,-7.244644E-2,4.935035E-2,1.6936591E0,-7.36718E-1,1.6371175E0,-1.7232272E-1,-2.3906166E-2,1.1632029E-1,-1.0086188E0,-9.0251096E-2,-6.5726346E-1,-6.148645E-1,-3.0327741E-2,7.222562E-2,1.12902045E-1,2.1981083E-2,-6.636596E-2,2.6145805E-2],"split_indices":[212,0,133,105,134,105,27,0,0,8,0,164,165,0,0,0,0,0,0],"split_type":[0,0,0,0,0,0,0,0,0,0,0,0,0,0,0,0,0,0,0],"sum_hessian":[1.711912E1,1.9928937E0,1.5126226E1,1.0517116E1,4.6091113E0,4.8621516E0,5.654964E0,1.0412254E0,3.5678856E0,2.111437E0,2.7507148E0,2.9261634E0,2.7288003E0,1.0654445E0,1.0459925E0,1.9132785E0,1.012885E0,1.4425468E0,1.2862535E0],"tree_param":{"num_deleted":"0","num_feature":"224","num_nodes":"19","size_leaf_vector":"1"}},{"base_weights":[-0E0,3.441184E-1,-8.938226E-2,-6.310844E-2,5.0767666E-1,1.00876085E-1,1.2741375E-1,-4.9447182E-1,5.3126067E-1,-7.246082E-2,-0E0,9.916548E-2,-2.7140183E-2],"categories":[],"categories_nodes":[],"categories_segments":[],"categories_sizes":[],"default_left":[0,0,0,0,0,0,0,0,0,0,0,0,0],"id":15,"left_children":[1,3,-1,-1,5,-1,7,9,11,-1,-1,-1,-1],"loss_changes":[5.378724E0,2.3388228E0,0E0,0E0,1.9577327E0,0E0,2.2308464E0,4.566025E-1,2.3078332E0,0E0,0E0,0E0,0E0],"parents":[2147483647,0,0,1,1,4,4,6,6,7,7,8,8],"right_children":[2,4,-1,-1,6,-1,8,10,12,-1,-1,-1,-1],"split_conditions":[4.3536088E-1,-6.8852973E-1,-8.938226E-2,-6.310844E-2,-6.9732964E-1,1.00876085E-1,-6.852521E-1,2.862825E-2,-1.8008794E0,-7.246082E-2,-0E0,9.916548E-2,-2.7140183E-2],"split_indices":[78,180,0,0,183,0,181,140,13,0,0,0,0],"split_type":[0,0,0,0,0,0,0,0,0,0,0,0,0],"sum_hessian":[1.5577292E1,1.1731945E1,3.8453474E0,1.1866674E0,1.0545278E1,3.7232554E0,6.8220224E0,2.5000944E0,4.3219285E0,1.4995073E0,1.0005871E0,2.6760936E0,1.6458347E0],"tree_param":{"num_deleted":"0","num_feature":"224","num_nodes":"13","size_leaf_vector":"1"}},{"base_weights":[-1.3377025E-2,5.7134557E-1,-2.9280457E-1,1.01111054E-1,-1.5156474E-2,-7.720041E-1,2.2508915E-1,-3.713445E-2,3.0855212E-2,-0E0,-9.352739E-2,6.9768983E-1,-5.2934498E-2,9.887486E-2,-0E0],"categories":[],"categories_nodes":[],"categories_segments":[],"categories_sizes":[],"default_left":[0,0,0,0,0,0,0,0,0,0,0,0,0,0,0],"id":16,"left_children":[1,3,5,-1,7,9,11,-1,-1,-1,-1,13,-1,-1,-1],"loss_changes":[2.5983617E0,1.4276183E0,2.9484875E0,0E0,4.7468138E-1,7.790632E-1,2.5045242E0,0E0,0E0,0E0,0E0,8.395705E-1,0E0,0E0,0E0],"parents":[2147483647,0,0,1,1,2,2,4,4,5,5,6,6,11,11],"right_children":[2,4,6,-1,8,10,12,-1,-1,-1,-1,14,-1,-1,-1],"split_conditions":[-1.8436346E0,-1.9986937E0,1.7198725E-2,1.01111054E-1,4.4313106E-1,-7.2813785E-1,-5.333026E-1,-3.713445E-2,3.0855212E-2,-0E0,-9.352739E-2,1.7035346E0,-5.2934498E-2,9.887486E-2,-0E0],"split_indices":[104,34,222,0,177,170,151,0,0,0,0,105,0,0,0],"split_type":[0,0,0,0,0,0,0,0,0,0,0,0,0,0,0],"sum_hessian":[1.4049631E1,4.0894933E0,9.960138E0,2.0208068E0,2.0686862E0,5.0187707E0,4.9413676E0,1.0619491E0,1.0067372E0,1.0273366E0,3.991434E0,3.165909E0,1.7754586E0,1.933045E0,1.232864E0],"tree_param":{"num_deleted":"0","num_feature":"224","num_nodes":"15","size_leaf_vector":"1"}},{"base_weights":[3.2930087E-2,-7.350872E-2,2.6111543E-1,5.386824E-1,-4.977689E-1,-3.7494987E-2,7.5601965E-1,2.1913892E-3,-7.251268E-2,1.1792041E-1,1.910079E-1,6.3122934E-1,-5.924656E-2,8.356134E-2,7.4646883E-3],"categories":[],"categories_nodes":[],"categories_segments":[],"categories_sizes":[],"default_left":[0,0,0,0,0,0,0,0,0,0,0,0,0,0,0],"id":17,"left_children":[1,-1,3,5,7,-1,9,-1,-1,-1,11,13,-1,-1,-1],"loss_changes":[2.8560705E0,0E0,2.9613948E0,2.2922192E0,5.4018354E-1,0E0,1.6550999E0,0E0,0E0,0E0,2.0705E0,2.684058E-1,0E0,0E0,0E0],"parents":[2147483647,0,0,2,2,3,3,4,4,6,6,10,10,11,11],"right_children":[2,-1,4,6,8,-1,10,-1,-1,-1,12,14,-1,-1,-1],"split_conditions":[-7.192264E-1,-7.350872E-2,4.792238E-2,-6.234532E-3,6.497925E-3,-3.7494987E-2,5.1221154E-3,2.1913892E-3,-7.251268E-2,1.1792041E-1,1.9058602E-1,5.030335E-1,-5.924656E-2,8.356134E-2,7.4646883E-3],"split_indices":[190,0,160,204,215,0,212,0,0,0,63,178,0,0,0],"split_type":[0,0,0,0,0,0,0,0,0,0,0,0,0,0,0],"sum_hessian":[1.44723015E1,2.70574E0,1.17665615E1,8.924356E0,2.8422046E0,1.4872042E0,7.4371524E0,1.0061588E0,1.8360457E0,3.5295482E0,3.9076042E0,2.7079856E0,1.1996185E0,1.4825704E0,1.2254152E0],"tree_param":{"num_deleted":"0","num_feature":"224","num_nodes":"15","size_leaf_vector":"1"}},{"base_weights":[6.693233E-2,-7.577967E-2,2.8299692E-1,-5.9129182E-2,8.375194E-1,-4.7646403E-1,5.152789E-1,-0E0,1.0818761E-1,-8.081659E-2,3.6800362E-2,-7.1478076E-3,8.427322E-2],"categories":[],"categories_nodes":[],"categories_segments":[],"categories_sizes":[],"default_left":[0,0,0,0,0,0,0,0,0,0,0,0,0],"id":18,"left_children":[1,-1,3,5,7,9,11,-1,-1,-1,-1,-1,-1],"loss_changes":[2.8167756E0,0E0,2.519199E0,2.3078895E0,1.0423377E0,1.9136077E0,9.0720046E-1,0E0,0E0,0E0,0E0,0E0,0E0],"parents":[2147483647,0,0,2,2,3,3,4,4,5,5,6,6],"right_children":[2,-1,4,6,8,10,12,-1,-1,-1,-1,-1,-1],"split_conditions":[-5.7683628E-2,-7.577967E-2,-3.7296242E-1,1.0496571E0,-6.9327766E-1,-9.342644E-1,-6.5621614E-1,-0E0,1.0818761E-1,-8.081659E-2,3.6800362E-2,-7.1478076E-3,8.427322E-2],"split_indices":[73,0,167,187,144,80,168,0,0,0,0,0,0],"split_type":[0,0,0,0,0,0,0,0,0,0,0,0,0],"sum_hessian":[1.3870254E1,2.2628295E0,1.1607424E1,7.619452E0,3.987972E0,4.612706E0,3.0067458E0,1.1082053E0,2.8797667E0,3.4277225E0,1.1849836E0,1.2475733E0,1.7591726E0],"tree_param":{"num_deleted":"0","num_feature":"224","num_nodes":"13","size_leaf_vector":"1"}},{"base_weights":[1.5310335E-1,3.489609E-1,-7.3722996E-2,5.13216E-1,-6.083408E-2,7.275079E-1,-2.4863552E-1,2.3752071E-1,1.1083434E-1,-5.826626E-2,1.8421851E-2,-2.1395692E-1,7.741722E-2,2.7776161E-2,-6.595787E-2],"categories":[],"categories_nodes":[],"categories_segments":[],"categories_sizes":[],"default_left":[0,0,0,0,0,0,0,0,0,0,0,0,0,0,0],"id":19,"left_children":[1,3,-1,5,-1,7,9,11,-1,-1,-1,13,-1,-1,-1],"loss_changes":[2.777608E0,2.3154602E0,0E0,2.1156082E0,0E0,1.3520112E0,6.069645E-1,1.5514631E0,0E0,0E0,0E0,1.0240477E0,0E0,0E0,0E0],"parents":[2147483647,0,0,1,1,3,3,5,5,6,6,7,7,11,11],"right_children":[2,4,-1,6,-1,8,10,12,-1,-1,-1,14,-1,-1,-1],"split_conditions":[-1.9692375E-1,-1.3728869E-1,-7.3722996E-2,1.6967337E0,-6.083408E-2,-1.9589691E-1,1.3177598E0,4.935035E-2,1.1083434E-1,-5.826626E-2,1.8421851E-2,-6.6720617E-1,7.741722E-2,2.7776161E-2,-6.595787E-2],"split_indices":[146,151,0,123,0,169,15,133,0,0,0,165,0,0,0],"split_type":[0,0,0,0,0,0,0,0,0,0,0,0,0,0,0],"sum_hessian":[1.3675953E1,1.1800439E1,1.8755141E0,1.0557348E1,1.2430902E0,8.37733E0,2.1800182E0,4.488561E0,3.888769E0,1.1655276E0,1.0144906E0,2.6631007E0,1.8254606E0,1.3384635E0,1.3246372E0],"tree_param":{"num_deleted":"0","num_feature":"224","num_nodes":"15","size_leaf_vector":"1"}},{"base_weights":[1.1789245E-1,-5.4917604E-1,3.466234E-1,4.3509533E-3,-7.768549E-2,4.9388817E-1,-3.856049E-2,6.918246E-1,-2.3294445E-2,1.0307678E0,1.6279233E-1,1.1696484E-1,2.1811165E-2,-3.250255E-2,5.0967026E-1,7.585815E-2,-0E0],"categories":[],"categories_nodes":[],"categories_segments":[],"categories_sizes":[],"default_left":[0,0,0,0,0,0,0,0,0,0,0,0,0,0,0,0,0],"id":20,"left_children":[1,3,5,-1,-1,7,-1,9,-1,11,13,-1,-1,-1,15,-1,-1],"loss_changes":[2.5563354E0,6.831496E-1,1.5352241E0,0E0,0E0,1.768208E0,0E0,1.3067198E0,0E0,1.8340063E-1,9.919191E-1,0E0,0E0,0E0,4.3561828E-1,0E0,0E0],"parents":[2147483647,0,0,1,1,2,2,5,5,7,7,9,9,10,10,14,14],"right_children":[2,4,6,-1,-1,8,-1,10,-1,12,14,-1,-1,-1,16,-1,-1],"split_conditions":[-6.234532E-3,-6.385995E-1,1.6421115E0,4.3509533E-3,-7.768549E-2,6.8174265E-2,-3.856049E-2,2.8710774E-1,-2.3294445E-2,8.5465133E-1,1.0496571E0,1.1696484E-1,2.1811165E-2,-3.250255E-2,-1.6701266E-1,7.585815E-2,-0E0],"split_indices":[204,172,74,0,0,64,0,187,0,145,187,0,0,0,27,0,0],"split_type":[0,0,0,0,0,0,0,0,0,0,0,0,0,0,0,0,0],"sum_hessian":[1.463931E1,3.268609E0,1.1370701E1,1.0097494E0,2.2588596E0,9.851459E0,1.519243E0,7.888855E0,1.962603E0,4.115005E0,3.7738502E0,3.0341358E0,1.080869E0,1.4746906E0,2.2991598E0,1.2462937E0,1.0528661E0],"tree_param":{"num_deleted":"0","num_feature":"224","num_nodes":"17","size_leaf_vector":"1"}}]},"name":"gbtree"},"learner_model_param":{"base_score":"[2.9752067E-1]","boost_from_average":"1","num_class":"0","num_feature":"224","num_target":"1"},"objective":{"name":"binary:logistic","reg_loss_param":{"scale_pos_weight":"1"}}},"version":[3,1,2]}