{"learner":{"attributes":{"scikit_learn":"{\"_estimator_type\": \"classifier\"}"},"feature_names":[],"feature_types":[],"gradient_booster":{"model":{"cats":{"enc":[],"feature_segments":[],"sorted_idx":[]},"gbtree_model_param":{"num_parallel_tree":"1","num_trees":"100"},"iteration_indptr":[0,1,2,3,4,5,6,7,8,9,10,11,12,13,14,15,16,17,18,19,20,21,22,23,24,25,26,27,28,29,30,31,32,33,34,35,36,37,38,39,40,41,42,43,44,45,46,47,48,49,50,51,52,53,54,55,56,57,58,59,60,61,62,63,64,65,66,67,68,69,70,71,72,73,74,75,76,77,78,79,80,81,82,83,84,85,86,87,88,89,90,91,92,93,94,95,96,97,98,99,100],"tree_info":[0,0,0,0,0,0,0,0,0,0,0,0,0,0,0,0,0,0,0,0,0,0,0,0,0,0,0,0,0,0,0,0,0,0,0,0,0,0,0,0,0,0,0,0,0,0,0,0,0,0,0,0,0,0,0,0,0,0,0,0,0,0,0,0,0,0,0,0,0,0,0,0,0,0,0,0,0,0,0,0,0,0,0,0,0,0,0,0,0,0,0,0,0,0,0,0,0,0,0,0],"trees":[{"base_weights":[-5.451892E-3,2.5376582E-1,-7.5085744E-2,4.9427256E-1,-4.7672066E-1,-1.5927742E-1,3.2667315E-1,7.1360564E-1,2.8587914E-1,2.37374E-2,-6.707427E-1,-2.4915655E-1,5.753833E-2,-6.66145E-2,5.6000173E-1,7.881061E-2,-4.8716947E-2,-5.9220638E-2,3.7382882E-2,7.4863724E-2,-2.8583173E-2,-1.9171417E-2,-8.55372E-2,-6.3785695E-2,-2.0438386E-2,-3.599936E-3,4.066127E-2,6.1877776E-2,-3.054973E-2,9.051785E-2,3.0126367E-2],"categories":[],"categories_nodes":[],"categories_segments":[],"categories_sizes":[],"default_left":[0,0,0,0,0,0,0,0,0,0,0,0,0,0,0,0,0,0,0,0,0,0,0,0,0,0,0,0,0,0,0],"id":0,"left_children":[1,3,5,7,9,11,13,15,17,19,21,23,25,27,29,-1,-1,-1,-1,-1,-1,-1,-1,-1,-1,-1,-1,-1,-1,-1,-1],"loss_changes":[6.0565964E1,1.2506203E2,8.951289E1,2.425E1,1.7153572E1,4.2638397E1,4.211619E1,2.3642609E1,2.1537285E1,1.1495922E1,1.1087734E1,2.6783157E1,2.0970823E1,2.8291445E1,2.5440544E1,0E0,0E0,0E0,0E0,0E0,0E0,0E0,0E0,0E0,0E0,0E0,0E0,0E0,0E0,0E0,0E0],"parents":[2147483647,0,0,1,1,2,2,3,3,4,4,5,5,6,6,7,7,8,8,9,9,10,10,11,11,12,12,13,13,14,14],"right_children":[2,4,6,8,10,12,14,16,18,20,22,24,26,28,30,-1,-1,-1,-1,-1,-1,-1,-1,-1,-1,-1,-1,-1,-1,-1,-1],"split_conditions":[2.2023809E-1,5.542201E-1,7.406205E-1,5.061854E-1,-6.622331E-1,-1.2206612E0,7.5247526E-1,-1.4588268E0,-2.3218776E-1,-3.845432E-1,4.8074198E-1,8.45717E-1,8.818182E-1,4.6304686E-4,7.912088E-1,7.881061E-2,-4.8716947E-2,-5.9220638E-2,3.7382882E-2,7.4863724E-2,-2.8583173E-2,-1.9171417E-2,-8.55372E-2,-6.3785695E-2,-2.0438386E-2,-3.599936E-3,4.066127E-2,6.1877776E-2,-3.054973E-2,9.051785E-2,3.0126367E-2],"split_indices":[27,25,25,39,40,59,27,66,58,1,115,43,27,14,33,0,0,0,0,0,0,0,0,0,0,0,0,0,0,0,0],"split_type":[0,0,0,0,0,0,0,0,0,0,0,0,0,0,0,0,0,0,0,0,0,0,0,0,0,0,0,0,0,0,0],"sum_hessian":[3.3533386E3,7.0950476E2,2.6438337E3,5.3400977E2,1.7549503E2,2.1862844E3,4.5754926E2,2.5899472E2,2.75015E2,4.9274536E1,1.2622049E2,1.5454728E3,6.408117E2,1.706404E2,2.8690887E2,2.441881E2,1.4806634E1,2.4515902E1,2.5049911E2,1.4321171E1,3.4953365E1,3.568156E1,9.0538925E1,1.5826108E2,1.3872117E3,5.060956E2,1.347161E2,4.3691708E1,1.26948685E2,1.2185132E2,1.6505756E2],"tree_param":{"num_deleted":"0","num_feature":"133","num_nodes":"31","size_leaf_vector":"1"}},{"base_weights":[-1.1422207E-2,2.884344E-1,-6.6211514E-2,5.0701046E-1,-3.932322E-1,-1.4702038E-1,2.4469657E-1,1.279078E-1,7.100907E-1,-2.330131E-1,-1.2754087E0,4.6324953E-2,-2.0596749E-1,-1.3159274E-1,4.2103487E-1,3.0624976E-2,-4.222524E-2,8.3043806E-2,1.1728503E-2,1.3628781E-2,-7.807147E-2,-2.0980456E-1,-5.9730746E-2,2.4536094E-2,-4.3539498E-2,-3.6922988E-2,-4.267117E-3,1.6618358E-2,-4.291628E-2,7.518517E-2,1.1833857E-2],"categories":[],"categories_nodes":[],"categories_segments":[],"categories_sizes":[],"default_left":[0,0,0,0,0,0,0,0,0,0,0,0,0,0,0,0,0,0,0,0,0,0,0,0,0,0,0,0,0,0,0],"id":1,"left_children":[1,3,5,7,9,11,13,15,17,19,21,23,25,27,29,-1,-1,-1,-1,-1,-1,-1,-1,-1,-1,-1,-1,-1,-1,-1,-1],"loss_changes":[5.527067E1,7.763962E1,7.149698E1,3.0241844E1,1.7618725E1,2.5746304E1,3.90147E1,1.3733559E1,1.8190369E1,2.2051712E1,9.490225E0,5.077249E1,4.6126198E1,1.6739895E1,3.996865E1,0E0,0E0,0E0,0E0,0E0,0E0,0E0,0E0,0E0,0E0,0E0,0E0,0E0,0E0,0E0,0E0],"parents":[2147483647,0,0,1,1,2,2,3,3,4,4,5,5,6,6,7,7,8,8,9,9,10,10,11,11,12,12,13,13,14,14],"right_children":[2,4,6,8,10,12,14,16,18,20,22,24,26,28,30,-1,-1,-1,-1,-1,-1,-1,-1,-1,-1,-1,-1,-1,-1,-1,-1],"split_conditions":[2.943836E-1,1E0,7.177776E-1,1.5306123E-1,-1.0635346E0,2.657005E-1,6.233766E-1,3.7974682E-1,4.7897738E-1,7.943925E-1,3.2123533E-1,5.5023855E-1,6.570248E-1,-9.9668105E-5,8E-1,3.0624976E-2,-4.222524E-2,8.3043806E-2,1.1728503E-2,1.3628781E-2,-7.807147E-2,-2.0980456E-1,-5.9730746E-2,2.4536094E-2,-4.3539498E-2,-3.6922988E-2,-4.267117E-3,1.6618358E-2,-4.291628E-2,7.518517E-2,1.1833857E-2],"split_indices":[25,26,25,33,65,27,27,27,60,27,23,25,27,13,33,0,0,0,0,0,0,0,0,0,0,0,0,0,0,0,0],"split_type":[0,0,0,0,0,0,0,0,0,0,0,0,0,0,0,0,0,0,0,0,0,0,0,0,0,0,0,0,0,0,0],"sum_hessian":[3.3620647E3,5.1874713E2,2.8433176E3,3.9299097E2,1.2575615E2,2.2571765E3,5.861411E2,1.376538E2,2.5533717E2,1.0749691E2,1.8259237E1,5.2743005E2,1.7297465E3,1.8711311E2,3.9902798E2,1.04290085E2,3.3363712E1,2.1191483E2,4.342235E1,6.465374E1,4.284317E1,7.304184E0,1.0955052E1,3.7356992E2,1.5386015E2,8.6433246E2,8.6541394E2,9.3744835E1,9.336828E1,1.8994891E2,2.0907907E2],"tree_param":{"num_deleted":"0","num_feature":"133","num_nodes":"31","size_leaf_vector":"1"}},{"base_weights":[-1.0869614E-2,-4.0906972E-1,4.1002774E-1,-5.633119E-1,-1.8931971E-1,2.036786E-1,7.182628E-1,-7.9873186E-1,-4.6594334E-1,8.84458E-2,-3.2902312E-1,5.049078E-2,3.1533924E-1,3.8440314E-1,7.93525E-1,1.6279602E-2,-8.340325E-2,-5.3420283E-2,-1.8535297E-2,-6.267555E-2,1.6687404E-2,-1.5218493E-1,-2.9862551E-2,6.951397E-2,-2.922076E-3,3.8335897E-2,-5.720384E-3,5.403894E-2,-3.5835747E-2,5.73721E-2,8.8904E-2],"categories":[],"categories_nodes":[],"categories_segments":[],"categories_sizes":[],"default_left":[0,0,0,0,0,0,0,0,0,0,0,0,0,0,0,0,0,0,0,0,0,0,0,0,0,0,0,0,0,0,0],"id":2,"left_children":[1,3,5,7,9,11,13,15,17,19,21,23,25,27,29,-1,-1,-1,-1,-1,-1,-1,-1,-1,-1,-1,-1,-1,-1,-1,-1],"loss_changes":[5.612913E2,5.822174E1,1.03407196E2,2.279425E1,2.7628176E1,1.6689255E1,1.608963E1,1.0125E1,1.3640259E1,1.3499152E1,1.6711754E1,2.1239454E1,1.4331223E1,1.432501E1,1.0648651E1,0E0,0E0,0E0,0E0,0E0,0E0,0E0,0E0,0E0,0E0,0E0,0E0,0E0,0E0,0E0,0E0],"parents":[2147483647,0,0,1,1,2,2,3,3,4,4,5,5,6,6,7,7,8,8,9,9,10,10,11,11,12,12,13,13,14,14],"right_children":[2,4,6,8,10,12,14,16,18,20,22,24,26,28,30,-1,-1,-1,-1,-1,-1,-1,-1,-1,-1,-1,-1,-1,-1,-1,-1],"split_conditions":[7.065118E-1,6.223951E-1,8.268448E-1,5.360101E-1,1.8708923E-1,-3.16668E-1,2.2222222E-1,4.181645E-2,3.319452E-4,2.9258347E-1,-1.4651246E0,4.1403025E-1,5.0951666E-1,2.0926732E2,4.118273E-1,1.6279602E-2,-8.340325E-2,-5.3420283E-2,-1.8535297E-2,-6.267555E-2,1.6687404E-2,-1.5218493E-1,-2.9862551E-2,6.951397E-2,-2.922076E-3,3.8335897E-2,-5.720384E-3,5.403894E-2,-3.5835747E-2,5.73721E-2,8.8904E-2],"split_indices":[131,131,131,131,102,0,33,80,30,23,66,34,39,10,73,0,0,0,0,0,0,0,0,0,0,0,0,0,0,0,0],"split_type":[0,0,0,0,0,0,0,0,0,0,0,0,0,0,0,0,0,0,0,0,0,0,0,0,0,0,0,0,0,0,0],"sum_hessian":[3.3469656E3,1.7198695E3,1.627096E3,1.0096409E3,7.102286E2,9.756225E2,6.5147345E2,2.9329706E2,7.163439E2,2.3779642E2,4.7243216E2,4.1193668E2,5.6368585E2,1.2096878E2,5.305047E2,1.0258632E1,2.8303842E2,5.754498E2,1.4089406E2,2.2808662E1,2.1498776E2,1.0520863E1,4.6191132E2,4.4481556E1,3.674551E2,4.766323E2,8.705355E1,1.0019865E2,2.077014E1,1.6282051E2,3.6768417E2],"tree_param":{"num_deleted":"0","num_feature":"133","num_nodes":"31","size_leaf_vector":"1"}},{"base_weights":[2.5663828E-3,-4.4050053E-1,3.4475896E-1,-5.6300014E-1,-3.207649E-1,1.3372599E-1,6.201722E-1,-4.4014892E-1,-6.745068E-1,-4.167478E-1,-6.5262966E-2,5.9745338E-2,2.9397747E-1,4.911212E-1,8.087576E-1,-5.5969577E-2,-1.2575798E-2,-7.8027025E-2,-3.6791038E-2,-4.5953896E-2,5.2871914E-3,-3.4096144E-4,-1.4716916E-1,3.87488E-3,8.212091E-2,4.7646742E-2,8.662983E-4,5.5719998E-2,2.0498151E-3,-6.660719E-2,8.387684E-2],"categories":[],"categories_nodes":[],"categories_segments":[],"categories_sizes":[],"default_left":[0,0,0,0,0,0,0,0,0,0,0,0,0,0,0,0,0,0,0,0,0,0,0,0,0,0,0,0,0,0,0],"id":3,"left_children":[1,3,5,7,9,11,13,15,17,19,21,23,25,27,29,-1,-1,-1,-1,-1,-1,-1,-1,-1,-1,-1,-1,-1,-1,-1,-1],"loss_changes":[5.0937875E2,2.129361E1,1.1009416E2,9.598434E0,1.8186829E1,1.2721624E1,1.9610413E1,1.2955299E1,1.1930725E1,1.0869957E1,1.7741678E1,1.1741933E1,1.7653389E1,1.5246635E1,1.5273712E1,0E0,0E0,0E0,0E0,0E0,0E0,0E0,0E0,0E0,0E0,0E0,0E0,0E0,0E0,0E0,0E0],"parents":[2147483647,0,0,1,1,2,2,3,3,4,4,5,5,6,6,7,7,8,8,9,9,10,10,11,11,12,12,13,13,14,14],"right_children":[2,4,6,8,10,12,14,16,18,20,22,24,26,28,30,-1,-1,-1,-1,-1,-1,-1,-1,-1,-1,-1,-1,-1,-1,-1,-1],"split_conditions":[6.756058E-1,5.8785963E-1,8.0588806E-1,-3.4496695E-4,2.1922613E-4,7.6406205E-1,8.6967623E-1,-4.8251837E-5,1.0859872E0,6.6340814E-4,-6.47762E-1,4.8267272E-1,5.416385E-1,-3.713825E-1,-3.5357736E-3,-5.5969577E-2,-1.2575798E-2,-7.8027025E-2,-3.6791038E-2,-4.5953896E-2,5.2871914E-3,-3.4096144E-4,-1.4716916E-1,3.87488E-3,8.212091E-2,4.7646742E-2,8.662983E-4,5.5719998E-2,2.0498151E-3,-6.660719E-2,8.387684E-2],"split_indices":[131,131,131,13,30,131,131,32,101,12,40,60,20,100,13,0,0,0,0,0,0,0,0,0,0,0,0,0,0,0,0],"split_type":[0,0,0,0,0,0,0,0,0,0,0,0,0,0,0,0,0,0,0,0,0,0,0,0,0,0,0,0,0,0,0],"sum_hessian":[3.3577017E3,1.4630607E3,1.894641E3,7.213534E2,7.417073E2,1.0735377E3,8.211033E2,3.4557123E2,3.7578217E2,5.387043E2,2.0300299E2,7.3540735E2,3.3813046E2,4.8964096E2,3.3146228E2,2.4980345E2,9.576778E1,2.782516E2,9.753056E1,4.937371E2,4.496722E1,1.954114E2,7.5915775E0,7.166961E2,1.8711227E1,2.0581755E2,1.323129E2,4.29195E2,6.0445942E1,6.1876144E0,3.252747E2],"tree_param":{"num_deleted":"0","num_feature":"133","num_nodes":"31","size_leaf_vector":"1"}},{"base_weights":[2.658684E-3,-2.9631975E-1,4.1229543E-1,-4.1063333E-1,-3.076357E-2,2.4850269E-1,6.039589E-1,-6.2167966E-1,-3.5072294E-1,-7.7115136E-1,3.4379521E-3,2.1662824E-1,9.980783E-1,9.270602E-1,5.088197E-1,-1.6054604E-3,-6.810268E-2,-4.1553337E-2,-1.654835E-2,6.6085316E-2,-1.17984764E-1,-9.369592E-3,2.2938149E-2,2.8603999E-2,-2.5506774E-3,-9.0044916E-2,1.105869E-1,9.998063E-2,-1.1312863E-2,1.6728645E-2,6.2926285E-2],"categories":[],"categories_nodes":[],"categories_segments":[],"categories_sizes":[],"default_left":[0,0,0,0,0,0,0,0,0,0,0,0,0,0,0,0,0,0,0,0,0,0,0,0,0,0,0,0,0,0,0],"id":4,"left_children":[1,3,5,7,9,11,13,15,17,19,21,23,25,27,29,-1,-1,-1,-1,-1,-1,-1,-1,-1,-1,-1,-1,-1,-1,-1,-1],"loss_changes":[4.0854462E2,5.8526306E1,4.4033752E1,1.6825714E1,1.4724639E1,1.795618E1,1.9442703E1,1.0655067E1,1.25637665E1,1.5806134E1,1.2239416E1,1.2290684E1,7.2878723E0,1.1172333E1,2.0573105E1,0E0,0E0,0E0,0E0,0E0,0E0,0E0,0E0,0E0,0E0,0E0,0E0,0E0,0E0,0E0,0E0],"parents":[2147483647,0,0,1,1,2,2,3,3,4,4,5,5,6,6,7,7,8,8,9,9,10,10,11,11,12,12,13,13,14,14],"right_children":[2,4,6,8,10,12,14,16,18,20,22,24,26,28,30,-1,-1,-1,-1,-1,-1,-1,-1,-1,-1,-1,-1,-1,-1,-1,-1],"split_conditions":[7.300231E-1,6.616837E-1,8.2527184E-1,5.360101E-1,1.9166666E0,9.883104E-1,3.035668E-1,-1.1822222E2,2.4101709E-4,-7.538281E-1,-1.1025343E-1,-1.7036014E0,4.7236282E-1,7.732558E-1,4.2180294E-1,-1.6054604E-3,-6.810268E-2,-4.1553337E-2,-1.654835E-2,6.6085316E-2,-1.17984764E-1,-9.369592E-3,2.2938149E-2,2.8603999E-2,-2.5506774E-3,-9.0044916E-2,1.105869E-1,9.998063E-2,-1.1312863E-2,1.6728645E-2,6.2926285E-2],"split_indices":[131,131,131,131,22,0,25,9,30,0,121,87,60,33,23,0,0,0,0,0,0,0,0,0,0,0,0,0,0,0,0],"split_type":[0,0,0,0,0,0,0,0,0,0,0,0,0,0,0,0,0,0,0,0,0,0,0,0,0,0,0,0,0,0,0],"sum_hessian":[3.3338083E3,1.9273701E3,1.4064382E3,1.3469878E3,5.8038226E2,7.595957E2,6.4684247E2,2.9575494E2,1.0512329E3,2.467502E1,5.557072E2,7.298491E2,2.9746624E1,1.4515137E2,5.016911E2,2.6508781E1,2.6924615E2,7.7784283E2,2.7339005E2,5.341678E0,1.9333342E1,3.8904205E2,1.6666515E2,5.6709985E2,1.6274924E2,1.2030735E0,2.854355E1,1.3569995E2,9.451424E0,1.314201E2,3.70271E2],"tree_param":{"num_deleted":"0","num_feature":"133","num_nodes":"31","size_leaf_vector":"1"}},{"base_weights":[8.117896E-3,-3.4717414E-1,2.8914917E-1,-5.7469743E-1,-2.896854E-1,1.4432588E-1,5.72527E-1,-8.3744496E-1,-4.2898452E-1,-4.105327E-1,-1.7121212E-1,5.26923E-1,1.0683691E-1,2.7104634E-1,6.406087E-1,-6.427046E-2,-1.3406366E-1,-8.3158255E-2,-2.9444939E-2,-3.834711E-2,-1.3245104E-1,2.8808555E-2,-2.2839256E-2,-6.9790505E-2,5.9847396E-2,4.8296936E-3,3.214726E-2,3.9169353E-2,-5.617975E-2,5.2541137E-2,8.35592E-2],"categories":[],"categories_nodes":[],"categories_segments":[],"categories_sizes":[],"default_left":[0,0,0,0,0,0,0,0,0,0,0,0,0,0,0,0,0,0,0,0,0,0,0,0,0,0,0,0,0,0,0],"id":5,"left_children":[1,3,5,7,9,11,13,15,17,19,21,23,25,27,29,-1,-1,-1,-1,-1,-1,-1,-1,-1,-1,-1,-1,-1,-1,-1,-1],"loss_changes":[3.345438E2,1.9188904E1,7.669263E1,1.1029289E1,1.6871262E1,1.7720312E1,1.2806122E1,9.433899E0,1.0230179E1,1.3962959E1,1.5803444E1,1.0088417E1,1.4183021E1,1.2099987E1,1.1131912E1,0E0,0E0,0E0,0E0,0E0,0E0,0E0,0E0,0E0,0E0,0E0,0E0,0E0,0E0,0E0,0E0],"parents":[2147483647,0,0,1,1,2,2,3,3,4,4,5,5,6,6,7,7,8,8,9,9,10,10,11,11,12,12,13,13,14,14],"right_children":[2,4,6,8,10,12,14,16,18,20,22,24,26,28,30,-1,-1,-1,-1,-1,-1,-1,-1,-1,-1,-1,-1,-1,-1,-1,-1],"split_conditions":[6.756058E-1,5.360101E-1,8.268448E-1,1.7979311E0,-1.9273363E0,-1.896627E2,2.1621622E-1,6.0083336E-1,-1.2318647E0,-2.2780058E-1,8.5414505E-1,-1.5899504E0,6.9603175E-1,1.765E1,-1.1605088E0,-6.427046E-2,-1.3406366E-1,-8.3158255E-2,-2.9444939E-2,-3.834711E-2,-1.3245104E-1,2.8808555E-2,-2.2839256E-2,-6.9790505E-2,5.9847396E-2,4.8296936E-3,3.214726E-2,3.9169353E-2,-5.617975E-2,5.2541137E-2,8.35592E-2],"split_indices":[131,131,131,49,104,10,33,20,59,58,76,117,25,19,57,0,0,0,0,0,0,0,0,0,0,0,0,0,0,0,0],"split_type":[0,0,0,0,0,0,0,0,0,0,0,0,0,0,0,0,0,0,0,0,0,0,0,0,0,0,0,0,0,0,0],"sum_hessian":[3.3485198E3,1.478765E3,1.8697549E3,2.9646164E2,1.1823033E3,1.2383778E3,6.31377E2,1.0406532E2,1.9239632E2,5.8406714E2,5.9823627E2,1.0934919E2,1.1290287E3,1.17231544E2,5.1414545E2,7.667035E1,2.7394974E1,4.689156E1,1.4550475E2,5.686498E2,1.5417357E1,6.578498E1,5.3245123E2,5.552143E0,1.0379704E2,8.8804675E2,2.4098187E2,1.02860664E2,1.4370876E1,3.2552054E2,1.8862492E2],"tree_param":{"num_deleted":"0","num_feature":"133","num_nodes":"31","size_leaf_vector":"1"}},{"base_weights":[-9.16866E-3,-2.9151908E-1,2.7451345E-1,-3.458079E-1,-4.8488516E-2,1.3925031E-1,5.0382286E-1,-3.6926964E-1,-4.754613E-2,-7.805918E-1,9.010459E-3,1.6853449E-1,-3.900108E-1,1.4576793E-1,5.5807185E-1,-3.1010136E-2,-5.3472865E-2,-7.7487186E-2,2.0236138E-2,1.6794203E-2,-1.4231132E-1,1.7685866E-2,-2.3029804E-2,1.0585844E-2,4.7957707E-2,1.4247291E-2,-1.0472657E-1,3.0148378E-2,-6.944878E-2,3.479035E-2,6.744473E-2],"categories":[],"categories_nodes":[],"categories_segments":[],"categories_sizes":[],"default_left":[0,0,0,0,0,0,0,0,0,0,0,0,0,0,0,0,0,0,0,0,0,0,0,0,0,0,0,0,0,0,0],"id":6,"left_children":[1,3,5,7,9,11,13,15,17,19,21,23,25,27,29,-1,-1,-1,-1,-1,-1,-1,-1,-1,-1,-1,-1,-1,-1,-1,-1],"loss_changes":[2.6489215E2,2.185109E1,5.1098198E1,9.461807E0,1.2795564E1,1.6169184E1,1.1800003E1,1.2127335E1,1.8321295E1,1.3728762E1,1.139472E1,1.9156122E1,1.9319546E1,1.0916838E1,1.2748993E1,0E0,0E0,0E0,0E0,0E0,0E0,0E0,0E0,0E0,0E0,0E0,0E0,0E0,0E0,0E0,0E0],"parents":[2147483647,0,0,1,1,2,2,3,3,4,4,5,5,6,6,7,7,8,8,9,9,10,10,11,11,12,12,13,13,14,14],"right_children":[2,4,6,8,10,12,14,16,18,20,22,24,26,28,30,-1,-1,-1,-1,-1,-1,-1,-1,-1,-1,-1,-1,-1,-1,-1,-1],"split_conditions":[6.966417E-1,6.616837E-1,8.268448E-1,9.0830946E-1,2.6657835E-1,9.628253E-1,1.7142858E-1,1E0,-1.4486816E-2,1.2710729E0,1.6041128E-1,7.2393113E-1,-2.3130687E-1,1.675E1,-1.4629225E0,-3.1010136E-2,-5.3472865E-2,-7.7487186E-2,2.0236138E-2,1.6794203E-2,-1.4231132E-1,1.7685866E-2,-2.3029804E-2,1.0585844E-2,4.7957707E-2,1.4247291E-2,-1.0472657E-1,3.0148378E-2,-6.944878E-2,3.479035E-2,6.744473E-2],"split_indices":[131,131,131,27,23,27,33,24,82,81,0,25,58,19,66,0,0,0,0,0,0,0,0,0,0,0,0,0,0,0,0],"split_type":[0,0,0,0,0,0,0,0,0,0,0,0,0,0,0,0,0,0,0,0,0,0,0,0,0,0,0,0,0,0,0],"sum_hessian":[3.3051113E3,1.6564298E3,1.6486815E3,1.3536295E3,3.028003E2,1.0380012E3,6.1068036E2,1.2546951E3,9.89344E1,2.1134203E1,2.8166608E2,9.842253E2,5.3775913E1,8.0835594E1,5.298448E2,9.263173E2,3.2837778E2,2.4763266E1,7.4171135E1,8.832979E0,1.2301225E1,1.6570412E2,1.1596197E2,8.2027716E2,1.6394809E2,3.0140455E1,2.3635456E1,6.873825E1,1.2097344E1,1.9025066E2,3.3959412E2],"tree_param":{"num_deleted":"0","num_feature":"133","num_nodes":"31","size_leaf_vector":"1"}},{"base_weights":[-4.9841097E-3,2.0780675E-1,-4.051368E-2,-1.0905221E-1,3.0655476E-1,-8.041096E-2,1.9223432E-1,5.9264505E-1,-2.5570682E-1,3.6187437E-1,-1.7918205E-1,1.4431924E-1,-1.2924676E-1,-8.9058596E-1,2.280727E-1,1.0582756E-1,-1.7536232E-3,5.203284E-2,-3.47586E-2,8.2632564E-2,2.9137691E-2,-8.330154E-2,2.80868E-2,-8.901899E-2,1.9925265E-2,-4.520989E-2,-1.0066233E-2,-1.5480623E-1,6.5819375E-2,4.7444355E-2,8.71373E-3],"categories":[],"categories_nodes":[],"categories_segments":[],"categories_sizes":[],"default_left":[0,0,0,0,0,0,0,0,0,0,0,0,0,0,0,0,0,0,0,0,0,0,0,0,0,0,0,0,0,0,0],"id":7,"left_children":[1,3,5,7,9,11,13,15,17,19,21,23,25,27,29,-1,-1,-1,-1,-1,-1,-1,-1,-1,-1,-1,-1,-1,-1,-1,-1],"loss_changes":[2.5081503E1,1.4885464E1,2.6412937E1,1.1833451E1,9.79612E0,2.6659449E1,1.6357523E1,5.679754E0,6.925515E0,1.0415459E1,1.157292E1,2.483025E1,1.8361992E1,1.4806751E1,1.3977488E1,0E0,0E0,0E0,0E0,0E0,0E0,0E0,0E0,0E0,0E0,0E0,0E0,0E0,0E0,0E0,0E0],"parents":[2147483647,0,0,1,1,2,2,3,3,4,4,5,5,6,6,7,7,8,8,9,9,10,10,11,11,12,12,13,13,14,14],"right_children":[2,4,6,8,10,12,14,16,18,20,22,24,26,28,30,-1,-1,-1,-1,-1,-1,-1,-1,-1,-1,-1,-1,-1,-1,-1,-1],"split_conditions":[1E0,1.8333334E-1,7.494301E-1,1.7731881E-1,1.4673457E0,3.0137932E-1,-6.657397E-1,3.525004E-2,2.95E0,2.943836E-1,-4.271658E2,-1.1659712E0,-9.648756E-1,-1.1579227E0,-1.5057823E-4,1.0582756E-1,-1.7536232E-3,5.203284E-2,-3.47586E-2,8.2632564E-2,2.9137691E-2,-8.330154E-2,2.80868E-2,-8.901899E-2,1.9925265E-2,-4.520989E-2,-1.0066233E-2,-1.5480623E-1,6.5819375E-2,4.7444355E-2,8.71373E-3],"split_indices":[7,33,25,25,114,25,40,82,18,25,11,57,0,57,13,0,0,0,0,0,0,0,0,0,0,0,0,0,0,0,0],"split_type":[0,0,0,0,0,0,0,0,0,0,0,0,0,0,0,0,0,0,0,0,0,0,0,0,0,0,0,0,0,0,0],"sum_hessian":[3.3153845E3,4.7366986E2,2.8417146E3,1.1251893E2,3.6115094E2,2.4264338E3,4.1528073E2,1.8925436E1,9.359349E1,3.2445444E2,3.669648E1,4.328073E2,1.9936265E3,1.2540231E1,4.027405E2,1.0317653E1,8.607784E0,9.414342E0,8.4179146E1,4.1344868E1,2.831096E2,1.4821348E1,2.1875134E1,2.1056934E1,4.117504E2,1.6094847E2,1.8326781E3,8.803499E0,3.7367318E0,1.4569061E2,2.570499E2],"tree_param":{"num_deleted":"0","num_feature":"133","num_nodes":"31","size_leaf_vector":"1"}},{"base_weights":[2.7991233E-3,-1.8358102E-1,3.5877424E-1,-2.9677552E-1,2.989115E-3,2.0625262E-1,5.155712E-1,-3.7425286E-1,-1.9040562E-1,3.9599472E-1,-2.9487269E-2,1.8038873E-1,9.6575075E-1,5.9575015E-1,2.517328E-1,-3.98801E-2,2.3953993E-2,-1.8721918E-3,-3.599633E-2,5.0191116E-2,-1.3449138E-1,-4.1273337E-2,-9.9655204E-5,1.3080954E-2,6.0215514E-2,-6.2469084E-2,1.2319471E-1,-5.772933E-2,6.1623365E-2,-6.352514E-2,3.7041556E-2],"categories":[],"categories_nodes":[],"categories_segments":[],"categories_sizes":[],"default_left":[0,0,0,0,0,0,0,0,0,0,0,0,0,0,0,0,0,0,0,0,0,0,0,0,0,0,0,0,0,0,0],"id":8,"left_children":[1,3,5,7,9,11,13,15,17,19,21,23,25,27,29,-1,-1,-1,-1,-1,-1,-1,-1,-1,-1,-1,-1,-1,-1,-1,-1],"loss_changes":[2.1959276E2,4.5878822E1,2.7094498E1,1.1071548E1,1.0494339E1,1.1184244E1,1.1700104E1,1.1866936E1,1.6639431E1,1.2247093E1,8.293059E0,1.16399765E1,8.734335E0,1.066098E1,1.4161378E1,0E0,0E0,0E0,0E0,0E0,0E0,0E0,0E0,0E0,0E0,0E0,0E0,0E0,0E0,0E0,0E0],"parents":[2147483647,0,0,1,1,2,2,3,3,4,4,5,5,6,6,7,7,8,8,9,9,10,10,11,11,12,12,13,13,14,14],"right_children":[2,4,6,8,10,12,14,16,18,20,22,24,26,28,30,-1,-1,-1,-1,-1,-1,-1,-1,-1,-1,-1,-1,-1,-1,-1,-1],"split_conditions":[7.608761E-1,6.616837E-1,8.337755E-1,2.2760108E-4,-2.1889705E2,9.9270886E-1,2.077536E2,3.4129068E-1,1E0,-1.6036281E-1,-9.828859E-1,8.28125E-1,4.7580764E-1,2.509107E-1,2.4324325E-1,-3.98801E-2,2.3953993E-2,-1.8721918E-3,-3.599633E-2,5.0191116E-2,-1.3449138E-1,-4.1273337E-2,-9.9655204E-5,1.3080954E-2,6.0215514E-2,-6.2469084E-2,1.2319471E-1,-5.772933E-2,6.1623365E-2,-6.352514E-2,3.7041556E-2],"split_indices":[131,131,131,32,10,0,8,116,24,85,0,25,60,67,33,0,0,0,0,0,0,0,0,0,0,0,0,0,0,0,0],"split_type":[0,0,0,0,0,0,0,0,0,0,0,0,0,0,0,0,0,0,0,0,0,0,0,0,0,0,0,0,0,0,0],"sum_hessian":[3.307784E3,2.1713833E3,1.1364006E3,1.351077E3,8.2030634E2,5.772275E2,5.5917316E2,7.802458E2,5.708312E2,6.1758347E1,7.58548E2,5.5941473E2,1.781275E1,4.278837E2,1.3128944E2,7.5057733E2,2.9668472E1,2.8418912E2,2.8664206E2,5.8887352E1,2.8709965E0,5.155559E1,7.069924E2,5.0174417E2,5.7670536E1,2.3608232E0,1.5451926E1,6.8768797E0,4.2100684E2,1.49803295E1,1.1630911E2],"tree_param":{"num_deleted":"0","num_feature":"133","num_nodes":"31","size_leaf_vector":"1"}},{"base_weights":[6.5691066E-3,-2.316124E-1,2.4435085E-1,-3.5993147E-1,-1.2878492E-1,1.7317593E-1,5.4789215E-1,-3.683219E-1,1.1716002E-1,9.735157E-1,-1.4708707E-1,-3.5838193E-1,1.9250055E-1,6.0536295E-1,-1.7555872E-1,-4.6810016E-2,-2.5496993E-2,1.0635583E-2,1.3566805E-1,-2.9827772E-2,-4.935151E-3,2.5489023E-2,-7.3609374E-2,-4.732435E-3,2.3913266E-2,4.610233E-3,6.881058E-2,4.7377948E-2,-8.394511E-2],"categories":[],"categories_nodes":[],"categories_segments":[],"categories_sizes":[],"default_left":[0,0,0,0,0,0,0,0,0,0,0,0,0,0,0,0,0,0,0,0,0,0,0,0,0,0,0,0,0],"id":9,"left_children":[1,3,5,7,9,11,13,15,-1,17,19,21,23,25,27,-1,-1,-1,-1,-1,-1,-1,-1,-1,-1,-1,-1,-1,-1],"loss_changes":[1.8636511E2,2.1645035E1,3.548085E1,9.821999E0,1.8586245E1,1.3786068E1,1.3091446E1,8.109215E0,0E0,4.860282E0,1.3286032E1,1.1119473E1,1.4428833E1,1.3367355E1,1.0640205E1,0E0,0E0,0E0,0E0,0E0,0E0,0E0,0E0,0E0,0E0,0E0,0E0,0E0,0E0],"parents":[2147483647,0,0,1,1,2,2,3,3,4,4,5,5,6,6,7,7,9,9,10,10,11,11,12,12,13,13,14,14],"right_children":[2,4,6,8,10,12,14,16,-1,18,20,22,24,26,28,-1,-1,-1,-1,-1,-1,-1,-1,-1,-1,-1,-1,-1,-1],"split_conditions":[6.954454E-1,5.8785963E-1,8.679265E-1,1.7996782E0,-1.01540916E-1,-9.9270886E-1,2.17E1,5.941106E-1,1.1716002E-1,3.9151308E-1,-5.836449E-1,2.3479695E2,-3.2364312E-1,1.4516129E-1,-5.3514034E-1,-4.6810016E-2,-2.5496993E-2,1.0635583E-2,1.3566805E-1,-2.9827772E-2,-4.935151E-3,2.5489023E-2,-7.3609374E-2,-4.732435E-3,2.3913266E-2,4.610233E-3,6.881058E-2,4.7377948E-2,-8.394511E-2],"split_indices":[131,131,131,49,46,0,19,75,0,50,74,11,85,33,100,0,0,0,0,0,0,0,0,0,0,0,0,0,0],"split_type":[0,0,0,0,0,0,0,0,0,0,0,0,0,0,0,0,0,0,0,0,0,0,0,0,0,0,0,0,0],"sum_hessian":[3.288623E3,1.6429434E3,1.6456796E3,7.2976483E2,9.131785E2,1.3343656E3,3.1131396E2,7.26544E2,3.2208338E0,1.4061988E1,8.991165E2,4.6193245E1,1.2881724E3,2.8855447E2,2.2759481E1,3.847434E2,3.418006E2,4.700843E0,9.361145E0,3.5221326E2,5.4690326E2,1.7730413E1,2.846283E1,2.096982E2,1.0784742E3,3.7390236E1,2.5116425E2,1.1650626E1,1.1108854E1],"tree_param":{"num_deleted":"0","num_feature":"133","num_nodes":"29","size_leaf_vector":"1"}},{"base_weights":[-3.714811E-3,-2.3403776E-1,1.9453512E-1,-2.908189E-1,-1.1557575E-1,9.30842E-2,4.170573E-1,4.5264617E-1,-3.0157408E-1,-2.9395652E-1,5.950175E-2,-6.107305E-2,1.6170293E-1,4.4823232E-1,-2.6280618E-1,-3.5726875E-2,1.0724664E-1,7.037423E-2,-3.0801853E-2,7.611272E-2,-3.372904E-2,1.4767242E-2,-4.5561995E-2,-1.2938122E-2,5.3794272E-2,2.2707548E-2,-8.9064455E-3,3.512707E-2,6.919306E-2,-8.1878684E-2,6.298686E-2],"categories":[],"categories_nodes":[],"categories_segments":[],"categories_sizes":[],"default_left":[0,0,0,0,0,0,0,0,0,0,0,0,0,0,0,0,0,0,0,0,0,0,0,0,0,0,0,0,0,0,0],"id":10,"left_children":[1,3,5,7,9,11,13,15,17,19,21,23,25,27,29,-1,-1,-1,-1,-1,-1,-1,-1,-1,-1,-1,-1,-1,-1,-1,-1],"loss_changes":[1.4934439E2,1.0143112E1,3.9642212E1,8.309105E0,1.5379007E1,1.2794486E1,1.1777893E1,7.9004393E0,6.747978E0,1.1403837E1,1.1379614E1,1.5331622E1,1.373489E1,1.2195206E1,1.2799867E1,0E0,0E0,0E0,0E0,0E0,0E0,0E0,0E0,0E0,0E0,0E0,0E0,0E0,0E0,0E0,0E0],"parents":[2147483647,0,0,1,1,2,2,3,3,4,4,5,5,6,6,7,7,8,8,9,9,10,10,11,11,12,12,13,13,14,14],"right_children":[2,4,6,8,10,12,14,16,18,20,22,24,26,28,30,-1,-1,-1,-1,-1,-1,-1,-1,-1,-1,-1,-1,-1,-1,-1,-1],"split_conditions":[6.8046635E-1,6.223951E-1,8.320174E-1,-7.089158E-1,-2.3693739E-2,5E0,2.44E1,4.816592E-1,1.6949153E-2,8.5685116E-1,1.7199993E-2,-1.460319E0,2.3395274E2,-1.1600128E0,5.919786E-1,-3.5726875E-2,1.0724664E-1,7.037423E-2,-3.0801853E-2,7.611272E-2,-3.372904E-2,1.4767242E-2,-4.5561995E-2,-1.2938122E-2,5.3794272E-2,2.2707548E-2,-8.9064455E-3,3.512707E-2,6.919306E-2,-8.1878684E-2,6.298686E-2],"split_indices":[131,131,131,74,122,22,19,72,27,101,69,66,8,57,25,0,0,0,0,0,0,0,0,0,0,0,0,0,0,0,0],"split_type":[0,0,0,0,0,0,0,0,0,0,0,0,0,0,0,0,0,0,0,0,0,0,0,0,0,0,0,0,0,0,0],"sum_hessian":[3.2686873E3,1.5119512E3,1.7567361E3,1.021075E3,4.9087613E2,1.2075952E3,5.491409E2,1.3974612E1,1.0071004E3,2.4280798E2,2.4806815E2,3.719934E2,8.356018E2,5.2538995E2,2.3750942E1,6.241925E0,7.7326875E0,5.725598E0,1.0013748E3,8.925586E0,2.338824E2,2.1242227E2,3.5645874E1,3.3461942E2,3.7373985E1,6.62888E2,1.7271378E2,3.7759534E2,1.4779463E2,1.4686553E1,9.06439E0],"tree_param":{"num_deleted":"0","num_feature":"133","num_nodes":"31","size_leaf_vector":"1"}},{"base_weights":[1.5719375E-2,-1.455241E-1,2.3123729E-1,-3.3138317E-1,-1.0308346E-1,1.6625233E-1,4.7793782E-1,8.072055E-3,-4.1436848E-1,-6.9769746E-1,-8.8235945E-2,5.862854E-2,2.9003236E-1,-7.6920974E-1,5.0627136E-1,-1.12373205E-2,1.2959048E-1,1.1095186E-1,-4.4035483E-2,-9.003993E-2,9.764161E-2,-1.0325498E-2,3.9180744E-2,1.1106048E-2,-4.146411E-2,3.760682E-2,-5.5015623E-3,9.268997E-2,-1.4386156E-1,9.939954E-2,4.23612E-2],"categories":[],"categories_nodes":[],"categories_segments":[],"categories_sizes":[],"default_left":[0,0,0,0,0,0,0,0,0,0,0,0,0,0,0,0,0,0,0,0,0,0,0,0,0,0,0,0,0,0,0],"id":11,"left_children":[1,3,5,7,9,11,13,15,17,19,21,23,25,27,29,-1,-1,-1,-1,-1,-1,-1,-1,-1,-1,-1,-1,-1,-1,-1,-1],"loss_changes":[1.1304571E2,1.4644451E1,2.2239738E1,9.735584E0,1.3326036E1,1.4682806E1,1.0627342E1,1.0824994E1,1.1483036E1,1.336618E1,1.071529E1,1.4723777E1,1.5248421E1,9.091514E0,1.1024208E1,0E0,0E0,0E0,0E0,0E0,0E0,0E0,0E0,0E0,0E0,0E0,0E0,0E0,0E0,0E0,0E0],"parents":[2147483647,0,0,1,1,2,2,3,3,4,4,5,5,6,6,7,7,8,8,9,9,10,10,11,11,12,12,13,13,14,14],"right_children":[2,4,6,8,10,12,14,16,18,20,22,24,26,28,30,-1,-1,-1,-1,-1,-1,-1,-1,-1,-1,-1,-1,-1,-1,-1,-1],"split_conditions":[7.2194767E-1,-5.022459E-2,8.6967623E-1,-7.0113933E-1,-1.5378234E-3,-2.5775817E-1,-3.5357736E-3,9.5E-1,3.9767987E-1,-5.324729E-1,-2.3013906E-1,-2.6485908E-1,1.495E1,-9.853187E-6,-1.2626218E0,-1.12373205E-2,1.2959048E-1,1.1095186E-1,-4.4035483E-2,-9.003993E-2,9.764161E-2,-1.0325498E-2,3.9180744E-2,1.1106048E-2,-4.146411E-2,3.760682E-2,-5.5015623E-3,9.268997E-2,-1.4386156E-1,9.939954E-2,4.23612E-2],"split_indices":[131,51,131,71,12,107,13,33,47,36,58,107,19,14,97,0,0,0,0,0,0,0,0,0,0,0,0,0,0,0,0],"split_type":[0,0,0,0,0,0,0,0,0,0,0,0,0,0,0,0,0,0,0,0,0,0,0,0,0,0,0,0,0,0,0],"sum_hessian":[3.2510652E3,1.8598848E3,1.3911804E3,3.4448474E2,1.5154E3,1.1024507E3,2.8872968E2,6.784881E1,2.7663593E2,3.57973E1,1.4796028E3,5.9049927E2,5.1195142E2,5.8329763E0,2.828967E2,6.2880608E1,4.9682007E0,3.9391766E0,2.7269675E2,3.2343327E1,3.4539702E0,1.4354762E3,4.41266E1,5.322936E2,5.8205666E1,4.0970404E2,1.0224738E2,1.5417929E0,4.291184E0,3.939933E1,2.4349738E2],"tree_param":{"num_deleted":"0","num_feature":"133","num_nodes":"31","size_leaf_vector":"1"}},{"base_weights":[2.1874532E-2,-1.0356015E-1,2.4770549E-1,-3.360068E-1,-6.1675873E-2,1.9714339E-1,5.4710305E-1,-4.4165242E-1,-8.739156E-2,-6.099994E-1,-4.616355E-2,4.7605222E-1,1.1491965E-1,6.3992476E-1,-2.0325722E-2,-6.936603E-2,-2.693688E-2,4.5655463E-2,-4.2953763E-2,-9.745196E-2,4.116434E-2,6.165882E-2,-5.6264577E-3,5.519584E-2,-4.2269334E-2,-3.0488614E-2,1.4584688E-2,3.6072742E-2,8.823231E-2,-5.3790804E-2,8.0446556E-2],"categories":[],"categories_nodes":[],"categories_segments":[],"categories_sizes":[],"default_left":[0,0,0,0,0,0,0,0,0,0,0,0,0,0,0,0,0,0,0,0,0,0,0,0,0,0,0,0,0,0,0],"id":12,"left_children":[1,3,5,7,9,11,13,15,17,19,21,23,25,27,29,-1,-1,-1,-1,-1,-1,-1,-1,-1,-1,-1,-1,-1,-1,-1,-1],"loss_changes":[9.2531075E1,2.0426485E1,1.754972E1,8.377495E0,1.5118633E1,2.2865967E1,8.8595085E0,9.565681E0,1.821203E1,1.8616001E1,1.1635244E1,1.5735912E1,1.0083549E1,9.452904E0,1.092682E1,0E0,0E0,0E0,0E0,0E0,0E0,0E0,0E0,0E0,0E0,0E0,0E0,0E0,0E0,0E0,0E0],"parents":[2147483647,0,0,1,1,2,2,3,3,4,4,5,5,6,6,7,7,8,8,9,9,10,10,11,11,12,12,13,13,14,14],"right_children":[2,4,6,8,10,12,14,16,18,20,22,24,26,28,30,-1,-1,-1,-1,-1,-1,-1,-1,-1,-1,-1,-1,-1,-1,-1,-1],"split_conditions":[7.51135E-1,5.374758E-1,7.774405E-1,-8.442551E-1,1.1091624E0,3.035668E-1,-6.490791E-1,-4.3933284E-1,-1.3837608E0,6.234568E-1,-1.01540916E-1,-7.6379605E-5,-9.828859E-1,-1.524551E-1,2.1852095E-1,-6.936603E-2,-2.693688E-2,4.5655463E-2,-4.2953763E-2,-9.745196E-2,4.116434E-2,6.165882E-2,-5.6264577E-3,5.519584E-2,-4.2269334E-2,-3.0488614E-2,1.4584688E-2,3.6072742E-2,8.823231E-2,-5.3790804E-2,8.0446556E-2],"split_indices":[131,131,25,97,37,25,40,79,109,23,46,13,0,1,63,0,0,0,0,0,0,0,0,0,0,0,0,0,0,0,0],"split_type":[0,0,0,0,0,0,0,0,0,0,0,0,0,0,0,0,0,0,0,0,0,0,0,0,0,0,0,0,0,0,0],"sum_hessian":[3.264623E3,2.0991953E3,1.1654276E3,3.1942865E2,1.7797667E3,9.984657E2,1.6696188E2,2.236256E2,9.580306E1,4.7910797E1,1.731856E3,2.2624313E2,7.722226E2,1.4337965E2,2.3582235E1,8.957439E1,1.3405121E2,3.686324E1,5.893982E1,3.5345657E1,1.256514E1,2.5097664E1,1.7067583E3,2.0897905E2,1.7264076E1,5.2378555E1,7.19844E2,6.778836E1,7.559129E1,1.4703287E1,8.878948E0],"tree_param":{"num_deleted":"0","num_feature":"133","num_nodes":"31","size_leaf_vector":"1"}},{"base_weights":[2.6897762E-3,-1.1060933E-1,2.5081328E-1,-3.6146504E-1,-7.140404E-2,1.8931748E-1,4.6488318E-1,-1.8794148E-1,-4.9796268E-1,-5.633344E-2,-5.7023716E-1,4.4227704E-1,1.3028644E-1,-3.5577175E-1,5.133851E-1,1.5412173E-2,-3.9223306E-2,-5.338481E-2,6.726617E-2,1.5087045E-2,-8.474256E-3,-7.504025E-2,5.30512E-2,-1.17849804E-1,4.871927E-2,1.9594714E-2,-1.8016944E-2,6.3370995E-2,-9.886352E-2,5.726083E-2,-1.9645285E-2],"categories":[],"categories_nodes":[],"categories_segments":[],"categories_sizes":[],"default_left":[0,0,0,0,0,0,0,0,0,0,0,0,0,0,0,0,0,0,0,0,0,0,0,0,0,0,0,0,0,0,0],"id":13,"left_children":[1,3,5,7,9,11,13,15,17,19,21,23,25,27,29,-1,-1,-1,-1,-1,-1,-1,-1,-1,-1,-1,-1,-1,-1,-1,-1],"loss_changes":[9.1890724E1,2.2044159E1,1.3401253E1,7.0846786E0,1.456718E1,1.1853933E1,9.257103E0,9.497211E0,7.459507E0,1.1115554E1,1.1670542E1,1.15311775E1,1.3248344E1,8.963109E0,9.17897E0,0E0,0E0,0E0,0E0,0E0,0E0,0E0,0E0,0E0,0E0,0E0,0E0,0E0,0E0,0E0,0E0],"parents":[2147483647,0,0,1,1,2,2,3,3,4,4,5,5,6,6,7,7,8,8,9,9,10,10,11,11,12,12,13,13,14,14],"right_children":[2,4,6,8,10,12,14,16,18,20,22,24,26,28,30,-1,-1,-1,-1,-1,-1,-1,-1,-1,-1,-1,-1,-1,-1,-1,-1],"split_conditions":[7.688626E-1,5.374758E-1,8.7888724E-1,1.3394588E0,-6.4625394E-1,3.035668E-1,4.4220652E-2,9.37024E-1,1.14E1,-9.4853646E-1,5.65E0,2.9120007E-1,6.7E0,6.759327E-1,7.385156E-4,1.5412173E-2,-3.9223306E-2,-5.338481E-2,6.726617E-2,1.5087045E-2,-8.474256E-3,-7.504025E-2,5.30512E-2,-1.17849804E-1,4.871927E-2,1.9594714E-2,-1.8016944E-2,6.3370995E-2,-9.886352E-2,5.726083E-2,-1.9645285E-2],"split_indices":[131,131,131,54,40,25,80,94,18,1,19,93,18,34,30,0,0,0,0,0,0,0,0,0,0,0,0,0,0,0,0],"split_type":[0,0,0,0,0,0,0,0,0,0,0,0,0,0,0,0,0,0,0,0,0,0,0,0,0,0,0,0,0,0,0],"sum_hessian":[3.2667297E3,2.2430527E3,1.0236771E3,3.0206503E2,1.9409877E3,7.9669507E2,2.2698204E2,1.3404117E2,1.6802385E2,1.8851471E3,5.5840565E1,1.4951248E2,6.4718256E2,1.2312855E1,2.1466917E2,5.0212154E1,8.382902E1,1.6355408E2,4.4697733E0,2.2678252E2,1.6583646E3,4.825989E1,7.5806704E0,3.35108E0,1.461614E2,5.345049E2,1.1267771E2,4.8026214E0,7.510234E0,1.9831657E2,1.6352612E1],"tree_param":{"num_deleted":"0","num_feature":"133","num_nodes":"31","size_leaf_vector":"1"}},{"base_weights":[-7.2316327E-3,-1.07874654E-1,2.0817909E-1,-2.0418957E-1,-2.3249138E-2,5.417303E-1,1.6815384E-1,-3.3087653E-1,-1.3580295E-1,-1.019428E0,-1.3150766E-2,-1.3832936E0,6.157597E-1,1.27022E-1,5.504583E-1,-2.3759816E-2,-6.65806E-2,2.6788536E-2,-1.7437292E-2,-1.2886755E-1,2.1613896E-2,-7.596135E-3,1.2961179E-2,-1.0565077E-2,-1.8509051E-1,6.715543E-2,-4.9281422E-2,8.6456287E-4,2.8400136E-2,2.840724E-2,1.0423275E-1],"categories":[],"categories_nodes":[],"categories_segments":[],"categories_sizes":[],"default_left":[0,0,0,0,0,0,0,0,0,0,0,0,0,0,0,0,0,0,0,0,0,0,0,0,0,0,0,0,0,0,0],"id":14,"left_children":[1,3,5,7,9,11,13,15,17,19,21,23,25,27,29,-1,-1,-1,-1,-1,-1,-1,-1,-1,-1,-1,-1,-1,-1,-1,-1],"loss_changes":[7.030636E1,1.8010302E1,1.3695835E1,8.909859E0,1.1833465E1,1.655524E1,1.4452E1,1.11403885E1,1.0524684E1,4.20576E0,1.0472913E1,2.4264545E0,6.9370728E0,1.5515772E1,1.141865E1,0E0,0E0,0E0,0E0,0E0,0E0,0E0,0E0,0E0,0E0,0E0,0E0,0E0,0E0,0E0,0E0],"parents":[2147483647,0,0,1,1,2,2,3,3,4,4,5,5,6,6,7,7,8,8,9,9,10,10,11,11,12,12,13,13,14,14],"right_children":[2,4,6,8,10,12,14,16,18,20,22,24,26,28,30,-1,-1,-1,-1,-1,-1,-1,-1,-1,-1,-1,-1,-1,-1,-1,-1],"split_conditions":[7.6406205E-1,6.223951E-1,2.1776156E-1,1.7979238E0,-3.229248E-1,-8.741118E-1,9.4853646E-1,6.84127E-1,-8.83947E1,-3.8468903E-1,7.1043754E-1,4.0407307E-5,1E0,5.863598E-1,6.0395676E-1,-2.3759816E-2,-6.65806E-2,2.6788536E-2,-1.7437292E-2,-1.2886755E-1,2.1613896E-2,-7.596135E-3,1.2961179E-2,-1.0565077E-2,-1.8509051E-1,6.715543E-2,-4.9281422E-2,8.6456287E-4,2.8400136E-2,2.840724E-2,1.0423275E-1],"split_indices":[131,131,25,49,69,120,1,23,9,100,113,14,26,25,23,0,0,0,0,0,0,0,0,0,0,0,0,0,0,0,0],"split_type":[0,0,0,0,0,0,0,0,0,0,0,0,0,0,0,0,0,0,0,0,0,0,0,0,0,0,0,0,0,0,0],"sum_hessian":[3.240939E3,2.209246E3,1.0316927E3,1.0325997E3,1.1766465E3,1.0919332E2,9.2249945E2,3.6065118E2,6.7194855E2,1.08050585E1,1.1658414E3,3.3887281E0,1.0580459E2,8.3409235E2,8.84071E1,2.8342603E2,7.722518E1,5.808307E1,6.138655E2,8.836482E0,1.9685767E0,8.099565E2,3.5588495E2,1.2364217E0,2.1523066E0,1.0110994E2,4.6946516E0,4.7611465E2,3.5797766E2,5.837174E1,3.0035355E1],"tree_param":{"num_deleted":"0","num_feature":"133","num_nodes":"31","size_leaf_vector":"1"}},{"base_weights":[7.781921E-3,-1.2494947E-1,1.494509E-1,-2.1261725E-1,-5.875336E-2,6.828633E-2,3.122738E-1,-2.244979E-1,7.513308E-1,-1.2905318E-1,1.0632277E-1,8.991277E-2,-3.48532E-1,2.3920934E-1,5.7251245E-1,-2.743032E-2,3.4369735E-4,-6.0651284E-2,1.2262038E-1,-1.2763022E-1,-1.1292139E-2,-1.7030653E-2,2.5262719E-2,2.065159E-3,2.3262663E-2,1.7462965E-2,-9.28075E-2,2.791348E-2,-2.7675113E-2,8.510755E-3,7.439117E-2],"categories":[],"categories_nodes":[],"categories_segments":[],"categories_sizes":[],"default_left":[0,0,0,0,0,0,0,0,0,0,0,0,0,0,0,0,0,0,0,0,0,0,0,0,0,0,0,0,0,0,0],"id":15,"left_children":[1,3,5,7,9,11,13,15,17,19,21,23,25,27,29,-1,-1,-1,-1,-1,-1,-1,-1,-1,-1,-1,-1,-1,-1,-1,-1],"loss_changes":[6.076198E1,9.66927E0,2.0634739E1,8.384289E0,1.1060978E1,9.445419E0,9.744221E0,8.054436E0,6.523759E0,1.2220247E1,1.1572257E1,9.81678E0,1.5842697E1,8.471148E0,9.39365E0,0E0,0E0,0E0,0E0,0E0,0E0,0E0,0E0,0E0,0E0,0E0,0E0,0E0,0E0,0E0,0E0],"parents":[2147483647,0,0,1,1,2,2,3,3,4,4,5,5,6,6,7,7,8,8,9,9,10,10,11,11,12,12,13,13,14,14],"right_children":[2,4,6,8,10,12,14,16,18,20,22,24,26,28,30,-1,-1,-1,-1,-1,-1,-1,-1,-1,-1,-1,-1,-1,-1,-1,-1],"split_conditions":[6.9831437E-1,5.8785963E-1,8.320174E-1,2.0294197E0,7.035764E-1,9.628253E-1,9.827197E-4,7.966681E-4,1.0209206E0,-5.4811645E-1,4.4442996E-1,6.340302E-1,-2.3130687E-1,1.7E1,1.3256785E-1,-2.743032E-2,3.4369735E-4,-6.0651284E-2,1.2262038E-1,-1.2763022E-1,-1.1292139E-2,-1.7030653E-2,2.5262719E-2,2.065159E-3,2.3262663E-2,1.7462965E-2,-9.28075E-2,2.791348E-2,-2.7675113E-2,8.510755E-3,7.439117E-2],"split_indices":[131,131,131,99,113,27,14,32,76,100,23,75,58,19,27,0,0,0,0,0,0,0,0,0,0,0,0,0,0,0,0],"split_type":[0,0,0,0,0,0,0,0,0,0,0,0,0,0,0,0,0,0,0,0,0,0,0,0,0,0,0,0,0,0,0],"sum_hessian":[3.229353E3,1.6673296E3,1.5620234E3,7.163755E2,9.5095416E2,1.0433499E3,5.186736E2,7.0841144E2,7.9640536E0,6.670854E2,2.8386874E2,9.9263184E2,5.071801E1,4.0647192E2,1.1220164E2,5.812098E2,1.27201645E2,1.9917285E0,5.972325E0,8.166807E0,6.589186E2,9.8141266E1,1.8572748E2,6.690678E2,3.2356403E2,2.7022814E1,2.3695196E1,3.7770392E2,2.8768024E1,2.9580538E1,8.26211E1],"tree_param":{"num_deleted":"0","num_feature":"133","num_nodes":"31","size_leaf_vector":"1"}},{"base_weights":[1.4755599E-2,-6.539238E-2,1.8593052E-1,-7.428517E-2,6.503132E-1,3.5681307E-1,1.0428558E-1,-1.061473E0,-6.8706386E-2,-1.2881355E-1,9.7747105E-1,2.9614925E-1,1.0148287E0,-3.0271557E-1,1.6419229E-1,-1.3071774E-1,6.1484437E-2,-1.6650703E-2,-2.0617738E-3,-9.386944E-2,7.111109E-2,-2.3199871E-2,1.2849765E-1,-1.1870678E-1,3.1470634E-2,1.1360186E-1,-3.0393371E-2,1.832935E-2,-6.521404E-2,5.713837E-3,3.4761656E-2],"categories":[],"categories_nodes":[],"categories_segments":[],"categories_sizes":[],"default_left":[0,0,0,0,0,0,0,0,0,0,0,0,0,0,0,0,0,0,0,0,0,0,0,0,0,0,0,0,0,0,0],"id":16,"left_children":[1,3,5,7,9,11,13,15,17,19,21,23,25,27,29,-1,-1,-1,-1,-1,-1,-1,-1,-1,-1,-1,-1,-1,-1,-1,-1],"loss_changes":[4.3938015E1,1.3932337E1,1.421183E1,1.1798434E1,6.976203E0,1.2863884E1,1.693489E1,5.7643127E0,1.00824585E1,6.674791E0,7.380768E0,8.723406E0,4.728428E0,1.5268834E1,1.1846697E1,0E0,0E0,0E0,0E0,0E0,0E0,0E0,0E0,0E0,0E0,0E0,0E0,0E0,0E0,0E0,0E0],"parents":[2147483647,0,0,1,1,2,2,3,3,4,4,5,5,6,6,7,7,8,8,9,9,10,10,11,11,12,12,13,13,14,14],"right_children":[2,4,6,8,10,12,14,16,18,20,22,24,26,28,30,-1,-1,-1,-1,-1,-1,-1,-1,-1,-1,-1,-1,-1,-1,-1,-1],"split_conditions":[7.6406205E-1,2.0294197E0,-9.754682E-1,-1.80862E0,1.0209206E0,-9.7642136E-1,-2.330748E-1,-1.4607424E0,5.8785963E-1,-8.198994E-1,-7.1372116E-1,-5.817906E-2,5.4321136E2,1.5702601E-1,-1.4629121E0,-1.3071774E-1,6.1484437E-2,-1.6650703E-2,-2.0617738E-3,-9.386944E-2,7.111109E-2,-2.3199871E-2,1.2849765E-1,-1.1870678E-1,3.1470634E-2,1.1360186E-1,-3.0393371E-2,1.832935E-2,-6.521404E-2,5.713837E-3,3.4761656E-2],"split_indices":[131,99,55,124,76,55,58,66,131,120,71,44,10,132,66,0,0,0,0,0,0,0,0,0,0,0,0,0,0,0,0],"split_type":[0,0,0,0,0,0,0,0,0,0,0,0,0,0,0,0,0,0,0,0,0,0,0,0,0,0,0,0,0,0,0],"sum_hessian":[3.200751E3,2.1804382E3,1.02031274E3,2.1545637E3,2.58747E1,3.2878876E2,6.91524E2,1.1043846E1,2.1435198E3,7.831127E0,1.8043573E1,3.023633E2,2.6425432E1,8.8206085E1,6.0331793E2,9.824099E0,1.2197477E0,7.0574445E2,1.4377754E3,3.927E0,3.9041271E0,3.7073793E0,1.4336195E1,2.9581485E0,2.9940515E2,2.432831E1,2.0971208E0,3.7091534E1,5.1114548E1,3.8179703E2,2.2152087E2],"tree_param":{"num_deleted":"0","num_feature":"133","num_nodes":"31","size_leaf_vector":"1"}},{"base_weights":[5.7776533E-3,-1.4495994E-1,1.1243533E-1,4.986351E-1,-1.5739572E-1,8.232023E-1,1.01121105E-1,-9.975677E-2,1.0589937E0,-8.159633E-1,-1.485267E-1,-7.9129046E-1,1.008283E0,1.467586E-1,-1.1024351E-1,-9.480762E-2,4.4633057E-2,-3.658649E-2,1.3825123E-1,-1.26563655E-2,-1.4491974E-1,-7.714122E-3,-2.3121294E-2,3.934263E-2,-1.5110186E-1,3.674071E-2,1.2589306E-1,9.027996E-3,2.9610226E-2,-2.7866973E-2,8.686409E-3],"categories":[],"categories_nodes":[],"categories_segments":[],"categories_sizes":[],"default_left":[0,0,0,0,0,0,0,0,0,0,0,0,0,0,0,0,0,0,0,0,0,0,0,0,0,0,0,0,0,0,0],"id":17,"left_children":[1,3,5,7,9,11,13,15,17,19,21,23,25,27,29,-1,-1,-1,-1,-1,-1,-1,-1,-1,-1,-1,-1,-1,-1,-1,-1],"loss_changes":[5.136138E1,1.0673597E1,1.4961649E1,8.60044E0,7.4687614E0,9.515369E0,1.7790827E1,6.5219617E0,6.5762033E0,7.257575E0,7.5576344E0,3.6306307E0,3.8124523E0,1.2759319E1,1.0906046E1,0E0,0E0,0E0,0E0,0E0,0E0,0E0,0E0,0E0,0E0,0E0,0E0,0E0,0E0,0E0,0E0],"parents":[2147483647,0,0,1,1,2,2,3,3,4,4,5,5,6,6,7,7,8,8,9,9,10,10,11,11,12,12,13,13,14,14],"right_children":[2,4,6,8,10,12,14,16,18,20,22,24,26,28,30,-1,-1,-1,-1,-1,-1,-1,-1,-1,-1,-1,-1,-1,-1,-1,-1],"split_conditions":[6.5999824E-1,1.1661605E0,-1.0135581E-1,-5.3072196E-1,-1.4652525E0,-3.4871686E-1,2.3990816E2,-6.673739E-1,2.632975E-1,1.3392433E0,-5.7107365E-1,7.145089E-2,-6.249747E-1,8.320174E-1,-9.87533E-2,-9.480762E-2,4.4633057E-2,-3.658649E-2,1.3825123E-1,-1.26563655E-2,-1.4491974E-1,-7.714122E-3,-2.3121294E-2,3.934263E-2,-1.5110186E-1,3.674071E-2,1.2589306E-1,9.027996E-3,2.9610226E-2,-2.7866973E-2,8.686409E-3],"split_indices":[131,81,46,100,66,85,8,62,83,54,103,82,74,131,46,0,0,0,0,0,0,0,0,0,0,0,0,0,0,0,0],"split_type":[0,0,0,0,0,0,0,0,0,0,0,0,0,0,0,0,0,0,0,0,0,0,0,0,0,0,0,0,0,0,0],"sum_hessian":[3.192634E3,1.3227928E3,1.8698411E3,2.4333855E1,1.298459E3,2.8174006E1,1.8416671E3,1.2165075E1,1.2168778E1,1.604494E1,1.2824141E3,2.5607479E0,2.5613258E1,1.514882E3,3.2678513E2,4.4758854E0,7.68919E0,2.2274828E0,9.941296E0,8.256254E0,7.788687E0,6.8927527E2,5.931388E2,1.1390951E0,1.4216527E0,7.8943024E0,1.7718956E1,1.1003552E3,4.145268E2,1.7598993E2,1.507952E2],"tree_param":{"num_deleted":"0","num_feature":"133","num_nodes":"31","size_leaf_vector":"1"}},{"base_weights":[-1.0241703E-2,-1.5056336E-1,9.052252E-2,-3.196424E-2,-2.0469657E-1,5.1052723E-2,3.3998814E-1,-3.084389E-1,1.17756866E-1,-1.8353662E-1,-7.127062E-1,2.6248844E-4,1.7565553E-1,6.133349E-1,2.300391E-1,-5.833612E-2,2.2321371E-3,3.0366654E-2,-1.2653626E-2,-2.4250323E-2,6.2478986E-4,-1.2977684E-1,-3.6041986E-2,7.4166306E-3,-3.0762529E-2,-1.670543E-2,2.8597279E-2,6.729477E-2,-1.0115095E-1,-4.853917E-3,4.9865134E-2],"categories":[],"categories_nodes":[],"categories_segments":[],"categories_sizes":[],"default_left":[0,0,0,0,0,0,0,0,0,0,0,0,0,0,0,0,0,0,0,0,0,0,0,0,0,0,0,0,0,0,0],"id":18,"left_children":[1,3,5,7,9,11,13,15,17,19,21,23,25,27,29,-1,-1,-1,-1,-1,-1,-1,-1,-1,-1,-1,-1,-1,-1,-1,-1],"loss_changes":[4.5550358E1,8.637796E0,1.8445715E1,1.7552237E1,9.804783E0,1.0253212E1,7.5519485E0,1.3555505E1,1.2538061E1,9.946636E0,7.0784836E0,2.6235186E1,1.7785183E1,7.73472E0,1.3803783E1,0E0,0E0,0E0,0E0,0E0,0E0,0E0,0E0,0E0,0E0,0E0,0E0,0E0,0E0,0E0,0E0],"parents":[2147483647,0,0,1,1,2,2,3,3,4,4,5,5,6,6,7,7,8,8,9,9,10,10,11,11,12,12,13,13,14,14],"right_children":[2,4,6,8,10,12,14,16,18,20,22,24,26,28,30,-1,-1,-1,-1,-1,-1,-1,-1,-1,-1,-1,-1,-1,-1,-1,-1],"split_conditions":[6.5999824E-1,-1.1811836E0,8.7130857E-1,-2.4927779E-1,8.3166707E-1,-1.2205883E0,5E-1,1.7980598E0,2.3918831E2,3.0292015E-4,-1.7688726E0,9.5171523E-1,3.7402984E-1,3.275E1,5.272968E-1,-5.833612E-2,2.2321371E-3,3.0366654E-2,-1.2653626E-2,-2.4250323E-2,6.2478986E-4,-1.2977684E-1,-3.6041986E-2,7.4166306E-3,-3.0762529E-2,-1.670543E-2,2.8597279E-2,6.729477E-2,-1.0115095E-1,-4.853917E-3,4.9865134E-2],"split_indices":[131,123,131,107,25,59,24,49,10,31,124,61,47,19,23,0,0,0,0,0,0,0,0,0,0,0,0,0,0,0,0],"split_type":[0,0,0,0,0,0,0,0,0,0,0,0,0,0,0,0,0,0,0,0,0,0,0,0,0,0,0,0,0,0,0],"sum_hessian":[3.2195552E3,1.3454384E3,1.874117E3,4.2215018E2,9.2328815E2,1.6191448E3,2.5497217E2,1.479275E2,2.742227E2,8.876754E2,3.561273E1,1.1509855E3,4.6815927E2,7.182589E1,1.8314629E2,8.0365425E1,6.756207E1,1.5558092E2,1.1864178E2,6.770395E2,2.1063594E2,1.2375756E1,2.3236975E1,9.288002E2,2.2218533E2,1.1387687E2,3.542824E2,6.984908E1,1.976807E0,9.0307495E1,9.283879E1],"tree_param":{"num_deleted":"0","num_feature":"133","num_nodes":"31","size_leaf_vector":"1"}},{"base_weights":[9.530024E-3,-5.0599158E-2,2.2670291E-1,5.746389E-1,-5.8701646E-2,4.6725795E-1,1.4265941E-1,-5.9504676E-1,8.631148E-1,1.15498915E-1,-8.3413176E-2,-6.892771E-1,4.975404E-1,2.8163211E-2,3.890673E-1,-1.2527926E-1,5.4826677E-2,1.3074881E-2,1.13590576E-1,-7.263949E-2,1.6871585E-2,2.521419E-2,-9.767193E-3,-1.7308454E-1,3.5375535E-2,6.0663443E-2,2.0168073E-2,-2.7758786E-2,1.4468602E-2,7.1674794E-2,1.2078929E-2],"categories":[],"categories_nodes":[],"categories_segments":[],"categories_sizes":[],"default_left":[0,0,0,0,0,0,0,0,0,0,0,0,0,0,0,0,0,0,0,0,0,0,0,0,0,0,0,0,0,0,0],"id":19,"left_children":[1,3,5,7,9,11,13,15,17,19,21,23,25,27,29,-1,-1,-1,-1,-1,-1,-1,-1,-1,-1,-1,-1,-1,-1,-1,-1],"loss_changes":[4.172533E1,1.2711645E1,1.3940647E1,1.1347852E1,1.0648632E1,6.610214E0,1.4515693E1,5.9089136E0,5.078684E0,1.3897498E1,1.0383246E1,6.0281873E0,5.524864E0,1.2603102E1,1.42665825E1,0E0,0E0,0E0,0E0,0E0,0E0,0E0,0E0,0E0,0E0,0E0,0E0,0E0,0E0,0E0,0E0],"parents":[2147483647,0,0,1,1,2,2,3,3,4,4,5,5,6,6,7,7,8,8,9,9,10,10,11,11,12,12,13,13,14,14],"right_children":[2,4,6,8,10,12,14,16,18,20,22,24,26,28,30,-1,-1,-1,-1,-1,-1,-1,-1,-1,-1,-1,-1,-1,-1,-1,-1],"split_conditions":[8.0588806E-1,-1.01540916E-1,5E-1,5.8204126E-1,-9.4853646E-1,2.9120007E-1,1E0,9.8858607E-1,-1.0667952E0,-9.985172E-2,4.747877E-1,4.969121E-1,3.5198727E-1,-1.8471626E0,-4.8794198E-1,-1.2527926E-1,5.4826677E-2,1.3074881E-2,1.13590576E-1,-7.263949E-2,1.6871585E-2,2.521419E-2,-9.767193E-3,-1.7308454E-1,3.5375535E-2,6.0663443E-2,2.0168073E-2,-2.7758786E-2,1.4468602E-2,7.1674794E-2,1.2078929E-2],"split_indices":[131,46,24,131,1,93,24,94,65,46,60,115,25,87,100,0,0,0,0,0,0,0,0,0,0,0,0,0,0,0,0],"split_type":[0,0,0,0,0,0,0,0,0,0,0,0,0,0,0,0,0,0,0,0,0,0,0,0,0,0,0,0,0,0,0],"sum_hessian":[3.1934016E3,2.5015566E3,6.91845E2,3.1108536E1,2.470448E3,1.7794862E2,5.138963E2,5.9441237E0,2.5164413E1,3.0645584E2,2.1639922E3,3.9852202E0,1.7396341E2,3.516244E2,1.6227193E2,3.7125473E0,2.2315764E0,7.2308755E0,1.7933537E1,1.7467627E1,2.8898822E2,8.7526436E1,2.0764658E3,1.6640601E0,2.32116E0,1.2633045E2,4.7632954E1,9.664628E1,2.5497812E2,7.229616E1,8.997578E1],"tree_param":{"num_deleted":"0","num_feature":"133","num_nodes":"31","size_leaf_vector":"1"}},{"base_weights":[-2.394773E-2,-1.2787743E-1,5.2581646E-2,-2.6389962E-1,-7.030431E-2,2.0476557E-2,2.4265073E-1,1.2156137E-1,-2.7802578E-1,-5.134476E-3,-2.531873E-1,4.4361483E-2,-3.424269E-1,6.7985284E-1,1.4634581E-1,1.0222229E-2,-3.358804E-2,-3.9923783E-2,4.275094E-3,7.818612E-2,-2.9491743E-2,-8.1133805E-2,5.2660895E-3,-1.1173495E-1,-1.6739016E-2,-5.4182023E-2,7.718929E-2,2.7790982E-2,-2.4514403E-2],"categories":[],"categories_nodes":[],"categories_segments":[],"categories_sizes":[],"default_left":[0,0,0,0,0,0,0,0,0,0,0,0,0,0,0,0,0,0,0,0,0,0,0,0,0,0,0,0,0],"id":20,"left_children":[1,3,5,7,9,11,13,-1,15,17,19,21,23,25,27,-1,-1,-1,-1,-1,-1,-1,-1,-1,-1,-1,-1,-1,-1],"loss_changes":[2.533634E1,1.0560177E1,1.11913395E1,8.72636E0,1.1326931E1,1.3630404E1,1.106013E1,0E0,8.798332E0,1.3260994E1,1.1015566E1,1.0515374E1,1.2985237E1,5.7670918E0,1.1320887E1,0E0,0E0,0E0,0E0,0E0,0E0,0E0,0E0,0E0,0E0,0E0,0E0,0E0,0E0],"parents":[2147483647,0,0,1,1,2,2,3,3,4,4,5,5,6,6,8,8,9,9,10,10,11,11,12,12,13,13,14,14],"right_children":[2,4,6,8,10,12,14,-1,16,18,20,22,24,26,28,-1,-1,-1,-1,-1,-1,-1,-1,-1,-1,-1,-1,-1,-1],"split_conditions":[6.616837E-1,4.2564106E-1,8.679265E-1,8.341106E-1,6.7649543E-1,-3.2971045E-1,-1.1880805E0,1.2156137E-1,-1.5695274E0,1.9845857E-1,9.022122E-1,1.8440706E-1,2.4166667E0,-8.6296546E-1,2.2170793E2,1.0222229E-2,-3.358804E-2,-3.9923783E-2,4.275094E-3,7.818612E-2,-2.9491743E-2,-8.1133805E-2,5.2660895E-3,-1.1173495E-1,-1.6739016E-2,-5.4182023E-2,7.718929E-2,2.7790982E-2,-2.4514403E-2],"split_indices":[131,23,131,101,23,100,123,0,117,27,101,20,22,120,10,0,0,0,0,0,0,0,0,0,0,0,0,0,0],"split_type":[0,0,0,0,0,0,0,0,0,0,0,0,0,0,0,0,0,0,0,0,0,0,0,0,0,0,0,0,0],"sum_hessian":[3.183643E3,1.34984E3,1.8338031E3,4.0036176E2,9.494782E2,1.5697587E3,2.6404446E2,2.9820328E0,3.9737973E2,7.0078394E2,2.486943E2,1.4736466E3,9.611205E1,4.656965E1,2.1747482E2,5.237558E1,3.4500415E2,7.512855E1,6.256554E2,8.950698E0,2.397436E2,1.32261305E1,1.4604205E3,1.6717379E1,7.939468E1,2.920342E0,4.3649307E1,1.6299042E2,5.4484413E1],"tree_param":{"num_deleted":"0","num_feature":"133","num_nodes":"29","size_leaf_vector":"1"}},{"base_weights":[3.730577E-3,-3.2097152E-3,5.6447494E-1,7.824089E-3,-4.54002E-1,-1.4309405E-2,9.5514166E-1,2.0969132E-1,-1.531262E-2,4.2902806E-1,-7.166657E-1,4.3239906E-1,-1.1883386E0,1.1925846E0,-3.9464498E-1,3.2366198E-2,-1.2516009E-2,-2.5971184E-2,8.0388556E-5,-1.06298566E-1,8.116177E-2,-8.553593E-2,1.871481E-2,1.2535812E-1,-1.837281E-2,-1.938224E-2,-1.5399666E-1,1.3530432E-1,-7.123607E-2,6.066502E-2,-1.1667029E-1],"categories":[],"categories_nodes":[],"categories_segments":[],"categories_sizes":[],"default_left":[0,0,0,0,0,0,0,0,0,0,0,0,0,0,0,0,0,0,0,0,0,0,0,0,0,0,0,0,0,0,0],"id":21,"left_children":[1,3,5,7,9,11,13,15,17,19,21,23,25,27,29,-1,-1,-1,-1,-1,-1,-1,-1,-1,-1,-1,-1,-1,-1,-1,-1],"loss_changes":[1.2353793E1,1.5602353E1,8.788747E0,1.430513E1,1.7689877E1,9.2323885E0,7.9011745E0,1.2059759E1,1.0825027E1,1.1027616E1,7.4476547E0,6.694091E0,1.3971324E0,7.0663624E0,3.9698114E0,0E0,0E0,0E0,0E0,0E0,0E0,0E0,0E0,0E0,0E0,0E0,0E0,0E0,0E0,0E0,0E0],"parents":[2147483647,0,0,1,1,2,2,3,3,4,4,5,5,6,6,7,7,8,8,9,9,10,10,11,11,12,12,13,13,14,14],"right_children":[2,4,6,8,10,12,14,16,18,20,22,24,26,28,30,-1,-1,-1,-1,-1,-1,-1,-1,-1,-1,-1,-1,-1,-1,-1,-1],"split_conditions":[1.1058064E0,5.1216424E-1,-2.3416227E-1,2.5164837E-1,1.487329E0,2.0924506E-1,-4.3315347E-3,1E0,2.8580368E-1,4.4025156E-1,1.3397312E0,-6.3670444E-1,-1.7885756E0,8.52498E-4,4.8223206E-1,3.2366198E-2,-1.2516009E-2,-2.5971184E-2,8.0388556E-5,-1.06298566E-1,8.116177E-2,-8.553593E-2,1.871481E-2,1.2535812E-1,-1.837281E-2,-1.938224E-2,-1.5399666E-1,1.3530432E-1,-7.123607E-2,6.066502E-2,-1.1667029E-1],"split_indices":[41,39,58,25,119,63,69,26,23,23,54,71,124,32,60,0,0,0,0,0,0,0,0,0,0,0,0,0,0,0,0],"split_type":[0,0,0,0,0,0,0,0,0,0,0,0,0,0,0,0,0,0,0,0,0,0,0,0,0,0,0,0,0,0,0],"sum_hessian":[3.1729053E3,3.1350967E3,3.7808586E1,3.061153E3,7.394358E1,1.5624219E1,2.218437E1,3.139432E2,2.74721E3,1.6807222E1,5.713636E1,1.1775453E1,3.848766E0,1.8964722E1,3.2196472E0,2.3424765E2,7.969555E1,1.6901793E2,2.578192E3,3.0672474E0,1.3739975E1,4.9581505E1,7.554854E0,4.6042438E0,7.1712084E0,1.4105355E0,2.4382308E0,1.775859E1,1.2061307E0,1.4949993E0,1.724648E0],"tree_param":{"num_deleted":"0","num_feature":"133","num_nodes":"31","size_leaf_vector":"1"}},{"base_weights":[3.231514E-3,-1.8094212E-2,2.5331062E-1,-1.16964795E-1,1.40038E-2,3.1363377E-1,-4.8924252E-1,2.6306394E-1,-1.4922072E-1,6.2686867E-1,3.3484956E-3,8.99136E-1,2.4974097E-1,6.984506E-3,-1.3502167E0,-2.6753912E-2,7.890018E-2,-7.006125E-2,-1.261879E-2,-9.050285E-2,7.532928E-2,2.5817547E-2,-1.4768421E-3,-1.3822823E-2,1.03994265E-1,-5.548036E-2,3.092268E-2,-4.185264E-2,8.397927E-2,-1.7596279E-1,3.8074665E-3],"categories":[],"categories_nodes":[],"categories_segments":[],"categories_sizes":[],"default_left":[0,0,0,0,0,0,0,0,0,0,0,0,0,0,0,0,0,0,0,0,0,0,0,0,0,0,0,0,0,0,0],"id":22,"left_children":[1,3,5,7,9,11,13,15,17,19,21,23,25,27,29,-1,-1,-1,-1,-1,-1,-1,-1,-1,-1,-1,-1,-1,-1,-1,-1],"loss_changes":[1.6884298E1,9.259866E0,1.1296333E1,8.804909E0,1.438553E1,8.405127E0,8.161644E0,1.5924683E1,8.290843E0,7.972497E0,1.000621E1,3.4027882E0,1.0191814E1,4.9935203E0,4.0352707E0,0E0,0E0,0E0,0E0,0E0,0E0,0E0,0E0,0E0,0E0,0E0,0E0,0E0,0E0,0E0,0E0],"parents":[2147483647,0,0,1,1,2,2,3,3,4,4,5,5,6,6,7,7,8,8,9,9,10,10,11,11,12,12,13,13,14,14],"right_children":[2,4,6,8,10,12,14,16,18,20,22,24,26,28,30,-1,-1,-1,-1,-1,-1,-1,-1,-1,-1,-1,-1,-1,-1,-1,-1],"split_conditions":[8.6967623E-1,5.8785963E-1,2.17E1,-1.2028818E0,-1.0135581E-1,1.0717044E0,1.3393202E0,-6.429767E-1,-7.134838E-1,3.0186704E-1,1.1003222E0,-1.6095609E-4,4.6805274E-2,1.7484737E-3,6.423918E-1,-2.6753912E-2,7.890018E-2,-7.006125E-2,-1.261879E-2,-9.050285E-2,7.532928E-2,2.5817547E-2,-1.4768421E-3,-1.3822823E-2,1.03994265E-1,-5.548036E-2,3.092268E-2,-4.185264E-2,8.397927E-2,-1.7596279E-1,3.8074665E-3],"split_indices":[131,131,19,123,46,114,54,103,103,20,41,14,80,14,90,0,0,0,0,0,0,0,0,0,0,0,0,0,0,0,0],"split_type":[0,0,0,0,0,0,0,0,0,0,0,0,0,0,0,0,0,0,0,0,0,0,0,0,0,0,0,0,0,0,0],"sum_hessian":[3.164074E3,2.9163105E3,2.477634E2,7.140865E2,2.202224E3,2.2968224E2,1.8081171E1,5.5308163E1,6.587783E2,3.6645416E1,2.1655786E3,2.1311827E1,2.083704E2,1.2099467E1,5.981704E0,2.7776543E1,2.7531618E1,2.5235579E1,6.335427E2,2.3241942E0,3.432122E1,1.4286287E2,2.0227158E3,2.5492258E0,1.87626E1,1.3772391E1,1.94598E2,8.337168E0,3.7622998E0,4.4128613E0,1.5688428E0],"tree_param":{"num_deleted":"0","num_feature":"133","num_nodes":"31","size_leaf_vector":"1"}},{"base_weights":[1.163664E-3,-4.3946616E-2,1.13606274E-1,-3.648059E-1,-1.0616133E-2,5.118401E-1,7.9677865E-2,-9.350883E-2,-5.996116E-1,-6.2417453E-3,-1.3237177E0,5.827594E-1,-1.2613522E-1,4.140801E-1,3.4050222E-2,-2.5656253E-2,8.808749E-2,1.2759308E-3,-7.940676E-2,-2.3123292E-2,1.9549862E-3,3.448647E-2,-1.6856994E-1,-4.8591774E-2,7.077877E-2,6.25798E-2,1.3488397E-3,-5.8167567E-3,2.3052169E-2],"categories":[],"categories_nodes":[],"categories_segments":[],"categories_sizes":[],"default_left":[0,0,0,0,0,0,0,0,0,0,0,0,0,0,0,0,0,0,0,0,0,0,0,0,0,0,0,0,0],"id":23,"left_children":[1,3,5,7,9,11,13,15,17,19,21,23,-1,25,27,-1,-1,-1,-1,-1,-1,-1,-1,-1,-1,-1,-1,-1,-1],"loss_changes":[1.6110973E1,2.423875E1,1.2246751E1,1.3530872E1,1.1793189E1,9.690304E0,1.2790468E1,1.6135895E1,1.3602905E1,1.1893165E1,4.6987724E0,9.584461E0,0E0,8.529465E0,1.3412449E1,0E0,0E0,0E0,0E0,0E0,0E0,0E0,0E0,0E0,0E0,0E0,0E0,0E0,0E0],"parents":[2147483647,0,0,1,1,2,2,3,3,4,4,5,5,6,6,7,7,8,8,9,9,10,10,11,11,13,13,14,14],"right_children":[2,4,6,8,10,12,14,16,18,20,22,24,-1,26,28,-1,-1,-1,-1,-1,-1,-1,-1,-1,-1,-1,-1,-1,-1],"split_conditions":[-1.2206612E0,8.45717E-1,2.4795945E-1,1.6435829E0,-1.5729508E0,1.2762421E3,-6.69123E-1,1.5689656E0,1.092003E-1,2.4166667E0,1.4631887E-1,-2.232302E-1,-1.2613522E-1,-7.788605E-2,7.72034E-1,-2.5656253E-2,8.808749E-2,1.2759308E-3,-7.940676E-2,-2.3123292E-2,1.9549862E-3,3.448647E-2,-1.6856994E-1,-4.8591774E-2,7.077877E-2,6.25798E-2,1.3488397E-3,-5.8167567E-3,2.3052169E-2],"split_indices":[59,43,25,119,89,11,62,34,132,22,80,121,0,91,131,0,0,0,0,0,0,0,0,0,0,0,0,0,0],"split_type":[0,0,0,0,0,0,0,0,0,0,0,0,0,0,0,0,0,0,0,0,0,0,0,0,0,0,0,0,0],"sum_hessian":[3.1742703E3,2.2658533E3,9.08417E2,2.1228876E2,2.0535645E3,7.02126E1,8.382044E2,9.913978E1,1.1314897E2,2.0477474E3,5.8169894E0,6.815795E1,2.0546463E0,9.966805E1,7.385364E2,8.5559E1,1.358078E1,2.7495613E1,8.565336E1,2.0978017E2,1.8379673E3,1.0454042E0,4.7715855E0,6.8365145E0,6.1321438E1,6.483809E1,3.4829964E1,5.0310022E2,2.3543616E2],"tree_param":{"num_deleted":"0","num_feature":"133","num_nodes":"29","size_leaf_vector":"1"}},{"base_weights":[3.208618E-3,-7.376722E-1,8.697126E-3,-1.3860481E0,-1.00327894E-1,-2.8912676E-2,1.0370321E-1,-1.7416707E0,-2.2875827E-2,4.6438488E-1,-8.9093006E-1,2.2649767E-2,-2.2450294E-1,-2.2286841E-1,1.83071E-1,-3.0358762E-2,-1.913778E-1,-9.919662E-2,9.8746315E-2,9.871076E-2,-6.608393E-2,-1.3491422E-1,6.9445907E-3,-5.00624E-2,3.645492E-3,-2.8403556E-2,2.8865566E-2,6.030273E-2,-2.959511E-2,2.2053583E-2,-4.6287667E-2],"categories":[],"categories_nodes":[],"categories_segments":[],"categories_sizes":[],"default_left":[0,0,0,0,0,0,0,0,0,0,0,0,0,0,0,0,0,0,0,0,0,0,0,0,0,0,0,0,0,0,0],"id":24,"left_children":[1,3,5,7,9,11,13,15,17,19,21,23,25,27,29,-1,-1,-1,-1,-1,-1,-1,-1,-1,-1,-1,-1,-1,-1,-1,-1],"loss_changes":[1.2883932E1,9.489208E0,1.1239031E1,5.521389E0,6.140854E0,2.2732384E1,2.3161179E1,1.6675606E0,4.2956243E0,5.4402447E0,2.59652E0,1.2907878E1,1.4447681E1,1.0732452E1,1.7481785E1,0E0,0E0,0E0,0E0,0E0,0E0,0E0,0E0,0E0,0E0,0E0,0E0,0E0,0E0,0E0,0E0],"parents":[2147483647,0,0,1,1,2,2,3,3,4,4,5,5,6,6,7,7,8,8,9,9,10,10,11,11,12,12,13,13,14,14],"right_children":[2,4,6,8,10,12,14,16,18,20,22,24,26,28,30,-1,-1,-1,-1,-1,-1,-1,-1,-1,-1,-1,-1,-1,-1,-1,-1],"split_conditions":[-1.9880133E0,-2.6863206E-2,-1.2205883E0,-9.637788E-2,1.366867E-4,-4.8605133E-2,3.7340558E-1,3.9165962E-1,4.078606E-1,1.1131996E0,-2.790295E-1,-1.4652525E0,4.8267272E-1,5.133701E-1,2.37E1,-3.0358762E-2,-1.913778E-1,-9.919662E-2,9.8746315E-2,9.871076E-2,-6.608393E-2,-1.3491422E-1,6.9445907E-3,-5.00624E-2,3.645492E-3,-2.8403556E-2,2.8865566E-2,6.030273E-2,-2.959511E-2,2.2053583E-2,-4.6287667E-2],"split_indices":[104,91,59,46,14,51,47,102,25,76,107,66,60,88,19,0,0,0,0,0,0,0,0,0,0,0,0,0,0,0,0],"split_type":[0,0,0,0,0,0,0,0,0,0,0,0,0,0,0,0,0,0,0,0,0,0,0,0,0,0,0,0,0,0,0],"sum_hessian":[3.165864E3,2.2299534E1,3.1435647E3,1.0471778E1,1.1827755E1,2.2525496E3,8.910151E2,8.084931E0,2.3868465E0,7.1402345E0,4.687521E0,1.7833092E3,4.6924036E2,1.738545E2,7.171605E2,1.1595963E0,6.9253354E0,1.2275745E0,1.1592722E0,4.9591894E0,2.1810448E0,2.899373E0,1.7881477E0,4.493202E1,1.7383772E3,4.2086176E2,4.8378574E1,1.354405E1,1.6031046E2,6.7846814E2,3.8692398E1],"tree_param":{"num_deleted":"0","num_feature":"133","num_nodes":"31","size_leaf_vector":"1"}},{"base_weights":[-1.6531746E-3,-7.897391E-2,6.554089E-2,-3.195683E-1,-4.965445E-2,4.9302142E-2,4.9032518E-1,-8.9874065E-1,-2.1665327E-1,1.2549745E-1,-8.704902E-2,1.6025671E-1,-2.2399325E-2,6.722737E-1,-2.7284116E-1,-1.2468369E-1,-2.8120536E-2,1.1492749E-1,-2.6571682E-2,6.663296E-2,3.4786158E-3,8.915225E-3,-1.53802885E-2,-1.4065981E-2,2.1432607E-2,1.0584791E-2,-1.100279E-2,8.1107825E-2,-6.952083E-2,-6.7841046E-2,8.520227E-2],"categories":[],"categories_nodes":[],"categories_segments":[],"categories_sizes":[],"default_left":[0,0,0,0,0,0,0,0,0,0,0,0,0,0,0,0,0,0,0,0,0,0,0,0,0,0,0,0,0,0,0],"id":25,"left_children":[1,3,5,7,9,11,13,15,17,19,21,23,25,27,29,-1,-1,-1,-1,-1,-1,-1,-1,-1,-1,-1,-1,-1,-1,-1,-1],"loss_changes":[1.6458614E1,1.0374327E1,1.1667437E1,9.331049E0,8.618033E0,1.3000186E1,8.833774E0,4.7644863E0,9.487959E0,1.133951E1,1.2758043E1,1.0466068E1,1.1173725E1,1.0166964E1,6.373886E0,0E0,0E0,0E0,0E0,0E0,0E0,0E0,0E0,0E0,0E0,0E0,0E0,0E0,0E0,0E0,0E0],"parents":[2147483647,0,0,1,1,2,2,3,3,4,4,5,5,6,6,7,7,8,8,9,9,10,10,11,11,12,12,13,13,14,14],"right_children":[2,4,6,8,10,12,14,16,18,20,22,24,26,28,30,-1,-1,-1,-1,-1,-1,-1,-1,-1,-1,-1,-1,-1,-1,-1,-1],"split_conditions":[6.756058E-1,-1.4639256E0,9.906382E-1,3.8882065E-1,9.0381706E-1,-4.658069E-1,0E0,-1.5472634E0,2.386876E1,-9.1997945E-1,-6.6312265E-1,2.75E0,3.9E1,7.199941E-1,-2.182731E-1,-1.2468369E-1,-2.8120536E-2,1.1492749E-1,-2.6571682E-2,6.663296E-2,3.4786158E-3,8.915225E-3,-1.53802885E-2,-1.4065981E-2,2.1432607E-2,1.0584791E-2,-1.100279E-2,8.1107825E-2,-6.952083E-2,-6.7841046E-2,8.520227E-2],"split_indices":[131,66,0,78,76,79,13,117,8,1,0,22,9,23,107,0,0,0,0,0,0,0,0,0,0,0,0,0,0,0,0],"split_type":[0,0,0,0,0,0,0,0,0,0,0,0,0,0,0,0,0,0,0,0,0,0,0,0,0,0,0,0,0,0,0],"sum_hessian":[3.165867E3,1.4719302E3,1.6939369E3,1.5881345E2,1.3131167E3,1.6326401E3,6.1296837E1,2.2795412E1,1.3601804E2,2.3060995E2,1.0825067E3,6.404066E2,9.922335E2,4.9592464E1,1.1704372E1,1.3926295E1,8.869117E0,3.9387624E0,1.3207927E2,3.2212044E1,1.9839792E2,2.9733517E2,7.851715E2,9.729903E1,5.4310754E2,4.0268427E2,5.8954926E2,4.53919E1,4.2005653E0,8.894397E0,2.809976E0],"tree_param":{"num_deleted":"0","num_feature":"133","num_nodes":"31","size_leaf_vector":"1"}},{"base_weights":[-5.5345846E-3,-5.510744E-2,9.0146616E-2,-2.150521E-1,-2.5457468E-2,3.2964024E-1,5.70464E-2,-2.694706E-1,4.3684313E-1,-1.6900098E-2,-6.718685E-1,-3.9352E-1,4.351987E-1,8.2729466E-2,-3.8015404E-1,7.7843512E-3,-3.4663197E-2,-7.882516E-2,8.6331755E-2,5.5666167E-2,-2.831403E-3,-9.0064086E-2,6.760812E-2,-1.1949628E-1,2.6118813E-2,1.0291467E-2,6.2094774E-2,-6.7568445E-3,1.7415114E-2,-1.4231658E-1,-2.0969903E-2],"categories":[],"categories_nodes":[],"categories_segments":[],"categories_sizes":[],"default_left":[0,0,0,0,0,0,0,0,0,0,0,0,0,0,0,0,0,0,0,0,0,0,0,0,0,0,0,0,0,0,0],"id":26,"left_children":[1,3,5,7,9,11,13,15,17,19,21,23,25,27,29,-1,-1,-1,-1,-1,-1,-1,-1,-1,-1,-1,-1,-1,-1,-1,-1],"loss_changes":[1.4983233E1,9.862156E0,8.527616E0,1.1656559E1,9.70475E0,1.0148421E1,1.0680698E1,8.088823E0,1.3973152E1,1.1371197E1,7.677805E0,9.323117E0,7.004923E0,1.2331476E1,9.08881E0,0E0,0E0,0E0,0E0,0E0,0E0,0E0,0E0,0E0,0E0,0E0,0E0,0E0,0E0,0E0,0E0],"parents":[2147483647,0,0,1,1,2,2,3,3,4,4,5,5,6,6,7,7,8,8,9,9,10,10,11,11,12,12,13,13,14,14],"right_children":[2,4,6,8,10,12,14,16,18,20,22,24,26,28,30,-1,-1,-1,-1,-1,-1,-1,-1,-1,-1,-1,-1,-1,-1,-1,-1],"split_conditions":[7.51135E-1,9.9244934E-1,-1.1952248E0,-1.8994287E-1,5.64648E2,-9.459548E-1,7.385156E-4,-5.267502E-1,4.890941E-1,3.9874446E-1,-9.2415714E-1,4.6373713E-1,7.986037E-1,-1.4629741E0,1.0331384E-1,7.7843512E-3,-3.4663197E-2,-7.882516E-2,8.6331755E-2,5.5666167E-2,-2.831403E-3,-9.0064086E-2,6.760812E-2,-1.1949628E-1,2.6118813E-2,1.0291467E-2,6.2094774E-2,-6.7568445E-3,1.7415114E-2,-1.4231658E-1,-2.0969903E-2],"split_indices":[131,77,123,106,9,0,30,100,23,90,97,20,131,66,27,0,0,0,0,0,0,0,0,0,0,0,0,0,0,0,0],"split_type":[0,0,0,0,0,0,0,0,0,0,0,0,0,0,0,0,0,0,0,0,0,0,0,0,0,0,0,0,0,0,0],"sum_hessian":[3.156846E3,2.0797449E3,1.0771011E3,3.242654E2,1.7554796E3,1.2970117E2,9.4739984E2,2.9982355E2,2.4441847E1,1.7335564E3,2.192316E1,1.6173275E1,1.1352789E2,8.955992E2,5.1800648E1,5.450048E1,2.4532307E2,6.0924153E0,1.8349432E1,3.2892727E1,1.7006637E3,1.9025944E1,2.8972158E0,6.9007406E0,9.272534E0,4.1264465E1,7.226343E1,3.3882663E2,5.567726E2,6.2440677E0,4.555658E1],"tree_param":{"num_deleted":"0","num_feature":"133","num_nodes":"31","size_leaf_vector":"1"}},{"base_weights":[-4.8640547E-3,-5.134914E-2,6.726535E-2,-3.760705E-2,-4.073092E-1,-5.0258037E-2,1.5101694E-1,-4.2680956E-2,9.4910717E-1,7.411134E-2,-6.786984E-1,-1.2447551E-1,4.7272232E-1,1.8764369E-1,-3.3571294E-1,-5.0605424E-3,5.356456E-2,1.3997898E-1,1.7339619E-2,-5.6376483E-2,5.365158E-2,1.09742045E-1,-7.596003E-2,7.641994E-2,-1.6774531E-2,-2.4728158E-2,7.042844E-2,-2.5263716E-2,2.214743E-2,-7.2397135E-2,1.9541213E-2],"categories":[],"categories_nodes":[],"categories_segments":[],"categories_sizes":[],"default_left":[0,0,0,0,0,0,0,0,0,0,0,0,0,0,0,0,0,0,0,0,0,0,0,0,0,0,0,0,0,0,0],"id":27,"left_children":[1,3,5,7,9,11,13,15,17,19,21,23,25,27,29,-1,-1,-1,-1,-1,-1,-1,-1,-1,-1,-1,-1,-1,-1,-1,-1],"loss_changes":[1.0647729E1,9.430647E0,1.2257546E1,9.354426E0,9.415009E0,2.0188702E1,1.3022469E1,8.513813E0,3.0996332E0,8.189928E0,7.4341297E0,1.762265E1,1.0954721E1,1.0135536E1,1.0706464E1,0E0,0E0,0E0,0E0,0E0,0E0,0E0,0E0,0E0,0E0,0E0,0E0,0E0,0E0,0E0,0E0],"parents":[2147483647,0,0,1,1,2,2,3,3,4,4,5,5,6,6,7,7,8,8,9,9,10,10,11,11,12,12,13,13,14,14],"right_children":[2,4,6,8,10,12,14,16,18,20,22,24,26,28,30,-1,-1,-1,-1,-1,-1,-1,-1,-1,-1,-1,-1,-1,-1,-1,-1],"split_conditions":[7.300231E-1,4.385503E2,-3.621252E-1,-4.316509E-2,-1.0666971E0,7.8652966E-1,9.9E0,2.0294197E0,5.6026375E-1,3.3161688E-1,-3.2318228E-1,2.955764E-1,-5.9428304E-1,2.25E0,-1.1585999E0,-5.0605424E-3,5.356456E-2,1.3997898E-1,1.7339619E-2,-5.6376483E-2,5.365158E-2,1.09742045E-1,-7.596003E-2,7.641994E-2,-1.6774531E-2,-2.4728158E-2,7.042844E-2,-2.5263716E-2,2.214743E-2,-7.2397135E-2,1.9541213E-2],"split_indices":[131,8,0,44,65,25,18,99,20,110,107,34,1,22,57,0,0,0,0,0,0,0,0,0,0,0,0,0,0,0,0],"split_type":[0,0,0,0,0,0,0,0,0,0,0,0,0,0,0,0,0,0,0,0,0,0,0,0,0,0,0,0,0,0,0],"sum_hessian":[3.1736086E3,1.9300447E3,1.2435638E3,1.8593682E3,7.067655E1,5.1761993E2,7.2594385E2,1.8508076E3,8.560518E0,2.5741074E1,4.493548E1,4.539594E2,6.3660545E1,6.7571063E2,5.0233208E1,1.8266901E3,2.4117563E1,4.9057736E0,3.6547444E0,1.0725834E1,1.5015241E1,1.4102398E0,4.3525238E1,2.0303568E1,4.3365585E2,1.5475173E1,4.8185375E1,4.775438E1,6.279563E2,2.880982E1,2.142339E1],"tree_param":{"num_deleted":"0","num_feature":"133","num_nodes":"31","size_leaf_vector":"1"}},{"base_weights":[1.4962995E-2,4.248498E-3,2.8307575E-1,1.324464E-1,-2.4859827E-2,5.681544E-1,-1.07260354E-1,2.7656928E-1,-2.4178458E-2,5.60479E-1,-3.1145027E-2,6.3349915E-1,-1.5833811E-1,-1.016939E0,3.3178803E-1,1.4688927E-2,5.256132E-2,2.8986591E-4,-1.7569344E-1,-9.962626E-2,7.936873E-2,-1.1821323E-3,-3.0189067E-2,6.946266E-2,-8.936613E-2,-1.1704881E-2,-1.4994882E-1,6.905284E-2,-3.608073E-2],"categories":[],"categories_nodes":[],"categories_segments":[],"categories_sizes":[],"default_left":[0,0,0,0,0,0,0,0,0,0,0,0,0,0,0,0,0,0,0,0,0,0,0,0,0,0,0,0,0],"id":28,"left_children":[1,3,5,7,9,11,13,15,17,19,21,23,-1,25,27,-1,-1,-1,-1,-1,-1,-1,-1,-1,-1,-1,-1,-1,-1],"loss_changes":[9.020242E0,1.1275608E1,1.34877205E1,1.2627946E1,9.077389E0,1.0829235E1,2.1013937E1,9.329472E0,1.2619518E1,1.0307838E1,1.2748501E1,7.019594E0,0E0,7.2493877E0,9.112118E0,0E0,0E0,0E0,0E0,0E0,0E0,0E0,0E0,0E0,0E0,0E0,0E0,0E0,0E0],"parents":[2147483647,0,0,1,1,2,2,3,3,4,4,5,5,6,6,7,7,8,8,9,9,10,10,11,11,13,13,14,14],"right_children":[2,4,6,8,10,12,14,16,18,20,22,24,-1,26,28,-1,-1,-1,-1,-1,-1,-1,-1,-1,-1,-1,-1,-1,-1],"split_conditions":[9.9270886E-1,-1.1907004E0,-1.9751526E-4,5.906785E-1,9.289779E-1,-1.5796962E0,4.5726496E-1,1.7980736E0,1.7983276E0,9.06078E-1,-3.2971045E-1,-9.556337E-2,-1.5833811E-1,9.8010874E-1,6.458425E-1,1.4688927E-2,5.256132E-2,2.8986591E-4,-1.7569344E-1,-9.962626E-2,7.936873E-2,-1.1821323E-3,-3.0189067E-2,6.946266E-2,-8.936613E-2,-1.1704881E-2,-1.4994882E-1,6.905284E-2,-3.608073E-2],"split_indices":[0,123,13,23,114,87,27,49,49,76,100,46,0,101,23,0,0,0,0,0,0,0,0,0,0,0,0,0,0],"split_type":[0,0,0,0,0,0,0,0,0,0,0,0,0,0,0,0,0,0,0,0,0,0,0,0,0,0,0,0,0],"sum_hessian":[3.139413E3,3.0197515E3,1.19661446E2,5.5812524E2,2.4616262E3,6.889155E1,5.07699E1,2.9026434E2,2.678609E2,2.5214697E1,2.4364116E3,6.754566E1,1.3458849E0,1.6098553E1,3.467135E1,1.9191948E2,9.834485E1,2.6472253E2,3.1383915E0,2.8588638E0,2.2355833E1,2.2750781E3,1.613336E2,6.5470245E1,2.0754168E0,6.0530257E0,1.00455265E1,2.284264E1,1.182871E1],"tree_param":{"num_deleted":"0","num_feature":"133","num_nodes":"29","size_leaf_vector":"1"}},{"base_weights":[5.3764847E-3,-1.4623258E-2,2.3486252E-1,6.748989E-3,-1.831721E-1,6.919309E-1,1.634574E-1,-3.8048703E-2,9.60585E-2,-8.64806E-2,-5.142929E-1,4.4187687E-2,1.1132578E0,-8.967376E-1,2.0888682E-1,-5.3954106E-2,-1.978628E-3,8.414285E-3,1.3090394E-1,-6.2485556E-3,-1.6666691E-1,-8.757066E-2,-1.5206118E-2,-1.5584381E-1,4.5316663E-2,1.1582955E-1,1.2344726E-2,-1.7712407E-1,5.2241575E-2,5.6776833E-2,9.799709E-3],"categories":[],"categories_nodes":[],"categories_segments":[],"categories_sizes":[],"default_left":[0,0,0,0,0,0,0,0,0,0,0,0,0,0,0,0,0,0,0,0,0,0,0,0,0,0,0,0,0,0,0],"id":29,"left_children":[1,3,5,7,9,11,13,15,17,19,21,23,25,27,29,-1,-1,-1,-1,-1,-1,-1,-1,-1,-1,-1,-1,-1,-1,-1,-1],"loss_changes":[1.44807825E1,1.0456517E1,8.141541E0,1.0312931E1,1.0413767E1,9.192839E0,1.0786203E1,1.5711926E1,1.2334807E1,9.527663E0,9.505558E0,1.0136412E1,7.6984787E-1,1.238147E1,8.374287E0,0E0,0E0,0E0,0E0,0E0,0E0,0E0,0E0,0E0,0E0,0E0,0E0,0E0,0E0,0E0,0E0],"parents":[2147483647,0,0,1,1,2,2,3,3,4,4,5,5,6,6,7,7,8,8,9,9,10,10,11,11,12,12,13,13,14,14],"right_children":[2,4,6,8,10,12,14,16,18,20,22,24,26,28,30,-1,-1,-1,-1,-1,-1,-1,-1,-1,-1,-1,-1,-1,-1,-1,-1],"split_conditions":[8.679265E-1,7.199941E-1,-1.2626218E0,6.308811E-1,4.60563E-1,-3.098913E-1,-2.4471629E-1,2.5164142E-1,9.5671815E-1,1.7983167E0,5.7849437E-1,-2.0869663E0,-1.1560017E0,-5.5278385E-1,-9.0382487E-1,-5.3954106E-2,-1.978628E-3,8.414285E-3,1.3090394E-1,-6.2485556E-3,-1.6666691E-1,-8.757066E-2,-1.5206118E-2,-1.5584381E-1,4.5316663E-2,1.1582955E-1,1.2344726E-2,-1.7712407E-1,5.2241575E-2,5.6776833E-2,9.799709E-3],"split_indices":[131,23,97,75,67,92,69,20,61,49,20,95,57,36,118,0,0,0,0,0,0,0,0,0,0,0,0,0,0,0,0],"split_type":[0,0,0,0,0,0,0,0,0,0,0,0,0,0,0,0,0,0,0,0,0,0,0,0,0,0,0,0,0,0,0],"sum_hessian":[3.1533389E3,2.9014163E3,2.519226E2,2.5757654E3,3.2565094E2,3.2864544E1,2.1905806E2,1.7157289E3,8.6003644E2,2.5302545E2,7.2625496E1,1.3387552E1,1.9476992E1,8.230981E0,2.1082707E2,5.9281967E1,1.6564469E3,8.5272906E2,7.307369E0,2.5026474E2,2.7607083E0,3.564423E1,3.698127E1,2.1504066E0,1.1237145E1,1.8466522E1,1.0104694E0,4.939247E0,3.2917335E0,4.8793278E1,1.620338E2],"tree_param":{"num_deleted":"0","num_feature":"133","num_nodes":"31","size_leaf_vector":"1"}},{"base_weights":[9.83068E-3,-1.2840862E-2,1.8475242E-1,-6.311223E-2,6.900434E-2,3.496263E-1,-3.776115E-2,-2.636609E-1,-2.0304207E-2,2.3989101E-1,1.2629138E-2,2.0190991E-2,4.889393E-1,7.66438E-2,-7.0070595E-1,-5.27895E-3,-4.300209E-2,3.6167525E-2,-4.442088E-3,-2.0857694E-2,3.610721E-2,-8.1040315E-2,3.0170623E-3,-4.2813074E-2,2.6281882E-2,-5.6604624E-2,5.3300526E-2,1.3443586E-2,-1.2836623E-1,-1.22747175E-1,2.0703522E-2],"categories":[],"categories_nodes":[],"categories_segments":[],"categories_sizes":[],"default_left":[0,0,0,0,0,0,0,0,0,0,0,0,0,0,0,0,0,0,0,0,0,0,0,0,0,0,0,0,0,0,0],"id":30,"left_children":[1,3,5,7,9,11,13,15,17,19,21,23,25,27,29,-1,-1,-1,-1,-1,-1,-1,-1,-1,-1,-1,-1,-1,-1,-1,-1],"loss_changes":[1.251638E1,1.1501831E1,1.32983675E1,1.4860867E1,1.024507E1,9.54081E0,1.1811415E1,1.0660095E1,1.3171919E1,1.4413137E1,1.1587826E1,6.953504E0,7.098831E0,1.0637041E1,1.1210869E1,0E0,0E0,0E0,0E0,0E0,0E0,0E0,0E0,0E0,0E0,0E0,0E0,0E0,0E0,0E0,0E0],"parents":[2147483647,0,0,1,1,2,2,3,3,4,4,5,5,6,6,7,7,8,8,9,9,10,10,11,11,12,12,13,13,14,14],"right_children":[2,4,6,8,10,12,14,16,18,20,22,24,26,28,30,-1,-1,-1,-1,-1,-1,-1,-1,-1,-1,-1,-1,-1,-1,-1,-1],"split_conditions":[8.5043204E-1,-2.4433295E-1,-9.763367E-2,-6.084815E-1,2.7E0,-9.960224E-2,5.85E0,-1.10281095E-1,-2.194645E-4,-1.2046947E0,4.0523353E-1,1.1013548E0,-3.416075E-1,1.7982608E0,2.0916666E1,-5.27895E-3,-4.300209E-2,3.6167525E-2,-4.442088E-3,-2.0857694E-2,3.610721E-2,-8.1040315E-2,3.0170623E-3,-4.2813074E-2,2.6281882E-2,-5.6604624E-2,5.3300526E-2,1.3443586E-2,-1.2836623E-1,-1.22747175E-1,2.0703522E-2],"split_indices":[131,107,46,103,18,46,18,69,14,123,88,41,107,49,22,0,0,0,0,0,0,0,0,0,0,0,0,0,0,0,0],"split_type":[0,0,0,0,0,0,0,0,0,0,0,0,0,0,0,0,0,0,0,0,0,0,0,0,0,0,0,0,0,0,0],"sum_hessian":[3.1545251E3,2.7934001E3,3.6112497E2,1.7306318E3,1.0627683E3,2.0710039E2,1.5402458E2,3.0352182E2,1.42711E3,2.628257E2,7.9994257E2,6.1890945E1,1.4520944E2,1.3211055E2,2.1914043E1,1.3443483E2,1.6908699E2,8.391999E1,1.34319E3,5.575732E1,2.0706839E2,1.5750336E1,7.8419226E2,2.146461E1,4.0426334E1,5.347168E0,1.3986227E2,1.27591064E2,4.519483E0,1.36440935E1,8.269949E0],"tree_param":{"num_deleted":"0","num_feature":"133","num_nodes":"31","size_leaf_vector":"1"}},{"base_weights":[5.7445248E-3,3.3282373E-2,-1.17329516E-1,-3.9250648E-1,4.171997E-2,-9.8795956E-1,-8.4231175E-2,9.8681813E-1,-5.282011E-1,-2.423419E-2,9.751972E-2,-1.06199965E-1,-1.5141398E0,-1.3072518E-1,3.9225635E-1,1.2934679E-1,-8.449432E-3,4.9326718E-2,-7.6391935E-2,1.2764876E-2,-8.846045E-3,-4.2842533E-2,1.1167549E-2,4.100966E-2,-1.0972865E-1,-1.6044918E-2,-1.6734782E-1,-2.0288376E-2,2.2224372E-2,4.9343232E-2,-1.06428266E-1],"categories":[],"categories_nodes":[],"categories_segments":[],"categories_sizes":[],"default_left":[0,0,0,0,0,0,0,0,0,0,0,0,0,0,0,0,0,0,0,0,0,0,0,0,0,0,0,0,0,0,0],"id":31,"left_children":[1,3,5,7,9,11,13,15,17,19,21,23,25,27,29,-1,-1,-1,-1,-1,-1,-1,-1,-1,-1,-1,-1,-1,-1,-1,-1],"loss_changes":[1.0654218E1,9.244592E0,1.6479954E1,9.881144E0,9.275211E0,9.562853E0,1.2342762E1,1.6952763E0,1.149613E1,1.12835455E1,1.021115E1,5.008085E0,2.5462914E0,1.2939144E1,7.8308406E0,0E0,0E0,0E0,0E0,0E0,0E0,0E0,0E0,0E0,0E0,0E0,0E0,0E0,0E0,0E0,0E0],"parents":[2147483647,0,0,1,1,2,2,3,3,4,4,5,5,6,6,7,7,8,8,9,9,10,10,11,11,12,12,13,13,14,14],"right_children":[2,4,6,8,10,12,14,16,18,20,22,24,26,28,30,-1,-1,-1,-1,-1,-1,-1,-1,-1,-1,-1,-1,-1,-1,-1,-1],"split_conditions":[2.946905E2,-1.4652525E0,1.4701855E0,-2.3880346E-1,6.7405266E-1,8.8261825E-1,9.569287E-1,-3.521183E-2,-6.818273E-4,-2.5656947E-1,2.372888E-1,2.0146115E0,4.6337554E-1,4.437828E-1,8.9904475E-1,1.2934679E-1,-8.449432E-3,4.9326718E-2,-7.6391935E-2,1.2764876E-2,-8.846045E-3,-4.2842533E-2,1.1167549E-2,4.100966E-2,-1.0972865E-1,-1.6044918E-2,-1.6734782E-1,-2.0288376E-2,2.2224372E-2,4.9343232E-2,-1.06428266E-1],"split_indices":[10,66,119,129,131,94,61,69,13,85,20,99,25,78,73,0,0,0,0,0,0,0,0,0,0,0,0,0,0,0,0],"split_type":[0,0,0,0,0,0,0,0,0,0,0,0,0,0,0,0,0,0,0,0,0,0,0,0,0,0,0,0,0,0,0],"sum_hessian":[3.1414321E3,2.5676494E3,5.7378265E2,4.9008335E1,2.518641E3,1.9957756E1,5.538249E2,3.827703E0,4.5180634E1,1.1545511E3,1.36409E3,7.907836E0,1.204992E1,5.0525003E2,4.857489E1,2.814671E0,1.0130317E0,8.2663555E0,3.6914276E1,3.4283163E2,8.117195E2,3.4985073E1,1.3291049E3,5.584738E0,2.323098E0,1.4803429E0,1.0569577E1,4.1984494E2,8.5405075E1,4.603816E1,2.5367312E0],"tree_param":{"num_deleted":"0","num_feature":"133","num_nodes":"31","size_leaf_vector":"1"}},{"base_weights":[-3.8197858E-3,-2.9071906E-1,7.0943073E-3,8.760479E-1,-4.0799677E-1,5.657141E-1,6.1115535E-4,1.4835922E-1,1.8000877E-1,-2.7937424E-1,-1.1202047E0,1.5560298E-2,8.489658E-1,1.7586874E-2,-2.1054038E-1,-1.0637207E-1,7.7128276E-2,-5.216704E-2,1.2721784E-2,-1.3629864E-1,6.320538E-2,-9.6286714E-2,5.0262343E-2,-6.661406E-2,1.0374836E-1,-3.0336438E-2,3.0348778E-3,1.7498873E-2,-3.3978574E-2],"categories":[],"categories_nodes":[],"categories_segments":[],"categories_sizes":[],"default_left":[0,0,0,0,0,0,0,0,0,0,0,0,0,0,0,0,0,0,0,0,0,0,0,0,0,0,0,0,0],"id":32,"left_children":[1,3,5,7,9,11,13,-1,15,17,19,21,23,25,27,-1,-1,-1,-1,-1,-1,-1,-1,-1,-1,-1,-1,-1,-1],"loss_changes":[9.817977E0,1.6080835E1,1.0940271E1,4.305377E0,9.314323E0,5.387377E0,1.0711398E1,0E0,5.3632293E0,8.967291E0,7.559288E0,6.582663E0,7.2202034E0,1.1338169E1,1.1139649E1,0E0,0E0,0E0,0E0,0E0,0E0,0E0,0E0,0E0,0E0,0E0,0E0,0E0,0E0],"parents":[2147483647,0,0,1,1,2,2,3,3,4,4,5,5,6,6,8,8,9,9,10,10,11,11,12,12,13,13,14,14],"right_children":[2,4,6,8,10,12,14,-1,16,18,20,22,24,26,28,-1,-1,-1,-1,-1,-1,-1,-1,-1,-1,-1,-1,-1,-1],"split_conditions":[9.1267926E-1,4.988557E-1,-1.8646741E0,-2.2520791E-1,-1.7128471E0,1.2083333E1,3.3561078E2,1.4835922E-1,1.4E1,9.9E1,9.679859E-4,-6.691306E-1,4.156272E-1,-1.994129E-3,-9.8116267E-1,-1.0637207E-1,7.7128276E-2,-5.216704E-2,1.2721784E-2,-1.3629864E-1,6.320538E-2,-9.6286714E-2,5.0262343E-2,-6.661406E-2,1.0374836E-1,-3.0336438E-2,3.0348778E-3,1.7498873E-2,-3.3978574E-2],"split_indices":[77,39,98,92,87,22,8,0,9,9,12,1,132,13,55,0,0,0,0,0,0,0,0,0,0,0,0,0,0],"split_type":[0,0,0,0,0,0,0,0,0,0,0,0,0,0,0,0,0,0,0,0,0,0,0,0,0,0,0,0,0],"sum_hessian":[3.1338276E3,1.1390718E2,3.0199204E3,9.812746E0,1.0409444E2,3.365647E1,2.986264E3,4.6353006E0,5.177445E0,8.935031E1,1.4744123E1,1.1797456E1,2.1859016E1,2.7648945E3,2.2136948E2,1.4108102E0,3.7666347E0,5.580938E1,3.354093E1,1.3144992E1,1.5991318E0,3.5962713E0,8.201184E0,2.1384933E0,1.9720522E1,1.0486466E2,2.6600298E3,5.5490765E1,1.6587871E2],"tree_param":{"num_deleted":"0","num_feature":"133","num_nodes":"29","size_leaf_vector":"1"}},{"base_weights":[-9.197739E-3,-2.0353626E-1,5.5761505E-3,2.4369076E-1,-3.7516755E-1,-2.305889E-1,1.8578315E-2,6.820698E-1,-4.2376406E-3,-8.360835E-1,-3.1902954E-2,-5.3198915E-2,-8.247608E-1,-1.4844754E-2,1.5221766E-1,8.9369096E-2,-8.4526576E-2,7.705248E-2,-1.9724471E-2,-4.107956E-2,-1.3637601E-1,1.0705482E-1,-1.778183E-2,9.1707595E-3,-6.379791E-2,4.8421696E-2,-1.0927804E-1,5.370411E-2,-2.2321965E-3,-1.8019574E-3,3.3034764E-2],"categories":[],"categories_nodes":[],"categories_segments":[],"categories_sizes":[],"default_left":[0,0,0,0,0,0,0,0,0,0,0,0,0,0,0,0,0,0,0,0,0,0,0,0,0,0,0,0,0,0,0],"id":33,"left_children":[1,3,5,7,9,11,13,15,17,19,21,23,25,27,29,-1,-1,-1,-1,-1,-1,-1,-1,-1,-1,-1,-1,-1,-1,-1,-1],"loss_changes":[9.01013E0,1.7109655E1,8.9616E0,6.751775E0,2.5385593E1,1.600798E1,1.23559675E1,8.007722E0,6.231605E0,1.48166275E1,1.5166454E1,1.0087246E1,1.2788986E1,9.145544E0,1.6788025E1,0E0,0E0,0E0,0E0,0E0,0E0,0E0,0E0,0E0,0E0,0E0,0E0,0E0,0E0,0E0,0E0],"parents":[2147483647,0,0,1,1,2,2,3,3,4,4,5,5,6,6,7,7,8,8,9,9,10,10,11,11,12,12,13,13,14,14],"right_children":[2,4,6,8,10,12,14,16,18,20,22,24,26,28,30,-1,-1,-1,-1,-1,-1,-1,-1,-1,-1,-1,-1,-1,-1,-1,-1],"split_conditions":[-9.764411E-1,1.2001327E0,3.7340558E-1,-5.54534E-1,-2.3204193E-1,7.567568E-1,1.0367032E-3,9.117647E-1,2.8257453E-1,1.656352E0,2.061134E-1,-9.838505E-1,-2.9782605E2,-5.814896E-1,7.2446555E-1,8.9369096E-2,-8.4526576E-2,7.705248E-2,-1.9724471E-2,-4.107956E-2,-1.3637601E-1,1.0705482E-1,-1.778183E-2,9.1707595E-3,-6.379791E-2,4.8421696E-2,-1.0927804E-1,5.370411E-2,-2.2321965E-3,-1.8019574E-3,3.3034764E-2],"split_indices":[0,35,47,100,58,33,14,33,25,119,63,55,9,100,27,0,0,0,0,0,0,0,0,0,0,0,0,0,0,0,0],"split_type":[0,0,0,0,0,0,0,0,0,0,0,0,0,0,0,0,0,0,0,0,0,0,0,0,0,0,0,0,0,0,0],"sum_hessian":[3.1367808E3,2.2071234E2,2.9160686E3,6.10949E1,1.5961745E2,1.5129443E2,2.7647742E3,2.1437943E1,3.9656956E1,6.751991E1,9.2097534E1,1.17349335E2,3.3945103E1,2.2123552E3,5.5241895E2,1.9193447E1,2.244494E0,7.3122325E0,3.2344723E1,3.8371994E1,2.914792E1,1.0024147E1,8.207339E1,9.472098E1,2.2628357E1,5.6320662E0,2.8313036E1,2.8626633E1,2.1837285E3,2.82927E2,2.6949194E2],"tree_param":{"num_deleted":"0","num_feature":"133","num_nodes":"31","size_leaf_vector":"1"}},{"base_weights":[-4.4340366E-3,-2.1618567E-1,1.570714E-2,-2.4079975E-1,1.0765737E0,5.7031214E-1,9.164735E-3,-8.434814E-1,-1.9632117E-1,1.5472671E-1,-1.2055212E-2,7.445097E-1,-1.1217875E0,-3.442393E-2,8.126136E-2,3.837995E-2,-1.12567894E-1,-2.6360124E-2,2.0097597E-2,1.8524101E-2,1.1093922E-1,-1.5818246E-1,-8.830289E-3,-2.6414862E-3,-1.2880264E-1,-2.8177312E-2,1.130784E-2],"categories":[],"categories_nodes":[],"categories_segments":[],"categories_sizes":[],"default_left":[0,0,0,0,0,0,0,0,0,0,0,0,0,0,0,0,0,0,0,0,0,0,0,0,0,0,0],"id":34,"left_children":[1,3,5,7,9,11,13,15,17,-1,-1,19,21,23,25,-1,-1,-1,-1,-1,-1,-1,-1,-1,-1,-1,-1],"loss_changes":[1.3334364E1,8.900104E0,1.0354604E1,6.999689E0,3.1484861E0,1.0642422E1,8.874011E0,6.689513E0,6.741661E0,0E0,0E0,6.0731354E0,1.5264969E0,1.7636381E1,1.2320935E1,0E0,0E0,0E0,0E0,0E0,0E0,0E0,0E0,0E0,0E0,0E0,0E0],"parents":[2147483647,0,0,1,1,2,2,3,3,4,4,5,5,6,6,7,7,8,8,11,11,12,12,13,13,14,14],"right_children":[2,4,6,8,10,12,14,16,18,-1,-1,20,22,24,26,-1,-1,-1,-1,-1,-1,-1,-1,-1,-1,-1,-1],"split_conditions":[5.343699E-1,4.0642133E-1,-1.01540916E-1,2.2428129E-2,1E0,1.2292523E0,-2.4433295E-1,5E-1,5.042686E-1,1.5472671E-1,-1.2055212E-2,1.0969602E0,-2.3579669E-1,9.4830585E-1,1.4102565E-1,3.837995E-2,-1.12567894E-1,-2.6360124E-2,2.0097597E-2,1.8524101E-2,1.1093922E-1,-1.5818246E-1,-8.830289E-3,-2.6414862E-3,-1.2880264E-1,-2.8177312E-2,1.130784E-2],"split_indices":[131,50,46,132,24,86,107,24,115,0,0,86,58,132,33,0,0,0,0,0,0,0,0,0,0,0,0],"split_type":[0,0,0,0,0,0,0,0,0,0,0,0,0,0,0,0,0,0,0,0,0,0,0,0,0,0,0],"sum_hessian":[3.1247197E3,2.7055383E2,2.8541658E3,2.6629727E2,4.2565556E0,3.227199E1,2.8218938E3,1.7067675E1,2.4922961E2,2.8453271E0,1.4112283E0,2.9767506E1,2.5044842E0,1.7589678E3,1.0629261E3,3.1234977E0,1.3944178E1,2.1342395E2,3.5805653E1,1.2348372E1,1.7419134E1,1.3659031E0,1.1385809E0,1.7488159E3,1.01518345E1,8.5017296E1,9.779088E2],"tree_param":{"num_deleted":"0","num_feature":"133","num_nodes":"27","size_leaf_vector":"1"}},{"base_weights":[-3.7910452E-3,-6.4384446E-2,5.972406E-2,2.5574687E-1,-7.904554E-2,-3.8448575E-1,7.455223E-2,-1.0476271E0,3.3147064E-1,-8.7562114E-2,6.2501466E-1,2.9384005E-1,-5.985445E-1,2.2634551E-1,3.5553977E-2,-2.6483191E-2,-1.2671322E-1,5.7331413E-2,-2.0718293E-2,-7.145134E-3,-4.161107E-2,9.296358E-2,-6.361251E-2,8.307111E-2,-4.121589E-2,-1.1105003E-1,-1.84167E-2,2.668199E-2,-1.0864585E-1,1.5102144E-3,4.3330748E-2],"categories":[],"categories_nodes":[],"categories_segments":[],"categories_sizes":[],"default_left":[0,0,0,0,0,0,0,0,0,0,0,0,0,0,0,0,0,0,0,0,0,0,0,0,0,0,0,0,0,0,0],"id":35,"left_children":[1,3,5,7,9,11,13,15,17,19,21,23,25,27,29,-1,-1,-1,-1,-1,-1,-1,-1,-1,-1,-1,-1,-1,-1,-1,-1],"loss_changes":[1.2159532E1,7.6090784E0,1.01893425E1,7.358899E0,9.329933E0,7.4347696E0,8.83349E0,3.759904E-1,8.964289E0,8.064814E0,7.740976E0,5.141821E0,7.9268017E0,1.6501688E1,9.6696205E0,0E0,0E0,0E0,0E0,0E0,0E0,0E0,0E0,0E0,0E0,0E0,0E0,0E0,0E0,0E0,0E0],"parents":[2147483647,0,0,1,1,2,2,3,3,4,4,5,5,6,6,7,7,8,8,9,9,10,10,11,11,12,12,13,13,14,14],"right_children":[2,4,6,8,10,12,14,16,18,20,22,24,26,28,30,-1,-1,-1,-1,-1,-1,-1,-1,-1,-1,-1,-1,-1,-1,-1,-1],"split_conditions":[6.9216466E-1,-1.0055914E-1,3.1641415E-1,2.0824939E-1,2.664081E-3,-1.7865163E0,4.9920437E-1,5.2112675E-1,-3.5669744E-1,1.945E1,9.2496514E-2,5.9746675E-5,1.3394561E0,6.75E0,9.8572606E-1,-2.6483191E-2,-1.2671322E-1,5.7331413E-2,-2.0718293E-2,-7.145134E-3,-4.161107E-2,9.296358E-2,-6.361251E-2,8.307111E-2,-4.121589E-2,-1.1105003E-1,-1.84167E-2,2.668199E-2,-1.0864585E-1,1.5102144E-3,4.3330748E-2],"split_indices":[131,46,93,73,32,124,93,27,79,19,82,30,54,18,0,0,0,0,0,0,0,0,0,0,0,0,0,0,0,0,0],"split_type":[0,0,0,0,0,0,0,0,0,0,0,0,0,0,0,0,0,0,0,0,0,0,0,0,0,0,0,0,0,0,0],"sum_hessian":[3.157473E3,1.6158954E3,1.5415775E3,7.0042564E1,1.5458528E3,4.8991837E1,1.4925857E3,3.1411707E0,6.690139E1,1.5282423E3,1.7610548E1,1.1662404E1,3.7329433E1,3.041062E2,1.1884795E3,1.1711458E0,1.9700251E0,4.612703E1,2.0774363E1,1.4579666E3,7.027569E1,1.439611E1,3.2144375E0,6.524361E0,5.1380434E0,1.5947126E1,2.1382307E1,2.9578378E2,8.322403E0,1.1313456E3,5.7133965E1],"tree_param":{"num_deleted":"0","num_feature":"133","num_nodes":"31","size_leaf_vector":"1"}},{"base_weights":[3.959142E-3,1.4469495E-1,-2.2935268E-2,-5.71077E-1,1.818511E-1,-1.5201874E-1,1.0591755E-2,-9.6613353E-1,9.177309E-1,8.753181E-2,6.0651094E-1,-2.3472069E-1,2.2253351E-1,-2.2369702E-3,5.075395E-1,-1.5404604E-1,-1.3906575E-2,1.383732E-1,-5.3202417E-2,1.9086288E-2,-2.950952E-2,-7.904796E-2,6.827659E-2,-8.578913E-3,-5.7487734E-2,6.6417485E-2,-1.3339537E-2,-5.8931757E-2,8.556704E-4,-6.0681354E-2,6.3120864E-2],"categories":[],"categories_nodes":[],"categories_segments":[],"categories_sizes":[],"default_left":[0,0,0,0,0,0,0,0,0,0,0,0,0,0,0,0,0,0,0,0,0,0,0,0,0,0,0,0,0,0,0],"id":36,"left_children":[1,3,5,7,9,11,13,15,17,19,21,23,25,27,29,-1,-1,-1,-1,-1,-1,-1,-1,-1,-1,-1,-1,-1,-1,-1,-1],"loss_changes":[1.1880414E1,1.3496817E1,1.1406834E1,1.5645313E1,1.915224E1,1.6885363E1,1.3343984E1,9.436901E0,4.637656E0,1.5614889E1,9.804829E0,2.2525887E1,1.5619263E1,1.2939974E1,7.6420507E0,0E0,0E0,0E0,0E0,0E0,0E0,0E0,0E0,0E0,0E0,0E0,0E0,0E0,0E0,0E0,0E0],"parents":[2147483647,0,0,1,1,2,2,3,3,4,4,5,5,6,6,7,7,8,8,9,9,10,10,11,11,12,12,13,13,14,14],"right_children":[2,4,6,8,10,12,14,16,18,20,22,24,26,28,30,-1,-1,-1,-1,-1,-1,-1,-1,-1,-1,-1,-1,-1,-1,-1,-1],"split_conditions":[3.070211E-1,-1.1659712E0,4.0190572E-1,2.8257453E-1,-1.7885883E0,2.7639852E-4,9.031502E-1,-1.5305282E0,8.039555E-5,-2.3099838E-1,-8.053457E-2,6.880734E-1,-2.6695934E-4,3.8403165E-1,-1.0677767E0,-1.5404604E-1,-1.3906575E-2,1.383732E-1,-5.3202417E-2,1.9086288E-2,-2.950952E-2,-7.904796E-2,6.827659E-2,-8.578913E-3,-5.7487734E-2,6.6417485E-2,-1.3339537E-2,-5.8931757E-2,8.556704E-4,-6.0681354E-2,6.3120864E-2],"split_indices":[25,57,23,25,52,32,131,117,12,58,122,27,13,50,65,0,0,0,0,0,0,0,0,0,0,0,0,0,0,0,0],"split_type":[0,0,0,0,0,0,0,0,0,0,0,0,0,0,0,0,0,0,0,0,0,0,0,0,0,0,0,0,0,0,0],"sum_hessian":[3.1369326E3,5.025833E2,2.6343494E3,2.4092793E1,4.784905E2,5.424213E2,2.091928E3,1.931785E1,4.774941E0,3.9251654E2,8.597397E1,4.446213E2,9.780003E1,2.0402543E3,5.1673744E1,1.08918495E1,8.426002E0,3.6479166E0,1.1270244E0,3.094489E2,8.3067635E1,3.9652016E0,8.2008766E1,3.101012E2,1.3452011E2,4.3258396E1,5.4541637E1,3.586593E1,2.0043884E3,4.771565E0,4.690218E1],"tree_param":{"num_deleted":"0","num_feature":"133","num_nodes":"31","size_leaf_vector":"1"}},{"base_weights":[-1.03442585E-2,-2.078422E-2,2.6851594E-1,4.6748123E-1,-2.6564972E-2,9.142818E-1,3.3125352E-2,8.2883096E-1,-4.483601E-2,1.05988435E-1,-4.821829E-2,-3.7487063E-1,1.1180518E0,5.4482675E-1,-1.7687789E-1,1.2311005E-1,2.0983538E-2,4.422331E-2,-8.480438E-2,3.1373397E-2,-1.1117413E-2,-9.598073E-3,2.4219947E-3,-1.052041E-1,7.005497E-2,-6.415699E-4,1.2296907E-1,8.6099096E-2,-2.8514374E-2,-8.165151E-2,2.1374252E-2],"categories":[],"categories_nodes":[],"categories_segments":[],"categories_sizes":[],"default_left":[0,0,0,0,0,0,0,0,0,0,0,0,0,0,0,0,0,0,0,0,0,0,0,0,0,0,0,0,0,0,0],"id":37,"left_children":[1,3,5,7,9,11,13,15,17,19,21,23,25,27,29,-1,-1,-1,-1,-1,-1,-1,-1,-1,-1,-1,-1,-1,-1,-1,-1],"loss_changes":[9.134112E0,8.545918E0,1.718069E1,6.5960455E0,8.5839405E0,8.354759E0,9.124603E0,4.9276705E0,6.4789305E0,1.8983337E1,8.893736E0,4.28512E0,3.3140755E0,6.7249002E0,1.5246678E1,0E0,0E0,0E0,0E0,0E0,0E0,0E0,0E0,0E0,0E0,0E0,0E0,0E0,0E0,0E0,0E0],"parents":[2147483647,0,0,1,1,2,2,3,3,4,4,5,5,6,6,7,7,8,8,9,9,10,10,11,11,12,12,13,13,14,14],"right_children":[2,4,6,8,10,12,14,16,18,20,22,24,26,28,30,-1,-1,-1,-1,-1,-1,-1,-1,-1,-1,-1,-1,-1,-1,-1,-1],"split_conditions":[9.9270886E-1,-1.01540916E-1,6.1E1,4.3983948E-1,4.957308E-1,-3.472554E-1,-5.8453894E-5,1E0,1.8182162E0,5.071163E-1,1.0657056E-4,1.37308E0,-8.642438E-1,5.752009E-1,4.909091E-1,1.2311005E-1,2.0983538E-2,4.422331E-2,-8.480438E-2,3.1373397E-2,-1.1117413E-2,-9.598073E-3,2.4219947E-3,-1.052041E-1,7.005497E-2,-6.415699E-4,1.2296907E-1,8.6099096E-2,-2.8514374E-2,-8.165151E-2,2.1374252E-2],"split_indices":[0,46,10,67,34,92,12,26,70,39,30,81,120,113,27,0,0,0,0,0,0,0,0,0,0,0,0,0,0,0,0],"split_type":[0,0,0,0,0,0,0,0,0,0,0,0,0,0,0,0,0,0,0,0,0,0,0,0,0,0,0,0,0,0,0],"sum_hessian":[3.134563E3,3.0223381E3,1.1222475E2,3.4429356E1,2.9879087E3,2.9209068E1,8.301568E1,1.982705E1,1.4602306E1,4.1900772E2,2.5689011E3,3.872157E0,2.5336912E1,2.3692156E1,5.932352E1,1.1417948E1,8.4091015E0,9.369819E0,5.2324877E0,2.1391972E2,2.0508801E2,1.5479375E3,1.02096356E3,2.3893635E0,1.4827938E0,2.3734272E0,2.2963484E1,1.7129547E1,6.5626082E0,2.2079025E1,3.7244495E1],"tree_param":{"num_deleted":"0","num_feature":"133","num_nodes":"31","size_leaf_vector":"1"}},{"base_weights":[-5.921208E-3,1.7150025E-1,-2.5899451E-2,4.2416543E-1,3.5628997E-2,4.009017E-1,-3.3155132E-2,-7.381204E-2,6.491048E-1,-1.6132371E-1,4.61842E-1,9.632763E-1,-1.2200578E-1,-1.947874E-1,-2.481097E-3,6.601705E-2,-3.246623E-2,1.260215E-1,4.437188E-2,-9.457771E-2,-3.7681859E-3,-1.4554833E-2,8.040692E-2,1.1639588E-1,-1.265566E-2,3.439548E-2,-8.89437E-2,1.3704746E-2,-4.3616842E-2,1.3136002E-2,-3.7013085E-3],"categories":[],"categories_nodes":[],"categories_segments":[],"categories_sizes":[],"default_left":[0,0,0,0,0,0,0,0,0,0,0,0,0,0,0,0,0,0,0,0,0,0,0,0,0,0,0,0,0,0,0],"id":38,"left_children":[1,3,5,7,9,11,13,15,17,19,21,23,25,27,29,-1,-1,-1,-1,-1,-1,-1,-1,-1,-1,-1,-1,-1,-1,-1,-1],"loss_changes":[1.1108485E1,1.0873715E1,8.73527E0,1.2462149E1,1.7480667E1,1.3985E1,1.3734688E1,6.728901E0,9.035645E0,1.3791546E1,1.3793289E1,5.1412296E0,9.361448E0,3.5453392E1,1.0771242E1,0E0,0E0,0E0,0E0,0E0,0E0,0E0,0E0,0E0,0E0,0E0,0E0,0E0,0E0,0E0,0E0],"parents":[2147483647,0,0,1,1,2,2,3,3,4,4,5,5,6,6,7,7,8,8,9,9,10,10,11,11,12,12,13,13,14,14],"right_children":[2,4,6,8,10,12,14,16,18,20,22,24,26,28,30,-1,-1,-1,-1,-1,-1,-1,-1,-1,-1,-1,-1,-1,-1,-1,-1],"split_conditions":[2.5164837E-1,5.7336605E-1,2.919708E-2,2.0675963E2,-1.2207247E0,-9.5751904E-2,2.2222222E-1,-4.7837844E-1,-9.029436E-5,-9.883588E-2,-1.7988274E0,1.033388E0,5.55E0,3.6942676E-1,5.035902E1,6.601705E-2,-3.246623E-2,1.260215E-1,4.437188E-2,-9.457771E-2,-3.7681859E-3,-1.4554833E-2,8.040692E-2,1.1639588E-1,-1.265566E-2,3.439548E-2,-8.89437E-2,1.3704746E-2,-4.3616842E-2,1.3136002E-2,-3.7013085E-3],"split_indices":[25,93,33,11,59,69,33,100,14,46,52,101,18,27,10,0,0,0,0,0,0,0,0,0,0,0,0,0,0,0,0],"split_type":[0,0,0,0,0,0,0,0,0,0,0,0,0,0,0,0,0,0,0,0,0,0,0,0,0,0,0,0,0,0,0],"sum_hessian":[3.131692E3,3.1618173E2,2.8155103E3,1.0982681E2,2.0635492E2,4.615707E1,2.769353E3,3.4382244E1,7.544457E1,1.4156113E2,6.479379E1,2.1833502E1,2.4323566E1,4.408754E2,2.3284778E3,8.342E0,2.6040245E1,1.7685852E1,5.7758717E1,1.8368938E1,1.2319219E2,2.3557774E1,4.123602E1,1.8380829E1,3.4526725E0,1.5477759E1,8.845808E0,1.858345E2,2.5504088E2,4.769772E2,1.8515005E3],"tree_param":{"num_deleted":"0","num_feature":"133","num_nodes":"31","size_leaf_vector":"1"}},{"base_weights":[-1.8293144E-3,1.757168E-2,-1.6462272E-1,-1.571606E-1,3.609729E-2,-1.9607916E-1,-1.3932092E-1,-9.216352E-2,-8.6154395E-1,1.7131642E-1,9.1937E-3,9.2715275E-1,-1.7477186E-1,-1.2701432E-3,-6.2465824E-2,-1.3893344E-1,4.3745586E-4,8.06017E-3,5.612653E-2,-1.6296685E-2,4.0483032E-3,1.2524043E-1,-6.499844E-2,-1.9961502E-2,8.4624365E-2],"categories":[],"categories_nodes":[],"categories_segments":[],"categories_sizes":[],"default_left":[0,0,0,0,0,0,0,0,0,0,0,0,0,0,0,0,0,0,0,0,0,0,0,0,0],"id":39,"left_children":[1,3,5,7,9,-1,11,13,15,17,19,21,23,-1,-1,-1,-1,-1,-1,-1,-1,-1,-1,-1,-1],"loss_changes":[9.814935E0,8.994177E0,1.4765602E1,1.2115677E1,9.134648E0,0E0,1.2539948E1,1.0358148E1,1.0235586E1,1.469522E1,1.1295753E1,6.2983913E0,8.227501E0,0E0,0E0,0E0,0E0,0E0,0E0,0E0,0E0,0E0,0E0,0E0,0E0],"parents":[2147483647,0,0,1,1,2,2,3,3,4,4,6,6,7,7,8,8,9,9,10,10,11,11,12,12],"right_children":[2,4,6,8,10,-1,12,14,16,18,20,22,24,-1,-1,-1,-1,-1,-1,-1,-1,-1,-1,-1,-1],"split_conditions":[7.2309774E-1,2.8580368E-1,3.1917542E-1,5.647144E-1,3.216912E-1,-1.9607916E-1,3.5897437E-1,4.793244E-1,1.7981168E0,8.5278237E-1,2.2727273E-1,8.1635946E-1,1.1050991E0,-1.2701432E-3,-6.2465824E-2,-1.3893344E-1,4.3745586E-4,8.06017E-3,5.612653E-2,-1.6296685E-2,4.0483032E-3,1.2524043E-1,-6.499844E-2,-1.9961502E-2,8.4624365E-2],"split_indices":[23,23,25,25,25,0,33,60,49,43,33,23,41,0,0,0,0,0,0,0,0,0,0,0,0],"split_type":[0,0,0,0,0,0,0,0,0,0,0,0,0,0,0,0,0,0,0,0,0,0,0,0,0],"sum_hessian":[3.1056948E3,2.7757815E3,3.2991324E2,2.653678E2,2.5104138E3,3.520181E0,3.2639307E2,2.4398491E2,2.1382898E1,4.15702E2,2.0947117E3,9.691442E0,3.1670163E2,2.1319458E2,3.0790335E1,1.2909749E1,8.473148E0,3.3822632E2,7.7475685E1,3.2150647E2,1.7732053E3,8.205193E0,1.4862487E0,3.0996414E2,6.7374926E0],"tree_param":{"num_deleted":"0","num_feature":"133","num_nodes":"25","size_leaf_vector":"1"}},{"base_weights":[1.1636105E-2,-2.0911579E-1,2.8109474E-2,-2.5605604E-1,8.480183E-1,4.9156123E-1,1.4649679E-2,7.585306E-1,-2.9537687E-1,-4.490495E-2,1.1777388E0,7.2423273E-1,9.7089075E-2,-5.105729E-2,6.1050978E-2,1.254193E-1,-5.6858014E-2,-4.1375082E-2,4.5788847E-3,-1.8868247E-2,1.415663E-1,-9.707237E-2,7.9604454E-2,-1.6221331E-2,1.0320871E-1,4.0137623E-3,-2.3615865E-2,1.0731019E-1,5.43455E-3],"categories":[],"categories_nodes":[],"categories_segments":[],"categories_sizes":[],"default_left":[0,0,0,0,0,0,0,0,0,0,0,0,0,0,0,0,0,0,0,0,0,0,0,0,0,0,0,0,0],"id":40,"left_children":[1,3,5,7,9,11,13,15,17,-1,19,21,23,25,27,-1,-1,-1,-1,-1,-1,-1,-1,-1,-1,-1,-1,-1,-1],"loss_changes":[1.1404849E1,1.1024315E1,1.8193853E1,8.573867E0,4.5880227E0,7.4849815E0,8.651196E0,6.034099E0,8.185181E0,0E0,2.8171206E0,7.0561466E0,7.851723E0,1.9836258E1,1.1226712E1,0E0,0E0,0E0,0E0,0E0,0E0,0E0,0E0,0E0,0E0,0E0,0E0,0E0,0E0],"parents":[2147483647,0,0,1,1,2,2,3,3,4,4,5,5,6,6,7,7,8,8,10,10,11,11,12,12,13,13,14,14],"right_children":[2,4,6,8,10,12,14,16,18,-1,20,22,24,26,28,-1,-1,-1,-1,-1,-1,-1,-1,-1,-1,-1,-1,-1,-1],"split_conditions":[3.7402984E-1,-1.1389979E0,3.7498388E-1,3.3041957E-1,-4.4596247E-2,9.19708E-1,-3.0134594E-1,-1.9175429E0,8.700249E-1,-4.490495E-2,-4.4816125E-2,-1.6053528E0,3.8736555E-1,-6.261852E-1,9.1932917E-1,1.254193E-1,-5.6858014E-2,-4.1375082E-2,4.5788847E-3,-1.8868247E-2,1.415663E-1,-9.707237E-2,7.9604454E-2,-1.6221331E-2,1.0320871E-1,4.0137623E-3,-2.3615865E-2,1.0731019E-1,5.43455E-3],"split_indices":[47,56,47,34,44,34,0,89,1,0,51,38,50,0,114,0,0,0,0,0,0,0,0,0,0,0,0,0,0],"split_type":[0,0,0,0,0,0,0,0,0,0,0,0,0,0,0,0,0,0,0,0,0,0,0,0,0,0,0,0,0],"sum_hessian":[3.133576E3,2.1678935E2,2.9167866E3,2.08298E2,8.491341E0,8.131748E1,2.835469E3,7.0890846E0,2.0120892E2,1.6476883E0,6.8436522E0,5.062273E1,3.0694756E1,1.1735511E3,1.6619178E3,5.2013707E0,1.8877138E0,1.4922107E2,5.198785E1,1.0456054E0,5.7980466E0,1.5488151E0,4.9073914E1,2.4677477E1,6.0172787E0,7.867311E2,3.8682004E2,9.8920145E0,1.6520259E3],"tree_param":{"num_deleted":"0","num_feature":"133","num_nodes":"29","size_leaf_vector":"1"}},{"base_weights":[2.4352567E-3,1.6160388E-1,-1.9356402E-2,9.488439E-1,1.2011127E-1,-1.3938424E-1,1.15638375E-2,-8.2763985E-2,1.15358E0,-1.3853188E-1,2.6289386E-1,-8.948793E-2,-9.489673E-1,3.9505802E-2,-2.0999968E-1,1.3668142E-1,-5.6073E-2,-3.219783E-2,2.85933E-2,7.4553244E-2,1.7780041E-2,-3.9175907E-3,-6.172992E-2,-3.490701E-2,-1.384786E-1,1.7241251E-3,2.9941836E-2,-6.5092824E-2,-1.0437986E-2],"categories":[],"categories_nodes":[],"categories_segments":[],"categories_sizes":[],"default_left":[0,0,0,0,0,0,0,0,0,0,0,0,0,0,0,0,0,0,0,0,0,0,0,0,0,0,0,0,0],"id":41,"left_children":[1,3,5,7,9,11,13,-1,15,17,19,21,23,25,27,-1,-1,-1,-1,-1,-1,-1,-1,-1,-1,-1,-1,-1,-1],"loss_changes":[1.0899236E1,1.2246401E1,1.0259618E1,7.7927666E0,1.3353328E1,2.2789074E1,1.3620555E1,0E0,7.0815144E0,1.0130362E1,9.423653E0,1.4169222E1,8.084038E0,1.1298562E1,1.1406845E1,0E0,0E0,0E0,0E0,0E0,0E0,0E0,0E0,0E0,0E0,0E0,0E0,0E0,0E0],"parents":[2147483647,0,0,1,1,2,2,3,3,4,4,5,5,6,6,8,8,9,9,10,10,11,11,12,12,13,13,14,14],"right_children":[2,4,6,8,10,12,14,-1,16,18,20,22,24,26,28,-1,-1,-1,-1,-1,-1,-1,-1,-1,-1,-1,-1,-1,-1],"split_conditions":[-9.4853646E-1,7.2E-2,-6.448422E-1,1.7972648E0,4.2105263E-1,1.1036971E0,1E0,-8.2763985E-2,5.127058E-1,-9.781476E-1,4.7633457E-1,-1.1291926E0,-5.086241E-2,7.774405E-1,3.8125E-1,1.3668142E-1,-5.6073E-2,-3.219783E-2,2.85933E-2,7.4553244E-2,1.7780041E-2,-3.9175907E-3,-6.172992E-2,-3.490701E-2,-1.384786E-1,1.7241251E-3,2.9941836E-2,-6.5092824E-2,-1.0437986E-2],"split_indices":[1,27,1,49,27,41,21,0,67,1,60,123,51,25,27,0,0,0,0,0,0,0,0,0,0,0,0,0,0],"split_type":[0,0,0,0,0,0,0,0,0,0,0,0,0,0,0,0,0,0,0,0,0,0,0,0,0,0,0,0,0],"sum_hessian":[3.1404028E3,3.7740198E2,2.763001E3,1.7800728E1,3.5960126E2,5.652552E2,2.1977456E3,1.5250943E0,1.6275633E1,1.2791669E2,2.3168457E2,5.3348584E2,3.1769321E1,1.9523512E3,2.4539452E2,1.4655423E1,1.6202103E0,8.948448E1,3.84322E1,3.3562313E1,1.9812227E2,4.880392E2,4.544665E1,1.412603E1,1.764329E1,1.7992875E3,1.5306369E2,4.642447E1,1.9897005E2],"tree_param":{"num_deleted":"0","num_feature":"133","num_nodes":"29","size_leaf_vector":"1"}},{"base_weights":[-3.2718738E-3,3.3223297E-2,-9.9518225E-2,9.549769E-3,2.1421112E-1,-1.5654698E-1,8.52014E-2,1.6035995E-1,-3.1414703E-2,6.6515274E-2,5.348196E-1,-8.388331E-2,-5.458438E-1,-1.180174E-1,4.0748948E-1,6.871536E-3,6.1175495E-2,-4.7264625E-3,3.619056E-2,2.0401925E-2,-2.6337856E-2,-1.4290589E-2,8.5622795E-2,-1.27557535E-2,5.781677E-2,-3.9490117E-3,-7.4558474E-2,1.8201213E-3,-8.479328E-2,6.444041E-2,-6.415985E-3],"categories":[],"categories_nodes":[],"categories_segments":[],"categories_sizes":[],"default_left":[0,0,0,0,0,0,0,0,0,0,0,0,0,0,0,0,0,0,0,0,0,0,0,0,0,0,0,0,0,0,0],"id":42,"left_children":[1,3,5,7,9,11,13,15,17,19,21,23,25,27,29,-1,-1,-1,-1,-1,-1,-1,-1,-1,-1,-1,-1,-1,-1,-1,-1],"loss_changes":[1.0967542E1,9.698414E0,9.05651E0,1.2380416E1,1.2363039E1,1.8519207E1,1.3353825E1,1.7665838E1,9.842815E0,8.236953E0,1.8079338E1,1.6099415E1,1.0392906E1,1.2480654E1,8.8450775E0,0E0,0E0,0E0,0E0,0E0,0E0,0E0,0E0,0E0,0E0,0E0,0E0,0E0,0E0,0E0,0E0],"parents":[2147483647,0,0,1,1,2,2,3,3,4,4,5,5,6,6,7,7,8,8,9,9,10,10,11,11,12,12,13,13,14,14],"right_children":[2,4,6,8,10,12,14,16,18,20,22,24,26,28,30,-1,-1,-1,-1,-1,-1,-1,-1,-1,-1,-1,-1,-1,-1,-1,-1],"split_conditions":[-9.0316105E-5,1.1417271E-3,1.119533E0,4.4E0,-7.7706325E-1,-1.161892E0,4.5987454E-1,-2.504125E-1,9.9270886E-1,1.3396456E0,4.231105E-1,1.7344481E-1,-3.0760357E-1,1.765E1,4.555222E-4,6.871536E-3,6.1175495E-2,-4.7264625E-3,3.619056E-2,2.0401925E-2,-2.6337856E-2,-1.4290589E-2,8.5622795E-2,-1.27557535E-2,5.781677E-2,-3.9490117E-3,-7.4558474E-2,1.8201213E-3,-8.479328E-2,6.444041E-2,-6.415985E-3],"split_indices":[13,14,37,19,48,57,72,107,0,54,127,80,92,19,30,0,0,0,0,0,0,0,0,0,0,0,0,0,0,0,0],"split_type":[0,0,0,0,0,0,0,0,0,0,0,0,0,0,0,0,0,0,0,0,0,0,0,0,0,0,0,0,0,0,0],"sum_hessian":[3.1204663E3,2.2630186E3,8.574478E2,2.0021824E3,2.6083624E2,6.552913E2,2.021565E2,4.2705823E2,1.5751241E3,1.7939923E2,8.1437004E1,5.532421E2,1.0204918E2,1.24369255E2,7.778724E1,3.5594467E2,7.111354E1,1.5149547E3,6.0169437E1,1.26891E2,5.250823E1,2.637588E1,5.5061127E1,5.197618E2,3.3480347E1,2.9206608E1,7.2842575E1,1.05631165E2,1.8738087E1,5.153458E1,2.6252659E1],"tree_param":{"num_deleted":"0","num_feature":"133","num_nodes":"31","size_leaf_vector":"1"}},{"base_weights":[5.0455965E-3,4.770416E-2,-6.2482886E-2,-5.800725E-1,6.0166765E-2,1.0475899E-1,-1.3307287E-1,-1.186057E0,-8.178828E-3,-1.7052633E-1,8.339969E-2,3.8391283E-1,-1.6145904E-1,-3.957211E-1,-8.026987E-2,-1.3383128E-1,1.1857539E-2,1.21827E-1,-2.2163028E-2,-1.21654E-1,-1.3216044E-2,2.045731E-2,2.8303121E-3,-4.0172104E-2,4.6592485E-2,1.7969875E-2,-4.0965807E-2,-5.8490198E-2,-2.9482124E-3,-6.564447E-3,-1.2578376E-1],"categories":[],"categories_nodes":[],"categories_segments":[],"categories_sizes":[],"default_left":[0,0,0,0,0,0,0,0,0,0,0,0,0,0,0,0,0,0,0,0,0,0,0,0,0,0,0,0,0,0,0],"id":43,"left_children":[1,3,5,7,9,11,13,15,17,19,21,23,25,27,29,-1,-1,-1,-1,-1,-1,-1,-1,-1,-1,-1,-1,-1,-1,-1,-1],"loss_changes":[9.018736E0,1.5045839E1,1.4323555E1,1.2965934E1,1.0102201E1,2.6839413E1,1.1795172E1,3.76832E0,5.5762906E0,6.7634664E0,1.1414988E1,1.1538864E1,1.5750092E1,9.855377E0,1.2167591E1,0E0,0E0,0E0,0E0,0E0,0E0,0E0,0E0,0E0,0E0,0E0,0E0,0E0,0E0,0E0,0E0],"parents":[2147483647,0,0,1,1,2,2,3,3,4,4,5,5,6,6,7,7,8,8,9,9,10,10,11,11,12,12,13,13,14,14],"right_children":[2,4,6,8,10,12,14,16,18,20,22,24,26,28,30,-1,-1,-1,-1,-1,-1,-1,-1,-1,-1,-1,-1,-1,-1,-1,-1],"split_conditions":[-5.7149224E-2,-1.981575E0,3.3854166E-1,-2.3022409E-1,5.360101E-1,-6.2013103E-4,2.3529412E-1,-1.8250895E0,-1.5742879E0,3.4925792E-1,-1.181532E0,9.648716E-1,9.895993E-6,1.2764423E0,1.887243E0,-1.3383128E-1,1.1857539E-2,1.21827E-1,-2.2163028E-2,-1.21654E-1,-1.3216044E-2,2.045731E-2,2.8303121E-3,-4.0172104E-2,4.6592485E-2,1.7969875E-2,-4.0965807E-2,-5.8490198E-2,-2.9482124E-3,-6.564447E-3,-1.2578376E-1],"split_indices":[69,104,27,58,131,13,33,89,38,67,123,76,30,34,70,0,0,0,0,0,0,0,0,0,0,0,0,0,0,0,0],"split_type":[0,0,0,0,0,0,0,0,0,0,0,0,0,0,0,0,0,0,0,0,0,0,0,0,0,0,0,0,0,0,0],"sum_hessian":[3.128745E3,1.9176412E3,1.2111038E3,3.6441376E1,1.8812E3,3.5931952E2,8.5178424E2,1.717192E1,1.9269455E1,1.7154004E2,1.7096599E3,1.7518257E2,1.8413695E2,1.4149207E2,7.102922E2,1.5354208E1,1.8177127E0,2.1586738E0,1.711078E1,4.9826756E0,1.6655737E2,5.33539E2,1.1761208E3,1.619021E1,1.5899236E2,7.766282E1,1.0647414E2,9.290494E1,4.8587128E1,7.0262134E2,7.6708183E0],"tree_param":{"num_deleted":"0","num_feature":"133","num_nodes":"31","size_leaf_vector":"1"}},{"base_weights":[4.5614867E-3,7.792678E-3,-7.902763E-1,-5.358933E-3,2.0072487E-1,-1.5275483E0,2.8539756E-1,-3.347316E-1,3.5961606E-3,5.343397E-1,6.0448043E-2,4.5712203E-2,-1.9455239E0,9.621535E-1,-5.869298E-1,-4.7518875E-2,6.886434E-2,-4.7841914E-2,9.2366274E-4,-3.226241E-2,6.7891054E-2,-7.7793607E-3,5.362208E-2,-6.0236186E-2,-2.1306638E-1,2.844893E-2,1.1343222E-1,-1.1005356E-1,2.4939723E-2],"categories":[],"categories_nodes":[],"categories_segments":[],"categories_sizes":[],"default_left":[0,0,0,0,0,0,0,0,0,0,0,0,0,0,0,0,0,0,0,0,0,0,0,0,0,0,0,0,0],"id":44,"left_children":[1,3,5,7,9,11,13,15,17,19,21,-1,23,25,27,-1,-1,-1,-1,-1,-1,-1,-1,-1,-1,-1,-1,-1,-1],"loss_changes":[8.052939E0,7.9213557E0,1.0504019E1,8.623444E0,9.291222E0,7.268379E0,4.109973E0,1.1450522E1,7.7443867E0,7.509548E0,9.340599E0,0E0,3.434677E-1,1.1606026E-1,1.6682006E0,0E0,0E0,0E0,0E0,0E0,0E0,0E0,0E0,0E0,0E0,0E0,0E0,0E0,0E0],"parents":[2147483647,0,0,1,1,2,2,3,3,4,4,5,5,6,6,7,7,8,8,9,9,10,10,12,12,13,13,14,14],"right_children":[2,4,6,8,10,12,14,16,18,20,22,-1,24,26,28,-1,-1,-1,-1,-1,-1,-1,-1,-1,-1,-1,-1,-1,-1],"split_conditions":[1.7297643E0,8.7670565E-1,3.0134594E-1,2.3E0,1.3393278E0,1.3842626E0,6.666667E-1,8.57858E-1,-1.4652525E0,1.3384126E0,-4.0219572E-1,4.5712203E-2,-1.4627297E-4,9.846667E1,7.688626E-1,-4.7518875E-2,6.886434E-2,-4.7841914E-2,9.2366274E-4,-3.226241E-2,6.7891054E-2,-7.7793607E-3,5.362208E-2,-6.0236186E-2,-2.1306638E-1,2.844893E-2,1.1343222E-1,-1.1005356E-1,2.4939723E-2],"split_indices":[119,131,0,19,54,130,27,0,66,54,100,0,30,10,131,0,0,0,0,0,0,0,0,0,0,0,0,0,0],"split_type":[0,0,0,0,0,0,0,0,0,0,0,0,0,0,0,0,0,0,0,0,0,0,0,0,0,0,0,0,0],"sum_hessian":[3.1321484E3,3.1204534E3,1.1695137E1,2.922226E3,1.9822719E2,6.6898184E0,5.005319E0,7.6384605E1,2.8458416E3,5.784575E1,1.4038144E2,1.1474992E0,5.5423193E0,2.760633E0,2.2446861E0,6.763714E1,8.74746E0,3.1946913E1,2.8138945E3,8.172214E0,4.967354E1,1.0942356E2,3.0957878E1,1.1866809E0,4.3556385E0,1.0966305E0,1.6640025E0,1.1949358E0,1.0497503E0],"tree_param":{"num_deleted":"0","num_feature":"133","num_nodes":"29","size_leaf_vector":"1"}},{"base_weights":[-1.1452125E-2,-2.233567E-2,2.2740777E-1,-3.6466154E-1,-8.0244215E-3,-2.2224002E-2,5.353203E-1,-1.658431E-1,-9.338561E-1,2.7658933E-1,-1.897129E-2,-4.7663268E-1,3.1362802E-1,-1.4962374E-2,7.777982E-1,-3.008079E-2,7.159307E-2,-1.267687E-1,-2.3642799E-2,6.699609E-2,3.569923E-3,-1.0728933E-3,-4.7572E-2,1.9101044E-2,-9.317291E-2,1.877513E-3,7.101182E-2,6.1328083E-2,-5.5521607E-2,9.801952E-2,1.4842786E-2],"categories":[],"categories_nodes":[],"categories_segments":[],"categories_sizes":[],"default_left":[0,0,0,0,0,0,0,0,0,0,0,0,0,0,0,0,0,0,0,0,0,0,0,0,0,0,0,0,0,0,0],"id":45,"left_children":[1,3,5,7,9,11,13,15,17,19,21,23,25,27,29,-1,-1,-1,-1,-1,-1,-1,-1,-1,-1,-1,-1,-1,-1,-1,-1],"loss_changes":[8.110555E0,1.4610898E1,1.0462809E1,1.3388704E1,8.929267E0,1.1755617E1,8.139748E0,1.0915736E1,6.863241E0,1.0034804E1,1.0382138E1,