{"learner":{"attributes":{"scikit_learn":"{\"_estimator_type\": \"classifier\"}"},"feature_names":[],"feature_types":[],"gradient_booster":{"model":{"cats":{"enc":[],"feature_segments":[],"sorted_idx":[]},"gbtree_model_param":{"num_parallel_tree":"1","num_trees":"100"},"iteration_indptr":[0,1,2,3,4,5,6,7,8,9,10,11,12,13,14,15,16,17,18,19,20,21,22,23,24,25,26,27,28,29,30,31,32,33,34,35,36,37,38,39,40,41,42,43,44,45,46,47,48,49,50,51,52,53,54,55,56,57,58,59,60,61,62,63,64,65,66,67,68,69,70,71,72,73,74,75,76,77,78,79,80,81,82,83,84,85,86,87,88,89,90,91,92,93,94,95,96,97,98,99,100],"tree_info":[0,0,0,0,0,0,0,0,0,0,0,0,0,0,0,0,0,0,0,0,0,0,0,0,0,0,0,0,0,0,0,0,0,0,0,0,0,0,0,0,0,0,0,0,0,0,0,0,0,0,0,0,0,0,0,0,0,0,0,0,0,0,0,0,0,0,0,0,0,0,0,0,0,0,0,0,0,0,0,0,0,0,0,0,0,0,0,0,0,0,0,0,0,0,0,0,0,0,0,0],"trees":[{"base_weights":[-1.2481314E-7,-1.4575166E0,6.1006814E-1,1.6590593E-2,-1.6499884E0,1.3212323E-1,8.8564646E-1,7.542044E-1,-1.714506E-1,8.055729E-2,-1.8284013E0,-1.9864656E-1,8.119043E-1,6.405067E-1,1.0772767E0,-2.71304E-2,1.0210885E-1,-1.2090565E-1,6.097104E-2,-1.9092242E-1,7.0794046E-2,-5.2749634E-2,7.488263E-2,1.009473E-1,-1.03529654E-1,8.033205E-2,-3.194693E-2,1.11163914E-1,-7.0232437E-3],"categories":[],"categories_nodes":[],"categories_segments":[],"categories_sizes":[],"default_left":[0,0,0,0,0,0,0,0,0,0,0,0,0,0,0,0,0,0,0,0,0,0,0,0,0,0,0,0,0],"id":0,"left_children":[1,3,5,7,9,11,13,15,-1,17,19,21,23,25,27,-1,-1,-1,-1,-1,-1,-1,-1,-1,-1,-1,-1,-1,-1],"loss_changes":[1.9027461E2,1.794168E1,1.9751339E1,1.1868243E1,1.7393509E1,1.2830149E1,3.7964401E0,2.0565624E0,0E0,4.9532843E0,1.1740677E1,1.2454466E1,7.847266E0,7.191309E0,2.1338463E0,0E0,0E0,0E0,0E0,0E0,0E0,0E0,0E0,0E0,0E0,0E0,0E0,0E0,0E0],"parents":[2147483647,0,0,1,1,2,2,3,3,4,4,5,5,6,6,7,7,9,9,10,10,11,11,12,12,13,13,14,14],"right_children":[2,4,6,8,10,12,14,16,-1,18,20,22,24,26,28,-1,-1,-1,-1,-1,-1,-1,-1,-1,-1,-1,-1,-1,-1],"split_conditions":[6.737199E-1,8.1142503E-1,7.917298E-1,-1.0927369E-4,-7.0598054E-1,-8.8991845E-1,-3.7709484E-1,7.35801E-1,-1.714506E-1,-1.5558206E0,1.6451577E-3,5.8778524E-1,8.3928573E-1,-1.5612495E0,8.3168364E-1,-2.71304E-2,1.0210885E-1,-1.2090565E-1,6.097104E-2,-1.9092242E-1,7.0794046E-2,-5.2749634E-2,7.488263E-2,1.009473E-1,-1.03529654E-1,8.033205E-2,-3.194693E-2,1.11163914E-1,-7.0232437E-3],"split_indices":[131,45,131,13,39,124,0,34,0,63,32,0,25,116,107,0,0,0,0,0,0,0,0,0,0,0,0,0,0],"split_type":[0,0,0,0,0,0,0,0,0,0,0,0,0,0,0,0,0,0,0,0,0,0,0,0,0,0,0,0,0],"sum_hessian":[2.1198776E2,6.2139923E1,1.4984784E2,7.2820225E0,5.4857903E1,5.5343372E1,9.450447E1,5.5019727E0,1.7800499E0,5.178327E0,4.9679577E1,3.7704693E1,1.7638676E1,4.336849E1,5.113598E1,1.1327591E0,4.3692136E0,1.1327591E0,4.045568E0,4.8384995E1,1.2945818E0,2.8318975E1,9.385717E0,1.6344095E1,1.2945818E0,3.7219227E1,6.1492634E0,4.9679577E1,1.4564044E0],"tree_param":{"num_deleted":"0","num_feature":"133","num_nodes":"29","size_leaf_vector":"1"}},{"base_weights":[3.7907672E-3,-1.0562321E0,6.677936E-1,2.048246E-2,-1.2241585E0,2.8916323E-1,8.611838E-1,5.8443815E-1,-1.2235116E0,-1.7889795E-1,-1.3973383E0,-3.6280245E-2,9.571058E-1,-5.4166693E-2,8.9033914E-1,-8.3993524E-2,8.712546E-2,-2.3913446E-1,1.2660414E-2,8.83721E-2,-1.23049356E-1,-1.5849672E-1,-2.6143E-2,-7.2305195E-2,4.9084675E-2,-2.9450579E-2,1.0771761E-1,1.674259E-2,9.502172E-2],"categories":[],"categories_nodes":[],"categories_segments":[],"categories_sizes":[],"default_left":[0,0,0,0,0,0,0,0,0,0,0,0,0,0,0,0,0,0,0,0,0,0,0,0,0,0,0,0,0],"id":1,"left_children":[1,3,5,7,9,11,13,15,17,19,21,23,25,-1,27,-1,-1,-1,-1,-1,-1,-1,-1,-1,-1,-1,-1,-1,-1],"loss_changes":[1.5058897E2,1.492421E1,9.383011E0,9.20481E0,1.265686E1,1.0029301E1,4.022835E0,4.4099293E0,6.7641497E0,1.3693385E1,1.2590858E1,1.189546E1,2.5863867E0,0E0,3.5281067E0,0E0,0E0,0E0,0E0,0E0,0E0,0E0,0E0,0E0,0E0,0E0,0E0,0E0,0E0],"parents":[2147483647,0,0,1,1,2,2,3,3,4,4,5,5,6,6,7,7,8,8,9,9,10,10,11,11,12,12,14,14],"right_children":[2,4,6,8,10,12,14,16,18,20,22,24,26,-1,28,-1,-1,-1,-1,-1,-1,-1,-1,-1,-1,-1,-1,-1,-1],"split_conditions":[7.0642173E-1,3.1435367E-1,7.9972184E-1,-1.5572248E0,8.11577E-1,4.6472317E-1,1.4290448E0,-1.1476151E0,5.494875E-1,-1.8177192E-4,7.260319E-5,8.155308E-1,-9.079359E-1,-5.4166693E-2,3E-1,-8.3993524E-2,8.712546E-2,-2.3913446E-1,1.2660414E-2,8.83721E-2,-1.23049356E-1,-1.5849672E-1,-2.6143E-2,-7.2305195E-2,4.9084675E-2,-2.9450579E-2,1.0771761E-1,1.674259E-2,9.502172E-2],"split_indices":[131,74,131,116,45,0,41,57,131,31,13,45,124,0,18,0,0,0,0,0,0,0,0,0,0,0,0,0,0],"split_type":[0,0,0,0,0,0,0,0,0,0,0,0,0,0,0,0,0,0,0,0,0,0,0,0,0,0,0,0,0],"sum_hessian":[2.119458E2,8.140272E1,1.3054309E2,1.1101277E1,7.030144E1,4.4977955E1,8.556513E1,8.003253E0,3.0980246E0,1.0281065E1,6.0020374E1,3.0878582E1,1.4099372E1,1.3841894E0,8.418095E1,1.0182071E0,6.985046E0,1.2476277E0,1.8503969E0,5.1931334E0,5.087932E0,5.1172405E1,8.847971E0,1.3247407E1,1.7631174E1,1.1070205E0,1.2992352E1,6.7296247E0,7.7451324E1],"tree_param":{"num_deleted":"0","num_feature":"133","num_nodes":"29","size_leaf_vector":"1"}},{"base_weights":[5.2472865E-3,-9.348565E-1,6.087628E-1,2.5036675E-1,-1.0476204E0,2.3810239E-1,8.215546E-1,6.2768495E-1,-8.8737264E-2,-1.4615023E0,-6.8467057E-1,-7.247484E-2,8.9496344E-1,5.4637307E-1,1.0296812E0,-2.9200522E-2,1.00776985E-1,3.0712668E-2,-1.5961969E-1,6.303192E-2,-8.870425E-2,1.2123254E-2,-1.5654123E-1,-3.454979E-2,1.0075351E-1,7.145115E-2,-4.257087E-2,1.069509E-1,-1.8517934E-2],"categories":[],"categories_nodes":[],"categories_segments":[],"categories_sizes":[],"default_left":[0,0,0,0,0,0,0,0,0,0,0,0,0,0,0,0,0,0,0,0,0,0,0,0,0,0,0,0,0],"id":2,"left_children":[1,3,5,7,9,11,13,15,-1,17,19,21,23,25,27,-1,-1,-1,-1,-1,-1,-1,-1,-1,-1,-1,-1,-1,-1],"loss_changes":[1.2085296E2,1.1393005E1,1.003595E1,4.009488E0,1.0451996E1,1.000382E1,4.1339035E0,2.6101592E0,0E0,8.765999E0,1.1869261E1,1.0023426E1,2.5425806E0,6.424033E0,2.402443E0,0E0,0E0,0E0,0E0,0E0,0E0,0E0,0E0,0E0,0E0,0E0,0E0,0E0,0E0],"parents":[2147483647,0,0,1,1,2,2,3,3,4,4,5,5,6,6,7,7,9,9,10,10,11,11,12,12,13,13,14,14],"right_children":[2,4,6,8,10,12,14,16,-1,18,20,22,24,26,28,-1,-1,-1,-1,-1,-1,-1,-1,-1,-1,-1,-1,-1,-1],"split_conditions":[6.988612E-1,-1.2159667E0,7.9972184E-1,3.5604027E-1,5.963602E-1,-8.8991845E-1,-4.214011E-1,6.666667E-1,-8.8737264E-2,-1.1164335E0,1.133445E0,3.037834E-1,3.6656893E-5,-1.5612495E0,3.664321E-1,-2.9200522E-2,1.00776985E-1,3.0712668E-2,-1.5961969E-1,6.303192E-2,-8.870425E-2,1.2123254E-2,-1.5654123E-1,-3.454979E-2,1.0075351E-1,7.145115E-2,-4.257087E-2,1.069509E-1,-1.8517934E-2],"split_indices":[131,49,131,117,131,124,0,22,0,93,73,98,14,116,121,0,0,0,0,0,0,0,0,0,0,0,0,0,0],"split_type":[0,0,0,0,0,0,0,0,0,0,0,0,0,0,0,0,0,0,0,0,0,0,0,0,0,0,0,0,0],"sum_hessian":[2.1100356E2,8.228232E1,1.2872124E2,7.0423474E0,7.5239975E1,4.771893E1,8.1002304E1,5.6251397E0,1.417208E0,3.373933E1,4.150064E1,3.300375E1,1.4715178E1,3.6443077E1,4.4559223E1,1.7126886E0,3.912451E0,2.2970724E0,3.1442259E1,5.2529454E0,3.6247696E1,3.0026619E1,2.9771323E0,1.0521439E0,1.36630335E1,3.1295025E1,5.148051E0,4.3260616E1,1.2986066E0],"tree_param":{"num_deleted":"0","num_feature":"133","num_nodes":"29","size_leaf_vector":"1"}},{"base_weights":[6.8172803E-3,-7.805161E-1,5.9400743E-1,5.643656E-2,-9.0028906E-1,3.6614433E-1,9.3334186E-1,6.503025E-1,-9.485648E-1,1.7429186E-1,-1.0087624E0,7.177374E-1,-2.230594E-1,6.2411763E-2,9.826381E-1,-7.5552024E-2,9.6518844E-2,-1.961813E-1,4.6509854E-3,1.02402985E-1,-7.881852E-2,-1.1163814E-1,4.268789E-2,-1.0446882E-1,7.905445E-2,-9.8808564E-2,4.8763584E-2,7.534855E-2,-8.590563E-2,1.0205561E-1,-1.0866275E-2],"categories":[],"categories_nodes":[],"categories_segments":[],"categories_sizes":[],"default_left":[0,0,0,0,0,0,0,0,0,0,0,0,0,0,0,0,0,0,0,0,0,0,0,0,0,0,0,0,0,0,0],"id":3,"left_children":[1,3,5,7,9,11,13,15,17,19,21,23,25,27,29,-1,-1,-1,-1,-1,-1,-1,-1,-1,-1,-1,-1,-1,-1,-1,-1],"loss_changes":[9.7847435E1,9.114735E0,9.031658E0,7.9343815E0,9.402725E0,1.5525289E1,2.0018501E0,4.4033604E0,5.092852E0,7.440402E0,1.1608017E1,6.8168488E0,1.5967416E1,2.966597E0,1.9900742E0,0E0,0E0,0E0,0E0,0E0,0E0,0E0,0E0,0E0,0E0,0E0,0E0,0E0,0E0,0E0,0E0],"parents":[2147483647,0,0,1,1,2,2,3,3,4,4,5,5,6,6,7,7,8,8,9,9,10,10,11,11,12,12,13,13,14,14],"right_children":[2,4,6,8,10,12,14,16,18,20,22,24,26,28,30,-1,-1,-1,-1,-1,-1,-1,-1,-1,-1,-1,-1,-1,-1,-1,-1],"split_conditions":[7.0642173E-1,3.1435367E-1,5.91743E-1,-1.5620658E0,-5.4778514E-4,1.5E0,-1.20315E-3,-1.1476151E0,5.494875E-1,-3.145815E-1,-1.5498931E0,3.2686827E-1,-5.0695986E-1,1.1423496E0,1.0388229E-1,-7.5552024E-2,9.6518844E-2,-1.961813E-1,4.6509854E-3,1.02402985E-1,-7.881852E-2,-1.1163814E-1,4.268789E-2,-1.0446882E-1,7.905445E-2,-9.8808564E-2,4.8763584E-2,7.534855E-2,-8.590563E-2,1.0205561E-1,-1.0866275E-2],"split_indices":[131,74,50,116,30,22,31,57,131,82,116,121,0,101,94,0,0,0,0,0,0,0,0,0,0,0,0,0,0,0,0],"split_type":[0,0,0,0,0,0,0,0,0,0,0,0,0,0,0,0,0,0,0,0,0,0,0,0,0,0,0,0,0,0,0],"sum_hessian":[2.0964412E2,8.941836E1,1.2022576E2,1.126053E1,7.815782E1,7.317066E1,4.70551E1,7.299885E0,3.9606457E0,7.1105947E0,7.1047226E1,4.5688816E1,2.7481842E1,2.6421201E0,4.441298E1,1.0797855E0,6.220099E0,1.4810368E0,2.479609E0,3.742509E0,3.3680856E0,6.629964E1,4.747596E0,1.2829933E0,4.4405823E1,1.3047058E1,1.4434784E1,1.6139809E0,1.0281391E0,4.298429E1,1.428689E0],"tree_param":{"num_deleted":"0","num_feature":"133","num_nodes":"31","size_leaf_vector":"1"}},{"base_weights":[7.713891E-3,-7.734626E-1,4.943577E-1,9.793304E-2,-8.742384E-1,1.3703223E-1,7.555213E-1,7.874284E-1,-1.2479118E0,-1.0802864E0,-1.9583185E-1,-1.5463646E-1,8.0001056E-1,4.8553923E-1,9.721958E-1,-2.7925221E-2,1.0402747E-1,2.4255006E-2,-1.9778715E-1,-1.14751816E-1,8.008239E-2,-8.426335E-2,2.6678864E-2,-4.5459803E-2,5.6346823E-2,1.0449938E-1,-4.363167E-3,-7.288453E-2,6.0958654E-2,1.0161002E-1,-2.2373905E-2],"categories":[],"categories_nodes":[],"categories_segments":[],"categories_sizes":[],"default_left":[0,0,0,0,0,0,0,0,0,0,0,0,0,0,0,0,0,0,0,0,0,0,0,0,0,0,0,0,0,0,0],"id":4,"left_children":[1,3,5,7,9,11,13,15,17,19,21,23,25,27,29,-1,-1,-1,-1,-1,-1,-1,-1,-1,-1,-1,-1,-1,-1,-1,-1],"loss_changes":[7.980166E1,7.1617737E0,1.1965912E1,9.568255E0,9.898701E0,1.0920324E1,3.8860435E0,2.1059008E0,4.310685E0,7.9072495E0,5.63216E0,8.789005E0,3.6047277E0,5.741911E0,2.3450584E0,0E0,0E0,0E0,0E0,0E0,0E0,0E0,0E0,0E0,0E0,0E0,0E0,0E0,0E0,0E0,0E0],"parents":[2147483647,0,0,1,1,2,2,3,3,4,4,5,5,6,6,7,7,8,8,9,9,10,10,11,11,12,12,13,13,14,14],"right_children":[2,4,6,8,10,12,14,16,18,20,22,24,26,28,30,-1,-1,-1,-1,-1,-1,-1,-1,-1,-1,-1,-1,-1,-1,-1,-1],"split_conditions":[6.794319E-1,8.1142503E-1,7.9972184E-1,-1.0927369E-4,2.3871315E0,4.6472317E-1,-4.214011E-1,5.3240824E-1,-1.3936667E0,1.6451577E-3,-9.743335E-1,7.7640957E-1,-3.5302976E-1,-2.311821E0,3.664321E-1,-2.7925221E-2,1.0402747E-1,2.4255006E-2,-1.9778715E-1,-1.14751816E-1,8.008239E-2,-8.426335E-2,2.6678864E-2,-4.5459803E-2,5.6346823E-2,1.0449938E-1,-4.363167E-3,-7.288453E-2,6.0958654E-2,1.0161002E-1,-2.2373905E-2],"split_indices":[131,45,131,13,43,0,0,131,53,32,84,90,99,86,121,0,0,0,0,0,0,0,0,0,0,0,0,0,0,0,0],"split_type":[0,0,0,0,0,0,0,0,0,0,0,0,0,0,0,0,0,0,0,0,0,0,0,0,0,0,0,0,0,0,0],"sum_hessian":[2.0791309E2,7.957973E1,1.2833336E2,8.2522E0,7.132753E1,5.483395E1,7.3499405E1,5.731031E0,2.5211694E0,5.425625E1,1.7071281E1,3.861329E1,1.622066E1,3.416713E1,3.9332275E1,1.0781624E0,4.6528687E0,1.0483421E0,1.4728273E0,5.2760536E1,1.4957095E0,6.7760615E0,1.029522E1,2.7495157E1,1.1118134E1,1.2385419E1,3.8352406E0,2.7147765E0,3.1452353E1,3.8084515E1,1.2477602E0],"tree_param":{"num_deleted":"0","num_feature":"133","num_nodes":"31","size_leaf_vector":"1"}},{"base_weights":[9.027234E-3,-6.0151327E-1,5.277224E-1,-8.9876515E-1,-3.5216057E-1,3.0354676E-1,8.777225E-1,7.818386E-2,-1.0597738E0,-9.2061484E-1,-7.955625E-2,3.8452685E-1,-2.0036101E-1,9.486032E-1,1.4125937E-1,1.0328474E-1,-8.957677E-2,-1.1525839E-1,8.349503E-2,-1.4426567E-1,5.652494E-3,6.5905385E-2,-2.973992E-2,1.052725E-2,8.6311065E-2,9.9321984E-2,-2.66419E-2,8.415432E-2,-9.1714524E-2],"categories":[],"categories_nodes":[],"categories_segments":[],"categories_sizes":[],"default_left":[0,0,0,0,0,0,0,0,0,0,0,0,0,0,0,0,0,0,0,0,0,0,0,0,0,0,0,0,0],"id":5,"left_children":[1,3,5,7,9,11,13,15,17,19,21,23,-1,25,27,-1,-1,-1,-1,-1,-1,-1,-1,-1,-1,-1,-1,-1,-1],"loss_changes":[6.582759E1,6.760975E0,8.550795E0,6.833275E0,8.228298E0,1.3854401E1,2.1287384E0,7.4368405E0,7.453266E0,8.890542E0,6.1979604E0,9.063163E0,0E0,2.3986473E0,4.4633365E0,0E0,0E0,0E0,0E0,0E0,0E0,0E0,0E0,0E0,0E0,0E0,0E0,0E0,0E0],"parents":[2147483647,0,0,1,1,2,2,3,3,4,4,5,5,6,6,7,7,8,8,9,9,10,10,11,11,13,13,14,14],"right_children":[2,4,6,8,10,12,14,16,18,20,22,24,-1,26,28,-1,-1,-1,-1,-1,-1,-1,-1,-1,-1,-1,-1,-1,-1],"split_conditions":[7.0642173E-1,5.963602E-1,5.91743E-1,1.0699533E0,-2.896245E-1,-6.941729E-1,5E0,6.666667E-1,-2.616019E-1,6.4508903E-1,-1.4449402E0,-1.1464084E0,-2.0036101E-1,-1.1709123E0,1.317267E0,1.0328474E-1,-8.957677E-2,-1.1525839E-1,8.349503E-2,-1.4426567E-1,5.652494E-3,6.5905385E-2,-2.973992E-2,1.052725E-2,8.6311065E-2,9.9321984E-2,-2.66419E-2,8.415432E-2,-9.1714524E-2],"split_indices":[131,131,50,108,80,39,22,21,109,70,112,47,0,49,105,0,0,0,0,0,0,0,0,0,0,0,0,0,0],"split_type":[0,0,0,0,0,0,0,0,0,0,0,0,0,0,0,0,0,0,0,0,0,0,0,0,0,0,0,0,0],"sum_hessian":[2.058626E2,9.448613E1,1.1137646E2,4.1915054E1,5.257108E1,6.902994E1,4.234652E1,6.003309E0,3.5911747E1,1.6268894E1,3.6302185E1,6.7494255E1,1.5356827E0,3.8365944E1,3.980573E0,3.001136E0,3.002173E0,3.4608204E1,1.3035411E0,1.0293261E1,5.9756327E0,7.806933E0,2.8495253E1,4.3393845E1,2.4100407E1,3.71831E1,1.182844E0,2.518876E0,1.4616969E0],"tree_param":{"num_deleted":"0","num_feature":"133","num_nodes":"29","size_leaf_vector":"1"}},{"base_weights":[9.226114E-3,-5.299316E-1,4.944407E-1,3.1130937E-1,-6.011047E-1,3.012745E-1,8.9176124E-1,-1.03545666E-1,6.8923163E-1,-6.996487E-1,2.2230701E-1,2.1080969E-2,7.916093E-1,9.661233E-1,-5.2128907E-2,-5.5214204E-2,1.05716646E-1,-1.1545982E-1,-5.298103E-2,-1.0961004E-1,6.473922E-2,4.7434922E-2,-7.552337E-2,-2.3316016E-2,8.78239E-2,-1.27150295E-2,1.018297E-1],"categories":[],"categories_nodes":[],"categories_segments":[],"categories_sizes":[],"default_left":[0,0,0,0,0,0,0,0,0,0,0,0,0,0,0,0,0,0,0,0,0,0,0,0,0,0,0],"id":6,"left_children":[1,3,5,7,9,11,13,-1,15,17,19,21,23,25,-1,-1,-1,-1,-1,-1,-1,-1,-1,-1,-1,-1,-1],"loss_changes":[5.3838974E1,6.0242195E0,8.043951E0,4.9195848E0,7.4767075E0,1.0203408E1,4.1730404E0,0E0,3.8052006E0,5.633354E0,6.5397034E0,1.7376928E1,2.603754E0,2.0417843E0,0E0,0E0,0E0,0E0,0E0,0E0,0E0,0E0,0E0,0E0,0E0,0E0,0E0],"parents":[2147483647,0,0,1,1,2,2,3,3,4,4,5,5,6,6,8,8,9,9,10,10,11,11,12,12,13,13],"right_children":[2,4,6,8,10,12,14,-1,16,18,20,22,24,26,-1,-1,-1,-1,-1,-1,-1,-1,-1,-1,-1,-1,-1],"split_conditions":[7.0642173E-1,-5.3833854E-1,1.0949305E-4,7.5355315E-1,5.479594E-1,5.9173805E-1,9.327586E-1,-1.03545666E-1,7.402354E-1,4.2857143E-1,-8.8602245E-1,1.5E0,7.314319E-1,-3.0326867E-1,-5.2128907E-2,-5.5214204E-2,1.05716646E-1,-1.1545982E-1,-5.298103E-2,-1.0961004E-1,6.473922E-2,4.7434922E-2,-7.552337E-2,-2.3316016E-2,8.78239E-2,-1.27150295E-2,1.018297E-1],"split_indices":[131,52,12,90,88,50,25,0,38,25,125,22,131,80,0,0,0,0,0,0,0,0,0,0,0,0,0],"split_type":[0,0,0,0,0,0,0,0,0,0,0,0,0,0,0,0,0,0,0,0,0,0,0,0,0,0,0],"sum_hessian":[2.0379924E2,9.648996E1,1.0730927E2,7.263536E0,8.9226425E1,7.338823E1,3.3921047E1,1.2103739E0,6.053162E0,7.982363E1,9.402798E0,4.7365185E1,2.6023045E1,3.252566E1,1.3953835E0,1.2694659E0,4.783696E0,2.0122593E1,5.9701035E1,1.9076504E0,7.4951477E0,3.0150267E1,1.7214916E1,1.8965619E0,2.4126482E1,1.4160475E0,3.1109615E1],"tree_param":{"num_deleted":"0","num_feature":"133","num_nodes":"27","size_leaf_vector":"1"}},{"base_weights":[9.121476E-3,-5.605759E-1,4.0073094E-1,-7.2671396E-1,-1.0086219E-1,8.0718055E-2,6.6951233E-1,-9.479302E-1,-1.474084E-1,-1.3782437E0,3.2176158E-1,1.7753954E-1,-1.5640298E0,-1.2369411E-1,7.417712E-1,-1.1259904E-1,9.808579E-3,5.0303657E-2,-5.3080488E-2,1.5660932E-2,-1.9466946E-1,-1.5475951E-2,1.0027987E-1,-3.7026223E-2,5.697472E-2,-1.9583157E-1,-3.454904E-2,8.125933E-2,-9.014287E-2,-7.008981E-2,7.832352E-2],"categories":[],"categories_nodes":[],"categories_segments":[],"categories_sizes":[],"default_left":[0,0,0,0,0,0,0,0,0,0,0,0,0,0,0,0,0,0,0,0,0,0,0,0,0,0,0,0,0,0,0],"id":7,"left_children":[1,3,5,7,9,11,13,15,17,19,21,23,25,27,29,-1,-1,-1,-1,-1,-1,-1,-1,-1,-1,-1,-1,-1,-1,-1,-1],"loss_changes":[4.5438484E1,6.2640743E0,1.0326654E1,7.6503754E0,1.2961492E1,9.232128E0,3.8434868E0,8.269432E0,4.751418E0,5.499507E0,6.0726714E0,1.1813386E1,8.743291E-1,5.336183E0,4.1461563E0,0E0,0E0,0E0,0E0,0E0,0E0,0E0,0E0,0E0,0E0,0E0,0E0,0E0,0E0,0E0,0E0],"parents":[2147483647,0,0,1,1,2,2,3,3,4,4,5,5,6,6,7,7,8,8,9,9,10,10,11,11,12,12,13,13,14,14],"right_children":[2,4,6,8,10,12,14,16,18,20,22,24,26,28,30,-1,-1,-1,-1,-1,-1,-1,-1,-1,-1,-1,-1,-1,-1,-1,-1],"split_conditions":[6.737199E-1,1.05E0,7.9972184E-1,2.3871315E0,-8.8495225E-1,8.3928573E-1,3E-1,-2.7172744E-1,9.7513735E-1,1.076E3,1.4233592E0,-8.997368E-1,6.225115E-2,-6.753392E-1,1.4290448E0,-1.1259904E-1,9.808579E-3,5.0303657E-2,-5.3080488E-2,1.5660932E-2,-1.9466946E-1,-1.5475951E-2,1.0027987E-1,-3.7026223E-2,5.697472E-2,-1.9583157E-1,-3.454904E-2,8.125933E-2,-9.014287E-2,-7.008981E-2,7.832352E-2],"split_indices":[131,18,131,43,125,25,18,114,76,9,92,124,128,35,41,0,0,0,0,0,0,0,0,0,0,0,0,0,0,0,0],"split_type":[0,0,0,0,0,0,0,0,0,0,0,0,0,0,0,0,0,0,0,0,0,0,0,0,0,0,0,0,0,0,0],"sum_hessian":[2.0166281E2,8.1976006E1,1.19686806E2,5.9788113E1,2.2187895E1,5.5229965E1,6.445684E1,4.280578E1,1.6982332E1,4.9538155E0,1.723408E1,5.3001953E1,2.228013E0,5.3221583E0,5.913468E1,3.6513706E1,6.292074E0,6.182115E0,1.0800218E1,1.5346532E0,3.419162E0,1.0594132E1,6.639947E0,2.2137774E1,3.0864178E1,1.2246495E0,1.0033635E0,2.3945827E0,2.9275756E0,1.2077929E0,5.7926888E1],"tree_param":{"num_deleted":"0","num_feature":"133","num_nodes":"31","size_leaf_vector":"1"}},{"base_weights":[7.753574E-3,-4.005946E-1,4.604191E-1,-3.4019262E-1,-1.5302032E0,2.4336068E-1,8.1045485E-1,-4.3550798E-1,4.8585308E-1,-1.9625221E-1,-9.580954E-3,5.03741E-1,-5.609225E-1,1.0430167E0,4.597851E-1,-1.4619546E-2,-7.319598E-2,1.0440183E-1,-2.0848433E-2,-1.3933324E-3,7.534925E-2,-1.4998075E-1,4.3346424E-2,8.8361455E-3,1.0870494E-1,7.808467E-2,-1.18842445E-1],"categories":[],"categories_nodes":[],"categories_segments":[],"categories_sizes":[],"default_left":[0,0,0,0,0,0,0,0,0,0,0,0,0,0,0,0,0,0,0,0,0,0,0,0,0,0,0],"id":8,"left_children":[1,3,5,7,9,11,13,15,17,-1,-1,19,21,23,25,-1,-1,-1,-1,-1,-1,-1,-1,-1,-1,-1,-1],"loss_changes":[3.718088E1,6.695492E0,7.050211E0,8.217161E0,2.963541E0,1.2912056E1,2.4629574E0,7.756668E0,4.4773893E0,0E0,0E0,5.968816E0,1.4861797E1,7.827358E-1,9.487762E0,0E0,0E0,0E0,0E0,0E0,0E0,0E0,0E0,0E0,0E0,0E0,0E0],"parents":[2147483647,0,0,1,1,2,2,3,3,4,4,5,5,6,6,7,7,8,8,11,11,12,12,13,13,14,14],"right_children":[2,4,6,8,10,12,14,16,18,-1,-1,20,22,24,26,-1,-1,-1,-1,-1,-1,-1,-1,-1,-1,-1,-1],"split_conditions":[7.181556E-1,8.333333E-1,5.9173805E-1,1.1024548E-4,-3.1641102E-1,-2.1977844E0,-6.94893E-1,8.72E2,9.15248E-4,-1.9625221E-1,-9.580954E-3,9.7411686E-1,-5.0695986E-1,2.5874175E-2,1.6799186E-1,-1.4619546E-2,-7.319598E-2,1.0440183E-1,-2.0848433E-2,-1.3933324E-3,7.534925E-2,-1.4998075E-1,4.3346424E-2,8.8361455E-3,1.0870494E-1,7.808467E-2,-1.18842445E-1],"split_indices":[131,25,50,13,99,86,39,9,14,0,0,76,0,128,46,0,0,0,0,0,0,0,0,0,0,0,0],"split_type":[0,0,0,0,0,0,0,0,0,0,0,0,0,0,0,0,0,0,0,0,0,0,0,0,0,0,0],"sum_hessian":[1.991483E2,1.0475982E2,9.438847E1,1.0067759E2,4.08223E0,5.9307148E1,3.508133E1,9.06863E1,9.991287E0,2.8538926E0,1.2283378E0,4.508493E1,1.4222216E1,1.9905664E1,1.5175665E1,4.6651466E1,4.4034836E1,5.259585E0,4.7317023E0,1.4979749E1,3.0105183E1,7.0538254E0,7.16839E0,1.0102186E0,1.8895447E1,1.3141937E1,2.033727E0],"tree_param":{"num_deleted":"0","num_feature":"133","num_nodes":"27","size_leaf_vector":"1"}},{"base_weights":[7.7176644E-3,-2.991669E-1,5.3150004E-1,-2.3657164E-1,-1.4912945E0,2.9481536E-1,8.444894E-1,-4.8854473E-1,6.494543E-2,-1.8293373E-1,-9.0333875E-3,-1.2405674E0,4.2732626E-1,-3.680764E-2,8.990247E-1,3.4778573E-2,-6.457409E-2,-3.7004203E-2,4.909415E-2,-2.0219319E-1,1.7871235E-2,-5.8837213E-2,5.596265E-2,1.0418492E-1,3.7248373E-2],"categories":[],"categories_nodes":[],"categories_segments":[],"categories_sizes":[],"default_left":[0,0,0,0,0,0,0,0,0,0,0,0,0,0,0,0,0,0,0,0,0,0,0,0,0],"id":9,"left_children":[1,3,5,7,9,11,13,15,17,-1,-1,19,21,-1,23,-1,-1,-1,-1,-1,-1,-1,-1,-1,-1],"loss_changes":[3.2002537E1,9.016396E0,5.199505E0,9.185178E0,2.711855E0,9.363259E0,2.3896675E0,8.868608E0,1.0508775E1,0E0,0E0,4.470647E0,5.799782E0,0E0,1.8743057E0,0E0,0E0,0E0,0E0,0E0,0E0,0E0,0E0,0E0,0E0],"parents":[2147483647,0,0,1,1,2,2,3,3,4,4,5,5,6,6,7,7,8,8,11,11,12,12,14,14],"right_children":[2,4,6,8,10,12,14,16,18,-1,-1,20,22,-1,24,-1,-1,-1,-1,-1,-1,-1,-1,-1,-1],"split_conditions":[7.6433206E-1,8.333333E-1,1E0,6.449341E-1,-3.1641102E-1,-1.3935393E0,3.2833102E-1,1.0699533E0,-3.2532272E-1,-1.8293373E-1,-9.0333875E-3,8.079469E-1,-1.0384959E0,-3.680764E-2,-6.3489366E-1,3.4778573E-2,-6.457409E-2,-3.7004203E-2,4.909415E-2,-2.0219319E-1,1.7871235E-2,-5.8837213E-2,5.596265E-2,1.0418492E-1,3.7248373E-2],"split_indices":[131,25,6,131,99,53,121,108,109,0,0,38,103,0,78,0,0,0,0,0,0,0,0,0,0],"split_type":[0,0,0,0,0,0,0,0,0,0,0,0,0,0,0,0,0,0,0,0,0,0,0,0,0],"sum_hessian":[1.9710493E2,1.2455618E2,7.2548744E1,1.1948102E2,5.075166E0,4.2415665E1,3.013308E1,6.475009E1,5.473093E1,3.842276E0,1.2328904E0,2.705497E0,3.9710167E1,1.0494628E0,2.9083616E1,1.0052955E1,5.4697136E1,2.714467E1,2.7586258E1,1.4710262E0,1.234471E0,4.179092E0,3.553108E1,2.2108114E1,6.975501E0],"tree_param":{"num_deleted":"0","num_feature":"133","num_nodes":"25","size_leaf_vector":"1"}},{"base_weights":[6.6989628E-3,-2.421393E-1,5.6486595E-1,-4.655999E-1,-1.0653945E-2,3.4566268E-1,8.7107074E-1,3.503516E-1,-5.646258E-1,4.9784705E-1,-2.5063974E-1,-4.7076026E-1,5.1140904E-1,-2.630702E-2,9.789306E-1,1.0395949E-1,-1.080151E-1,-6.566262E-2,5.2041292E-2,6.2464535E-2,-8.000383E-2,-4.8677918E-2,4.1929495E-2,-2.274128E-1,8.943502E-2,6.6461004E-2,-3.6352575E-2,1.06349126E-1,-2.3143886E-2],"categories":[],"categories_nodes":[],"categories_segments":[],"categories_sizes":[],"default_left":[0,0,0,0,0,0,0,0,0,0,0,0,0,0,0,0,0,0,0,0,0,0,0,0,0,0,0,0,0],"id":10,"left_children":[1,3,5,7,9,11,13,15,17,19,21,23,25,-1,27,-1,-1,-1,-1,-1,-1,-1,-1,-1,-1,-1,-1,-1,-1],"loss_changes":[2.7342663E1,7.039243E0,3.7730198E0,5.794589E0,8.412221E0,5.2519383E0,3.2748375E0,9.122707E0,6.5460815E0,4.1382394E0,7.608132E0,1.8700481E1,4.432021E0,0E0,2.5730953E0,0E0,0E0,0E0,0E0,0E0,0E0,0E0,0E0,0E0,0E0,0E0,0E0,0E0,0E0],"parents":[2147483647,0,0,1,1,2,2,3,3,4,4,5,5,6,6,7,7,8,8,9,9,10,10,11,11,12,12,14,14],"right_children":[2,4,6,8,10,12,14,16,18,20,22,24,26,-1,28,-1,-1,-1,-1,-1,-1,-1,-1,-1,-1,-1,-1,-1,-1],"split_conditions":[7.917298E-1,6.449341E-1,-9.651392E-2,-4.3941557E-4,5.044062E-1,5.9023935E-1,-5.5794787E-2,-1.3265113E0,5.485664E-4,8.333333E-1,-8.9154536E-1,2.3578365E-1,5.592526E-1,-2.630702E-2,-2.783331E-1,1.0395949E-1,-1.080151E-1,-6.566262E-2,5.2041292E-2,6.2464535E-2,-8.000383E-2,-4.8677918E-2,4.1929495E-2,-2.274128E-1,8.943502E-2,6.6461004E-2,-3.6352575E-2,1.06349126E-1,-2.3143886E-2],"split_indices":[131,131,0,12,70,50,122,112,30,25,124,37,56,0,109,0,0,0,0,0,0,0,0,0,0,0,0,0,0],"split_type":[0,0,0,0,0,0,0,0,0,0,0,0,0,0,0,0,0,0,0,0,0,0,0,0,0,0,0,0,0],"sum_hessian":[1.9487617E2,1.3517815E2,5.9698025E1,6.826667E1,6.691147E1,3.603236E1,2.3665668E1,7.1136675E0,6.1153008E1,2.1109177E1,4.580229E1,5.770104E0,3.0262255E1,1.9302441E0,2.1735424E1,4.9850445E0,2.1286232E0,5.6737103E1,4.415902E0,1.9702991E1,1.4061842E0,3.406752E1,1.173477E1,2.1991034E0,3.5710003E0,2.5957493E1,4.3047633E0,2.0429497E1,1.3059261E0],"tree_param":{"num_deleted":"0","num_feature":"133","num_nodes":"29","size_leaf_vector":"1"}},{"base_weights":[7.034868E-3,-2.1680766E-1,5.3404737E-1,-1.638798E-1,-1.1678416E0,3.4410122E-1,8.9717E-1,3.7661394E-1,-2.7626583E-1,2.8583229E-2,-1.5095024E0,3.7319586E-2,7.6645404E-1,6.586559E-2,1.0399083E-1,-1.2334936E-1,5.8947306E-2,1.3736919E-2,-4.5639258E-2,-1.6942501E-1,-4.2430185E-2,3.384989E-2,-1.0741464E-1,-7.162603E-2,9.310543E-2,-9.148731E-2,7.299003E-2],"categories":[],"categories_nodes":[],"categories_segments":[],"categories_sizes":[],"default_left":[0,0,0,0,0,0,0,0,0,0,0,0,0,0,0,0,0,0,0,0,0,0,0,0,0,0,0],"id":11,"left_children":[1,3,5,7,9,11,13,15,17,-1,19,21,23,25,-1,-1,-1,-1,-1,-1,-1,-1,-1,-1,-1,-1,-1],"loss_changes":[2.2961887E1,6.6865835E0,3.6933575E0,8.037226E0,3.928135E0,5.1176424E0,2.2222567E0,8.577097E0,8.1612625E0,0E0,4.5593357E-1,8.416975E0,4.7328405E0,3.2054486E0,0E0,0E0,0E0,0E0,0E0,0E0,0E0,0E0,0E0,0E0,0E0,0E0,0E0],"parents":[2147483647,0,0,1,1,2,2,3,3,4,4,5,5,6,6,7,7,8,8,10,10,11,11,12,12,13,13],"right_children":[2,4,6,8,10,12,14,16,18,-1,20,22,24,26,-1,-1,-1,-1,-1,-1,-1,-1,-1,-1,-1,-1,-1],"split_conditions":[7.917298E-1,8.333333E-1,5.3968438E3,1.0930638E0,1.4335439E0,-1.3864986E0,3.8830408E-1,2.5538462E-1,8.995867E2,2.8583229E-2,-2.9197195E-1,1.2199689E0,8E-2,1.9638798E-1,1.0399083E-1,-1.2334936E-1,5.8947306E-2,1.3736919E-2,-4.5639258E-2,-1.6942501E-1,-4.2430185E-2,3.384989E-2,-1.0741464E-1,-7.162603E-2,9.310543E-2,-9.148731E-2,7.299003E-2],"split_indices":[131,25,11,104,41,53,23,20,8,0,109,101,27,85,0,0,0,0,0,0,0,0,0,0,0,0,0],"split_type":[0,0,0,0,0,0,0,0,0,0,0,0,0,0,0,0,0,0,0,0,0,0,0,0,0,0,0],"sum_hessian":[1.9266385E2,1.3564064E2,5.70232E1,1.2960033E2,6.040325E0,3.8717857E1,1.8305346E1,2.190455E1,1.0769577E2,1.1805992E0,4.859726E0,2.3057842E1,1.5660013E1,2.8966663E0,1.5408678E1,1.9978143E0,1.9906736E1,3.274318E1,7.495259E1,3.6731634E0,1.1865623E0,1.8689034E1,4.36881E0,1.22987E0,1.4430143E1,1.0169477E0,1.8797185E0],"tree_param":{"num_deleted":"0","num_feature":"133","num_nodes":"27","size_leaf_vector":"1"}},{"base_weights":[6.1816364E-3,-3.480867E-1,2.9432818E-1,4.014182E-1,-4.3705523E-1,1.207638E-1,7.7769136E-1,-9.406426E-2,8.366716E-1,-2.0796033E-2,-5.901667E-1,9.353663E-1,-4.11577E-2,9.3795514E-1,-1.26022E-2,-3.967635E-4,1.1243143E-1,-1.1727723E-1,1.572585E-2,-7.294139E-2,3.1098291E-2,1.0524481E-1,8.254721E-3,1.8153531E-2,-8.283942E-2,1.0059203E-1,-2.3922313E-2,8.37653E-2,-7.894482E-2],"categories":[],"categories_nodes":[],"categories_segments":[],"categories_sizes":[],"default_left":[0,0,0,0,0,0,0,0,0,0,0,0,0,0,0,0,0,0,0,0,0,0,0,0,0,0,0,0,0],"id":12,"left_children":[1,3,5,7,9,11,13,-1,15,17,19,21,23,25,27,-1,-1,-1,-1,-1,-1,-1,-1,-1,-1,-1,-1,-1,-1],"loss_changes":[1.969509E1,5.946574E0,8.831234E0,6.455773E0,4.9489174E0,1.0519592E1,3.5485249E0,0E0,1.9043589E0,4.6906548E0,7.3633804E0,1.232933E0,1.1938973E1,2.0991364E0,4.422727E0,0E0,0E0,0E0,0E0,0E0,0E0,0E0,0E0,0E0,0E0,0E0,0E0,0E0,0E0],"parents":[2147483647,0,0,1,1,2,2,3,3,4,4,5,5,6,6,8,8,9,9,10,10,11,11,12,12,13,13,14,14],"right_children":[2,4,6,8,10,12,14,-1,16,18,20,22,24,26,28,-1,-1,-1,-1,-1,-1,-1,-1,-1,-1,-1,-1,-1,-1],"split_conditions":[6.737199E-1,8.1142503E-1,4.6472317E-1,1.881431E-1,1.1520156E0,1.0944507E0,6.82636E-2,-9.406426E-2,-2.9133472E-1,3.07971E-1,7.260319E-5,3.3099187E-4,1.2118477E0,1.5797208E-3,-8.3043426E-1,-3.967635E-4,1.1243143E-1,-1.1727723E-1,1.572585E-2,-7.294139E-2,3.1098291E-2,1.0524481E-1,8.254721E-3,1.8153531E-2,-8.283942E-2,1.0059203E-1,-2.3922313E-2,8.37653E-2,-7.894482E-2],"split_indices":[131,45,0,85,68,104,128,0,80,23,13,13,101,32,83,0,0,0,0,0,0,0,0,0,0,0,0,0,0],"split_type":[0,0,0,0,0,0,0,0,0,0,0,0,0,0,0,0,0,0,0,0,0,0,0,0,0,0,0,0,0],"sum_hessian":[1.9093187E2,8.5546616E1,1.0538526E2,8.704518E0,7.6842094E1,7.846144E1,2.6923822E1,1.8473277E0,6.85719E0,2.0969313E1,5.5872784E1,1.22179785E1,6.624346E1,2.2229128E1,4.694693E0,1.9995852E0,4.857605E0,2.0593228E0,1.890999E1,4.855981E1,7.312974E0,1.0537258E1,1.68072E0,5.223629E1,1.400717E1,2.1153309E1,1.0758191E0,2.204071E0,2.4906223E0],"tree_param":{"num_deleted":"0","num_feature":"133","num_nodes":"29","size_leaf_vector":"1"}},{"base_weights":[6.7562307E-3,-1.848968E-1,4.8795098E-1,-1.463707E-1,-1.2997228E0,3.0072847E-1,8.651495E-1,2.4331516E-1,-2.5843775E-1,-1.6121128E-1,-1.1853863E-2,-9.505111E-2,6.411834E-1,4.884662E-2,1.01926506E-1,-2.643001E-2,6.9905855E-2,-3.6202036E-2,4.126548E-2,1.0433504E-2,-1.5912768E-1,-1.8983737E-2,8.721288E-2,-8.414421E-2,7.0521E-2],"categories":[],"categories_nodes":[],"categories_segments":[],"categories_sizes":[],"default_left":[0,0,0,0,0,0,0,0,0,0,0,0,0,0,0,0,0,0,0,0,0,0,0,0,0],"id":13,"left_children":[1,3,5,7,9,11,13,15,17,-1,-1,19,21,23,-1,-1,-1,-1,-1,-1,-1,-1,-1,-1,-1],"loss_changes":[1.7604692E1,5.6743717E0,3.579442E0,5.875976E0,1.4450774E0,5.1634636E0,2.1520681E0,7.1818504E0,7.3694544E0,0E0,0E0,5.6498857E0,4.0972214E0,2.8314133E0,0E0,0E0,0E0,0E0,0E0,0E0,0E0,0E0,0E0,0E0,0E0],"parents":[2147483647,0,0,1,1,2,2,3,3,4,4,5,5,6,6,7,7,8,8,11,11,12,12,13,13],"right_children":[2,4,6,8,10,12,14,16,18,-1,-1,20,22,24,-1,-1,-1,-1,-1,-1,-1,-1,-1,-1,-1],"split_conditions":[7.917298E-1,8.8018435E-1,5.3968438E3,-2.2960463E0,2.204224E3,6.5061504E-1,3.8830408E-1,6.1978775E-1,7.260319E-5,-1.6121128E-1,-1.1853863E-2,6.448454E-1,-2.311821E0,1.9638798E-1,1.01926506E-1,-2.643001E-2,6.9905855E-2,-3.6202036E-2,4.126548E-2,1.0433504E-2,-1.5912768E-1,-1.8983737E-2,8.721288E-2,-8.414421E-2,7.0521E-2],"split_indices":[131,25,11,86,8,75,23,131,13,0,0,75,86,85,0,0,0,0,0,0,0,0,0,0,0],"split_type":[0,0,0,0,0,0,0,0,0,0,0,0,0,0,0,0,0,0,0,0,0,0,0,0,0],"sum_hessian":[1.8891553E2,1.3554546E2,5.337007E1,1.3211125E2,3.4341996E0,3.6867935E1,1.6502136E1,2.9245611E1,1.0286564E2,2.4273946E0,1.0068052E0,1.7382063E1,1.9485874E1,2.8299115E0,1.3672224E1,1.4034167E1,1.5211443E1,8.9510345E1,1.3355299E1,1.6158993E1,1.2230701E0,4.276296E0,1.5209578E1,1.0812848E0,1.7486267E0],"tree_param":{"num_deleted":"0","num_feature":"133","num_nodes":"25","size_leaf_vector":"1"}},{"base_weights":[6.420911E-3,-1.6051097E-1,4.7769263E-1,-1.1816017E-1,-1.0308158E0,1.8708006E-1,7.657338E-1,5.276561E-1,-1.8642622E-1,2.6419614E-2,-1.3552032E0,3.984928E-1,-7.1581215E-1,-3.222998E-2,8.9897335E-1,1.01909555E-1,-2.2734951E-2,2.2915736E-2,-3.34664E-2,-1.541278E-1,-4.0916763E-2,-6.596925E-2,5.9495624E-2,-1.8980756E-1,7.758536E-2,7.753595E-2,-1.3555966E-1,1.0333487E-1,-2.320456E-2],"categories":[],"categories_nodes":[],"categories_segments":[],"categories_sizes":[],"default_left":[0,0,0,0,0,0,0,0,0,0,0,0,0,0,0,0,0,0,0,0,0,0,0,0,0,0,0,0,0],"id":14,"left_children":[1,3,5,7,9,11,13,15,17,-1,19,21,23,25,27,-1,-1,-1,-1,-1,-1,-1,-1,-1,-1,-1,-1,-1,-1],"loss_changes":[1.4876547E1,5.0260515E0,3.9968414E0,6.019965E0,3.0262623E0,5.2372622E0,2.6355104E0,5.0928884E0,7.605682E0,0E0,2.9220486E-1,4.896125E0,1.0783463E1,5.8317456E0,3.437868E0,0E0,0E0,0E0,0E0,0E0,0E0,0E0,0E0,0E0,0E0,0E0,0E0,0E0,0E0],"parents":[2147483647,0,0,1,1,2,2,3,3,4,4,5,5,6,6,7,7,8,8,10,10,11,11,12,12,13,13,14,14],"right_children":[2,4,6,8,10,12,14,16,18,-1,20,22,24,26,28,-1,-1,-1,-1,-1,-1,-1,-1,-1,-1,-1,-1,-1,-1],"split_conditions":[7.9972184E-1,8.3928573E-1,-4.214011E-1,8.1142503E-1,1.432886E0,-1.5612495E0,9.721949E-1,7.2827905E-5,8.1183435E2,2.6419614E-2,6.401892E-2,-1.3933051E0,2.4326096E-1,6.401892E-2,-2.871168E-1,1.01909555E-1,-2.2734951E-2,2.2915736E-2,-3.34664E-2,-1.541278E-1,-4.0916763E-2,-6.596925E-2,5.9495624E-2,-1.8980756E-1,7.758536E-2,7.753595E-2,-1.3555966E-1,1.0333487E-1,-2.320456E-2],"split_indices":[131,25,0,45,41,116,76,31,8,0,128,53,115,128,109,0,0,0,0,0,0,0,0,0,0,0,0,0,0],"split_type":[0,0,0,0,0,0,0,0,0,0,0,0,0,0,0,0,0,0,0,0,0,0,0,0,0,0,0,0,0],"sum_hessian":[1.8712534E2,1.3866678E2,4.8458553E1,1.3331517E2,5.351618E0,2.494269E1,2.3515865E1,1.210156E1,1.212136E2,1.1091694E0,4.2424483E0,2.0663069E1,4.279621E0,3.4731977E0,2.0042667E1,7.118368E0,4.9831915E0,3.1725502E1,8.9488106E1,3.0193734E0,1.223075E0,2.8663857E0,1.7796682E1,2.23542E0,2.0442014E0,2.4140904E0,1.0591072E0,1.7991474E1,2.051195E0],"tree_param":{"num_deleted":"0","num_feature":"133","num_nodes":"29","size_leaf_vector":"1"}},{"base_weights":[5.8013913E-3,-2.7529153E-1,2.4901228E-1,-1.527541E-1,-2.2092947E-1,8.530225E-2,7.341524E-1,-3.558718E-1,1.435102E-1,9.037495E-1,-6.388453E-2,9.527793E-1,5.14159E-2,1.581065E-2,-5.2088376E-2,-9.151714E-2,4.7875747E-2,1.0228492E-1,9.33559E-3,1.0799395E-2,-8.7188266E-2,4.2593544E-3,1.03350304E-1,-1.3459422E-1,5.000622E-2],"categories":[],"categories_nodes":[],"categories_segments":[],"categories_sizes":[],"default_left":[0,0,0,0,0,0,0,0,0,0,0,0,0,0,0,0,0,0,0,0,0,0,0,0,0],"id":15,"left_children":[1,3,5,-1,7,9,11,13,15,17,19,21,23,-1,-1,-1,-1,-1,-1,-1,-1,-1,-1,-1,-1],"loss_changes":[1.2806461E1,5.5785737E0,7.9127574E0,0E0,4.2045975E0,9.363428E0,3.71317E0,5.3342524E0,8.791146E0,1.0449886E0,9.176259E0,1.3544903E0,5.1683574E0,0E0,0E0,0E0,0E0,0E0,0E0,0E0,0E0,0E0,0E0,0E0,0E0],"parents":[2147483647,0,0,1,1,2,2,4,4,5,5,6,6,7,7,8,8,9,9,10,10,11,11,12,12],"right_children":[2,4,6,-1,8,10,12,14,16,18,20,22,24,-1,-1,-1,-1,-1,-1,-1,-1,-1,-1,-1,-1],"split_conditions":[6.737199E-1,-4.822921E-1,4.6472317E-1,-1.527541E-1,1.05E0,1.0944507E0,3.5257274E-1,2.0430493E0,-8.8495225E-1,3.3099187E-4,1.2193078E0,3.3005795E-1,-1.1463751E0,1.581065E-2,-5.2088376E-2,-9.151714E-2,4.7875747E-2,1.0228492E-1,9.33559E-3,1.0799395E-2,-8.7188266E-2,4.2593544E-3,1.03350304E-1,-1.3459422E-1,5.000622E-2],"split_indices":[131,79,0,0,18,104,121,102,125,13,101,121,57,0,0,0,0,0,0,0,0,0,0,0,0],"split_type":[0,0,0,0,0,0,0,0,0,0,0,0,0,0,0,0,0,0,0,0,0,0,0,0,0],"sum_hessian":[1.853225E2,8.59051E1,9.9417404E1,2.4466326E0,8.345846E1,7.521276E1,2.420464E1,6.0923588E1,2.2534874E1,1.0816265E1,6.43965E1,1.8034178E1,6.170462E0,1.48161545E1,4.6107433E1,5.0037208E0,1.7531153E1,9.201763E0,1.614502E0,5.38152E1,1.05813E1,1.5935905E0,1.6440588E1,1.0135725E0,5.15689E0],"tree_param":{"num_deleted":"0","num_feature":"133","num_nodes":"25","size_leaf_vector":"1"}},{"base_weights":[5.1674074E-3,-1.3942373E-1,4.3706542E-1,2.057802E-1,-2.3893856E-1,1.6352867E-1,7.2647625E-1,-8.147548E-1,3.7821826E-1,1.4826189E-1,-4.1402164E-1,-1.1743011E-1,8.333544E-1,-7.54048E-2,8.698535E-1,1.974718E-2,-1.3995527E-1,6.737738E-2,-1.25512555E-2,9.027805E-2,-5.3858627E-3,-8.8476054E-2,-2.3013756E-2,1.201716E-2,-1.8766503E-1,9.433511E-2,5.7027605E-3,-1.2439375E-1,7.441306E-2,1.0151341E-1,-1.9753978E-2],"categories":[],"categories_nodes":[],"categories_segments":[],"categories_sizes":[],"default_left":[0,0,0,0,0,0,0,0,0,0,0,0,0,0,0,0,0,0,0,0,0,0,0,0,0,0,0,0,0,0,0],"id":16,"left_children":[1,3,5,7,9,11,13,15,17,19,21,23,25,27,29,-1,-1,-1,-1,-1,-1,-1,-1,-1,-1,-1,-1,-1,-1,-1,-1],"loss_changes":[1.1582551E1,4.823577E0,3.5636368E0,5.8756294E0,7.406273E0,4.841173E0,2.6308136E0,3.1710105E0,4.2155695E0,5.305784E0,6.277384E0,8.0139885E0,5.927577E-1,5.047868E0,3.1480217E0,0E0,0E0,0E0,0E0,0E0,0E0,0E0,0E0,0E0,0E0,0E0,0E0,0E0,0E0,0E0,0E0],"parents":[2147483647,0,0,1,1,2,2,3,3,4,4,5,5,6,6,7,7,8,8,9,9,10,10,11,11,12,12,13,13,14,14],"right_children":[2,4,6,8,10,12,14,16,18,20,22,24,26,28,30,-1,-1,-1,-1,-1,-1,-1,-1,-1,-1,-1,-1,-1,-1,-1,-1],"split_conditions":[7.9972184E-1,-2.2960463E0,-4.214011E-1,5.386184E-1,-1.0859486E0,7.3407966E-5,9.721949E-1,2.72E2,-3.072256E-1,1.070203E0,4.386646E-1,-7.278285E-5,5.9227705E-1,4.1666666E-1,-2.871168E-1,1.974718E-2,-1.3995527E-1,6.737738E-2,-1.25512555E-2,9.027805E-2,-5.3858627E-3,-8.8476054E-2,-2.3013756E-2,1.201716E-2,-1.8766503E-1,9.433511E-2,5.7027605E-3,-1.2439375E-1,7.441306E-2,1.0151341E-1,-1.9753978E-2],"split_indices":[131,86,0,131,93,12,76,9,109,108,25,13,50,23,109,0,0,0,0,0,0,0,0,0,0,0,0,0,0,0,0],"split_type":[0,0,0,0,0,0,0,0,0,0,0,0,0,0,0,0,0,0,0,0,0,0,0,0,0,0,0,0,0,0,0],"sum_hessian":[1.8349747E2,1.379812E2,4.5516266E1,3.0637138E1,1.0734407E2,2.4204454E1,2.1311811E1,3.8900223E0,2.6747116E1,3.3472355E1,7.387171E1,1.7632977E1,6.5714765E0,3.304495E0,1.8007317E1,1.6669767E0,2.2230456E0,1.6643978E1,1.0103138E1,6.339683E0,2.713267E1,1.9679964E1,5.419175E1,1.635566E1,1.2773181E0,5.5674806E0,1.0039959E0,1.1487275E0,2.1557677E0,1.58931E1,2.1142159E0],"tree_param":{"num_deleted":"0","num_feature":"133","num_nodes":"31","size_leaf_vector":"1"}},{"base_weights":[4.879648E-3,-1.2566014E-1,4.1029826E-1,-1.8188978E-2,-4.3063542E-1,1.4798504E-1,7.0026386E-1,2.7290981E-2,-1.1244271E0,-5.949378E-1,6.308526E-1,-1.14598535E-1,8.099449E-1,8.1465256E-1,-2.787224E-2,5.4528933E-2,-6.5634362E-3,-5.1778466E-3,-1.5423658E-1,-1.1585539E-2,-1.098663E-1,-4.013856E-2,1.0351193E-1,1.0979656E-2,-1.6780785E-1,9.2309974E-2,6.4302855E-3,-2.3805663E-2,9.0400785E-2],"categories":[],"categories_nodes":[],"categories_segments":[],"categories_sizes":[],"default_left":[0,0,0,0,0,0,0,0,0,0,0,0,0,0,0,0,0,0,0,0,0,0,0,0,0,0,0,0,0],"id":17,"left_children":[1,3,5,7,9,11,13,15,17,19,21,23,25,27,-1,-1,-1,-1,-1,-1,-1,-1,-1,-1,-1,-1,-1,-1,-1],"loss_changes":[9.726742E0,4.5498004E0,3.3010163E0,5.256289E0,6.686884E0,4.3982186E0,2.577877E0,4.884901E0,1.7694654E0,7.5596848E0,2.6422203E0,6.713515E0,5.4465055E-1,2.0072355E0,0E0,0E0,0E0,0E0,0E0,0E0,0E0,0E0,0E0,0E0,0E0,0E0,0E0,0E0,0E0],"parents":[2147483647,0,0,1,1,2,2,3,3,4,4,5,5,6,6,7,7,8,8,9,9,10,10,11,11,12,12,13,13],"right_children":[2,4,6,8,10,12,14,16,18,20,22,24,26,28,-1,-1,-1,-1,-1,-1,-1,-1,-1,-1,-1,-1,-1,-1,-1],"split_conditions":[7.9972184E-1,6.8101585E-1,-4.214011E-1,-9.5905983E-1,1.1015159E0,7.3407966E-5,-9.651922E-1,1.0944507E0,6.1520416E-1,5.36434E-1,-1.0773733E0,-7.278285E-5,1.04533285E-1,4.0348053E-1,-2.787224E-2,5.4528933E-2,-6.5634362E-3,-5.1778466E-3,-1.5423658E-1,-1.1585539E-2,-1.098663E-1,-4.013856E-2,1.0351193E-1,1.0979656E-2,-1.6780785E-1,9.2309974E-2,6.4302855E-3,-2.3805663E-2,9.0400785E-2],"split_indices":[131,1,0,84,77,12,84,104,34,70,81,13,128,34,0,0,0,0,0,0,0,0,0,0,0,0,0,0,0],"split_type":[0,0,0,0,0,0,0,0,0,0,0,0,0,0,0,0,0,0,0,0,0,0,0,0,0,0,0,0,0],"sum_hessian":[1.8181534E2,1.3805377E2,4.376156E1,1.0286464E2,3.5189137E1,2.376933E1,1.9992231E1,9.973945E1,3.1251855E0,3.0853071E1,4.3360667E0,1.7610533E1,6.1587954E0,1.8050945E1,1.9412849E0,1.4430539E1,8.5308914E1,1.1913781E0,1.9338073E0,1.6443756E1,1.4409315E1,1.2222781E0,3.1137886E0,1.6213326E1,1.3972086E0,5.1406794E0,1.0181164E0,1.2821045E0,1.676884E1],"tree_param":{"num_deleted":"0","num_feature":"133","num_nodes":"29","size_leaf_vector":"1"}},{"base_weights":[4.091274E-3,-2.1780366E-1,2.1808843E-1,-2.5137103E-1,9.9651895E-2,5.8588535E-2,7.3576814E-1,-1.609576E-1,-8.066895E-1,8.4722257E-1,-6.7706786E-2,9.16994E-1,-8.999913E-2,-2.4258738E-2,9.018172E-2,-1.0352867E-1,4.6850823E-2,-1.723977E-2,9.833258E-2,6.208537E-2,-2.2927359E-2,-3.0411592E-2,1.0078752E-1,-1.2646067E-1,5.7391793E-2],"categories":[],"categories_nodes":[],"categories_segments":[],"categories_sizes":[],"default_left":[0,0,0,0,0,0,0,0,0,0,0,0,0,0,0,0,0,0,0,0,0,0,0,0,0],"id":18,"left_children":[1,3,5,7,-1,9,11,13,15,17,19,21,23,-1,-1,-1,-1,-1,-1,-1,-1,-1,-1,-1,-1],"loss_changes":[8.660779E0,3.9007807E0,7.622504E0,4.2855554E0,0E0,7.234374E0,3.3419294E0,6.888216E0,4.0017934E0,1.5601377E0,7.1551237E0,2.2985058E0,4.4926767E0,0E0,0E0,0E0,0E0,0E0,0E0,0E0,0E0,0E0,0E0,0E0,0E0],"parents":[2147483647,0,0,1,1,2,2,3,3,5,5,6,6,7,7,8,8,9,9,10,10,11,11,12,12],"right_children":[2,4,6,8,-1,10,12,14,16,18,20,22,24,-1,-1,-1,-1,-1,-1,-1,-1,-1,-1,-1,-1],"split_conditions":[6.794319E-1,-2.616019E-1,4.6472317E-1,3.5811624E-1,9.9651895E-2,1.0944507E0,3.5617647E-1,3.5560024E-1,5.382478E-1,6.960442E-1,-5.0854224E-1,-7.699142E-1,-1.1457947E0,-2.4258738E-2,9.018172E-2,-1.0352867E-1,4.6850823E-2,-1.723977E-2,9.833258E-2,6.208537E-2,-2.2927359E-2,-3.0411592E-2,1.0078752E-1,-1.2646067E-1,5.7391793E-2],"split_indices":[131,109,0,121,0,104,121,121,88,131,111,64,57,0,0,0,0,0,0,0,0,0,0,0,0],"split_type":[0,0,0,0,0,0,0,0,0,0,0,0,0,0,0,0,0,0,0,0,0,0,0,0,0],"sum_hessian":[1.8038991E2,8.855201E1,9.18379E1,8.694169E1,1.6103235E0,7.1057785E1,2.078011E1,7.5877625E1,1.1064064E1,9.02074E0,6.203705E1,1.6949776E1,3.8303323E0,7.118201E1,4.695617E0,9.541715E0,1.52235E0,1.0309187E0,7.9898205E0,1.1249891E1,5.0787155E1,1.0115786E0,1.5938198E1,1.056463E0,2.7738693E0],"tree_param":{"num_deleted":"0","num_feature":"133","num_nodes":"25","size_leaf_vector":"1"}},{"base_weights":[5.7883593E-3,-7.605773E-2,5.597487E-1,-3.9993688E-1,2.6911996E-2,-7.316518E-2,6.9333565E-1,-1.3849701E0,-1.5044999E-1,-5.5191807E-2,1.0064087E0,-3.5599552E-2,9.143704E-1,-2.0926154E-1,2.4155069E-3,7.521806E-2,-4.7650035E-2,-3.292327E-2,1.9441906E-2,6.5640123E-3,1.17918015E-1,4.8993144E-2,-1.2208372E-1,7.7138054E-3,9.634242E-2],"categories":[],"categories_nodes":[],"categories_segments":[],"categories_sizes":[],"default_left":[0,0,0,0,0,0,0,0,0,0,0,0,0,0,0,0,0,0,0,0,0,0,0,0,0],"id":19,"left_children":[1,3,5,7,9,-1,11,13,15,17,19,21,23,-1,-1,-1,-1,-1,-1,-1,-1,-1,-1,-1,-1],"loss_changes":[8.203373E0,5.270133E0,4.5251E0,9.15634E0,9.754023E0,0E0,3.515952E0,7.6081257E0,9.636936E0,7.740141E0,1.447032E0,4.3310094E0,6.0854244E-1,0E0,0E0,0E0,0E0,0E0,0E0,0E0,0E0,0E0,0E0,0E0,0E0],"parents":[2147483647,0,0,1,1,2,2,3,3,4,4,6,6,7,7,8,8,9,9,10,10,11,11,12,12],"right_children":[2,4,6,8,10,-1,12,14,16,18,20,22,24,-1,-1,-1,-1,-1,-1,-1,-1,-1,-1,-1,-1],"split_conditions":[8.743116E-1,4.1111112E-1,2.5E-1,-5.2201733E-2,9.996249E-1,-7.316518E-2,2.1428572E-1,1E0,1.6E-1,6.449341E-1,1.4092586E0,1.3396546E0,-9.778532E-1,-2.0926154E-1,2.4155069E-3,7.521806E-2,-4.7650035E-2,-3.292327E-2,1.9441906E-2,6.5640123E-3,1.17918015E-1,4.8993144E-2,-1.2208372E-1,7.7138054E-3,9.634242E-2],"split_indices":[131,25,18,122,120,0,33,6,33,131,92,105,83,0,0,0,0,0,0,0,0,0,0,0,0],"split_type":[0,0,0,0,0,0,0,0,0,0,0,0,0,0,0,0,0,0,0,0,0,0,0,0,0],"sum_hessian":[1.789932E2,1.5670341E2,2.228979E1,3.71062E1,1.1959721E2,1.6698811E0,2.0619907E1,6.5790977E0,3.0527103E1,1.1121828E2,8.378934E0,4.9929485E0,1.5626959E1,4.0567846E0,2.5223134E0,7.754041E0,2.2773062E1,5.2862743E1,5.8355534E1,1.5141373E0,6.864797E0,3.8655941E0,1.1273547E0,1.0072978E0,1.4619661E1],"tree_param":{"num_deleted":"0","num_feature":"133","num_nodes":"25","size_leaf_vector":"1"}},{"base_weights":[5.4551046E-3,-6.856682E-2,5.3011197E-1,1.5774518E-1,-2.0007885E-1,-6.6445954E-2,6.6506535E-1,-1.15252905E-1,6.7463636E-1,-2.7969775E-1,5.163853E-1,7.826091E-1,-5.8013834E-2,6.4855546E-2,-3.807691E-2,7.873725E-2,-7.0604935E-2,-8.741606E-3,-6.522814E-2,-3.8050786E-2,9.645793E-2,-3.906419E-2,8.7093934E-2],"categories":[],"categories_nodes":[],"categories_segments":[],"categories_sizes":[],"default_left":[0,0,0,0,0,0,0,0,0,0,0,0,0,0,0,0,0,0,0,0,0,0,0],"id":20,"left_children":[1,3,5,7,9,-1,11,13,15,17,19,21,-1,-1,-1,-1,-1,-1,-1,-1,-1,-1,-1],"loss_changes":[6.966849E0,4.7125278E0,4.0174327E0,8.313406E0,5.8438644E0,0E0,3.443925E0,8.165629E0,3.7183542E0,6.4314227E0,4.525112E0,2.3187246E0,0E0,0E0,0E0,0E0,0E0,0E0,0E0,0E0,0E0,0E0,0E0],"parents":[2147483647,0,0,1,1,2,2,3,3,4,4,6,6,7,7,8,8,9,9,10,10,11,11],"right_children":[2,4,6,8,10,-1,12,14,16,18,20,22,-1,-1,-1,-1,-1,-1,-1,-1,-1,-1,-1],"split_conditions":[8.743116E-1,4.5306075E-2,2.5E-1,3.4275717E-1,3.3832332E-1,-6.6445954E-2,1.0152255E0,-3.2877913E-4,1.65E0,-4.675389E-1,5.78249E-1,9.620025E-1,-5.8013834E-2,6.4855546E-2,-3.807691E-2,7.873725E-2,-7.0604935E-2,-8.741606E-3,-6.522814E-2,-3.8050786E-2,9.645793E-2,-3.906419E-2,8.7093934E-2],"split_indices":[131,128,18,121,130,0,76,13,18,111,131,76,0,0,0,0,0,0,0,0,0,0,0],"split_type":[0,0,0,0,0,0,0,0,0,0,0,0,0,0,0,0,0,0,0,0,0,0,0],"sum_hessian":[1.7745508E2,1.5627599E2,2.1179098E1,5.736322E1,9.8912766E1,1.7515163E0,1.9427582E1,3.804607E1,1.9317152E1,8.956882E1,9.343947E0,1.8091312E1,1.3362687E0,9.441928E0,2.8604141E1,1.8256214E1,1.060939E0,5.98937E1,2.9675114E1,3.1638E0,6.1801476E0,1.0270426E0,1.706427E1],"tree_param":{"num_deleted":"0","num_feature":"133","num_nodes":"23","size_leaf_vector":"1"}},{"base_weights":[5.3765657E-3,-6.107438E-2,4.9966782E-1,4.25702E-2,-3.5227472E-1,-6.0462274E-2,6.3546044E-1,3.4944844E-1,-1.0968867E-1,-5.047018E-1,4.692492E-1,-9.427267E-2,8.7661636E-1,7.647169E-2,-5.7939067E-3,-2.0706384E-2,6.809491E-2,-9.944094E-2,-1.4092753E-2,-5.8285035E-2,9.43657E-2,5.753479E-2,-9.537949E-2,7.190477E-3,9.304647E-2],"categories":[],"categories_nodes":[],"categories_segments":[],"categories_sizes":[],"default_left":[0,0,0,0,0,0,0,0,0,0,0,0,0,0,0,0,0,0,0,0,0,0,0,0,0],"id":21,"left_children":[1,3,5,7,9,-1,11,13,15,17,19,21,23,-1,-1,-1,-1,-1,-1,-1,-1,-1,-1,-1,-1],"loss_changes":[5.8593645E0,4.763138E0,3.5540705E0,5.501265E0,5.4214864E0,0E0,3.4810834E0,6.6439714E0,6.2158566E0,6.1671085E0,4.04289E0,3.8292143E0,5.6626606E-1,0E0,0E0,0E0,0E0,0E0,0E0,0E0,0E0,0E0,0E0,0E0,0E0],"parents":[2147483647,0,0,1,1,2,2,3,3,4,4,6,6,7,7,8,8,9,9,10,10,11,11,12,12],"right_children":[2,4,6,8,10,-1,12,14,16,18,20,22,24,-1,-1,-1,-1,-1,-1,-1,-1,-1,-1,-1,-1],"split_conditions":[8.743116E-1,6.8101585E-1,2.5E-1,-3.7089097E-1,3.6666667E0,-6.0462274E-2,2.1428572E-1,3.683E3,7.260319E-5,-1.4035963E0,-1.5854481E0,-4.748704E-1,1.912018E-1,7.647169E-2,-5.7939067E-3,-2.0706384E-2,6.809491E-2,-9.944094E-2,-1.4092753E-2,-5.8285035E-2,9.43657E-2,5.753479E-2,-9.537949E-2,7.190477E-3,9.304647E-2],"split_indices":[131,1,18,99,22,0,33,10,13,89,116,111,115,0,0,0,0,0,0,0,0,0,0,0,0],"split_type":[0,0,0,0,0,0,0,0,0,0,0,0,0,0,0,0,0,0,0,0,0,0,0,0,0],"sum_hessian":[1.7645923E2,1.5632045E2,2.0138783E1,1.1591689E2,4.040355E1,1.8271904E0,1.8311592E1,3.8010838E1,7.790606E1,3.4405537E1,5.998015E0,4.6996427E0,1.361195E1,1.8388988E1,1.9621847E1,7.002043E1,7.885629E0,1.392556E1,2.0479977E1,1.7930229E0,4.204992E0,2.8274806E0,1.8721622E0,1.0002033E0,1.2611747E1],"tree_param":{"num_deleted":"0","num_feature":"133","num_nodes":"25","size_leaf_vector":"1"}},{"base_weights":[5.79914E-3,-3.665691E-1,8.965896E-2,4.19672E-1,-5.7275987E-1,4.485344E-1,-1.2534023E-2,1.0513611E-1,-5.472433E-1,1.0461797E-1,-8.5271555E-1,6.921408E-1,-3.2436812E-1,-1.7876823E-1,3.0021232E-1,3.6053862E-2,-1.0920813E-1,-8.930765E-2,7.54957E-2,-1.0214962E-1,2.164673E-2,8.2112625E-2,-1.0164209E-1,-1.0843768E-1,2.9925471E-2,2.5290618E-2,-3.9155286E-2,-7.305231E-2,4.1271683E-2],"categories":[],"categories_nodes":[],"categories_segments":[],"categories_sizes":[],"default_left":[0,0,0,0,0,0,0,0,0,0,0,0,0,0,0,0,0,0,0,0,0,0,0,0,0,0,0,0,0],"id":22,"left_children":[1,3,5,7,9,11,13,-1,15,17,19,21,23,25,27,-1,-1,-1,-1,-1,-1,-1,-1,-1,-1,-1,-1,-1,-1],"loss_changes":[5.543525E0,5.5308757E0,5.3175035E0,5.0691137E0,5.072238E0,6.2740192E0,5.965282E0,0E0,2.1569226E0,6.237986E0,3.5960178E0,6.288765E0,4.296652E0,6.976282E0,4.9210634E0,0E0,0E0,0E0,0E0,0E0,0E0,0E0,0E0,0E0,0E0,0E0,0E0,0E0,0E0],"parents":[2147483647,0,0,1,1,2,2,3,3,4,4,5,5,6,6,8,8,9,9,10,10,11,11,12,12,13,13,14,14],"right_children":[2,4,6,8,10,12,14,-1,16,18,20,22,24,26,28,-1,-1,-1,-1,-1,-1,-1,-1,-1,-1,-1,-1,-1,-1],"split_conditions":[5.689616E-1,-4.7433138E-4,4.844869E-1,3.6612248E-1,-9.1525084E-1,6.5657896E-1,-8.937353E-1,1.0513611E-1,5.61E2,1E0,-9.628322E-1,8.152134E-1,7.2080195E-1,-4.7744968E-4,-1.4938434E0,3.6053862E-2,-1.0920813E-1,-8.930765E-2,7.54957E-2,-1.0214962E-1,2.164673E-2,8.2112625E-2,-1.0164209E-1,-1.0843768E-1,2.9925471E-2,2.5290618E-2,-3.9155286E-2,-7.305231E-2,4.1271683E-2],"split_indices":[131,13,70,117,96,23,124,0,9,26,103,107,34,32,95,0,0,0,0,0,0,0,0,0,0,0,0,0,0],"split_type":[0,0,0,0,0,0,0,0,0,0,0,0,0,0,0,0,0,0,0,0,0,0,0,0,0,0,0,0,0],"sum_hessian":[1.7547247E2,3.1634136E1,1.4383833E2,6.3572984E0,2.5276838E1,3.1129711E1,1.1270862E2,3.7923849E0,2.5649135E0,7.574927E0,1.770191E1,2.3748924E1,7.380787E0,7.3871864E1,3.8836754E1,1.0889027E0,1.4760109E0,2.8418918E0,4.733035E0,1.5327E1,2.3749115E0,2.256483E1,1.1840942E0,2.9936247E0,4.387162E0,2.4328428E1,4.9543438E1,3.28128E0,3.5555473E1],"tree_param":{"num_deleted":"0","num_feature":"133","num_nodes":"29","size_leaf_vector":"1"}},{"base_weights":[4.6622264E-3,-5.202639E-2,5.296617E-1,-1.1115061E0,-9.147591E-3,-1.05935626E-1,7.4659514E-1,6.318096E-3,-1.4149E0,-5.156685E-2,8.06104E-1,-3.7055675E-2,9.3112403E-1,-4.908498E-2,-1.7171088E-1,-1.2261064E-1,-3.2448638E-4,1.08945884E-1,-3.3288386E-2,2.7728826E-3,1.0415578E-1],"categories":[],"categories_nodes":[],"categories_segments":[],"categories_sizes":[],"default_left":[0,0,0,0,0,0,0,0,0,0,0,0,0,0,0,0,0,0,0,0,0],"id":23,"left_children":[1,3,5,7,9,-1,11,-1,13,15,17,-1,19,-1,-1,-1,-1,-1,-1,-1,-1],"loss_changes":[5.23745E0,7.20878E0,6.702525E0,2.289299E0,5.358009E0,0E0,3.5766E0,0E0,5.390339E-1,8.343091E0,2.8359766E0,0E0,1.3417397E0,0E0,0E0,0E0,0E0,0E0,0E0,0E0,0E0],"parents":[2147483647,0,0,1,1,2,2,3,3,4,4,6,6,8,8,9,9,10,10,12,12],"right_children":[2,4,6,8,10,-1,12,-1,14,16,18,-1,20,-1,-1,-1,-1,-1,-1,-1,-1],"split_conditions":[-2.77268E-1,8.952044E-2,2.5555557E-1,-3.4996226E-1,2.3465374E-1,-1.05935626E-1,-1.0729651E0,6.318096E-3,4.1312978E-1,-5.3793365E-1,8.4210527E-1,-3.7055675E-2,-1.1479508E0,-4.908498E-2,-1.7171088E-1,-1.2261064E-1,-3.2448638E-4,1.08945884E-1,-3.3288386E-2,2.7728826E-3,1.0415578E-1],"split_indices":[54,40,23,114,37,0,93,0,91,52,27,0,57,0,0,0,0,0,0,0,0],"split_type":[0,0,0,0,0,0,0,0,0,0,0,0,0,0,0,0,0,0,0,0,0],"sum_hessian":[1.7405486E2,1.5790538E2,1.6149473E1,5.1726966E0,1.527327E2,1.4734273E0,1.4676045E1,1.2242748E0,3.9484217E0,1.4606915E2,6.6635385E0,1.9375921E0,1.2738453E1,1.61981E0,2.3286119E0,4.808858E0,1.412603E2,5.3708706E0,1.292668E0,1.5238445E0,1.1214609E1],"tree_param":{"num_deleted":"0","num_feature":"133","num_nodes":"21","size_leaf_vector":"1"}},{"base_weights":[2.9495705E-3,-5.591459E-2,4.625107E-1,4.294042E-1,-1.0986085E-1,-5.6107815E-2,6.0041946E-1,7.377213E-1,-3.0475995E-1,-3.4395322E-2,-6.370243E-1,-1.0631364E-1,8.519178E-1,-3.0256364E-2,8.928804E-2,-9.190414E-2,4.283093E-2,-6.793676E-2,3.2732568E-3,8.314464E-3,-1.0917473E-1,-1.1151252E-1,4.1513182E-2,9.7106025E-2,3.2074444E-2],"categories":[],"categories_nodes":[],"categories_segments":[],"categories_sizes":[],"default_left":[0,0,0,0,0,0,0,0,0,0,0,0,0,0,0,0,0,0,0,0,0,0,0,0,0],"id":24,"left_children":[1,3,5,7,9,-1,11,13,15,17,19,21,23,-1,-1,-1,-1,-1,-1,-1,-1,-1,-1,-1,-1],"loss_changes":[4.7408433E0,4.115652E0,3.145732E0,3.7897322E0,5.5734477E0,0E0,3.293231E0,2.1075792E0,2.8097854E0,5.3948894E0,5.8399324E0,3.4183354E0,5.36582E-1,0E0,0E0,0E0,0E0,0E0,0E0,0E0,0E0,0E0,0E0,0E0,0E0],"parents":[2147483647,0,0,1,1,2,2,3,3,4,4,6,6,7,7,8,8,9,9,10,10,11,11,12,12],"right_children":[2,4,6,8,10,-1,12,14,16,18,20,22,24,-1,-1,-1,-1,-1,-1,-1,-1,-1,-1,-1,-1],"split_conditions":[8.743116E-1,8.114867E-1,2.5E-1,8.125E-1,1.3549486E-1,-5.6107815E-2,2.1428572E-1,5.28339E-1,4.0179712E-4,2.871795E-1,2.1178092E-1,-3.0850926E-1,6.4979756E-1,-3.0256364E-2,8.928804E-2,-9.190414E-2,4.283093E-2,-6.793676E-2,3.2732568E-3,8.314464E-3,-1.0917473E-1,-1.1151252E-1,4.1513182E-2,9.7106025E-2,3.2074444E-2],"split_indices":[131,45,18,33,40,0,33,131,12,25,37,114,23,0,0,0,0,0,0,0,0,0,0,0,0],"split_type":[0,0,0,0,0,0,0,0,0,0,0,0,0,0,0,0,0,0,0,0,0,0,0,0,0],"sum_hessian":[1.7329536E2,1.543973E2,1.8898073E1,1.4749147E1,1.3964815E2,1.8795048E0,1.7018568E1,1.0383628E1,4.365519E0,1.2309225E2,1.6555897E1,4.6182237E0,1.2400345E1,1.2244066E0,9.159222E0,2.2371721E0,2.1283467E0,1.074383E1,1.1234842E2,6.7239604E0,9.831937E0,1.1857301E0,3.4324934E0,9.452095E0,2.9482498E0],"tree_param":{"num_deleted":"0","num_feature":"133","num_nodes":"25","size_leaf_vector":"1"}},{"base_weights":[2.316942E-3,-4.9506936E-2,5.006698E-1,-1.0156875E0,-9.614826E-3,-9.42099E-2,7.1308404E-1,-1.3612351E0,-7.746421E-3,7.7082306E-1,-4.904728E-2,-3.4283753E-2,8.993143E-1,-1.6632715E-1,-3.1728458E-2,1.0458908E-1,-1.9359214E-2,-7.909764E-2,1.0235847E-3,2.3173913E-3,1.0137713E-1],"categories":[],"categories_nodes":[],"categories_segments":[],"categories_sizes":[],"default_left":[0,0,0,0,0,0,0,0,0,0,0,0,0,0,0,0,0,0,0,0,0],"id":25,"left_children":[1,3,5,7,9,-1,11,13,-1,15,17,-1,19,-1,-1,-1,-1,-1,-1,-1,-1],"loss_changes":[4.501765E0,6.0772996E0,5.7034774E0,1.9216332E0,4.736369E0,0E0,3.2345114E0,8.9408016E-1,0E0,2.166329E0,6.441784E0,0E0,1.2726955E0,0E0,0E0,0E0,0E0,0E0,0E0,0E0,0E0],"parents":[2147483647,0,0,1,1,2,2,3,3,4,4,6,6,7,7,9,9,10,10,12,12],"right_children":[2,4,6,8,10,-1,12,14,-1,16,18,-1,20,-1,-1,-1,-1,-1,-1,-1,-1],"split_conditions":[-2.77268E-1,8.952044E-2,2.5555557E-1,2.3286161E-1,-7.049721E-1,-9.42099E-2,-1.0729651E0,2.4115195E0,-7.746421E-3,9.0123457E-1,-5.377111E-1,-3.4283753E-2,-1.1479508E0,-1.6632715E-1,-3.1728458E-2,1.0458908E-1,-1.9359214E-2,-7.909764E-2,1.0235847E-3,2.3173913E-3,1.0137713E-1],"split_indices":[54,40,23,46,39,0,93,97,0,27,52,0,57,0,0,0,0,0,0,0,0],"split_type":[0,0,0,0,0,0,0,0,0,0,0,0,0,0,0,0,0,0,0,0,0],"sum_hessian":[1.7234773E2,1.5692926E2,1.5418469E1,5.2525473E0,1.5167671E2,1.5378473E0,1.3880622E1,3.5092323E0,1.7433149E0,6.402957E0,1.4527376E2,1.9549813E0,1.192564E1,2.2616446E0,1.2475877E0,4.9162707E0,1.4866866E0,9.835833E0,1.3543793E2,1.5168667E0,1.0408773E1],"tree_param":{"num_deleted":"0","num_feature":"133","num_nodes":"21","size_leaf_vector":"1"}},{"base_weights":[1.1775277E-3,-1.5642905E-1,1.628169E-1,-1.111322E-1,-1.1432974E-1,1.5018702E-2,6.8002635E-1,-1.8180753E-1,3.929138E-1,7.8349876E-1,-9.204663E-2,8.7737924E-1,-1.5453178E-1,-1.0273216E-2,-1.2793961E-1,1.0451289E-1,-3.644523E-2,-1.7968085E-2,9.392964E-2,8.3823584E-2,-1.9829262E-2,9.7641274E-2,-2.7535109E-2,-1.2237636E-1,5.2413024E-2],"categories":[],"categories_nodes":[],"categories_segments":[],"categories_sizes":[],"default_left":[0,0,0,0,0,0,0,0,0,0,0,0,0,0,0,0,0,0,0,0,0,0,0,0,0],"id":26,"left_children":[1,3,5,-1,7,9,11,13,15,17,19,21,23,-1,-1,-1,-1,-1,-1,-1,-1,-1,-1,-1,-1],"loss_changes":[4.422191E0,3.4062893E0,6.540407E0,0E0,2.9909434E0,5.639885E0,3.2686825E0,6.4617996E0,5.4840555E0,1.4263096E0,6.125241E0,2.0422506E0,3.898372E0,0E0,0E0,0E0,0E0,0E0,0E0,0E0,0E0,0E0,0E0,0E0,0E0],"parents":[2147483647,0,0,1,1,2,2,4,4,5,5,6,6,7,7,8,8,9,9,10,10,11,11,12,12],"right_children":[2,4,6,-1,8,10,12,14,16,18,20,22,24,-1,-1,-1,-1,-1,-1,-1,-1,-1,-1,-1,-1],"split_conditions":[6.794319E-1,-4.822921E-1,4.6472317E-1,-1.111322E-1,-6.9466066E-1,1.0944507E0,3.5617647E-1,4.25E0,5.196612E-1,6.960442E-1,1.0997066E0,2.15E0,-1.1461535E0,-1.0273216E-2,-1.2793961E-1,1.0451289E-1,-3.644523E-2,-1.7968085E-2,9.392964E-2,8.3823584E-2,-1.9829262E-2,9.7641274E-2,-2.7535109E-2,-1.2237636E-1,5.2413024E-2],"split_indices":[131,79,0,0,39,104,121,22,20,131,101,18,57,0,0,0,0,0,0,0,0,0,0,0,0],"split_type":[0,0,0,0,0,0,0,0,0,0,0,0,0,0,0,0,0,0,0,0,0,0,0,0,0],"sum_hessian":[1.7158678E2,8.689346E1,8.4693306E1,2.596743E0,8.429672E1,6.667052E1,1.8022785E1,7.496573E1,9.330994E0,7.380163E0,5.9290356E1,1.4534431E1,3.4883535E0,7.0947914E1,4.017819E0,4.8093824E0,4.5216107E0,1.0062122E0,6.373951E0,5.3711715E0,5.3919186E1,1.3525393E1,1.0090382E0,1.0425756E0,2.445778E0],"tree_param":{"num_deleted":"0","num_feature":"133","num_nodes":"25","size_leaf_vector":"1"}},{"base_weights":[1.4569297E-3,-3.234065E-1,7.546496E-2,3.9825425E-1,-5.091412E-1,6.01293E-1,1.6979892E-2,9.869382E-2,-4.8429433E-1,1.0758909E-1,-7.758204E-1,-5.009499E-1,8.4616774E-1,-4.2712477E-1,1.0057392E-1,3.647081E-2,-1.01212434E-1,9.344183E-2,-4.5454632E-2,-9.207889E-2,5.4467835E-2,1.3938159E-2,-8.7241314E-2,9.705924E-2,-2.4423284E-2,-1.1330712E-1,3.376053E-3,1.576802E-2,-7.2299644E-2],"categories":[],"categories_nodes":[],"categories_segments":[],"categories_sizes":[],"default_left":[0,0,0,0,0,0,0,0,0,0,0,0,0,0,0,0,0,0,0,0,0,0,0,0,0,0,0,0,0],"id":27,"left_children":[1,3,5,7,9,11,13,-1,15,17,19,21,23,25,27,-1,-1,-1,-1,-1,-1,-1,-1,-1,-1,-1,-1,-1,-1],"loss_changes":[4.140725E0,4.486087E0,4.303034E0,4.1678624E0,4.3356423E0,4.2051425E0,4.7668552E0,0E0,1.9432395E0,4.460445E0,3.9800348E0,8.76728E-1,1.8426771E0,6.6586E0,5.188509E0,0E0,0E0,0E0,0E0,0E0,0E0,0E0,0E0,0E0,0E0,0E0,0E0,0E0,0E0],"parents":[2147483647,0,0,1,1,2,2,3,3,4,4,5,5,6,6,8,8,9,9,10,10,11,11,12,12,13,13,14,14],"right_children":[2,4,6,8,10,12,14,-1,16,18,20,22,24,26,28,-1,-1,-1,-1,-1,-1,-1,-1,-1,-1,-1,-1,-1,-1],"split_conditions":[5.689616E-1,-4.7433138E-4,8.1149846E-1,3.6612248E-1,1E0,1E0,-1.3926808E0,9.869382E-2,9.9904656E-1,-9.1541314E-1,-1.5435117E0,1.9710669E3,7.777778E-1,4.7126436E-1,4.1685975E-1,3.647081E-2,-1.01212434E-1,9.344183E-2,-4.5454632E-2,-9.207889E-2,5.4467835E-2,1.3938159E-2,-8.7241314E-2,9.705924E-2,-2.4423284E-2,-1.1330712E-1,3.376053E-3,1.576802E-2,-7.2299644E-2],"split_indices":[131,13,45,117,15,6,53,0,76,96,116,8,25,27,126,0,0,0,0,0,0,0,0,0,0,0,0,0,0],"split_type":[0,0,0,0,0,0,0,0,0,0,0,0,0,0,0,0,0,0,0,0,0,0,0,0,0,0,0,0,0],"sum_hessian":[1.7021014E2,3.0956135E1,1.39254E2,6.102202E0,2.4853931E1,1.3009242E1,1.2624476E2,3.5895755E0,2.5126264E0,7.682864E0,1.7171068E1,2.1746871E0,1.0834555E1,1.9347742E1,1.0689702E2,1.0817304E0,1.430896E0,2.8413448E0,4.8415194E0,1.5745206E1,1.4258618E0,1.0277754E0,1.1469116E0,9.823482E0,1.0110735E0,7.066061E0,1.228168E1,1.0072154E2,6.1754775E0],"tree_param":{"num_deleted":"0","num_feature":"133","num_nodes":"29","size_leaf_vector":"1"}},{"base_weights":[9.572039E-4,4.9782193E-1,-4.3896254E-2,-8.6060286E-2,7.3694086E-1,-8.475792E-1,-6.2074657E-3,9.143566E-1,-5.25001E-2,6.3918E-2,-1.2211571E0,-5.39052E-1,4.528196E-2,4.312824E-3,1.0532468E-1,-1.500375E-2,-1.787257E-1,1.720928E-2,-9.251736E-2,4.7221042E-2,-2.0591815E-3],"categories":[],"categories_nodes":[],"categories_segments":[],"categories_sizes":[],"default_left":[0,0,0,0,0,0,0,0,0,0,0,0,0,0,0,0,0,0,0,0,0],"id":28,"left_children":[1,3,5,-1,7,9,11,13,-1,-1,15,17,19,-1,-1,-1,-1,-1,-1,-1,-1],"loss_changes":[3.8099952E0,5.232093E0,4.744878E0,0E0,3.2954211E0,4.6781554E0,4.161886E0,1.3327856E0,0E0,0E0,3.3407946E0,3.8293452E0,3.903112E0,0E0,0E0,0E0,0E0,0E0,0E0,0E0,0E0],"parents":[2147483647,0,0,1,1,2,2,4,4,5,5,6,6,7,7,10,10,11,11,12,12],"right_children":[2,4,6,-1,8,10,12,14,-1,-1,16,18,20,-1,-1,-1,-1,-1,-1,-1,-1],"split_conditions":[5.289116E-1,2.5555557E-1,6.144088E-1,-8.6060286E-2,1.0643715E0,1.2904202E0,5.3240824E-1,7.402354E-1,-5.25001E-2,6.3918E-2,-2.4698298E0,-1.4521692E-4,1.0667737E0,4.312824E-3,1.0532468E-1,-1.500375E-2,-1.787257E-1,1.720928E-2,-9.251736E-2,4.7221042E-2,-2.0591815E-3],"split_indices":[56,23,44,0,77,100,131,38,0,0,106,30,108,0,0,0,0,0,0,0,0],"split_type":[0,0,0,0,0,0,0,0,0,0,0,0,0,0,0,0,0,0,0,0,0],"sum_hessian":[1.6897781E2,1.3154941E1,1.5582286E2,1.579995E0,1.1574945E1,6.0174174E0,1.4980545E2,1.03897E1,1.1852458E0,1.0655984E0,4.951819E0,1.2365932E1,1.3743951E2,1.6087667E0,8.780933E0,2.149597E0,2.802222E0,4.546555E0,7.819377E0,1.7547249E1,1.19892265E2],"tree_param":{"num_deleted":"0","num_feature":"133","num_nodes":"21","size_leaf_vector":"1"}},{"base_weights":[4.9201357E-5,-5.0949663E-2,4.190279E-1,-8.8587385E-1,-2.1754911E-2,-5.015117E-2,5.5714923E-1,-1.6505739E-1,2.4106456E-2,-7.637314E-2,6.5449727E-1,-1.3537094E-1,8.2271016E-1,4.7895323E-2,-1.4324421E-2,2.3145762E-3,1.0164136E-1,3.841742E-2,-1.0698644E-1,9.5049135E-2,2.6247814E-2],"categories":[],"categories_nodes":[],"categories_segments":[],"categories_sizes":[],"default_left":[0,0,0,0,0,0,0,0,0,0,0,0,0,0,0,0,0,0,0,0,0],"id":29,"left_children":[1,3,5,7,9,-1,11,-1,-1,13,15,17,19,-1,-1,-1,-1,-1,-1,-1,-1],"loss_changes":[3.6326005E0,3.675046E0,2.6250036E0,4.788905E0,5.4966683E0,0E0,3.14855E0,0E0,0E0,5.168742E0,2.5183897E0,3.050392E0,6.151848E-1,0E0,0E0,0E0,0E0,0E0,0E0,0E0,0E0],"parents":[2147483647,0,0,1,1,2,2,3,3,4,4,6,6,9,9,10,10,11,11,12,12],"right_children":[2,4,6,8,10,-1,12,-1,-1,14,16,18,20,-1,-1,-1,-1,-1,-1,-1,-1],"split_conditions":[8.743116E-1,2.903944E-1,2.5E-1,-9.0529704E-1,1.0000576E0,-5.015117E-2,2.1428572E-1,-1.6505739E-1,2.4106456E-2,-5.49934E-4,-4.83208E-2,1.3396546E0,7.170398E-1,4.7895323E-2,-1.4324421E-2,2.3145762E-3,1.0164136E-1,3.841742E-2,-1.0698644E-1,9.5049135E-2,2.6247814E-2],"split_indices":[131,129,18,124,120,0,33,0,0,32,122,105,25,0,0,0,0,0,0,0,0],"split_type":[0,0,0,0,0,0,0,0,0,0,0,0,0,0,0,0,0,0,0,0,0],"sum_hessian":[1.6800722E2,1.5055925E2,1.7447956E1,4.0953403E0,1.4646391E2,1.9331448E0,1.5514812E1,2.1629717E0,1.9323683E0,1.3633939E2,1.0124532E1,4.436282E0,1.107853E1,1.3990861E1,1.22348526E2,4.076741E0,6.047791E0,3.2296226E0,1.2066594E0,8.453744E0,2.624786E0],"tree_param":{"num_deleted":"0","num_feature":"133","num_nodes":"21","size_leaf_vector":"1"}},{"base_weights":[4.8807033E-4,-3.8721204E-2,5.3390443E-1,-5.69306E-1,5.16264E-3,1.0864961E-1,-6.594855E-2,-1.1025274E0,2.4794215E-1,3.5317775E-2,-8.551808E-1,-8.34567E-1,6.6184E-1,-1.397699E-1,2.9339751E-2,7.272687E-2,-6.5669246E-2,-2.0953862E-3,5.965429E-2,4.530837E-2,-1.3487658E-1,-1.1409787E-1,-2.022118E-2,7.7062376E-2,1.8121904E-2],"categories":[],"categories_nodes":[],"categories_segments":[],"categories_sizes":[],"default_left":[0,0,0,0,0,0,0,0,0,0,0,0,0,0,0,0,0,0,0,0,0,0,0,0,0],"id":30,"left_children":[1,3,5,7,9,-1,11,13,15,17,19,21,23,-1,-1,-1,-1,-1,-1,-1,-1,-1,-1,-1,-1],"loss_changes":[3.540574E0,3.674964E0,3.913884E0,5.527116E0,3.8348331E0,0E0,4.18883E0,3.4919043E0,2.89572E0,4.517329E0,3.843462E0,4.6759272E-1,6.408715E-2,0E0,0E0,0E0,0E0,0E0,0E0,0E0,0E0,0E0,0E0,0E0,0E0],"parents":[2147483647,0,0,1,1,2,2,3,3,4,4,6,6,7,7,8,8,9,9,10,10,11,11,12,12],"right_children":[2,4,6,8,10,-1,12,14,16,18,20,22,24,-1,-1,-1,-1,-1,-1,-1,-1,-1,-1,-1,-1],"split_conditions":[3.399013E-1,7.1204865E-1,8.410429E-4,-1.1450993E0,-9.5905983E-1,1.0864961E-1,6.0324645E-1,6.3863635E-1,5.925268E-1,-2.77268E-1,-1.5814998E0,2.940852E-4,-3.5954213E-1,-1.397699E-1,2.9339751E-2,7.272687E-2,-6.5669246E-2,-2.0953862E-3,5.965429E-2,4.530837E-2,-1.3487658E-1,-1.1409787E-1,-2.022118E-2,7.7062376E-2,1.8121904E-2],"split_indices":[130,107,32,57,84,0,131,20,50,54,116,30,114,0,0,0,0,0,0,0,0,0,0,0,0],"split_type":[0,0,0,0,0,0,0,0,0,0,0,0,0,0,0,0,0,0,0,0,0,0,0,0,0],"sum_hessian":[1.6729659E2,1.5670522E2,1.0591357E1,1.1056139E1,1.4564908E2,5.090582E0,5.5007753E0,6.4794726E0,4.5766664E0,1.4164342E2,4.005668E0,2.603986E0,2.8967896E0,5.3474674E0,1.1320057E0,3.119724E0,1.4569424E0,1.2961058E2,1.2032833E1,1.1197599E0,2.8859084E0,1.2122508E0,1.3917352E0,1.8701159E0,1.0266737E0],"tree_param":{"num_deleted":"0","num_feature":"133","num_nodes":"25","size_leaf_vector":"1"}},{"base_weights":[3.5509028E-4,-1.0085528E-1,1.9428839E-1,1.2027482E-1,-3.2477015E-1,-6.827531E-1,2.9288787E-1,2.8678295E-1,-4.2840207E-1,-6.3391066E-1,1.2814999E-1,-1.0904814E0,2.3885272E-2,-6.01027E-1,3.9484972E-1,-2.8148046E-2,4.8019934E-2,-1.3443252E-1,5.5885385E-3,-1.0054447E-1,-1.881675E-2,-7.2097056E-2,4.5013852E-2,-1.5117063E-1,-4.9521355E-3,6.1416812E-2,-1.0372048E-1,7.997189E-2,1.3901189E-2],"categories":[],"categories_nodes":[],"categories_segments":[],"categories_sizes":[],"default_left":[0,0,0,0,0,0,0,0,0,0,0,0,0,0,0,0,0,0,0,0,0,0,0,0,0,0,0,0,0],"id":31,"left_children":[1,3,5,7,9,11,13,15,17,19,21,23,-1,25,27,-1,-1,-1,-1,-1,-1,-1,-1,-1,-1,-1,-1,-1,-1],"loss_changes":[3.3081439E0,5.522661E0,5.1978817E0,5.280094E0,7.8237886E0,2.5680673E0,5.0365124E0,4.9609942E0,6.0826683E0,5.281453E0,6.685105E0,1.87075E0,0E0,3.7046053E0,4.8469276E0,0E0,0E0,0E0,0E0,0E0,0E0,0E0,0E0,0E0,0E0,0E0,0E0,0E0,0E0],"parents":[2147483647,0,0,1,1,2,2,3,3,4,4,5,5,6,6,7,7,8,8,9,9,10,10,11,11,13,13,14,14],"right_children":[2,4,6,8,10,12,14,16,18,20,22,24,-1,26,28,-1,-1,-1,-1,-1,-1,-1,-1,-1,-1,-1,-1,-1,-1],"split_conditions":[4.7530254E-4,-1.1455214E0,2.0776227E-1,-7.289161E-5,5.91743E-1,7.9526665E3,-7.041981E-1,-9.0561205E-1,2.5E-1,-4.6472317E-1,5.948329E-1,1.0413522E0,2.3885272E-2,5.782088E2,-6.9651043E-1,-2.8148046E-2,4.8019934E-2,-1.3443252E-1,5.5885385E-3,-1.0054447E-1,-1.881675E-2,-7.2097056E-2,4.5013852E-2,-1.5117063E-1,-4.9521355E-3,6.1416812E-2,-1.0372048E-1,7.997189E-2,1.3901189E-2],"split_indices":[14,57,98,13,50,11,39,124,27,0,131,34,0,8,39,0,0,0,0,0,0,0,0,0,0,0,0,0,0],"split_type":[0,0,0,0,0,0,0,0,0,0,0,0,0,0,0,0,0,0,0,0,0,0,0,0,0,0,0,0,0],"sum_hessian":[1.6654324E2,1.09747765E2,5.679548E1,5.5450115E1,5.429765E1,5.141083E0,5.1654396E1,4.2906506E1,1.254361E1,3.203355E1,2.22641E1,3.4371917E0,1.703891E0,4.7874527E0,4.6866943E1,1.0779801E1,3.2126705E1,3.7242074E0,8.819402E0,1.6786268E1,1.5247282E1,5.780676E0,1.6483423E1,2.1250618E0,1.31213E0,1.1567283E0,3.6307244E0,1.7324556E1,2.9542385E1],"tree_param":{"num_deleted":"0","num_feature":"133","num_nodes":"29","size_leaf_vector":"1"}},{"base_weights":[-1.1571047E-3,-4.839346E-2,4.006545E-1,1.5371299E-1,-1.6344701E-1,5.159548E-1,-6.224967E-2,-7.8091584E-2,6.1679566E-1,-6.886037E-1,-7.883935E-2,8.1024736E-1,-5.4743983E-2,5.8383744E-2,-2.9757798E-2,8.833177E-2,-7.8090117E-3,2.1216331E-2,-1.0324311E-1,-1.6780151E-2,7.418353E-2,8.8153526E-2,5.6811785E-3,-9.094571E-2,4.670747E-2],"categories":[],"categories_nodes":[],"categories_segments":[],"categories_sizes":[],"default_left":[0,0,0,0,0,0,0,0,0,0,0,0,0,0,0,0,0,0,0,0,0,0,0,0,0],"id":32,"left_children":[1,3,5,7,9,11,-1,13,15,17,19,21,23,-1,-1,-1,-1,-1,-1,-1,-1,-1,-1,-1,-1],"loss_changes":[3.1768122E0,3.5072079E0,2.3982656E0,5.934729E0,4.207182E0,2.793828E0,0E0,5.612083E0,3.4777293E0,4.300561E0,6.23758E0,5.334401E-1,3.326671E0,0E0,0E0,0E0,0E0,0E0,0E0,0E0,0E0,0E0,0E0,0E0,0E0],"parents":[2147483647,0,0,1,1,2,2,3,3,4,4,5,5,7,7,8,8,9,9,10,10,11,11,12,12],"right_children":[2,4,6,8,10,12,-1,14,16,18,20,22,24,-1,-1,-1,-1,-1,-1,-1,-1,-1,-1,-1,-1],"split_conditions":[8.743116E-1,4.5306075E-2,1.0152255E0,3.4275717E-1,3.2539684E-1,-1.0541317E0,-6.224967E-2,-3.2877913E-4,-1.5567952E0,2.4603175E-1,-1.5243012E0,2.937243E-1,-9.9064344E-1,5.8383744E-2,-2.9757798E-2,8.833177E-2,-7.8090117E-3,2.1216331E-2,-1.0324311E-1,-1.6780151E-2,7.418353E-2,8.8153526E-2,5.6811785E-3,-9.094571E-2,4.670747E-2],"split_indices":[131,128,76,121,23,123,0,13,116,23,118,69,103,0,0,0,0,0,0,0,0,0,0,0,0],"split_type":[0,0,0,0,0,0,0,0,0,0,0,0,0,0,0,0,0,0,0,0,0,0,0,0,0],"sum_hessian":[1.6535426E2,1.4874731E2,1.6606945E1,5.383796E1,9.4909355E1,1.5370538E1,1.2364073E0,3.643241E1,1.740555E1,1.2178578E1,8.2730774E1,9.864143E0,5.506395E0,8.658876E0,2.7773533E1,1.23843775E1,5.021172E0,3.4702015E0,8.708377E0,7.535747E1,7.3733106E0,8.856177E0,1.0079662E0,1.805771E0,3.7006238E0],"tree_param":{"num_deleted":"0","num_feature":"133","num_nodes":"25","size_leaf_vector":"1"}},{"base_weights":[-6.793006E-5,3.286431E-2,-5.361809E-1,7.067797E-1,-2.274375E-2,4.1144884E-1,-1.0901998E0,9.4380754E-1,2.779035E-2,2.4864615E-1,-1.2632203E-1,-4.5082774E-2,8.460463E-2,-1.7796995E-1,3.4932192E-2,1.09292746E-1,-2.2360382E-3,-8.8554144E-2,6.139117E-2,-2.2180039E-3,7.296466E-2,-1.0750999E-1,-3.4286396E-3],"categories":[],"categories_nodes":[],"categories_segments":[],"categories_sizes":[],"default_left":[0,0,0,0,0,0,0,0,0,0,0,0,0,0,0,0,0,0,0,0,0,0,0],"id":33,"left_children":[1,3,5,7,9,11,13,15,17,19,21,-1,-1,-1,-1,-1,-1,-1,-1,-1,-1,-1,-1],"loss_changes":[2.9394884E0,5.894381E0,5.5071754E0,1.9030757E0,4.1318603E0,1.985651E0,6.928834E0,1.300292E0,2.7557516E0,5.3091054E0,9.240155E0,0E0,0E0,0E0,0E0,0E0,0E0,0E0,0E0,0E0,0E0,0E0,0E0],"parents":[2147483647,0,0,1,1,2,2,3,3,4,4,5,5,6,6,7,7,8,8,9,9,10,10],"right_children":[2,4,6,8,10,12,14,16,18,20,22,-1,-1,-1,-1,-1,-1,-1,-1,-1,-1,-1,-1],"split_conditions":[4.1685975E-1,-3.6725047E-1,2.4769145E-1,2.9057098E-4,-1.372746E0,5.703962E-1,9.910332E-1,2.0444243E0,3.628052E-4,-5.345842E-1,9.6486515E-1,-4.5082774E-2,8.460463E-2,-1.7796995E-1,3.4932192E-2,1.09292746E-1,-2.2360382E-3,-8.8554144E-2,6.139117E-2,-2.2180039E-3,7.296466E-2,-1.0750999E-1,-3.4286396E-3],"split_indices":[126,109,115,14,87,131,76,102,14,127,67,0,0,0,0,0,0,0,0,0,0,0,0],"split_type":[0,0,0,0,0,0,0,0,0,0,0,0,0,0,0,0,0,0,0,0,0,0,0],"sum_hessian":[1.6449423E2,1.5585886E2,8.635367E0,1.0987772E1,1.448711E2,3.2808783E0,5.354489E0,7.855488E0,3.1322837E0,3.963118E1,1.05239914E2,1.0869452E0,2.1939332E0,3.460616E0,1.8938729E0,6.691511E0,1.1639768E0,1.0246924E0,2.1075914E0,2.5965342E1,1.3665839E1,8.361497E0,9.687842E1],"tree_param":{"num_deleted":"0","num_feature":"133","num_nodes":"23","size_leaf_vector":"1"}},{"base_weights":[1.3361471E-5,-3.602653E-2,4.742712E-1,1.597841E-1,-1.4859478E-1,8.7038296E-1,-1.1302734E-1,2.3758824E-1,-7.856407E-1,1.7587781E-2,-4.875665E-1,1.0311683E-1,-2.1057858E-3,-1.24704495E-1,7.021354E-1,8.108242E-3,7.479845E-2,-1.2011812E-1,2.5133926E-2,1.6562255E-2,-7.097481E-2,-5.86459E-2,6.579315E-2,1.8063746E-2,8.21235E-2],"categories":[],"categories_nodes":[],"categories_segments":[],"categories_sizes":[],"default_left":[0,0,0,0,0,0,0,0,0,0,0,0,0,0,0,0,0,0,0,0,0,0,0,0,0],"id":34,"left_children":[1,3,5,7,9,11,13,15,17,19,21,-1,-1,-1,23,-1,-1,-1,-1,-1,-1,-1,-1,-1,-1],"loss_changes":[2.8339055E0,3.420241E0,2.8224812E0,4.359624E0,5.549389E0,1.0405169E0,6.0538344E0,4.187724E0,2.2607415E0,7.3280873E0,4.05538E0,0E0,0E0,0E0,9.380889E-2,0E0,0E0,0E0,0E0,0E0,0E0,0E0,0E0,0E0,0E0],"parents":[2147483647,0,0,1,1,2,2,3,3,4,4,5,5,6,6,7,7,8,8,9,9,10,10,14,14],"right_children":[2,4,6,8,10,12,14,16,18,20,22,-1,-1,-1,24,-1,-1,-1,-1,-1,-1,-1,-1,-1,-1],"split_conditions":[3.3832332E-1,4.5306075E-2,1.1217922E-2,8.148148E-1,-4.675389E-1,-6.062047E-1,5.78249E-1,7.618653E-1,-1.6507494E0,-8.626957E-1,-6.3332564E-1,1.0311683E-1,-2.1057858E-3,-1.24704495E-1,9.607843E-1,8.108242E-3,7.479845E-2,-1.2011812E-1,2.5133926E-2,1.6562255E-2,-7.097481E-2,-5.86459E-2,6.579315E-2,1.8063746E-2,8.21235E-2],"split_indices":[130,128,122,25,111,78,131,131,118,125,35,0,0,0,34,0,0,0,0,0,0,0,0,0,0],"split_type":[0,0,0,0,0,0,0,0,0,0,0,0,0,0,0,0,0,0,0,0,0,0,0,0,0],"sum_hessian":[1.638014E2,1.5309167E2,1.0709735E1,5.5730297E1,9.736138E1,6.1080585E0,4.601677E0,5.2184452E1,3.5458448E0,6.596824E1,3.139314E1,5.041925E0,1.0661337E0,1.7028867E0,2.8987901E0,4.0824924E1,1.1359527E1,2.4183955E0,1.1274493E0,5.545397E1,1.0514266E1,2.9347557E1,2.0455844E0,1.0068439E0,1.8919462E0],"tree_param":{"num_deleted":"0","num_feature":"133","num_nodes":"25","size_leaf_vector":"1"}},{"base_weights":[5.817947E-4,-9.506244E-2,1.843318E-1,2.5829944E-1,-2.1787865E-1,-4.8175725E-1,3.0248654E-1,-1.0364901E0,4.2860907E-1,-1.3753612E-1,-1.3603696E0,4.8960412E-1,-9.7250813E-1,8.794614E-1,1.18541524E-1,-2.9464899E-2,-1.3089758E-1,5.5118572E-2,-5.2908953E-2,7.3737465E-2,-2.1567719E-2,-3.4299593E-2,-1.8614246E-1,8.429102E-2,-2.1034548E-2,-1.3654888E-1,2.3849187E-2,1.06181934E-1,-2.8024593E-2,-8.431026E-2,2.4829572E-2],"categories":[],"categories_nodes":[],"categories_segments":[],"categories_sizes":[],"default_left":[0,0,0,0,0,0,0,0,0,0,0,0,0,0,0,0,0,0,0,0,0,0,0,0,0,0,0,0,0,0,0],"id":35,"left_children":[1,3,5,7,9,11,13,15,17,19,21,23,25,27,29,-1,-1,-1,-1,-1,-1,-1,-1,-1,-1,-1,-1,-1,-1,-1,-1],"loss_changes":[2.899225E0,4.7649355E0,4.5901155E0,6.716016E0,7.253131E0,4.7157536E0,5.0513787E0,3.417585E-1,3.3253431E0,5.412549E0,2.0189686E0,1.0800028E0,3.2969165E0,2.7480955E0,4.949669E0,0E0,0E0,0E0,0E0,0E0,0E0,0E0,0E0,0E0,0E0,0E0,0E0,0E0,0E0,0E0,0E0],"parents":[2147483647,0,0,1,1,2,2,3,3,4,4,5,5,6,6,7,7,8,8,9,9,10,10,11,11,12,12,13,13,14,14],"right_children":[2,4,6,8,10,12,14,16,18,20,22,24,26,28,30,-1,-1,-1,-1,-1,-1,-1,-1,-1,-1,-1,-1,-1,-1,-1,-1],"split_conditions":[4.7530254E-4,-6.714436E-1,-9.923819E-1,8E-2,7.1878767E-1,4.955993E-2,2.343719E0,1.4588009E0,2.417373E0,-1.1469396E0,1.4166666E0,-5.3357804E-1,7.4743176E-1,3.6455396E-1,5.413211E-1,-2.9464899E-2,-1.3089758E-1,5.5118572E-2,-5.2908953E-2,7.3737465E-2,-2.1567719E-2,-3.4299593E-2,-1.8614246E-1,8.429102E-2,-2.1034548E-2,-1.3654888E-1,2.3849187E-2,1.06181934E-1,-2.8024593E-2,-8.431026E-2,2.4829572E-2],"split_indices":[14,35,96,27,62,128,97,92,34,57,22,52,131,117,131,0,0,0,0,0,0,0,0,0,0,0,0,0,0,0,0],"split_type":[0,0,0,0,0,0,0,0,0,0,0,0,0,0,0,0,0,0,0,0,0,0,0,0,0,0,0,0,0,0,0],"sum_hessian":[1.6296942E2,1.0749799E2,5.547143E1,2.744144E1,8.005656E1,7.8937316E0,4.75777E1,2.5987055E0,2.4842735E1,7.584345E1,4.213099E0,2.6502771E0,5.2434545E0,1.0587401E1,3.69903E1,1.2572329E0,1.3414726E0,2.2400185E1,2.44255E0,5.526723E0,7.0316734E1,1.9461205E0,2.2669785E0,1.625531E0,1.0247461E0,3.8624744E0,1.3809799E0,9.221739E0,1.3656629E0,3.7440944E0,3.3246204E1],"tree_param":{"num_deleted":"0","num_feature":"133","num_nodes":"31","size_leaf_vector":"1"}},{"base_weights":[-1.2378347E-3,7.707631E-2,-2.1261084E-1,-4.7573987E-2,3.4370735E-1,-3.5704076E-1,4.0527502E-1,-1.1627448E-1,7.443473E-1,-3.5423857E-1,4.6198654E-1,-6.505914E-1,1.542525E-2,9.383898E-2,-5.2596156E-2,-2.2684746E-4,-6.396089E-2,-3.3693593E-2,1.0802139E-1,7.860455E-2,-8.700677E-2,-3.6669265E-2,6.0571533E-2,4.7683078E-4,-9.598251E-2,6.458903E-2,-4.4211946E-2,-6.817598E-2,3.8443837E-2],"categories":[],"categories_nodes":[],"categories_segments":[],"categories_sizes":[],"default_left":[0,0,0,0,0,0,0,0,0,0,0,0,0,0,0,0,0,0,0,0,0,0,0,0,0,0,0,0,0],"id":36,"left_children":[1,3,5,7,9,11,13,15,17,19,21,23,25,-1,27,-1,-1,-1,-1,-1,-1,-1,-1,-1,-1,-1,-1,-1,-1],"loss_changes":[2.711196E0,3.9886115E0,4.09593E0,4.565292E0,3.3168616E0,3.9919915E0,2.2113197E0,4.5696583E0,2.7995656E0,4.2724967E0,4.163935E0,4.1368437E0,5.1977525E0,0E0,1.8326051E0,0E0,0E0,0E0,0E0,0E0,0E0,0E0,0E0,0E0,0E0,0E0,0E0,0E0,0E0],"parents":[2147483647,0,0,1,1,2,2,3,3,4,4,5,5,6,6,7,7,8,8,9,9,10,10,11,11,12,12,14,14],"right_children":[2,4,6,8,10,12,14,16,18,20,22,24,26,-1,28,-1,-1,-1,-1,-1,-1,-1,-1,-1,-1,-1,-1,-1,-1],"split_conditions":[6.8101585E-1,4.7530254E-4,3.25E0,-1.5426941E0,-9.923819E-1,5.185185E-1,5.050797E-1,-8.63324E-1,-7.28067E-4,4.762234E-2,2.089691E-1,4E-1,-2.2282006E-1,9.383898E-2,3.4225595E-1,-2.2684746E-4,-6.396089E-2,-3.3693593E-2,1.0802139E-1,7.860455E-2,-8.700677E-2,-3.6669265E-2,6.0571533E-2,4.7683078E-4,-9.598251E-2,6.458903E-2,-4.4211946E-2,-6.817598E-2,3.8443837E-2],"split_indices":[1,14,22,116,96,27,23,125,13,128,115,17,113,0,121,0,0,0,0,0,0,0,0,0,0,0,0,0,0],"split_type":[0,0,0,0,0,0,0,0,0,0,0,0,0,0,0,0,0,0,0,0,0,0,0,0,0,0,0,0,0],"sum_hessian":[1.6179395E2,1.185181E2,4.327585E1,8.132169E1,3.7196404E1,3.541889E1,7.856956E0,7.561513E1,5.706565E0,5.1010437E0,3.2095356E1,1.9390217E1,1.6028673E1,3.145307E0,4.711649E0,6.2913948E1,1.2701181E1,1.3517101E0,4.354855E0,1.4256577E0,3.675386E0,4.5146313E0,2.7580727E1,6.531844E0,1.2858374E1,6.5674863E0,9.461187E0,1.7017735E0,3.0098753E0],"tree_param":{"num_deleted":"0","num_feature":"133","num_nodes":"29","size_leaf_vector":"1"}},{"base_weights":[-5.205648E-4,1.4901891E-1,-1.1482108E-1,-1.5809784E-3,5.474675E-1,-7.491385E-1,-2.7471904E-2,-1.4212607E-1,6.7744255E-1,7.757526E-1,2.4105854E-2,-1.2300119E0,5.443321E-2,4.971408E-1,-1.4208975E-1,2.0447744E-2,-4.528035E-2,-1.7555615E-2,1.2483915E-1,8.843883E-2,-1.1609906E-2,-6.750991E-2,6.203686E-2,-1.573012E-2,-1.5072767E-1,8.709546E-2,-8.0333255E-2,7.1339816E-2,-8.573388E-2,2.1391936E-2,-3.127153E-2],"categories":[],"categories_nodes":[],"categories_segments":[],"categories_sizes":[],"default_left":[0,0,0,0,0,0,0,0,0,0,0,0,0,0,0,0,0,0,0,0,0,0,0,0,0,0,0,0,0,0,0],"id":37,"left_children":[1,3,5,7,9,11,13,15,17,19,21,23,25,27,29,-1,-1,-1,-1,-1,-1,-1,-1,-1,-1,-1,-1,-1,-1,-1,-1],"loss_changes":[2.7863994E0,4.2387896E0,5.0986886E0,5.082673E0,2.2961035E0,4.373601E0,5.016247E0,4.8431206E0,4.6673884E0,1.4066067E0,3.3023345E0,1.8493242E0,4.29274E0,4.996565E0,4.214432E0,0E0,0E0,0E0,0E0,0E0,0E0,0E0,0E0,0E0,0E0,0E0,0E0,0E0,0E0,0E0,0E0],"parents":[2147483647,0,0,1,1,2,2,3,3,4,4,5,5,6,6,7,7,8,8,9,9,10,10,11,11,12,12,13,13,14,14],"right_children":[2,4,6,8,10,12,14,16,18,20,22,24,26,28,30,-1,-1,-1,-1,-1,-1,-1,-1,-1,-1,-1,-1,-1,-1,-1,-1],"split_conditions":[1.5E0,7.55817E-1,1.6666666E0,2.064648E-1,6.1587587E-2,-5.3713953E-1,2.1428572E-1,1.984E3,9.166667E-1,-6.77783E-1,2.3333333E-1,-9.136212E-1,9.8659086E-1,1.4614364E0,-1.1444144E0,2.0447744E-2,-4.528035E-2,-1.7555615E-2,1.2483915E-1,8.843883E-2,-1.1609906E-2,-6.750991E-2,6.203686E-2,-1.573012E-2,-1.5072767E-1,8.709546E-2,-8.0333255E-2,7.1339816E-2,-8.573388E-2,2.1391936E-2,-3.127153E-2],"split_indices":[22,131,22,85,128,52,27,11,22,83,27,96,76,92,57,0,0,0,0,0,0,0,0,0,0,0,0,0,0,0,0],"split_type":[0,0,0,0,0,0,0,0,0,0,0,0,0,0,0,0,0,0,0,0,0,0,0,0,0,0,0,0,0,0,0],"sum_hessian":[1.6101836E2,6.962463E1,9.139372E1,5.1249943E1,1.8374687E1,1.0145097E1,8.124863E1,4.311636E1,8.133584E0,1.2458267E1,5.916421E0,6.014949E0,4.130148E0,1.3969952E1,6.727868E1,2.0541412E1,2.2574947E1,3.5389318E0,4.594652E0,1.1112974E1,1.3452928E0,2.6622853E0,3.2541354E0,1.5572871E0,4.4576616E0,2.1080675E0,2.0220804E0,1.2454724E1,1.515227E0,2.1715559E1,4.5563118E1],"tree_param":{"num_deleted":"0","num_feature":"133","num_nodes":"31","size_leaf_vector":"1"}},{"base_weights":[-4.9311286E-5,3.1038186E-2,-5.035156E-1,6.616009E-1,-1.8534083E-2,3.6041576E-1,-9.706363E-1,8.931178E-1,1.5463655E-2,-5.0995767E-2,6.9538057E-1,-4.3948915E-2,7.9570085E-2,-1.5482579E-1,3.1357106E-2,1.05478935E-1,-7.892571E-3,-8.2137294E-2,5.8332812E-2,-2.6633054E-2,9.547043E-3,9.875656E-2,-3.3994954E-2],"categories":[],"categories_nodes":[],"categories_segments":[],"categories_sizes":[],"default_left":[0,0,0,0,0,0,0,0,0,0,0,0,0,0,0,0,0,0,0,0,0,0,0],"id":38,"left_children":[1,3,5,7,9,11,13,15,17,19,21,-1,-1,-1,-1,-1,-1,-1,-1,-1,-1,-1,-1],"loss_changes":[2.5303504E0,4.771911E0,4.1440916E0,1.6504602E0,3.3295903E0,1.7524624E0,5.2130446E0,1.3676548E0,2.3573496E0,4.342895E0,2.2265272E0,0E0,0E0,0E0,0E0,0E0,0E0,0E0,0E0,0E0,0E0,0E0,0E0],"parents":[2147483647,0,0,1,1,2,2,3,3,4,4,5,5,6,6,7,7,8,8,9,9,10,10],"right_children":[2,4,6,8,10,12,14,16,18,20,22,-1,-1,-1,-1,-1,-1,-1,-1,-1,-1,-1,-1],"split_conditions":[4.1685975E-1,-3.6725047E-1,2.4769145E-1,2.9057098E-4,3.880888E-1,5.703962E-1,9.910332E-1,2.0444243E0,3.628052E-4,2.5492552E-4,4.7761193E-1,-4.3948915E-2,7.9570085E-2,-1.5482579E-1,3.1357106E-2,1.05478935E-1,-7.892571E-3,-8.2137294E-2,5.8332812E-2,-2.6633054E-2,9.547043E-3,9.875656E-2,-3.3994954E-2],"split_indices":[126,109,115,14,117,131,76,102,14,14,33,0,0,0,0,0,0,0,0,0,0,0,0],"split_type":[0,0,0,0,0,0,0,0,0,0,0,0,0,0,0,0,0,0,0,0,0,0,0],"sum_hessian":[1.5966968E2,1.5126772E2,8.401966E0,1.0125424E1,1.4114229E2,3.02876E0,5.373206E0,7.1730227E0,2.9524014E0,1.3589186E2,5.2504306E0,1.0639417E0,1.9648184E0,3.5643766E0,1.8088293E0,6.0771394E0,1.0958831E0,1.0130664E0,1.939335E0,5.4681164E1,8.121069E1,4.1307955E0,1.1196351E0],"tree_param":{"num_deleted":"0","num_feature":"133","num_nodes":"23","size_leaf_vector":"1"}},{"base_weights":[5.036936E-4,1.4335588E-1,-1.0800817E-1,-8.045436E-1,1.9754393E-1,-6.8870497E-1,-2.7899817E-2,-1.1249682E-3,-1.16953984E-1,6.510379E-1,3.509448E-2,-1.1176901E0,4.9128637E-2,4.5593917E-1,-1.291625E-1,8.604804E-2,-1.4037653E-2,-2.732496E-2,3.3538163E-2,-1.4751336E-3,-1.338837E-1,8.395694E-2,-7.393107E-2,6.6799395E-2,-8.001932E-2,-3.555775E-2,1.2959065E-2],"categories":[],"categories_nodes":[],"categories_segments":[],"categories_sizes":[],"default_left":[0,0,0,0,0,0,0,0,0,0,0,0,0,0,0,0,0,0,0,0,0,0,0,0,0,0,0],"id":39,"left_children":[1,3,5,7,9,11,13,-1,-1,15,17,19,21,23,25,-1,-1,-1,-1,-1,-1,-1,-1,-1,-1,-1,-1],"loss_changes":[2.4971385E0,3.7309127E0,4.2397304E0,1.1327612E0,4.882367E0,3.5545602E0,4.0518136E0,0E0,0E0,3.0221615E0,4.728627E0,1.6958609E0,3.751057E0,4.350334E0,4.0399485E0,0E0,0E0,0E0,0E0,0E0,0E0,0E0,0E0,0E0,0E0,0E0,0E0],"parents":[2147483647,0,0,1,1,2,2,3,3,4,4,5,5,6,6,9,9,10,10,11,11,12,12,13,13,14,14],"right_children":[2,4,6,8,10,12,14,-1,-1,16,18,20,22,24,26,-1,-1,-1,-1,-1,-1,-1,-1,-1,-1,-1,-1],"split_conditions":[1.5E0,-5.4333244E-2,1.6666666E0,-5.6629956E-2,-2.5722056E-4,-5.3713953E-1,2.1428572E-1,-1.1249682E-3,-1.16953984E-1,-1.3444983E0,-8.952099E-1,6.4E2,9.8659086E-1,1.4614364E0,-1.3960953E0,8.604804E-2,-1.4037653E-2,-2.732496E-2,3.3538163E-2,-1.4751336E-3,-1.338837E-1,8.395694E-2,-7.393107E-2,6.6799395E-2,-8.001932E-2,-3.555775E-2,1.2959065E-2],"split_indices":[22,122,22,122,13,52,27,0,0,112,124,10,76,92,112,0,0,0,0,0,0,0,0,0,0,0,0],"split_type":[0,0,0,0,0,0,0,0,0,0,0,0,0,0,0,0,0,0,0,0,0,0,0,0,0,0,0],"sum_hessian":[1.5909482E2,6.854135E1,9.0553474E1,2.9575934E0,6.558376E1,1.005666E1,8.049681E1,1.2568148E0,1.7007787E0,1.6503883E1,4.9079876E1,6.033744E0,4.022916E0,1.3325286E1,6.7171524E1,1.2981221E1,3.5226629E0,2.4259506E1,2.4820368E1,1.1859065E0,4.8478374E0,1.9765245E0,2.0463915E0,1.1801262E1,1.524024E0,3.5624805E1,3.1546722E1],"tree_param":{"num_deleted":"0","num_feature":"133","num_nodes":"27","size_leaf_vector":"1"}},{"base_weights":[-3.9797096E-4,-2.605209E-1,5.926071E-2,3.6201006E-1,-4.1715103E-1,-2.3857087E-2,3.8155836E-1,8.962295E-2,-4.3851364E-1,1.2953773E-1,-6.438659E-1,-1.8222694E-1,1.7851745E-1,6.33952E-1,-2.6653847E-1,2.223575E-2,-8.812096E-2,-7.3000975E-2,6.87465E-2,-3.2283694E-2,-1.09854735E-1,-3.388856E-2,2.6511446E-2,5.5329062E-2,-2.0205425E-2,9.178986E-2,-7.3586926E-3,7.628343E-2,-6.5820366E-2],"categories":[],"categories_nodes":[],"categories_segments":[],"categories_sizes":[],"default_left":[0,0,0,0,0,0,0,0,0,0,0,0,0,0,0,0,0,0,0,0,0,0,0,0,0,0,0,0,0],"id":40,"left_children":[1,3,5,7,9,11,13,-1,15,17,19,21,23,25,27,-1,-1,-1,-1,-1,-1,-1,-1,-1,-1,-1,-1,-1,-1],"loss_changes":[2.4851875E0,3.064138E0,3.498909E0,3.1903825E0,3.0995255E0,3.3819094E0,4.5473995E0,0E0,1.1583407E0,4.3220725E0,2.1806068E0,4.233046E0,6.7273974E0,3.997335E0,3.8106656E0,0E0,0E0,0E0,0E0,0E0,0E0,0E0,0E0,0E0,0E0,0E0,0E0,0E0,0E0],"parents":[2147483647,0,0,1,1,2,2,3,3,4,4,5,5,6,6,8,8,9,9,10,10,11,11,12,12,13,13,14,14],"right_children":[2,4,6,8,10,12,14,-1,16,18,20,22,24,26,28,-1,-1,-1,-1,-1,-1,-1,-1,-1,-1,-1,-1,-1,-1],"split_conditions":[5.689616E-1,-4.7433138E-4,6.6312265E-1,3.6612248E-1,-9.1525084E-1,1.0836323E0,3.514838E-1,8.962295E-2,1.8532802E-1,1E0,8.801522E-2,4.720064E-4,-3.1017643E-1,-1.0443728E0,4.074074E-1,2.223575E-2,-8.812096E-2,-7.3000975E-2,6.87465E-2,-3.2283694E-2,-1.09854735E-1,-3.388856E-2,2.6511446E-2,5.5329062E-2,-2.0205425E-2,9.178986E-2,-7.3586926E-3,7.628343E-2,-6.5820366E-2],"split_indices":[131,13,0,117,96,108,121,0,130,26,94,14,109,81,33,0,0,0,0,0,0,0,0,0,0,0,0,0,0],"split_type":[0,0,0,0,0,0,0,0,0,0,0,0,0,0,0,0,0,0,0,0,0,0,0,0,0,0,0,0,0],"sum_hessian":[1.5814775E2,2.8876032E1,1.2927171E2,5.5411863E0,2.3334845E1,1.03504715E2,2.5767E1,3.2516706E0,2.2895157E0,6.966004E0,1.6368841E1,5.8121117E1,4.53836E1,1.8560614E1,7.2063875E0,1.1180993E0,1.1714163E0,2.6204636E0,4.34554E0,1.0596903E1,5.771939E0,4.3225883E1,1.4895231E1,2.2637335E1,2.2746264E1,1.3032968E1,5.5276465E0,1.7250222E0,5.481365E0],"tree_param":{"num_deleted":"0","num_feature":"133","num_nodes":"29","size_leaf_vector":"1"}},{"base_weights":[6.612279E-5,-4.1983373E-2,3.7585816E-1,-2.697377E-1,4.8930664E-2,4.933189E-1,-5.653725E-2,4.5194995E-1,-4.3784347E-1,8.460671E-1,-1.3315656E-2,-3.628296E-2,6.4938015E-1,-3.0188112E-2,1.0009026E-1,-1.6662432E-2,-9.496262E-2,-3.9268207E-2,1.1417895E-1,8.215171E-2,-6.8173246E-3,8.038285E-2,-1.2180171E-2],"categories":[],"categories_nodes":[],"categories_segments":[],"categories_sizes":[],"default_left":[0,0,0,0,0,0,0,0,0,0,0,0,0,0,0,0,0,0,0,0,0,0,0],"id":41,"left_children":[1,3,5,7,9,11,-1,13,15,17,19,-1,21,-1,-1,-1,-1,-1,-1,-1,-1,-1,-1],"loss_changes":[2.5137703E0,2.9756758E0,2.0488327E0,5.168521E0,5.1270437E0,2.2086442E0,0E0,3.70897E0,4.5248756E0,3.1896834E0,4.4808254E0,0E0,1.6282763E0,0E0,0E0,0E0,0E0,0E0,0E0,0E0,0E0,0E0,0E0],"parents":[2147483647,0,0,1,1,2,2,3,3,4,4,5,5,7,7,8,8,9,9,10,10,12,12],"right_children":[2,4,6,8,10,12,-1,14,16,18,20,-1,22,-1,-1,-1,-1,-1,-1,-1,-1,-1,-1],"split_conditions":[8.743116E-1,4.2857143E-1,1.0152255E0,-1.0998857E0,4.652778E-1,2.5E-1,-5.653725E-2,3.0354067E3,-1.143946E0,-1.1473849E0,-8.9585596E-1,-3.628296E-2,8.148148E-1,-3.0188112E-2,1.0009026E-1,-1.6662432E-2,-9.496262E-2,-3.9268207E-2,1.1417895E-1,8.215171E-2,-6.8173246E-3,8.038285E-2,-1.2180171E-2],"split_indices":[131,25,76,93,25,18,0,11,57,57,125,0,25,0,0,0,0,0,0,0,0,0,0],"split_type":[0,0,0,0,0,0,0,0,0,0,0,0,0,0,0,0,0,0,0,0,0,0,0],"sum_hessian":[1.5708199E2,1.4207292E2,1.5009063E1,3.9971336E1,1.0210159E2,1.3766903E1,1.2421596E0,7.232655E0,3.273868E1,6.48329E0,9.56183E1,1.9182899E0,1.1848613E1,3.237265E0,3.99539E0,2.2264952E1,1.047373E1,1.1862679E0,5.2970223E0,5.034032E0,9.058427E1,9.836314E0,2.012299E0],"tree_param":{"num_deleted":"0","num_feature":"133","num_nodes":"23","size_leaf_vector":"1"}},{"base_weights":[1.0627225E-3,3.793397E-1,-3.8615234E-2,6.3605565E-1,-2.2949426E-1,1.3500345E-1,-1.807917E-1,-2.3647264E-2,8.1446946E-1,-7.607499E-2,4.1117724E-2,-3.47902E-1,2.5074583E-1,1.4005835E-1,-2.9540205E-1,-2.3806736E-2,9.7202234E-2,7.0076935E-2,-7.150311E-2,-3.1258345E-3,4.827363E-2,-8.704885E-2,3.0158896E-2,-9.206889E-3,-7.167578E-2],"categories":[],"categories_nodes":[],"categories_segments":[],"categories_sizes":[],"default_left":[0,0,0,0,0,0,0,0,0,0,0,0,0,0,0,0,0,0,0,0,0,0,0,0,0],"id":42,"left_children":[1,3,5,7,9,11,13,-1,15,-1,-1,17,19,21,23,-1,-1,-1,-1,-1,-1,-1,-1,-1,-1],"loss_changes":[2.372942E0,2.4917762E0,3.5571034E0,1.8773184E0,2.0780141E0,3.7205305E0,2.9504313E0,0E0,1.7587128E0,0E0,0E0,5.5009923E0,3.4836493E0,3.7719624E0,4.955431E0,0E0,0E0,0E0,0E0,0E0,0E0,0E0,0E0,0E0,0E0],"parents":[2147483647,0,0,1,1,2,2,3,3,4,4,5,5,6,6,8,8,11,11,12,12,13,13,14,14],"right_children":[2,4,6,8,10,12,14,-1,16,-1,-1,18,20,22,24,-1,-1,-1,-1,-1,-1,-1,-1,-1,-1],"split_conditions":[8.114867E-1,8.125E-1,1.5E0,1E0,4.0179712E-4,1.954023E-1,-4.7744968E-4,-2.3647264E-2,3.2513744E-1,-7.607499E-2,4.1117724E-2,-7.3072704E-5,6.449341E-1,-3.0439663E-1,6.574912E-1,-2.3806736E-2,9.7202234E-2,7.0076935E-2,-7.150311E-2,-3.1258345E-3,4.827363E-2,-8.704885E-2,3.0158896E-2,-9.206889E-3,-7.167578E-2],"split_indices":[45,33,22,6,12,27,32,0,121,0,0,30,131,54,119,0,0,0,0,0,0,0,0,0,0],"split_type":[0,0,0,0,0,0,0,0,0,0,0,0,0,0,0,0,0,0,0,0,0,0,0,0,0],"sum_hessian":[1.5612259E2,1.40086E1,1.42114E2,9.822299E0,4.186301E0,6.4004906E1,7.8109085E1,1.6122439E0,8.210055E0,2.1861134E0,2.000188E0,1.1986884E1,5.2018024E1,2.0499365E1,5.7609722E1,1.0024081E0,7.2076473E0,2.872646E0,9.114238E0,2.3868765E1,2.814926E1,2.2202604E0,1.8279104E1,3.9679928E1,1.7929792E1],"tree_param":{"num_deleted":"0","num_feature":"133","num_nodes":"25","size_leaf_vector":"1"}},{"base_weights":[9.049307E-4,-3.0752448E-2,4.6060848E-1,-6.544431E-1,-9.227474E-4,9.962382E-2,-8.488068E-2,-9.86212E-1,5.4914284E-2,4.8777092E-1,-4.469318E-2,-7.449105E-1,6.003603E-2,-1.1055781E-1,-2.768277E-2,-3.7011705E-2,4.5474034E-2,-5.0311536E-2,8.759216E-2,-1.233411E-3,-9.807302E-2,-9.771423E-2,-2.031347E-2],"categories":[],"categories_nodes":[],"categories_segments":[],"categories_sizes":[],"default_left":[0,0,0,0,0,0,0,0,0,0,0,0,0,0,0,0,0,0,0,0,0,0,0],"id":43,"left_children":[1,3,5,7,9,-1,11,13,15,17,19,21,-1,-1,-1,-1,-1,-1,-1,-1,-1,-1,-1],"loss_changes":[2.286796E0,2.7349744E0,3.0425358E0,1.6333315E0,3.0448608E0,0E0,3.1325002E0,8.5538864E-2,6.9265616E-1,4.94129E0,3.9444947E0,2.3816109E-1,0E0,0E0,0E0,0E0,0E0,0E0,0E0,0E0,0E0,0E0,0E0],"parents":[2147483647,0,0,1,1,2,2,3,3,4,4,6,6,7,7,8,8,9,9,10,10,11,11],"right_children":[2,4,6,8,10,-1,12,14,16,18,20,22,-1,-1,-1,-1,-1,-1,-1,-1,-1,-1,-1],"split_conditions":[3.399013E-1,5.1623017E-1,8.410429E-4,1.2128226E0,3.8962236E-1,9.962382E-2,6.0324645E-1,8.1721723E-1,-1.146243E0,1.1052843E0,-9.61901E-1,2.940852E-4,6.003603E-2,-1.1055781E-1,-2.768277E-2,-3.7011705E-2,4.5474034E-2,-5.0311536E-2,8.759216E-2,-1.233411E-3,-9.807302E-2,-9.771423E-2,-2.031347E-2],"split_indices":[130,131,32,101,91,0,131,45,57,104,84,30,0,0,0,0,0,0,0,0,0,0,0],"split_type":[0,0,0,0,0,0,0,0,0,0,0,0,0,0,0,0,0,0,0,0,0,0,0],"sum_hessian":[1.5516228E2,1.4603847E2,9.123802E0,5.7101064E0,1.4032837E2,4.186576E0,4.9372263E0,3.6245856E0,2.0855207E0,1.0701629E1,1.2962674E2,2.4705212E0,2.466705E0,2.6244698E0,1.0001158E0,1.0469137E0,1.038607E0,2.9287682E0,7.77286E0,1.2627457E2,3.3521717E0,1.1667871E0,1.3037341E0],"tree_param":{"num_deleted":"0","num_feature":"133","num_nodes":"23","size_leaf_vector":"1"}},{"base_weights":[2.1194024E-5,-3.6500487E-2,3.9382124E-1,-7.5184834E-1,-5.6427596E-3,-7.087304E-2,6.100303E-1,1.4911242E-2,-9.8179346E-1,7.0300657E-1,-3.8900096E-2,-2.7923344E-2,7.979242E-1,-1.6665697E-2,-1.16824806E-1,9.704449E-2,-2.0378396E-2,-8.284957E-2,-1.1475865E-4,-5.9175785E-3,9.353479E-2],"categories":[],"categories_nodes":[],"categories_segments":[],"categories_sizes":[],"default_left":[0,0,0,0,0,0,0,0,0,0,0,0,0,0,0,0,0,0,0,0,0],"id":44,"left_children":[1,3,5,7,9,-1,11,-1,13,15,17,-1,19,-1,-1,-1,-1,-1,-1,-1,-1],"loss_changes":[2.2506642E0,3.1569393E0,3.5983715E0,1.371716E0,3.2866266E0,0E0,2.1679196E0,0E0,5.414891E-1,1.7138658E0,3.96493E0,0E0,1.2178817E0,0E0,0E0,0E0,0E0,0E0,0E0,0E0,0E0],"parents":[2147483647,0,0,1,1,2,2,3,3,4,4,6,6,8,8,9,9,10,10,12,12],"right_children":[2,4,6,8,10,-1,12,-1,14,16,18,-1,20,-1,-1,-1,-1,-1,-1,-1,-1],"split_conditions":[-2.77268E-1,8.952044E-2,2.5555557E-1,-3.4996226E-1,-7.049721E-1,-7.087304E-2,-1.0729651E0,1.4911242E-2,-3.6592504E-5,9.0123457E-1,-5.3793365E-1,-2.7923344E-2,-1.1479508E0,-1.6665697E-2,-1.16824806E-1,9.704449E-2,-2.0378396E-2,-8.284957E-2,-1.1475865E-4,-5.9175785E-3,9.353479E-2],"split_indices":[54,40,23,114,39,0,93,0,31,27,52,0,57,0,0,0,0,0,0,0,0],"split_type":[0,0,0,0,0,0,0,0,0,0,0,0,0,0,0,0,0,0,0,0,0],"sum_hessian":[1.5448965E2,1.4220833E2,1.2281328E1,4.9145103E0,1.3729381E2,1.6400346E0,1.0641294E1,1.0707349E0,3.8437755E0,5.2517085E0,1.3204211E2,1.7714167E0,8.869877E0,1.0681016E0,2.7756739E0,4.001388E0,1.2503206E0,5.069423E0,1.2697269E2,1.3043224E0,7.5655546E0],"tree_param":{"num_deleted":"0","num_feature":"133","num_nodes":"21","size_leaf_vector":"1"}},{"base_weights":[-6.102121E-4,3.5509703E-1,-3.8303934E-2,9.261351E-2,8.192764E-2,-9.718685E-2,3.531836E-1,-7.273871E-2,3.3469185E-1,-2.6746816E-3,-5.1132387E-1,7.3193264E-1,-4.4308707E-1,-6.077804E-2,6.339857E-2,2.9611284E-2,-1.7664343E-2,1.0654417E-2,-9.6174926E-2,8.5196875E-2,-2.0039966E-2,-1.05372906E-1,4.1906726E-2],"categories":[],"categories_nodes":[],"categories_segments":[],"categories_sizes":[],"default_left":[0,0,0,0,0,0,0,0,0,0,0,0,0,0,0,0,0,0,0,0,0,0,0],"id":45,"left_children":[1,3,5,-1,7,9,11,-1,13,15,17,19,21,-1,-1,-1,-1,-1,-1,-1,-1,-1,-1],"loss_changes":[2.089298E0,2.2531495E0,3.281892E0,0E0,2.5338485E0,4.822584E0,5.944371E0,0E0,2.985115E0,5.320475E0,6.4742284E0,1.6262107E0,3.9318538E0,0E0,0E0,0E0,0E0,0E0,0E0,0E0,0E0,0E0,0E0],"parents":[2147483647,0,0,1,1,2,2,4,4,5,5,6,6,8,8,9,9,10,10,11,11,12,12],"right_children":[2,4,6,-1,8,10,12,-1,14,16,18,20,22,-1,-1,-1,-1,-1,-1,-1,-1,-1,-1],"split_conditions":[8.1149846E-1,4.1452992E-1,7.260319E-5,9.261351E-2,5.615504E-1,-7.316092E-5,8.032422E-4,-7.273871E-2,1E0,1.4166666E0,1.104E3,-6.0490954E-1,5.494908E-4,-6.077804E-2,6.339857E-2,2.9611284E-2,-1.7664343E-2,1.0654417E-2,-9.6174926E-2,8.5196875E-2,-2.0039966E-2,-1.05372906E-1,4.1906726E-2],"split_indices":[45,23,13,0,131,13,32,0,6,22,10,78,31,0,0,0,0,0,0,0,0,0,0],"split_type":[0,0,0,0,0,0,0,0,0,0,0,0,0,0,0,0,0,0,0,0,0,0,0],"sum_hessian":[1.538111E2,1.3930596E1,1.3988051E2,3.7342088E0,1.0196387E1,1.2224553E2,1.7634974E1,1.9797578E0,8.21663E0,1.00350525E2,2.189501E1,1.2005373E1,5.6296E0,1.7319688E0,6.484661E0,3.6669445E1,6.3681076E1,9.553508E0,1.2341502E1,1.0712372E1,1.293002E0,3.1654134E0,2.4641867E0],"tree_param":{"num_deleted":"0","num_feature":"133","num_nodes":"23","size_leaf_vector":"1"}},{"base_weights":[-5.171047E-4,-3.8978625E-2,3.5270506E-1,-7.5296265E-1,-1.2707063E-2,4.6727768E-1,-5.0646503E-2,-1.2734614E-1,1.683262E-2,3.88795E-1,-8.467924E-2,8.1302834E-1,1.0006866E-2,-3.6427848E-2,5.596084E-2,-7.5733714E-2,-3.3165135E-3,7.798975E-3,9.1018125E-2,5.412508E-2,-7.6892756E-2],"categories":[],"categories_nodes":[],"categories_segments":[],"categories_sizes":[],"default_left":[0,0,0,0,0,0,0,0,0,0,0,0,0,0,0,0,0,0,0,0,0],"id":46,"left_children":[1,3,5,7,9,11,-1,-1,-1,13,15,17,19,-1,-1,-1,-1,-1,-1,-1,-1],"loss_changes":[2.1027818E0,2.608428E0,1.7328092E0,2.5814028E0,3.9523532E0,2.1943426E0,0E0,0E0,0E0,2.879009E0,3.988833E0,4.9460936E-1,3.3171673E0,0E0,0E0,0E0,0E0,0E0,0E0,0E0,0E0],"parents":[2147483647,0,0,1,1,2,2,3,3,4,4,5,5,9,9,10,10,11,11,12,12],"right_children":[2,4,6,8,10,12,-1,-1,-1,14,16,18,20,-1,-1,-1,-1,-1,-1,-1,-1],"split_conditions":[8.743116E-1,2.903944E-1,1.0152255E0,-9.0529704E-1,-4.7744968E-4,1.3344243E0,-5.0646503E-2,-1.2734614E-1,1.683262E-2,5.9064925E-1,-7.6358084E-4,1.265182E0,3.3280566E-1,-3.6427848E-2,5.596084E-2,-7.5733714E-2,-3.3165135E-3,7.798975E-3,9.1018125E-2,5.412508E-2,-7.6892756E-2],"split_indices":[131,129,76,124,32,105,0,0,0,131,13,105,117,0,0,0,0,0,0,0,0],"split_type":[0,0,0,0,0,0,0,0,0,0,0,0,0,0,0,0,0,0,0,0,0],"sum_hessian":[1.527698E2,1.385708E2,1.4198996E1,3.936181E0,1.3463463E2,1.2930772E1,1.268224E0,2.270922E0,1.6652592E0,1.9796482E1,1.1483814E2,6.9202476E0,6.0105247E0,3.4506812E0,1.63458E1,7.1943703E0,1.0764377E2,1.0183531E0,5.901894E0,3.754823E0,2.2557015E0],"tree_param":{"num_deleted":"0","num_feature":"133","num_nodes":"21","size_leaf_vector":"1"}},{"base_weights":[-1.0991585E-3,5.509232E-1,-2.5598822E-2,7.6895845E-1,-1.8870428E-2,1.4976652E-1,-1.2346767E-1,7.0097777E-3,9.7061306E-2,2.28798E-1,-7.358904E-1,-5.1574546E-1,-2.0356754E-2,3.0057758E-2,-5.6620736E-2,-1.0540513E-1,2.0266509E-2,6.3688E-2,-6.9046505E-2,4.9962774E-3,-7.17411E-2],"categories":[],"categories_nodes":[],"categories_segments":[],"categories_sizes":[],"default_left":[0,0,0,0,0,0,0,0,0,0,0,0,0,0,0,0,0,0,0,0,0],"id":47,"left_children":[1,3,5,7,-1,9,11,-1,-1,13,15,17,19,-1,-1,-1,-1,-1,-1,-1,-1],"loss_changes":[2.0845022E0,1.2013762E0,2.5506349E0,6.7264223E-1,0E0,3.8989213E0,3.8417459E0,0E0,0E0,3.005986E0,1.5882907E0,4.4235907E0,3.7835019E0,0E0,0E0,0E0,0E0,0E0,0E0,0E0,0E0],"parents":[2147483647,0,0,1,1,2,2,3,3,5,5,6,6,9,9,10,10,11,11,12,12],"right_children":[2,4,6,8,-1,10,12,-1,-1,14,16,18,20,-1,-1,-1,-1,-1,-1,-1,-1],"split_conditions":[-1.609109E0,-9.9340594E-1,4.5306075E-2,1.3073255E0,-1.8870428E-2,8.148148E-1,5.219717E-2,7.0097777E-3,9.7061306E-2,-9.622064E-1,-1.6507494E0,-4.7759676E-1,4.1685975E-1,3.0057758E-2,-5.6620736E-2,-1.0540513E-1,2.0266509E-2,6.3688E-2,-6.9046505E-2,4.9962774E-3,-7.17411E-2],"split_indices":[116,123,128,105,0,25,128,0,0,84,118,111,126,0,0,0,0,0,0,0,0],"split_type":[0,0,0,0,0,0,0,0,0,0,0,0,0,0,0,0,0,0,0,0,0],"sum_hessian":[1.5208662E2,5.5499134E0,1.4653671E2,4.2557135E0,1.2942003E0,5.229756E1,9.423916E1,1.2547668E0,3.0009465E0,4.869402E1,3.6035426E0,1.8782122E1,7.545703E1,4.523202E1,3.4619982E0,2.5993364E0,1.0042061E0,2.1241236E0,1.6657999E1,6.938566E1,6.0713725E0],"tree_param":{"num_deleted":"0","num_feature":"133","num_nodes":"21","size_leaf_vector":"1"}},{"base_weights":[-1.4443063E-3,-3.1221269E-2,4.1929495E-1,-6.232229E-1,-3.2694445E-3,-1.1646271E-1,8.1775147E-1,1.9028822E-2,-8.5543466E-1,4.503378E-1,-4.3013044E-2,-9.6182205E-2,6.0520786E-1,9.001564E-2,2.0563575E-2,-4.2613545E-3,-1.05417386E-1,9.549034E-2,-3.2103926E-2,-1.3573325E-3,-8.728712E-2,8.215747E-3,7.8862436E-2],"categories":[],"categories_nodes":[],"categories_segments":[],"categories_sizes":[],"default_left":[0,0,0,0,0,0,0,0,0,0,0,0,0,0,0,0,0,0,0,0,0,0,0],"id":48,"left_children":[1,3,5,7,9,11,13,-1,15,17,19,-1,21,-1,-1,-1,-1,-1,-1,-1,-1,-1,-1],"loss_changes":[1.9247416E0,2.3714008E0,2.2629838E0,1.3834243E0,2.5066915E0,3.7583697E0,1.14926815E-1,0E0,7.9649353E-1,4.666433E0,3.1096292E0,0E0,2.635455E-1,0E0,0E0,0E0,0E0,0E0,0E0,0E0,0E0,0E0,0E0],"parents":[2147483647,0,0,1,1,2,2,3,3,4,4,5,5,6,6,8,8,9,9,10,10,12,12],"right_children":[2,4,6,8,10,12,14,-1,16,18,20,-1,22,-1,-1,-1,-1,-1,-1,-1,-1,-1,-1],"split_conditions":[3.3832332E-1,5.1623017E-1,6.0324645E-1,-2.890591E-1,3.8962236E-1,6.8848383E-1,2.3870075E0,1.9028822E-2,-1.4922713E0,2.4166667E0,-9.61901E-1,-9.6182205E-2,4.848485E-1,9.001564E-2,2.0563575E-2,-4.2613545E-3,-1.05417386E-1,9.549034E-2,-3.2103926E-2,-1.3573325E-3,-8.728712E-2,8.215747E-3,7.8862436E-2],"split_indices":[130,131,131,80,91,107,43,0,95,22,84,0,20,0,0,0,0,0,0,0,0,0,0],"split_type":[0,0,0,0,0,0,0,0,0,0,0,0,0,0,0,0,0,0,0,0,0,0,0],"sum_hessian":[1.5158614E2,1.4243163E2,9.154512E0,5.4616237E0,1.3697E2,4.20639E0,4.948123E0,1.2528908E0,4.2087326E0,1.020184E1,1.2676816E2,1.783933E0,2.4224567E0,3.9462948E0,1.0018283E0,1.0654755E0,3.1432574E0,6.023734E0,4.1781063E0,1.23406586E2,3.3615673E0,1.0048487E0,1.417608E0],"tree_param":{"num_deleted":"0","num_feature":"133","num_nodes":"23","size_leaf_vector":"1"}},{"base_weights":[-1.2624348E-3,-4.3288942E-2,2.930834E-1,7.122942E-2,-3.414147E-1,-6.872999E-2,4.3164384E-1,-7.374796E-2,3.234784E-1,2.5191796E-1,-5.4005855E-1,-1.0022747E-1,7.418554E-1,-3.039295E-2,2.1285329E-2,-1.9189509E-2,5.7625927E-2,9.65557E-2,-7.831842E-3,4.3199744E-2,-6.608157E-2,3.5004042E-2,-5.732664E-2,-4.5093E-2,9.791737E-2],"categories":[],"categories_nodes":[],"categories_segments":[],"categories_sizes":[],"default_left":[0,0,0,0,0,0,0,0,0,0,0,0,0,0,0,0,0,0,0,0,0,0,0,0,0],"id":49,"left_children":[1,3,5,7,9,-1,11,13,15,17,19,21,23,-1,-1,-1,-1,-1,-1,-1,-1,-1,-1,-1,-1],"loss_changes":[1.8932204E0,4.595699E0,2.89426E0,3.5918558E0,4.5361085E0,0E0,2.9400158E0,4.2057023E0,4.7737603E0,2.443068E0,3.6058378E0,1.7511067E0,3.5805454E0,0E0,0E0,0E0,0E0,0E0,0E0,0E0,0E0,0E0,0E0,0E0,0E0],"parents":[2147483647,0,0,1,1,2,2,3,3,4,4,6,6,7,7,8,8,9,9,10,10,11,11,12,12],"right_children":[2,4,6,8,10,-1,12,14,16,18,20,22,24,-1,-1,-1,-1,-1,-1,-1,-1,-1,-1,-1,-1],"split_conditions":[-2.1284993E0,-2.199598E0,1.739327E-1,7.1785545E-1,2.2144993E-1,-6.872999E-2,-3.949859E-1,3.6654204E-5,9.7411686E-1,1.4124316E0,-2.4991086E0,-1.0131934E0,-1.4545429E0,-3.039295E-2,2.1285329E-2,-1.9189509E-2,5.7625927E-2,9.65557E-2,-7.831842E-3,4.3199744E-2,-6.608157E-2,3.5004042E-2,-5.732664E-2,-4.5093E-2,9.791737E-2],"split_indices":[86,86,85,131,115,0,72,30,76,92,106,84,95,0,0,0,0,0,0,0,0,0,0,0,0],"split_type":[0,0,0,0,0,0,0,0,0,0,0,0,0,0,0,0,0,0,0,0,0,0,0,0,0],"sum_hessian":[1.5101968E2,1.3289758E2,1.8122099E1,9.656526E1,3.6332317E1,1.753678E0,1.6368422E1,6.17708E1,3.4794464E1,9.04562E0,2.7286697E1,6.27926E0,1.0089161E1,3.4223778E1,2.7547022E1,1.1529272E1,2.3265192E1,2.2530196E0,6.7926E0,2.7304037E0,2.4556293E1,3.3502765E0,2.9289837E0,1.5248764E0,8.564285E0],"tree_param":{"num_deleted":"0","num_feature":"133","num_nodes":"25","size_leaf_vector":"1"}},{"base_weights":[-2.6093973E-4,7.0700586E-1,-1.810233E-2,8.580349E-2,1.49741685E-2,-6.519869E-1,6.2205447E-3,4.0896486E-2,-1.1464536E0,-6.23698E-2,3.7694353E-1,-2.7535995E-2,-1.5107971E-1,-9.79855E-2,-6.6849863E-4,7.107158E-2,-1.6572809E-2],"categories":[],"categories_nodes":[],"categories_segments":[],"categories_sizes":[],"default_left":[0,0,0,0,0,0,0,0,0,0,0,0,0,0,0,0,0],"id":50,"left_children":[1,3,5,-1,-1,7,9,-1,11,13,15,-1,-1,-1,-1,-1,-1],"loss_changes":[1.9170817E0,1.8612957E-1,2.2885623E0,0E0,0E0,3.346265E0,3.6771982E0,0E0,8.5482216E-1,6.232125E0,4.206951E0,0E0,0E0,0E0,0E0,0E0,0E0],"parents":[2147483647,0,0,1,1,2,2,5,5,6,6,8,8,9,9,10,10],"right_children":[2,4,6,-1,-1,8,10,-1,12,14,16,-1,-1,-1,-1,-1,-1],"split_conditions":[5.33E2,-3.2584718E-1,2.27E2,8.580349E-2,1.49741685E-2,1.0725147E0,5.920492E-1,4.0896486E-2,-3.2355604E-1,-7.681059E-1,8E-1,-2.7535995E-2,-1.5107971E-1,-9.79855E-2,-6.6849863E-4,7.107158E-2,-1.6572809E-2],"split_indices":[11,99,10,0,0,108,50,0,99,64,27,0,0,0,0,0,0],"split_type":[0,0,0,0,0,0,0,0,0,0,0,0,0,0,0,0,0],"sum_hessian":[1.4991054E2,2.7381399E0,1.471724E2,1.7296463E0,1.0084937E0,4.484895E0,1.426875E2,1.4807162E0,3.0041792E0,1.2111148E2,2.1576017E1,1.4037595E0,1.6004198E0,5.980353E0,1.15131134E2,1.3167583E1,8.408433E0],"tree_param":{"num_deleted":"0","num_feature":"133","num_nodes":"17","size_leaf_vector":"1"}},{"base_weights":[-5.859152E-4,-3.372059E-2,3.6766887E-1,-7.13821E-1,-3.8278287E-3,-7.786834E-2,5.5367327E-1,1.2332217E-2,-9.225337E-1,-3.492942E-2,6.7641056E-1,7.032574E-1,-4.1133165E-2,-1.4961024E-2,-1.0992668E-1,-6.3559234E-2,1.5354587E-3,9.61962E-2,-3.3219505E-2,-2.4411513E-2,8.6797185E-2],"categories":[],"categories_nodes":[],"categories_segments":[],"categories_sizes":[],"default_left":[0,0,0,0,0,0,0,0,0,0,0,0,0,0,0,0,0,0,0,0,0],"id":51,"left_children":[1,3,5,7,9,-1,11,-1,13,15,17,19,-1,-1,-1,-1,-1,-1,-1,-1,-1],"loss_changes":[1.8477548E0,2.8213935E0,3.0966191E0,1.1347201E0,2.8600867E0,0E0,1.9261909E0,0E0,4.9055433E-1,3.9108562E0,2.0219798E0,1.801547E0,0E0,0E0,0E0,0E0,0E0,0E0,0E0,0E0,0E0],"parents":[2147483647,0,0,1,1,2,2,3,3,4,4,6,6,8,8,9,9,10,10,11,11],"right_children":[2,4,6,8,10,-1,12,-1,14,16,18,20,-1,-1,-1,-1,-1,-1,-1,-1,-1],"split_conditions":[-2.77268E-1,8.952044E-2,1.1351703E0,-3.4996226E-1,2.3465374E-1,-7.786834E-2,1.4394693E0,1.2332217E-2,-3.6592504E-5,-5.377111E-1,8.4210527E-1,5.2353656E-1,-4.1133165E-2,-1.4961024E-2,-1.0992668E-1,-6.3559234E-2,1.5354587E-3,9.61962E-2,-3.3219505E-2,-2.4411513E-2,8.6797185E-2],"split_indices":[54,40,73,114,37,0,41,0,31,52,27,56,0,0,0,0,0,0,0,0,0],"split_type":[0,0,0,0,0,0,0,0,0,0,0,0,0,0,0,0,0,0,0,0,0],"sum_hessian":[1.494144E2,1.3791368E2,1.1500708E1,4.8432755E0,1.330704E2,1.1607277E0,1.033998E1,1.0481784E0,3.7950969E0,1.2815941E2,4.9110026E0,9.187135E0,1.1528455E0,1.0499192E0,2.7451777E0,9.000826E0,1.19158585E2,3.863448E0,1.0475545E0,1.2893358E0,7.897799E0],"tree_param":{"num_deleted":"0","num_feature":"133","num_nodes":"21","size_leaf_vector":"1"}},{"base_weights":[-1.4255061E-3,1.8320002E-2,-5.9194773E-1,5.067481E-1,