{"learner":{"attributes":{"scikit_learn":"{\"_estimator_type\": \"classifier\"}"},"feature_names":[],"feature_types":[],"gradient_booster":{"model":{"cats":{"enc":[],"feature_segments":[],"sorted_idx":[]},"gbtree_model_param":{"num_parallel_tree":"1","num_trees":"100"},"iteration_indptr":[0,1,2,3,4,5,6,7,8,9,10,11,12,13,14,15,16,17,18,19,20,21,22,23,24,25,26,27,28,29,30,31,32,33,34,35,36,37,38,39,40,41,42,43,44,45,46,47,48,49,50,51,52,53,54,55,56,57,58,59,60,61,62,63,64,65,66,67,68,69,70,71,72,73,74,75,76,77,78,79,80,81,82,83,84,85,86,87,88,89,90,91,92,93,94,95,96,97,98,99,100],"tree_info":[0,0,0,0,0,0,0,0,0,0,0,0,0,0,0,0,0,0,0,0,0,0,0,0,0,0,0,0,0,0,0,0,0,0,0,0,0,0,0,0,0,0,0,0,0,0,0,0,0,0,0,0,0,0,0,0,0,0,0,0,0,0,0,0,0,0,0,0,0,0,0,0,0,0,0,0,0,0,0,0,0,0,0,0,0,0,0,0,0,0,0,0,0,0,0,0,0,0,0,0],"trees":[{"base_weights":[9.852926E-8,-4.977695E-1,5.376454E-1,-7.583748E-1,-1.9472013E-1,3.824477E-1,9.636301E-1,-1.5266371E-1,-9.675959E-1,3.848002E-2,-7.668969E-1,1.6198915E-1,7.010703E-1,-4.1608834E-1,1.1198475E0,-7.4152015E-2,3.426429E-2,-1.2414988E-1,-3.4138605E-2,1.7990004E-2,-1.0986646E-1,-1.2765585E-1,-1.3902986E-2,-1.3471119E-1,2.447066E-2,4.0921707E-2,1.0583464E-1,-1.3572691E-1,2.3978591E-2,-6.658873E-2,1.1993003E-1],"categories":[],"categories_nodes":[],"categories_segments":[],"categories_sizes":[],"default_left":[0,0,0,0,0,0,0,0,0,0,0,0,0,0,0,0,0,0,0,0,0,0,0,0,0,0,0,0,0,0,0],"id":0,"left_children":[1,3,5,7,9,11,13,15,17,19,21,23,25,27,29,-1,-1,-1,-1,-1,-1,-1,-1,-1,-1,-1,-1,-1,-1,-1,-1],"loss_changes":[1.2330943E2,1.874747E1,1.427565E1,1.6109894E1,1.4968912E1,1.1407269E1,1.3073204E1,1.0206618E1,1.5898895E1,1.3142587E1,1.0211981E1,1.2592899E1,6.5295067E0,4.4479265E0,8.291962E0,0E0,0E0,0E0,0E0,0E0,0E0,0E0,0E0,0E0,0E0,0E0,0E0,0E0,0E0,0E0,0E0],"parents":[2147483647,0,0,1,1,2,2,3,3,4,4,5,5,6,6,7,7,8,8,9,9,10,10,11,11,12,12,13,13,14,14],"right_children":[2,4,6,8,10,12,14,16,18,20,22,24,26,28,30,-1,-1,-1,-1,-1,-1,-1,-1,-1,-1,-1,-1,-1,-1,-1,-1],"split_conditions":[7.5432694E-1,6.446937E-1,2.9568428E-1,-5.7146733E-4,-5.5326486E-1,1.1365168E0,-1.5216981E0,5E-1,8.7259483E-1,7.118056E-1,5.163752E-1,2.9202303E-1,8.6077946E-1,-1.0415623E0,3.6666667E0,-7.4152015E-2,3.426429E-2,-1.2414988E-1,-3.4138605E-2,1.7990004E-2,-1.0986646E-1,-1.2765585E-1,-1.3902986E-2,-1.3471119E-1,2.447066E-2,4.0921707E-2,1.0583464E-1,-1.3572691E-1,2.3978591E-2,-6.658873E-2,1.1993003E-1],"split_indices":[131,131,132,13,89,103,85,24,73,23,74,23,131,102,22,0,0,0,0,0,0,0,0,0,0,0,0,0,0,0,0],"split_type":[0,0,0,0,0,0,0,0,0,0,0,0,0,0,0,0,0,0,0,0,0,0,0,0,0,0,0,0,0,0,0],"sum_hessian":[4.587571E2,2.3825085E2,2.2050626E2,1.2728794E2,1.1096291E2,1.6301375E2,5.749251E1,3.3123257E1,9.416469E1,7.949582E1,3.1467094E1,9.724042E1,6.577332E1,5.6782727E0,5.1814236E1,1.4905465E1,1.821779E1,6.482694E1,2.9337742E1,7.14516E1,8.04422E0,1.6798223E1,1.4668871E1,4.2587047E0,9.298171E1,3.738196E1,2.8391363E1,1.8927575E0,3.785515E0,1.8927575E0,4.992148E1],"tree_param":{"num_deleted":"0","num_feature":"133","num_nodes":"31","size_leaf_vector":"1"}},{"base_weights":[-2.9082116E-4,-4.447867E-1,4.9118492E-1,-3.3731827E-1,-1.0272008E0,4.124865E-1,1.2446828E0,-5.741108E-1,-6.8976425E-2,-1.4255817E0,-2.42742E-2,4.41822E-1,-1.7523663E-1,-2.9493729E-2,1.4214947E0,3.502821E-2,-7.0494175E-2,1.7352123E-2,-6.793815E-2,-1.5716647E-1,2.482036E-3,7.475712E-2,-1.06605984E-1,3.1011043E-2,8.6198896E-2,1.4710872E-1,3.6396656E-2],"categories":[],"categories_nodes":[],"categories_segments":[],"categories_sizes":[],"default_left":[0,0,0,0,0,0,0,0,0,0,0,0,0,0,0,0,0,0,0,0,0,0,0,0,0,0,0],"id":1,"left_children":[1,3,5,7,9,11,13,15,17,19,21,23,-1,-1,25,-1,-1,-1,-1,-1,-1,-1,-1,-1,-1,-1,-1],"loss_changes":[1.00503944E2,1.477396E1,1.2442463E1,1.3013821E1,1.4805794E1,1.3432327E1,5.908825E0,1.3428669E1,1.4540709E1,5.6678543E0,1.0105842E1,1.0659836E1,0E0,0E0,4.222374E-1,0E0,0E0,0E0,0E0,0E0,0E0,0E0,0E0,0E0,0E0,0E0,0E0],"parents":[2147483647,0,0,1,1,2,2,3,3,4,4,5,5,6,6,7,7,8,8,9,9,10,10,11,11,14,14],"right_children":[2,4,6,8,10,12,14,16,18,20,22,24,-1,-1,26,-1,-1,-1,-1,-1,-1,-1,-1,-1,-1,-1,-1],"split_conditions":[7.5432694E-1,6.7799973E-1,1.1689004E0,6.446937E-1,1.1410922E-3,-1.0592022E0,-1.5321072E0,1.5815282E0,-5.5159676E-1,-1.2337495E0,-2.7199233E-1,9.032311E-1,-1.7523663E-1,-2.9493729E-2,9E-1,3.502821E-2,-7.0494175E-2,1.7352123E-2,-6.793815E-2,-1.5716647E-1,2.482036E-3,7.475712E-2,-1.06605984E-1,3.1011043E-2,8.6198896E-2,1.4710872E-1,3.6396656E-2],"split_indices":[131,23,63,131,14,39,85,46,89,130,109,131,0,0,27,0,0,0,0,0,0,0,0,0,0,0,0],"split_type":[0,0,0,0,0,0,0,0,0,0,0,0,0,0,0,0,0,0,0,0,0,0,0,0,0,0,0],"sum_hessian":[4.5805865E2,2.4057503E2,2.1748361E2,2.0443193E2,3.614309E1,1.983179E2,1.9165709E1,1.0799478E2,9.643715E1,2.5566277E1,1.0576815E1,1.9645174E2,1.8661681E0,1.905465E0,1.7260244E1,1.3181664E1,9.481312E1,6.9530334E1,2.6906818E1,2.315093E1,2.415345E0,6.2377563E0,4.3390584E0,1.5088974E2,4.5562E1,1.6113543E1,1.146702E0],"tree_param":{"num_deleted":"0","num_feature":"133","num_nodes":"27","size_leaf_vector":"1"}},{"base_weights":[-1.2812082E-4,-3.9820614E-1,4.4916934E-1,-3.020186E-1,-9.1523486E-1,2.8453606E-1,7.8891605E-1,-5.1136506E-1,-6.2430535E-2,-1.2612541E0,-2.396774E-2,5.033709E-1,-1.56755E-1,-1.5176575E-1,9.410661E-1,-6.285464E-2,3.7261646E-2,1.5710285E-2,-6.0631175E-2,1.2807051E-2,-1.4055662E-1,7.789544E-2,-8.743141E-2,5.8065932E-2,-9.3328536E-2,-2.6067533E-3,-1.7173736E-1,-5.192991E-2,1.0247549E-1,-5.036367E-2,1.0273405E-1],"categories":[],"categories_nodes":[],"categories_segments":[],"categories_sizes":[],"default_left":[0,0,0,0,0,0,0,0,0,0,0,0,0,0,0,0,0,0,0,0,0,0,0,0,0,0,0,0,0,0,0],"id":2,"left_children":[1,3,5,7,9,11,13,15,17,19,21,23,25,27,29,-1,-1,-1,-1,-1,-1,-1,-1,-1,-1,-1,-1,-1,-1,-1,-1],"loss_changes":[8.205298E1,1.1820744E1,1.1830261E1,1.0329767E1,1.1584812E1,1.4249165E1,1.0130459E1,1.1640274E1,1.17336235E1,5.6156006E0,8.568414E0,1.14601555E1,1.0031782E1,5.105612E0,8.021538E0,0E0,0E0,0E0,0E0,0E0,0E0,0E0,0E0,0E0,0E0,0E0,0E0,0E0,0E0,0E0,0E0],"parents":[2147483647,0,0,1,1,2,2,3,3,4,4,5,5,6,6,7,7,8,8,9,9,10,10,11,11,12,12,13,13,14,14],"right_children":[2,4,6,8,10,12,14,16,18,20,22,24,26,28,30,-1,-1,-1,-1,-1,-1,-1,-1,-1,-1,-1,-1,-1,-1,-1,-1],"split_conditions":[7.5432694E-1,6.7799973E-1,2.047457E-1,6.446937E-1,1.1410922E-3,6.0207033E-1,-1.5117476E0,1.4774477E0,-5.5159676E-1,-4.7089615E-1,8.2651955E-1,1.4244677E-1,3.7210074E-1,-2.4523137E-2,3.6666667E0,-6.285464E-2,3.7261646E-2,1.5710285E-2,-6.0631175E-2,1.2807051E-2,-1.4055662E-1,7.789544E-2,-8.743141E-2,5.8065932E-2,-9.3328536E-2,-2.6067533E-3,-1.7173736E-1,-5.192991E-2,1.0247549E-1,-5.036367E-2,1.0273405E-1],"split_indices":[131,23,132,131,14,61,85,35,89,76,43,112,83,125,22,0,0,0,0,0,0,0,0,0,0,0,0,0,0,0,0],"split_type":[0,0,0,0,0,0,0,0,0,0,0,0,0,0,0,0,0,0,0,0,0,0,0,0,0,0,0,0,0,0,0],"sum_hessian":[4.5676694E2,2.4224835E2,2.1451859E2,2.0558556E2,3.6662804E1,1.4573589E2,6.87827E1,1.0911184E2,9.647372E1,2.6110662E1,1.0552144E1,9.732972E1,4.840617E1,9.576655E0,5.9206043E1,9.659595E1,1.2515888E1,6.923763E1,2.7236084E1,2.467549E0,2.3643112E1,5.4705987E0,5.081545E0,9.292634E1,4.4033756E0,4.560396E1,2.8022096E0,7.722758E0,1.8538978E0,3.0637984E0,5.6142246E1],"tree_param":{"num_deleted":"0","num_feature":"133","num_nodes":"31","size_leaf_vector":"1"}},{"base_weights":[-3.0172E-4,-3.574096E-1,4.103816E-1,4.2543018E-1,-4.1185164E-1,3.378852E-1,1.1336877E0,6.84078E-1,-1.13846555E-1,-6.222949E-1,-2.0874916E-1,3.6569685E-1,-1.609016E-1,-5.623324E-2,1.2732123E0,9.346724E-2,-7.7807106E-2,-7.0410386E-2,9.21477E-2,-4.0866155E-2,2.6408006E-2,1.8295974E-2,6.547488E-2,1.0501877E-2,1.366241E-1],"categories":[],"categories_nodes":[],"categories_segments":[],"categories_sizes":[],"default_left":[0,0,0,0,0,0,0,0,0,0,0,0,0,0,0,0,0,0,0,0,0,0,0,0,0],"id":3,"left_children":[1,3,5,7,9,11,13,15,-1,17,19,21,-1,-1,23,-1,-1,-1,-1,-1,-1,-1,-1,-1,-1],"loss_changes":[6.698251E1,1.0587002E1,1.0756046E1,7.4031267E0,9.654507E0,1.1119953E1,5.194853E0,6.1050644E0,0E0,1.478413E1,1.1261488E1,1.0052189E1,0E0,0E0,1.7903881E0,0E0,0E0,0E0,0E0,0E0,0E0,0E0,0E0,0E0,0E0],"parents":[2147483647,0,0,1,1,2,2,3,3,4,4,5,5,6,6,7,7,9,9,10,10,11,11,14,14],"right_children":[2,4,6,8,10,12,14,16,-1,18,20,22,-1,-1,24,-1,-1,-1,-1,-1,-1,-1,-1,-1,-1],"split_conditions":[7.5432694E-1,-1.1954707E0,1.1689004E0,6.3870766E-4,6.3121337E-1,-1.0592022E0,2.628179E-1,7.136935E-1,-1.13846555E-1,1.1867647E0,1E0,1.582289E0,-1.609016E-1,-5.623324E-2,-1.9820393E0,9.346724E-2,-7.7807106E-2,-7.0410386E-2,9.21477E-2,-4.0866155E-2,2.6408006E-2,1.8295974E-2,6.547488E-2,1.0501877E-2,1.366241E-1],"split_indices":[131,104,63,30,131,39,23,123,0,98,24,46,0,0,97,0,0,0,0,0,0,0,0,0,0],"split_type":[0,0,0,0,0,0,0,0,0,0,0,0,0,0,0,0,0,0,0,0,0,0,0,0,0],"sum_hessian":[4.5472504E2,2.4329694E2,2.1142809E2,1.5376656E1,2.2792029E2,1.9350081E2,1.7927279E1,1.3677206E1,1.6994495E0,1.109236E2,1.1699669E2,1.915763E2,1.9245181E0,1.1323549E0,1.6794924E1,1.1984042E1,1.6931638E0,1.05857796E2,5.0658035E0,8.232525E1,3.4671436E1,1.1837389E2,7.32024E1,1.3958333E0,1.5399091E1],"tree_param":{"num_deleted":"0","num_feature":"133","num_nodes":"25","size_leaf_vector":"1"}},{"base_weights":[-4.9259266E-5,-3.2044837E-1,3.7508067E-1,-1.1524799E0,-2.7022296E-1,2.4571243E-1,7.509606E-1,2.6198405E-1,-1.5591428E0,-3.138375E-1,8.746231E-1,4.151335E-2,5.479026E-1,-3.7027946E-1,8.931503E-1,-5.6864608E-2,9.958897E-2,-1.2561031E-2,-1.902784E-1,-2.4479741E-2,-1.08281575E-1,1.3088377E-1,-1.7723486E-2,1.8876981E-2,-7.166957E-2,6.585933E-2,-3.246737E-2,-1.2150419E-1,2.3062048E-2,-6.459733E-2,9.71563E-2],"categories":[],"categories_nodes":[],"categories_segments":[],"categories_sizes":[],"default_left":[0,0,0,0,0,0,0,0,0,0,0,0,0,0,0,0,0,0,0,0,0,0,0,0,0,0,0,0,0,0,0],"id":4,"left_children":[1,3,5,7,9,11,13,15,17,19,21,23,25,27,29,-1,-1,-1,-1,-1,-1,-1,-1,-1,-1,-1,-1,-1,-1,-1,-1],"loss_changes":[5.4666718E1,9.93989E0,1.0003807E1,8.265167E0,1.1891243E1,9.687411E0,8.806131E0,2.9475431E0,5.0579605E0,1.1672274E1,4.252129E0,1.0740681E1,6.334717E0,3.676084E0,6.3567657E0,0E0,0E0,0E0,0E0,0E0,0E0,0E0,0E0,0E0,0E0,0E0,0E0,0E0,0E0,0E0,0E0],"parents":[2147483647,0,0,1,1,2,2,3,3,4,4,5,5,6,6,7,7,8,8,9,9,10,10,11,11,12,12,13,13,14,14],"right_children":[2,4,6,8,10,12,14,16,18,20,22,24,26,28,30,-1,-1,-1,-1,-1,-1,-1,-1,-1,-1,-1,-1,-1,-1,-1,-1],"split_conditions":[7.5432694E-1,4.042448E-1,2.9568428E-1,7.641822E1,9.3793106E-1,1.1365168E0,-1.5216981E0,6.404598E-1,5.552933E-1,8.872621E-1,-1.1028386E0,4.683338E-4,-1.7205756E0,-1.0415623E0,3.6666667E0,-5.6864608E-2,9.958897E-2,-1.2561031E-2,-1.902784E-1,-2.4479741E-2,-1.08281575E-1,1.3088377E-1,-1.7723486E-2,1.8876981E-2,-7.166957E-2,6.585933E-2,-3.246737E-2,-1.2150419E-1,2.3062048E-2,-6.459733E-2,9.71563E-2],"split_indices":[131,34,132,8,27,103,85,131,47,27,104,32,121,102,22,0,0,0,0,0,0,0,0,0,0,0,0,0,0,0,0],"split_type":[0,0,0,0,0,0,0,0,0,0,0,0,0,0,0,0,0,0,0,0,0,0,0,0,0,0,0,0,0,0,0],"sum_hessian":[4.528309E2,2.443106E2,2.0852031E2,1.26588335E1,2.3165176E2,1.5635919E2,5.216113E1,2.9061985E0,9.752635E0,2.2384975E2,7.802005E0,9.398682E1,6.237237E1,5.689819E0,4.647131E1,1.4688925E0,1.4373059E0,2.1498508E0,7.602784E0,2.0661763E2,1.7232115E1,5.349417E0,2.4525878E0,7.933057E1,1.4656247E1,5.5568462E1,6.803907E0,1.9401972E0,3.7496219E0,1.9018917E0,4.456942E1],"tree_param":{"num_deleted":"0","num_feature":"133","num_nodes":"31","size_leaf_vector":"1"}},{"base_weights":[-2.2074739E-4,-2.8361487E-1,3.479401E-1,-1.5278934E-1,-6.1545736E-1,-3.5488704E-1,4.2473742E-1,-1.122845E0,-9.051975E-2,-7.416506E-1,5.426701E-1,5.7616096E-2,-1.7762923E0,-5.0290108E-2,5.428941E-1,4.9056496E-2,-1.3764563E-1,1.05920844E-1,-1.5149623E-2,9.560727E-2,-8.185626E-2,1.02954164E-1,-5.6601126E-2,4.1562628E-2,-1.3460533E-1,-5.6423344E-2,-2.0075445E-1,-6.4896554E-2,5.8392115E-2,-9.7616956E-2,5.8784496E-2],"categories":[],"categories_nodes":[],"categories_segments":[],"categories_sizes":[],"default_left":[0,0,0,0,0,0,0,0,0,0,0,0,0,0,0,0,0,0,0,0,0,0,0,0,0,0,0,0,0,0,0],"id":5,"left_children":[1,3,5,7,9,11,13,15,17,19,21,23,25,27,29,-1,-1,-1,-1,-1,-1,-1,-1,-1,-1,-1,-1,-1,-1,-1,-1],"loss_changes":[4.4671677E1,1.07415905E1,1.111644E1,1.0792173E1,1.06686325E1,1.2155822E1,1.0332592E1,5.0905905E0,1.21175E1,9.108807E0,4.6200657E0,9.053157E0,1.7214584E-1,1.461244E1,1.0619438E1,0E0,0E0,0E0,0E0,0E0,0E0,0E0,0E0,0E0,0E0,0E0,0E0,0E0,0E0,0E0,0E0],"parents":[2147483647,0,0,1,1,2,2,3,3,4,4,5,5,6,6,7,7,8,8,9,9,10,10,11,11,12,12,13,13,14,14],"right_children":[2,4,6,8,10,12,14,16,18,20,22,24,26,28,30,-1,-1,-1,-1,-1,-1,-1,-1,-1,-1,-1,-1,-1,-1,-1,-1],"split_conditions":[7.588881E-1,6.112911E-1,-5.8961105E-5,4.042448E-1,1.1576293E0,4.030643E2,3.3333333E0,-4.0475415E2,-8.678347E-2,7.3076046E-1,-9.0147865E-1,5.2097315E-1,3.354493E-1,-1.4423174E0,1.4694656E0,4.9056496E-2,-1.3764563E-1,1.05920844E-1,-1.5149623E-2,9.560727E-2,-8.185626E-2,1.02954164E-1,-5.6601126E-2,4.1562628E-2,-1.3460533E-1,-5.6423344E-2,-2.0075445E-1,-6.4896554E-2,5.8392115E-2,-9.7616956E-2,5.8784496E-2],"split_indices":[131,23,14,34,98,10,22,10,113,73,90,71,83,64,35,0,0,0,0,0,0,0,0,0,0,0,0,0,0,0,0],"split_type":[0,0,0,0,0,0,0,0,0,0,0,0,0,0,0,0,0,0,0,0,0,0,0,0,0,0,0,0,0,0,0],"sum_hessian":[4.5075305E2,2.4859135E2,2.021617E2,1.7934633E2,6.924504E1,1.9557356E1,1.8260434E2,9.790757E0,1.6955557E2,6.2765522E1,6.4795156E0,1.5901949E1,3.6554067E0,3.6487476E1,1.4611687E2,1.2030352E0,8.587722E0,7.71507E0,1.618405E2,2.224829E0,6.054069E1,4.551938E0,1.9275775E0,1.3231194E1,2.670756E0,1.1368346E0,2.518572E0,1.8757616E1,1.7729862E1,3.6040914E0,1.4251277E2],"tree_param":{"num_deleted":"0","num_feature":"133","num_nodes":"31","size_leaf_vector":"1"}},{"base_weights":[-5.499782E-4,-3.7105918E-1,2.2453272E-1,-4.169237E-1,8.7722677E-1,7.373227E-2,5.501744E-1,-1.0176554E0,-3.183997E-1,-2.9829035E-2,1.21706724E-1,1.7252406E-1,-4.7323474E-1,1.2065437E-1,8.431129E-1,2.7621377E-2,-1.2608704E-1,-4.0257003E-2,5.9562545E-2,6.9787647E-3,7.541233E-2,-1.566609E-1,2.3518985E-3,-8.672377E-2,4.5562673E-2,-2.3554597E-2,9.481335E-2],"categories":[],"categories_nodes":[],"categories_segments":[],"categories_sizes":[],"default_left":[0,0,0,0,0,0,0,0,0,0,0,0,0,0,0,0,0,0,0,0,0,0,0,0,0,0,0],"id":6,"left_children":[1,3,5,7,9,11,13,15,17,-1,-1,19,21,23,25,-1,-1,-1,-1,-1,-1,-1,-1,-1,-1,-1,-1],"loss_changes":[3.757022E1,1.0113064E1,1.37219515E1,9.435654E0,2.9021473E0,1.0494678E1,1.1039915E1,7.516361E0,1.1250442E1,0E0,0E0,9.744072E0,1.6194328E1,1.266282E1,6.168144E0,0E0,0E0,0E0,0E0,0E0,0E0,0E0,0E0,0E0,0E0,0E0,0E0],"parents":[2147483647,0,0,1,1,2,2,3,3,4,4,5,5,6,6,7,7,8,8,11,11,12,12,13,13,14,14],"right_children":[2,4,6,8,10,12,14,16,18,-1,-1,20,22,24,26,-1,-1,-1,-1,-1,-1,-1,-1,-1,-1,-1,-1],"split_conditions":[6.8224525E-1,9.3793106E-1,8.6706215E-1,-1.7105598E0,4.431675E-1,8.872621E-1,-3.621252E-1,-3.5578442E-1,2.820516E-1,-2.9829035E-2,1.21706724E-1,1.1500874E0,-1.4579244E-4,1.5818474E0,-3.31184E-1,2.7621377E-2,-1.2608704E-1,-4.0257003E-2,5.9562545E-2,6.9787647E-3,7.541233E-2,-1.566609E-1,2.3518985E-3,-8.672377E-2,4.5562673E-2,-2.3554597E-2,9.481335E-2],"split_indices":[131,27,131,101,20,27,0,82,51,0,0,103,12,46,40,0,0,0,0,0,0,0,0,0,0,0,0],"split_type":[0,0,0,0,0,0,0,0,0,0,0,0,0,0,0,0,0,0,0,0,0,0,0,0,0,0,0],"sum_hessian":[4.4850906E2,1.692529E2,2.7925616E2,1.6389699E2,5.3559E0,1.9170601E2,8.7550156E1,2.1778385E1,1.421186E2,1.2285559E0,4.1273437E0,1.629576E2,2.8748407E1,3.6071835E1,5.1478325E1,3.4245555E0,1.8353828E1,1.3064719E2,1.1471417E1,1.3944531E2,2.3512283E1,8.30815E0,2.0440258E1,8.73166E0,2.7340174E1,4.4570837E0,4.702124E1],"tree_param":{"num_deleted":"0","num_feature":"133","num_nodes":"27","size_leaf_vector":"1"}},{"base_weights":[-1.8906289E-4,-1.8579859E-1,3.7035695E-1,-1.2378954E-1,-7.1482533E-1,7.147265E-1,2.055914E-1,7.906537E-3,-4.2628977E-1,3.5310104E-1,-1.0247669E0,8.269549E-1,-5.150795E-1,-6.6936916E-1,3.708538E-1,-1.9405158E-2,2.865524E-2,-5.1222455E-2,1.0785408E-1,-5.9998095E-2,9.731936E-2,-1.9736785E-2,-1.3234545E-1,-4.0899094E-2,8.925181E-2,8.5914016E-2,-1.332125E-1,5.521827E-2,-1.0971302E-1,-4.6383556E-2,5.336171E-2],"categories":[],"categories_nodes":[],"categories_segments":[],"categories_sizes":[],"default_left":[0,0,0,0,0,0,0,0,0,0,0,0,0,0,0,0,0,0,0,0,0,0,0,0,0,0,0,0,0,0,0],"id":7,"left_children":[1,3,5,7,9,11,13,15,17,19,21,23,25,27,29,-1,-1,-1,-1,-1,-1,-1,-1,-1,-1,-1,-1,-1,-1,-1,-1],"loss_changes":[3.083281E1,9.709756E0,8.342249E0,1.0702246E1,1.0664892E1,7.0528507E0,1.5084094E1,1.0640002E1,1.1088561E1,5.1615667E0,5.7643757E0,3.9614964E0,6.3446465E0,9.30958E0,1.2059406E1,0E0,0E0,0E0,0E0,0E0,0E0,0E0,0E0,0E0,0E0,0E0,0E0,0E0,0E0,0E0,0E0],"parents":[2147483647,0,0,1,1,2,2,3,3,4,4,5,5,6,6,7,7,8,8,9,9,10,10,11,11,12,12,13,13,14,14],"right_children":[2,4,6,8,10,12,14,16,18,20,22,24,26,28,30,-1,-1,-1,-1,-1,-1,-1,-1,-1,-1,-1,-1,-1,-1,-1,-1],"split_conditions":[8.0604047E-1,1E0,3.257143E-1,6.0774E-1,1.6866667E1,-1.8707114E0,2.25E-1,6.439833E-2,-1.0689446E0,4.4190475E-1,1.2238692E-1,3.9989707E-1,1.4689642E0,9.063036E-2,3.4166667E0,-1.9405158E-2,2.865524E-2,-5.1222455E-2,1.0785408E-1,-5.9998095E-2,9.731936E-2,-1.9736785E-2,-1.3234545E-1,-4.0899094E-2,8.925181E-2,8.5914016E-2,-1.332125E-1,5.521827E-2,-1.0971302E-1,-4.6383556E-2,5.336171E-2],"split_indices":[131,4,27,23,9,37,33,0,81,25,77,34,35,126,22,0,0,0,0,0,0,0,0,0,0,0,0,0,0,0,0],"split_type":[0,0,0,0,0,0,0,0,0,0,0,0,0,0,0,0,0,0,0,0,0,0,0,0,0,0,0,0,0,0,0],"sum_hessian":[4.4630148E2,2.976865E2,1.48615E2,2.6755896E2,3.0127512E1,4.7014378E1,1.0160063E2,1.8708414E2,8.047483E1,6.7456455E0,2.3381866E1,4.3382954E1,3.631425E0,1.5656894E1,8.594374E1,1.0864416E2,7.843998E1,7.675148E1,3.7233534E0,2.671691E0,4.0739546E0,6.6424103E0,1.6739456E1,1.9215361E0,4.146142E1,1.3348203E0,2.2966046E0,3.9852881E0,1.1671606E1,1.3722368E1,7.2221375E1],"tree_param":{"num_deleted":"0","num_feature":"133","num_nodes":"31","size_leaf_vector":"1"}},{"base_weights":[2.058167E-5,-3.1393206E-1,1.9416226E-1,-1.2582052E0,-2.5406232E-1,1.01871416E-1,6.241621E-1,-6.5651047E-3,-1.4615283E0,-3.0292654E-1,1.1826767E-1,1.9910863E-1,-4.1802686E-1,-9.773434E-2,7.14464E-1,-2.9104536E-2,-1.622293E-1,1.2448165E-2,-4.3675523E-2,1.003904E-2,7.225973E-2,-1.2784481E-1,-1.0559857E-3,8.308708E-2,-3.5019856E-2],"categories":[],"categories_nodes":[],"categories_segments":[],"categories_sizes":[],"default_left":[0,0,0,0,0,0,0,0,0,0,0,0,0,0,0,0,0,0,0,0,0,0,0,0,0],"id":8,"left_children":[1,3,5,7,9,11,13,-1,15,17,-1,19,21,-1,23,-1,-1,-1,-1,-1,-1,-1,-1,-1,-1],"loss_changes":[2.7195068E1,9.318333E0,1.0877334E1,2.3073654E0,1.1701416E1,1.1618146E1,7.7153587E0,0E0,1.1124191E0,9.03773E0,0E0,9.896046E0,1.2703919E1,0E0,6.0550117E0,0E0,0E0,0E0,0E0,0E0,0E0,0E0,0E0,0E0,0E0],"parents":[2147483647,0,0,1,1,2,2,3,3,4,4,5,5,6,6,8,8,9,9,11,11,12,12,14,14],"right_children":[2,4,6,8,10,12,14,-1,16,18,-1,20,22,-1,24,-1,-1,-1,-1,-1,-1,-1,-1,-1,-1],"split_conditions":[6.8224525E-1,4.042448E-1,9.032311E-1,-7.440752E1,9.3793106E-1,8.872621E-1,6.033284E-1,-6.5651047E-3,1.4701775E0,1.04052685E-1,1.1826767E-1,3.5607487E-1,-1.3641236E-4,-9.773434E-2,1.755E1,-2.9104536E-2,-1.622293E-1,1.2448165E-2,-4.3675523E-2,1.003904E-2,7.225973E-2,-1.2784481E-1,-1.0559857E-3,8.308708E-2,-3.5019856E-2],"split_indices":[131,34,131,10,27,27,60,0,35,77,0,132,12,0,19,0,0,0,0,0,0,0,0,0,0],"split_type":[0,0,0,0,0,0,0,0,0,0,0,0,0,0,0,0,0,0,0,0,0,0,0,0,0],"sum_hessian":[4.4417697E2,1.6948325E2,2.7469373E2,8.911661E0,1.6057158E2,2.2717259E2,4.7521137E1,1.4907619E0,7.4208994E0,1.5605328E2,4.518292E0,1.9189859E2,3.5274002E1,2.0121732E0,4.5508965E1,1.235554E0,6.185345E0,3.7228043E1,1.1882525E2,1.6245499E2,2.9443598E1,1.0649213E1,2.462479E1,4.1221527E1,4.2874374E0],"tree_param":{"num_deleted":"0","num_feature":"133","num_nodes":"25","size_leaf_vector":"1"}},{"base_weights":[-1.8660385E-4,-2.8320473E-1,1.7631836E-1,-1.1652693E0,-2.279314E-1,1.1199726E-1,8.0079204E-1,-6.170827E-3,-1.3557246E0,-2.7245164E-1,1.1119032E-1,-3.0265266E-1,2.1337834E-1,-1.0224008E-1,9.2911017E-1,-1.5088104E-1,-2.6378337E-2,3.2874323E-2,-3.500493E-2,1.4489389E-2,-7.9565786E-2,8.679971E-3,5.7713933E-2,1.1225393E-1,3.0513143E-2],"categories":[],"categories_nodes":[],"categories_segments":[],"categories_sizes":[],"default_left":[0,0,0,0,0,0,0,0,0,0,0,0,0,0,0,0,0,0,0,0,0,0,0,0,0],"id":9,"left_children":[1,3,5,7,9,11,13,-1,15,17,-1,19,21,-1,23,-1,-1,-1,-1,-1,-1,-1,-1,-1,-1],"loss_changes":[2.2168144E1,8.044822E0,1.0888579E1,1.9778233E0,9.945069E0,1.0530124E1,6.882929E0,0E0,9.9226856E-1,7.4510174E0,0E0,1.0998327E1,9.187882E0,0E0,2.580326E0,0E0,0E0,0E0,0E0,0E0,0E0,0E0,0E0,0E0,0E0],"parents":[2147483647,0,0,1,1,2,2,3,3,4,4,5,5,6,6,8,8,9,9,11,11,12,12,14,14],"right_children":[2,4,6,8,10,12,14,-1,16,18,-1,20,22,-1,24,-1,-1,-1,-1,-1,-1,-1,-1,-1,-1],"split_conditions":[6.8224525E-1,4.042448E-1,1.3210778E0,-7.440752E1,9.3793106E-1,2.735043E-1,-1.0732386E0,-6.170827E-3,-7.413416E-1,3.3934712E-1,1.1119032E-1,5.0259066E-1,8.8007283E-1,-1.0224008E-1,8.1838125E-1,-1.5088104E-1,-2.6378337E-2,3.2874323E-2,-3.500493E-2,1.4489389E-2,-7.9565786E-2,8.679971E-3,5.7713933E-2,1.1225393E-1,3.0513143E-2],"split_indices":[131,34,105,10,27,33,39,0,48,23,0,27,131,0,1,0,0,0,0,0,0,0,0,0,0],"split_type":[0,0,0,0,0,0,0,0,0,0,0,0,0,0,0,0,0,0,0,0,0,0,0,0,0],"sum_hessian":[4.4177066E2,1.6945398E2,2.7231668E2,8.808231E0,1.6064574E2,2.4795639E2,2.4360285E1,1.4912775E0,7.3169537E0,1.5625047E2,4.3952637E0,4.832426E1,1.9963213E2,1.1436181E0,2.3216665E1,6.08245E0,1.2345035E0,1.7492128E1,1.3875835E2,2.5700045E1,2.2624214E1,1.49017E2,5.061513E1,1.7112808E1,6.103857E0],"tree_param":{"num_deleted":"0","num_feature":"133","num_nodes":"25","size_leaf_vector":"1"}},{"base_weights":[-1.1645303E-5,-1.805761E-1,2.349371E-1,4.9387604E-1,-2.2741206E-1,1.7103294E-1,9.380549E-1,9.27062E-1,-3.5001355E-1,-6.058721E-1,-1.3864608E-1,1.9912939E-1,-1.569158E-1,-6.0880322E-2,1.0916398E0,1.2818436E-1,2.0705229E-2,7.0226185E-2,-8.803041E-2,6.954983E-2,-7.586715E-2,3.221085E-2,-2.3927452E-2,-6.060128E-3,3.7625697E-2,-1.0380312E-3,1.199063E-1],"categories":[],"categories_nodes":[],"categories_segments":[],"categories_sizes":[],"default_left":[0,0,0,0,0,0,0,0,0,0,0,0,0,0,0,0,0,0,0,0,0,0,0,0,0,0,0],"id":10,"left_children":[1,3,5,7,9,11,13,15,17,19,21,23,-1,-1,25,-1,-1,-1,-1,-1,-1,-1,-1,-1,-1,-1,-1],"loss_changes":[1.873112E1,7.998682E0,8.46067E0,6.365952E0,7.781519E0,8.9717865E0,4.4093657E0,2.5942612E0,4.1514E0,9.313753E0,8.930341E0,8.082049E0,0E0,0E0,1.7523041E0,0E0,0E0,0E0,0E0,0E0,0E0,0E0,0E0,0E0,0E0,0E0,0E0],"parents":[2147483647,0,0,1,1,2,2,3,3,4,4,5,5,6,6,7,7,8,8,9,9,10,10,11,11,14,14],"right_children":[2,4,6,8,10,12,14,16,18,20,22,24,-1,-1,26,-1,-1,-1,-1,-1,-1,-1,-1,-1,-1,-1,-1],"split_conditions":[7.588881E-1,-1.1954707E0,1.1689004E0,-4.7719217E-4,5E-1,-1.0592022E0,2.628179E-1,1.2519106E-1,1.0177312E2,-1.8856102E0,-5.4852484E-4,4.8122486E-1,-1.569158E-1,-6.0880322E-2,-1.9820393E0,1.2818436E-1,2.0705229E-2,7.0226185E-2,-8.803041E-2,6.954983E-2,-7.586715E-2,3.221085E-2,-2.3927452E-2,-6.060128E-3,3.7625697E-2,-1.0380312E-3,1.199063E-1],"split_indices":[131,104,63,13,24,39,23,77,9,70,13,20,0,0,97,0,0,0,0,0,0,0,0,0,0,0,0],"split_type":[0,0,0,0,0,0,0,0,0,0,0,0,0,0,0,0,0,0,0,0,0,0,0,0,0,0,0],"sum_hessian":[4.3952805E2,2.486586E2,1.9086943E2,1.5526562E1,2.3313205E2,1.7610687E2,1.4762553E1,1.0194801E1,5.33176E0,4.3184856E1,1.8994719E2,1.741802E2,1.9266766E0,1.0656555E0,1.36968975E1,6.306826E0,3.8879755E0,1.6779147E0,3.6538453E0,4.1645217E0,3.9020332E1,3.3653687E1,1.562935E2,7.088946E1,1.0329074E2,1.2968E0,1.2400097E1],"tree_param":{"num_deleted":"0","num_feature":"133","num_nodes":"27","size_leaf_vector":"1"}},{"base_weights":[3.881361E-4,-1.3035192E-1,2.7478185E-1,-7.0730925E-2,-6.12267E-1,3.7750784E-1,-2.1143317E-1,-2.4646501E-1,7.211908E-2,3.473122E-1,-9.21634E-1,5.2961033E-2,6.6057795E-1,2.094947E-1,-8.7033445E-1,-3.0503908E-2,8.4780835E-2,-2.210014E-2,2.8747618E-2,1.2667732E-1,-2.3947755E-2,6.556811E-2,-1.0596495E-1,-4.155493E-2,4.2302273E-2,-9.802419E-3,8.042892E-2,5.509984E-2,-1.15227036E-1,-1.7183495E-1,1.1421893E-2],"categories":[],"categories_nodes":[],"categories_segments":[],"categories_sizes":[],"default_left":[0,0,0,0,0,0,0,0,0,0,0,0,0,0,0,0,0,0,0,0,0,0,0,0,0,0,0,0,0,0,0],"id":11,"left_children":[1,3,5,7,9,11,13,15,17,19,21,23,25,27,29,-1,-1,-1,-1,-1,-1,-1,-1,-1,-1,-1,-1,-1,-1,-1,-1],"loss_changes":[1.576276E1,8.5073185E0,7.161996E0,6.6944094E0,1.0007779E1,1.0752396E1,7.2196455E0,7.9169154E0,9.373383E0,4.9877386E0,6.1265354E0,9.848508E0,6.9068336E0,8.209881E0,8.61624E0,0E0,0E0,0E0,0E0,0E0,0E0,0E0,0E0,0E0,0E0,0E0,0E0,0E0,0E0,0E0,0E0],"parents":[2147483647,0,0,1,1,2,2,3,3,4,4,5,5,6,6,7,7,8,8,9,9,10,10,11,11,12,12,13,13,14,14],"right_children":[2,4,6,8,10,12,14,16,18,20,22,24,26,28,30,-1,-1,-1,-1,-1,-1,-1,-1,-1,-1,-1,-1,-1,-1,-1,-1],"split_conditions":[8.0604047E-1,7.118056E-1,3.0571967E-3,6.446937E-1,3.3796096E-1,-8.781088E-5,8.121212E-1,1.1867647E0,4.8914692E-1,-1.6258297E0,3.9394867E-1,4.4656086E-1,2.6666667E0,-1.3755599E0,-2.8280008E-1,-3.0503908E-2,8.4780835E-2,-2.210014E-2,2.8747618E-2,1.2667732E-1,-2.3947755E-2,6.556811E-2,-1.0596495E-1,-4.155493E-2,4.2302273E-2,-9.802419E-3,8.042892E-2,5.509984E-2,-1.15227036E-1,-1.7183495E-1,1.1421893E-2],"split_indices":[131,23,122,131,83,31,33,98,23,68,78,20,22,85,109,0,0,0,0,0,0,0,0,0,0,0,0,0,0,0,0],"split_type":[0,0,0,0,0,0,0,0,0,0,0,0,0,0,0,0,0,0,0,0,0,0,0,0,0,0,0,0,0,0,0],"sum_hessian":[4.3739078E2,2.9659668E2,1.4079411E2,2.6496304E2,3.1633612E1,1.164207E2,2.4373417E1,1.1848162E2,1.4648143E2,7.6823196E0,2.3951292E1,5.4789875E1,6.163083E1,1.5288607E1,9.084811E0,1.13146385E2,5.3352394E0,6.2028645E1,8.44528E1,2.5413582E0,5.140961E0,1.6253322E0,2.2325958E1,2.4124517E1,3.0665358E1,9.866562E0,5.1764267E1,1.2699262E1,2.5893443E0,4.480425E0,4.604386E0],"tree_param":{"num_deleted":"0","num_feature":"133","num_nodes":"31","size_leaf_vector":"1"}},{"base_weights":[6.342143E-4,-8.171362E-2,3.71114E-1,-2.4978533E-2,-5.4219633E-1,-4.9977966E-2,6.725134E-1,-7.901024E-2,5.0659317E-1,-8.096472E-1,5.907676E-1,-7.2901684E-1,3.53269E-1,2.4418093E-1,9.475885E-1,-1.1240972E-2,8.7622054E-2,7.468711E-2,-4.1443214E-2,-3.075416E-3,-1.19729556E-1,1.2648472E-1,-6.1327737E-2,8.064365E-2,-1.2438523E-1,-1.2289434E-1,6.1320927E-2,6.911554E-2,-6.7792825E-2,1.0722001E-1,-4.476702E-2],"categories":[],"categories_nodes":[],"categories_segments":[],"categories_sizes":[],"default_left":[0,0,0,0,0,0,0,0,0,0,0,0,0,0,0,0,0,0,0,0,0,0,0,0,0,0,0,0,0,0,0],"id":12,"left_children":[1,3,5,7,9,11,13,15,17,19,21,23,25,27,29,-1,-1,-1,-1,-1,-1,-1,-1,-1,-1,-1,-1,-1,-1,-1,-1],"loss_changes":[1.3328573E1,9.324832E0,1.01169405E1,9.210357E0,1.2344451E1,9.5877E0,5.232603E0,9.372665E0,6.858745E0,9.656418E0,7.3149643E0,1.1297045E1,9.823174E0,8.498365E0,5.3294353E0,0E0,0E0,0E0,0E0,0E0,0E0,0E0,0E0,0E0,0E0,0E0,0E0,0E0,0E0,0E0,0E0],"parents":[2147483647,0,0,1,1,2,2,3,3,4,4,5,5,6,6,7,7,8,8,9,9,10,10,11,11,12,12,13,13,14,14],"right_children":[2,4,6,8,10,12,14,16,18,20,22,24,26,28,30,-1,-1,-1,-1,-1,-1,-1,-1,-1,-1,-1,-1,-1,-1,-1,-1],"split_conditions":[8.6706215E-1,1E0,-3.621252E-1,2.8209606E-1,1E0,1.5819885E0,-1.6642625E0,1.3143973E0,1.8511302E-4,1.8138897E0,3.6066666E2,3.2141718E-1,3.4166667E0,8.36211E-1,8.877551E-1,-1.1240972E-2,8.7622054E-2,7.468711E-2,-4.1443214E-2,-3.075416E-3,-1.19729556E-1,1.2648472E-1,-6.1327737E-2,8.064365E-2,-1.2438523E-1,-1.2289434E-1,6.1320927E-2,6.911554E-2,-6.7792825E-2,1.0722001E-1,-4.476702E-2],"split_indices":[131,4,0,51,24,46,68,106,32,114,10,25,22,72,33,0,0,0,0,0,0,0,0,0,0,0,0,0,0,0,0],"split_type":[0,0,0,0,0,0,0,0,0,0,0,0,0,0,0,0,0,0,0,0,0,0,0,0,0,0,0,0,0,0,0],"sum_hessian":[4.348909E2,3.564426E2,7.84483E1,3.1828198E2,3.8160595E1,3.307402E1,4.537428E1,2.8968796E2,2.8594025E1,3.1103567E1,7.057029E0,1.202199E1,2.1052032E1,1.8482302E1,2.689198E1,2.8075378E2,8.934185E0,2.282778E1,5.766244E0,1.0694562E1,2.0409006E1,4.49181E0,2.565219E0,2.8765438E0,9.145446E0,2.444568E0,1.8607464E1,1.2616945E1,5.865356E0,2.489971E1,1.9922693E0],"tree_param":{"num_deleted":"0","num_feature":"133","num_nodes":"31","size_leaf_vector":"1"}},{"base_weights":[1.0321544E-3,-2.0399067E-1,1.3206443E-1,-6.116445E-1,-1.0066966E-1,7.461871E-2,7.136279E-1,9.24163E-2,-7.2128093E-1,-5.694623E-1,5.064763E-2,-1.3727948E-1,2.4737455E-1,-9.932727E-2,8.445826E-1,-8.368467E-2,7.159661E-2,-6.8312615E-2,7.214599E-2,3.924864E-2,-1.5069308E-2,-4.208638E-2,3.0523255E-2,-1.06390215E-1,2.9564956E-2,1.03692904E-1,2.460034E-2],"categories":[],"categories_nodes":[],"categories_segments":[],"categories_sizes":[],"default_left":[0,0,0,0,0,0,0,0,0,0,0,0,0,0,0,0,0,0,0,0,0,0,0,0,0,0,0],"id":13,"left_children":[1,3,5,7,9,11,13,-1,15,17,19,21,23,-1,25,-1,-1,-1,-1,-1,-1,-1,-1,-1,-1,-1,-1],"loss_changes":[1.1686524E1,7.0826983E0,8.813074E0,6.408491E0,9.713044E0,8.9166E0,6.1457663E0,0E0,5.9790764E0,5.3928947E0,7.225639E0,1.3884941E1,8.798803E0,0E0,2.3458347E0,0E0,0E0,0E0,0E0,0E0,0E0,0E0,0E0,0E0,0E0,0E0,0E0],"parents":[2147483647,0,0,1,1,2,2,3,3,4,4,5,5,6,6,8,8,9,9,10,10,11,11,12,12,14,14],"right_children":[2,4,6,8,10,12,14,-1,16,18,20,22,24,-1,26,-1,-1,-1,-1,-1,-1,-1,-1,-1,-1,-1,-1],"split_conditions":[6.8224525E-1,9.308973E-1,1.3210778E0,-9.299337E-1,5E-1,-2.8594568E-1,-1.0732386E0,9.24163E-2,7.579135E-1,5.258773E2,-1.0148673E0,-1.666014E0,2.5302264E-1,-9.932727E-2,8.1838125E-1,-8.368467E-2,7.159661E-2,-6.8312615E-2,7.214599E-2,3.924864E-2,-1.5069308E-2,-4.208638E-2,3.0523255E-2,-1.06390215E-1,2.9564956E-2,1.03692904E-1,2.460034E-2],"split_indices":[131,119,105,90,24,0,39,0,20,10,94,116,23,0,1,0,0,0,0,0,0,0,0,0,0,0,0],"split_type":[0,0,0,0,0,0,0,0,0,0,0,0,0,0,0,0,0,0,0,0,0,0,0,0,0,0,0],"sum_hessian":[4.3301285E2,1.6862027E2,2.6439258E2,3.310083E1,1.3551944E2,2.4165105E2,2.2741522E1,1.7104981E0,3.1390333E1,3.2394722E1,1.0312472E2,1.0862257E2,1.3302849E2,1.1512289E0,2.1590294E1,2.9440807E1,1.9495254E0,3.0205954E1,2.188768E0,3.7873405E1,6.525131E1,6.622873E1,4.2393833E1,3.9765506E0,1.2905193E2,1.5785493E1,5.804801E0],"tree_param":{"num_deleted":"0","num_feature":"133","num_nodes":"27","size_leaf_vector":"1"}},{"base_weights":[1.2311005E-3,-5.0579876E-2,4.6931195E-1,-4.9563104E-1,2.0310064E-3,-5.835997E-1,6.101775E-1,3.3499038E-1,-7.0281315E-1,-1.8287728E-2,1.0102409E0,5.620488E-2,-1.2945589E0,6.876237E-1,-1.0493119E-1,8.78119E-2,-5.947841E-2,1.2008429E-2,-9.933864E-2,1.2546269E-3,-8.2265E-2,-3.597075E-3,1.2320443E-1,2.3657696E-2,-1.9453418E-1,8.324863E-2,-4.1964475E-2],"categories":[],"categories_nodes":[],"categories_segments":[],"categories_sizes":[],"default_left":[0,0,0,0,0,0,0,0,0,0,0,0,0,0,0,0,0,0,0,0,0,0,0,0,0,0,0],"id":14,"left_children":[1,3,5,7,9,11,13,15,17,19,21,-1,23,25,-1,-1,-1,-1,-1,-1,-1,-1,-1,-1,-1,-1,-1],"loss_changes":[1.0500565E1,9.1292515E0,6.7559986E0,7.32862E0,7.180959E0,5.291116E0,5.675604E0,5.019583E0,8.084625E0,8.53494E0,1.6512613E0,0E0,4.206833E0,6.3535347E0,0E0,0E0,0E0,0E0,0E0,0E0,0E0,0E0,0E0,0E0,0E0,0E0,0E0],"parents":[2147483647,0,0,1,1,2,2,3,3,4,4,5,5,6,6,7,7,8,8,9,9,10,10,12,12,13,13],"right_children":[2,4,6,8,10,12,14,16,18,20,22,-1,24,26,-1,-1,-1,-1,-1,-1,-1,-1,-1,-1,-1,-1,-1],"split_conditions":[9.032311E-1,-1.7133446E0,2.6666667E0,8.9816856E-1,9.228175E-1,1.1249398E0,2.820516E-1,1.4208053E0,-1.4615325E-4,9.1613346E-1,1.4772567E0,5.620488E-2,-2.9643976E-5,1.755E1,-1.0493119E-1,8.78119E-2,-5.947841E-2,1.2008429E-2,-9.933864E-2,1.2546269E-3,-8.2265E-2,-3.597075E-3,1.2320443E-1,2.3657696E-2,-1.9453418E-1,8.324863E-2,-4.1964475E-2],"split_indices":[131,101,22,119,132,103,51,129,13,36,35,0,31,19,0,0,0,0,0,0,0,0,0,0,0,0,0],"split_type":[0,0,0,0,0,0,0,0,0,0,0,0,0,0,0,0,0,0,0,0,0,0,0,0,0,0,0],"sum_hessian":[4.3100336E2,3.8885382E2,4.2149544E1,4.02179E1,3.4863593E2,4.6027737E0,3.7546772E1,7.9057565E0,3.2312145E1,3.4271103E2,5.9248896E0,1.8427665E0,2.760007E0,3.643217E1,1.1145996E0,5.025603E0,2.8801534E0,8.585349E0,2.3726795E1,3.310068E2,1.1704237E1,1.1829462E0,4.7419434E0,1.0130401E0,1.7469668E0,3.2436684E1,3.9954894E0],"tree_param":{"num_deleted":"0","num_feature":"133","num_nodes":"27","size_leaf_vector":"1"}},{"base_weights":[8.8789326E-4,3.2540235E-1,-6.786978E-2,5.919226E-1,-1.1847128E-1,-3.516101E-1,8.599411E-2,1.2292776E0,4.0814522E-1,-4.738672E-1,9.974866E-1,-1.6448584E0,-2.886557E-1,-1.492732E-4,6.4756596E-1,3.77742E-3,1.3786416E-1,1.8833046E-3,9.0114675E-2,-9.7033314E-2,1.3937748E-2,-6.203306E-4,1.1823069E-1,-1.2449379E-2,-1.9984426E-1,-7.698235E-2,-1.2859813E-2,3.036723E-2,-1.6035642E-2,7.9214945E-2,-6.227058E-2],"categories":[],"categories_nodes":[],"categories_segments":[],"categories_sizes":[],"default_left":[0,0,0,0,0,0,0,0,0,0,0,0,0,0,0,0,0,0,0,0,0,0,0,0,0,0,0,0,0,0,0],"id":15,"left_children":[1,3,5,7,9,11,13,15,17,19,21,23,25,27,29,-1,-1,-1,-1,-1,-1,-1,-1,-1,-1,-1,-1,-1,-1,-1,-1],"loss_changes":[9.630163E0,8.996873E0,1.5578792E1,5.040329E0,1.2030949E1,9.736395E0,1.1210147E1,1.7440557E0,7.3191047E0,7.0712023E0,1.372879E0,2.7665434E0,9.205236E0,9.876529E0,6.1535397E0,0E0,0E0,0E0,0E0,0E0,0E0,0E0,0E0,0E0,0E0,0E0,0E0,0E0,0E0,0E0,0E0],"parents":[2147483647,0,0,1,1,2,2,3,3,4,4,5,5,6,6,7,7,8,8,9,9,10,10,11,11,12,12,13,13,14,14],"right_children":[2,4,6,8,10,12,14,16,18,20,22,24,26,28,30,-1,-1,-1,-1,-1,-1,-1,-1,-1,-1,-1,-1,-1,-1,-1,-1],"split_conditions":[-1.3742228E0,9.1531855E-1,1.3702121E0,1.5012499E0,9.228175E-1,-1.8918631E0,7.878369E-2,6.0901004E-1,-6.7015547E-1,-6.2422222E1,8.168757E-1,-9.055271E-1,8.5133463E-1,1.7964077E0,1.4696603E0,3.77742E-3,1.3786416E-1,1.8833046E-3,9.0114675E-2,-9.7033314E-2,1.3937748E-2,-6.203306E-4,1.1823069E-1,-1.2449379E-2,-1.9984426E-1,-7.698235E-2,-1.2859813E-2,3.036723E-2,-1.6035642E-2,7.9214945E-2,-6.227058E-2],"split_indices":[45,36,50,55,132,37,132,61,56,10,92,90,72,114,87,0,0,0,0,0,0,0,0,0,0,0,0,0,0,0,0],"split_type":[0,0,0,0,0,0,0,0,0,0,0,0,0,0,0,0,0,0,0,0,0,0,0,0,0,0,0,0,0,0,0],"sum_hessian":[4.2960718E2,7.4457726E1,3.5514944E2,4.631483E1,2.8142895E1,1.244205E2,2.3072896E2,9.092464E0,3.7222366E1,2.1781555E1,6.3613386E0,4.6091294E0,1.1981137E2,2.0090976E2,2.9819202E1,1.1524078E0,7.940057E0,2.1378473E1,1.5843896E1,1.1715068E1,1.0066487E1,1.1395117E0,5.2218266E0,1.1247871E0,3.4843423E0,2.8955423E1,9.085594E1,6.905545E1,1.3185431E2,2.710992E1,2.7092822E0],"tree_param":{"num_deleted":"0","num_feature":"133","num_nodes":"31","size_leaf_vector":"1"}},{"base_weights":[1.1064165E-3,-2.3569484E-1,9.1674685E-2,-2.9709065E-1,9.2777455E-1,-9.946729E-2,2.3917787E-1,1.1104696E-1,-4.362875E-1,-7.471045E-4,1.2747774E-1,1.6718978E-1,-4.4686598E-1,2.9538077E-1,-5.8361083E-1,-2.7974492E-2,1.0000215E-1,-5.2291792E-2,6.816404E-2,-6.280958E-2,3.386948E-2,-9.210386E-2,-7.2320984E-3,-1.5603823E-2,4.200058E-2,-1.1351671E-1,8.02935E-2],"categories":[],"categories_nodes":[],"categories_segments":[],"categories_sizes":[],"default_left":[0,0,0,0,0,0,0,0,0,0,0,0,0,0,0,0,0,0,0,0,0,0,0,0,0,0,0],"id":16,"left_children":[1,3,5,7,9,11,13,15,17,-1,-1,19,21,23,25,-1,-1,-1,-1,-1,-1,-1,-1,-1,-1,-1,-1],"loss_changes":[9.235147E0,8.785446E0,8.80541E0,6.5202665E0,2.026157E0,1.2707816E1,8.315689E0,1.062139E1,8.6028385E0,0E0,0E0,1.0835222E1,1.0499292E1,9.376353E0,9.779415E0,0E0,0E0,0E0,0E0,0E0,0E0,0E0,0E0,0E0,0E0,0E0,0E0],"parents":[2147483647,0,0,1,1,2,2,3,3,4,4,5,5,6,6,7,7,8,8,11,11,12,12,13,13,14,14],"right_children":[2,4,6,8,10,12,14,16,18,-1,-1,20,22,24,26,-1,-1,-1,-1,-1,-1,-1,-1,-1,-1,-1,-1],"split_conditions":[6.3121337E-1,1.1867647E0,-3.4706157E-1,-5.9393985E-4,7.479182E-1,4.4782755E-1,-2.6358944E-1,-1.1097438E-1,-7.5028807E-1,-7.471045E-4,1.2747774E-1,8.3367615E1,1.5819885E0,4.03704E-1,9.0339476E-1,-2.7974492E-2,1.0000215E-1,-5.2291792E-2,6.816404E-2,-6.280958E-2,3.386948E-2,-9.210386E-2,-7.2320984E-3,-1.5603823E-2,4.200058E-2,-1.1351671E-1,8.02935E-2],"split_indices":[131,98,0,13,34,52,109,57,42,0,0,10,46,23,72,0,0,0,0,0,0,0,0,0,0,0,0],"split_type":[0,0,0,0,0,0,0,0,0,0,0,0,0,0,0,0,0,0,0,0,0,0,0,0,0,0,0],"sum_hessian":[4.286021E2,1.1813141E2,3.104707E2,1.1291745E2,5.2139583E0,1.3537312E2,1.7509758E2,2.8768335E1,8.414912E1,1.6757984E0,3.5381598E0,7.688008E1,5.8493046E1,1.6450182E2,1.0595759E1,2.045963E1,8.308705E0,7.859118E1,5.55794E0,1.3165961E1,6.371412E1,2.5169485E1,3.3323563E1,3.553484E1,1.2896698E2,7.710061E0,2.8856988E0],"tree_param":{"num_deleted":"0","num_feature":"133","num_nodes":"27","size_leaf_vector":"1"}},{"base_weights":[1.3948383E-3,-6.0224637E-2,3.2705793E-1,4.0379092E-2,-2.2969584E-1,9.945571E-1,1.0117033E-2,-2.1890949E-1,1.924131E-1,2.1276571E-1,-3.7107432E-1,1.1833793E0,3.0849293E-1,1.383044E-1,-1.1959665E0,4.229613E-2,-3.844521E-2,6.1387356E-2,2.8628376E-3,4.4643667E-2,-6.968577E-2,-2.2247558E-2,-9.8583005E-2,3.1148179E-2,1.2697564E-1,-3.8087327E-2,1.08692646E-1,3.430057E-2,-6.957693E-2,-1.482244E-1,-1.280126E-2],"categories":[],"categories_nodes":[],"categories_segments":[],"categories_sizes":[],"default_left":[0,0,0,0,0,0,0,0,0,0,0,0,0,0,0,0,0,0,0,0,0,0,0,0,0,0,0,0,0,0,0],"id":17,"left_children":[1,3,5,7,9,11,13,15,17,19,21,23,25,27,29,-1,-1,-1,-1,-1,-1,-1,-1,-1,-1,-1,-1,-1,-1,-1,-1],"loss_changes":[8.59916E0,6.1531606E0,1.441389E1,8.989573E0,8.485258E0,2.4771633E0,7.4688573E0,9.126685E0,9.895735E0,7.3629465E0,9.117456E0,8.736782E-1,3.68088E0,7.682299E0,1.2294874E0,0E0,0E0,0E0,0E0,0E0,0E0,0E0,0E0,0E0,0E0,0E0,0E0,0E0,0E0,0E0,0E0],"parents":[2147483647,0,0,1,1,2,2,3,3,4,4,5,5,6,6,7,7,8,8,9,9,10,10,11,11,12,12,13,13,14,14],"right_children":[2,4,6,8,10,12,14,16,18,20,22,24,26,28,30,-1,-1,-1,-1,-1,-1,-1,-1,-1,-1,-1,-1,-1,-1,-1,-1],"split_conditions":[3.5607487E-1,5.6466556E-1,3.8235295E-1,6.5734345E-1,-1.3742228E0,5.3283685E-1,1.4806888E0,-5.220132E-4,1.1894259E-1,9.1531855E-1,5.8259714E-1,-1.9777014E0,5.8555555E-1,2.9809298E-2,9.1677654E-1,4.229613E-2,-3.844521E-2,6.1387356E-2,2.8628376E-3,4.4643667E-2,-6.968577E-2,-2.2247558E-2,-9.8583005E-2,3.1148179E-2,1.2697564E-1,-3.8087327E-2,1.08692646E-1,3.430057E-2,-6.957693E-2,-1.482244E-1,-1.280126E-2],"split_indices":[132,47,27,131,45,23,35,13,41,36,47,97,20,128,132,0,0,0,0,0,0,0,0,0,0,0,0,0,0,0,0],"split_type":[0,0,0,0,0,0,0,0,0,0,0,0,0,0,0,0,0,0,0,0,0,0,0,0,0,0,0,0,0,0,0],"sum_hessian":[4.2653687E2,3.5935712E2,6.717973E1,2.259735E2,1.3338364E2,2.0940218E1,4.6239517E1,8.336227E1,1.4261124E2,3.217694E1,1.0120669E2,1.5852365E1,5.087853E0,4.2597424E1,3.642096E0,1.6772804E1,6.658946E1,3.914164E1,1.034696E2,2.6005627E1,6.171315E0,8.260202E1,1.8604666E1,1.8440862E0,1.4008279E1,2.9691486E0,2.1187043E0,3.46759E1,7.9215226E0,2.566253E0,1.0758431E0],"tree_param":{"num_deleted":"0","num_feature":"133","num_nodes":"31","size_leaf_vector":"1"}},{"base_weights":[1.4235431E-3,-4.359131E-2,4.227742E-1,-6.0705345E-2,9.3112487E-1,-5.7240075E-1,5.629634E-1,-4.275656E-1,-1.6909694E-2,1.1340588E-1,-3.519871E-3,5.1538944E-2,-1.2080295E0,5.297308E-2,8.4170824E-1,3.5657324E-2,-6.2508784E-2,-1.9194933E-2,1.20201735E-2,-5.9590386E-3,-1.734696E-1,-1.0488099E-1,5.0481047E-2,-5.846867E-2,9.797516E-2],"categories":[],"categories_nodes":[],"categories_segments":[],"categories_sizes":[],"default_left":[0,0,0,0,0,0,0,0,0,0,0,0,0,0,0,0,0,0,0,0,0,0,0,0,0],"id":18,"left_children":[1,3,5,7,9,11,13,15,17,-1,-1,-1,19,21,23,-1,-1,-1,-1,-1,-1,-1,-1,-1,-1],"loss_changes":[8.089262E0,6.4847274E0,6.0653834E0,6.0924454E0,1.3558412E0,4.4799485E0,5.1565037E0,6.4875126E0,8.187748E0,0E0,0E0,0E0,2.2073016E0,7.4976535E0,5.2177525E0,0E0,0E0,0E0,0E0,0E0,0E0,0E0,0E0,0E0,0E0],"parents":[2147483647,0,0,1,1,2,2,3,3,4,4,5,5,6,6,7,7,8,8,12,12,13,13,14,14],"right_children":[2,4,6,8,10,12,14,16,18,-1,-1,-1,20,22,24,-1,-1,-1,-1,-1,-1,-1,-1,-1,-1],"split_conditions":[9.032311E-1,9.228175E-1,2.6666667E0,-1.7133446E0,9.580731E-1,1.1249398E0,1.582019E0,8.9816856E-1,-8.781088E-5,1.1340588E-1,-3.519871E-3,5.1538944E-2,-1.9508008E-5,4.1030514E-1,-3.8750532E-1,3.5657324E-2,-6.2508784E-2,-1.9194933E-2,1.20201735E-2,-5.9590386E-3,-1.734696E-1,-1.0488099E-1,5.0481047E-2,-5.846867E-2,9.797516E-2],"split_indices":[131,132,22,101,132,103,46,119,31,0,0,0,31,20,109,0,0,0,0,0,0,0,0,0,0],"split_type":[0,0,0,0,0,0,0,0,0,0,0,0,0,0,0,0,0,0,0,0,0,0,0,0,0],"sum_hessian":[4.245189E2,3.843532E2,4.01657E1,3.7864273E2,5.710477E0,4.578784E0,3.5586914E1,3.9446976E1,3.3919574E2,4.5759234E0,1.1345534E0,1.758508E0,2.8202758E0,1.2997248E1,2.2589666E1,7.7751913E0,3.1671785E1,1.4881506E2,1.9038069E2,1.2366991E0,1.5835767E0,3.3957264E0,9.6015215E0,1.7077748E0,2.0881893E1],"tree_param":{"num_deleted":"0","num_feature":"133","num_nodes":"25","size_leaf_vector":"1"}},{"base_weights":[1.3660315E-3,-1.4609426E-2,1.0305508E0,5.071626E-4,-1.2549725E0,1.9070132E-2,1.1532666E-1,-5.3280592E-2,3.3461902E-1,-2.9937211E-2,-1.4904787E-1,-2.0952111E-2,4.2706025E-3,8.2181744E-2,-7.807199E-3],"categories":[],"categories_nodes":[],"categories_segments":[],"categories_sizes":[],"default_left":[0,0,0,0,0,0,0,0,0,0,0,0,0,0,0],"id":19,"left_children":[1,3,5,7,9,-1,-1,11,13,-1,-1,-1,-1,-1,-1],"loss_changes":[6.988289E0,7.849825E0,4.496379E-1,7.468321E0,6.882267E-1,0E0,0E0,5.377219E0,1.1650362E1,0E0,0E0,0E0,0E0,0E0,0E0],"parents":[2147483647,0,0,1,1,2,2,3,3,4,4,7,7,8,8],"right_children":[2,4,6,8,10,-1,-1,12,14,-1,-1,-1,-1,-1,-1],"split_conditions":[6.122673E-1,1.4806888E0,-1.2716688E-1,3.5607487E-1,8.198236E-1,1.9070132E-2,1.1532666E-1,1.3702121E0,6.0189575E-1,-2.9937211E-2,-1.4904787E-1,-2.0952111E-2,4.2706025E-3,8.2181744E-2,-7.807199E-3],"split_indices":[60,35,57,132,92,0,0,50,27,0,0,0,0,0,0],"split_type":[0,0,0,0,0,0,0,0,0,0,0,0,0,0,0],"sum_hessian":[4.2311877E2,4.1762207E2,5.4967074E0,4.1358127E2,4.040818E0,1.0263706E0,4.470337E0,3.5695636E2,5.66249E1,1.2480123E0,2.792806E0,1.3539185E2,2.215645E2,2.5513647E1,3.1111254E1],"tree_param":{"num_deleted":"0","num_feature":"133","num_nodes":"15","size_leaf_vector":"1"}},{"base_weights":[1.394531E-3,-5.5910323E-2,2.7802035E-1,-1.8262371E-3,-4.968581E-1,-7.0388004E-2,5.474918E-1,-5.163895E-2,4.9094644E-1,-7.289552E-1,5.236138E-1,-9.19651E-1,1.7457572E-1,1.924592E-2,7.674016E-1,-1.5125362E-3,-8.467593E-2,8.550891E-2,-4.847206E-3,-4.419658E-3,-1.1116469E-1,1.1707318E-1,-5.763271E-2,3.2991074E-2,-1.2183463E-1,-3.969847E-2,5.283497E-2,-6.526563E-2,7.255884E-2,9.280865E-2,-4.069783E-2],"categories":[],"categories_nodes":[],"categories_segments":[],"categories_sizes":[],"default_left":[0,0,0,0,0,0,0,0,0,0,0,0,0,0,0,0,0,0,0,0,0,0,0,0,0,0,0,0,0,0,0],"id":20,"left_children":[1,3,5,7,9,11,13,15,17,19,21,23,25,27,29,-1,-1,-1,-1,-1,-1,-1,-1,-1,-1,-1,-1,-1,-1,-1,-1],"loss_changes":[6.7270193E0,8.383196E0,6.8756046E0,7.736704E0,9.478004E0,6.9521465E0,4.768635E0,8.296881E0,5.725315E0,8.259787E0,6.1543837E0,3.189268E0,5.5030026E0,6.7045703E0,5.8592167E0,0E0,0E0,0E0,0E0,0E0,0E0,0E0,0E0,0E0,0E0,0E0,0E0,0E0,0E0,0E0,0E0],"parents":[2147483647,0,0,1,1,2,2,3,3,4,4,5,5,6,6,7,7,8,8,9,9,10,10,11,11,12,12,13,13,14,14],"right_children":[2,4,6,8,10,12,14,16,18,20,22,24,26,28,30,-1,-1,-1,-1,-1,-1,-1,-1,-1,-1,-1,-1,-1,-1,-1,-1],"split_conditions":[8.6706215E-1,1E0,-3.621252E-1,2.8209606E-1,1E0,-6.324454E-1,4.2659378E-1,-1.3855114E0,2.9061319E-5,1.00248836E-1,3.6066666E2,7.002112E1,-5.745391E-4,1.5821626E0,8.877551E-1,-1.5125362E-3,-8.467593E-2,8.550891E-2,-4.847206E-3,-4.419658E-3,-1.1116469E-1,1.1707318E-1,-5.763271E-2,3.2991074E-2,-1.2183463E-1,-3.969847E-2,5.283497E-2,-6.526563E-2,7.255884E-2,9.280865E-2,-4.069783E-2],"split_indices":[131,4,0,51,24,1,23,58,30,126,10,11,13,46,33,0,0,0,0,0,0,0,0,0,0,0,0,0,0,0,0],"split_type":[0,0,0,0,0,0,0,0,0,0,0,0,0,0,0,0,0,0,0,0,0,0,0,0,0,0,0,0,0,0,0],"sum_hessian":[4.2238342E2,3.5056042E2,7.1823006E1,3.1315482E2,3.7405605E1,3.1645851E1,4.0177155E1,2.852183E2,2.7936537E1,3.07072E1,6.698407E0,6.467945E0,2.5177906E1,1.2129165E1,2.8047989E1,2.736698E2,1.1548466E1,1.6328518E1,1.160802E1,1.1408753E1,1.9298445E1,4.1767693E0,2.521638E0,1.2276577E0,5.2402873E0,9.579324E0,1.5598582E1,6.2550793E0,5.874085E0,2.4856686E1,3.1913028E0],"tree_param":{"num_deleted":"0","num_feature":"133","num_nodes":"31","size_leaf_vector":"1"}},{"base_weights":[1.3800112E-3,-1.76498E-2,8.0385125E-1,-7.311728E-1,4.0618815E-3,-7.584284E-2,1.1177139E0,-1.1476747E0,7.1801156E-1,2.4372606E-1,-7.77335E-2,-9.250623E-2,7.4324585E-2,1.2219747E-1,2.3431994E-2,-1.5354545E-1,1.2430613E-3,1.689099E-2,8.813282E-2,5.3991865E-2,-8.509504E-3,-3.532694E-2,2.946439E-3],"categories":[],"categories_nodes":[],"categories_segments":[],"categories_sizes":[],"default_left":[0,0,0,0,0,0,0,0,0,0,0,0,0,0,0,0,0,0,0,0,0,0,0],"id":21,"left_children":[1,3,5,7,9,11,13,15,17,19,21,-1,-1,-1,-1,-1,-1,-1,-1,-1,-1,-1,-1],"loss_changes":[6.453396E0,6.3991656E0,2.787611E0,8.1865425E0,7.8932242E0,3.1295261E0,3.8404655E-1,4.4545965E0,1.5050042E-1,1.0023897E1,8.878257E0,0E0,0E0,0E0,0E0,0E0,0E0,0E0,0E0,0E0,0E0,0E0,0E0],"parents":[2147483647,0,0,1,1,2,2,3,3,4,4,5,5,6,6,7,7,8,8,9,9,10,10],"right_children":[2,4,6,8,10,12,14,16,18,20,22,-1,-1,-1,-1,-1,-1,-1,-1,-1,-1,-1,-1],"split_conditions":[1.3225688E0,1.2024919E0,2.259283E-1,-8.6265886E-1,3.257143E-1,3.1111112E-1,2.1916666E1,6.9851136E-1,2.8419644E-1,1.9632031E-1,4.371022E-1,-9.250623E-2,7.4324585E-2,1.2219747E-1,2.3431994E-2,-1.5354545E-1,1.2430613E-3,1.689099E-2,8.813282E-2,5.3991865E-2,-8.509504E-3,-3.532694E-2,2.946439E-3],"split_indices":[106,124,117,90,27,23,22,0,86,117,20,0,0,0,0,0,0,0,0,0,0,0,0],"split_type":[0,0,0,0,0,0,0,0,0,0,0,0,0,0,0,0,0,0,0,0,0,0,0],"sum_hessian":[4.206659E2,4.1187665E2,8.789241E0,1.11978855E1,4.0067877E2,2.5106761E0,6.278565E0,8.859641E0,2.338245E0,1.01448975E2,2.992298E2,1.1691443E0,1.341532E0,5.2729616E0,1.0056033E0,6.397611E0,2.4620297E0,1.0023619E0,1.3358829E0,5.3034782E1,4.841419E1,8.316676E1,2.1606303E2],"tree_param":{"num_deleted":"0","num_feature":"133","num_nodes":"23","size_leaf_vector":"1"}},{"base_weights":[1.5910026E-3,2.6911774E-1,-5.313831E-2,5.1255554E-1,-1.3153057E-1,-7.9215014E-1,-1.4010024E-2,6.4798665E-1,-2.5871885E-1,-4.165221E-1,8.717346E-1,6.709748E-2,-9.8575056E-1,-5.202494E-2,4.606973E-1,7.3403075E-2,-7.6457955E-2,-1.3020192E-1,4.723348E-2,5.419398E-2,-6.392153E-2,-2.0432968E-3,1.0577126E-1,-2.4810383E-2,-1.4513235E-1,1.5755318E-3,-7.004552E-2,7.508988E-2,-9.386331E-2],"categories":[],"categories_nodes":[],"categories_segments":[],"categories_sizes":[],"default_left":[0,0,0,0,0,0,0,0,0,0,0,0,0,0,0,0,0,0,0,0,0,0,0,0,0,0,0,0,0],"id":22,"left_children":[1,3,5,7,9,11,13,15,17,19,21,-1,23,25,27,-1,-1,-1,-1,-1,-1,-1,-1,-1,-1,-1,-1,-1,-1],"loss_changes":[6.1787186E0,7.0573916E0,1.011984E1,4.8455963E0,8.335532E0,5.6466303E0,6.046896E0,5.226116E0,6.2620525E0,5.1257296E0,1.0987406E0,0E0,5.116826E0,1.3631723E1,1.0794947E1,0E0,0E0,0E0,0E0,0E0,0E0,0E0,0E0,0E0,0E0,0E0,0E0,0E0,0E0],"parents":[2147483647,0,0,1,1,2,2,3,3,4,4,5,5,6,6,7,7,8,8,9,9,10,10,12,12,13,13,14,14],"right_children":[2,4,6,8,10,12,14,16,18,20,22,-1,24,26,28,-1,-1,-1,-1,-1,-1,-1,-1,-1,-1,-1,-1,-1,-1],"split_conditions":[-1.3742228E0,9.1531855E-1,-1.4599888E0,8.541667E-1,9.228175E-1,1.4986609E0,9.3793106E-1,-1.6339341E0,1.1379769E0,3.2484075E-1,8.168757E-1,6.709748E-2,5.882353E-1,8.7774295E-1,1.4625432E0,7.3403075E-2,-7.6457955E-2,-1.3020192E-1,4.723348E-2,5.419398E-2,-6.392153E-2,-2.0432968E-3,1.0577126E-1,-2.4810383E-2,-1.4513235E-1,1.5755318E-3,-7.004552E-2,7.508988E-2,-9.386331E-2],"split_indices":[45,36,64,33,132,55,27,116,103,27,92,0,33,27,129,0,0,0,0,0,0,0,0,0,0,0,0,0,0],"split_type":[0,0,0,0,0,0,0,0,0,0,0,0,0,0,0,0,0,0,0,0,0,0,0,0,0,0,0,0,0],"sum_hessian":[4.2002213E2,7.066782E1,3.493543E2,4.3784573E1,2.6883247E1,1.659934E1,3.3275497E2,3.7380615E1,6.40396E0,2.139152E1,5.491727E0,1.6516098E0,1.494773E1,3.089078E2,2.384716E1,3.568715E1,1.693465E0,2.3167152E0,4.087245E0,3.7628427E0,1.7628677E1,1.1008577E0,4.3908696E0,6.3770037E0,8.570726E0,2.8055698E2,2.835085E1,2.013486E1,3.7123005E0],"tree_param":{"num_deleted":"0","num_feature":"133","num_nodes":"29","size_leaf_vector":"1"}},{"base_weights":[1.2381115E-3,-1.3070144E-2,9.794262E-1,6.744678E-4,-1.1432304E0,1.1015995E-1,1.8242648E-2,-3.6423076E-2,4.3002945E-1,-1.3977067E-1,-3.4827083E-2,-2.5029216E-2,4.6170037E-3,9.666764E-2,-5.592622E-3],"categories":[],"categories_nodes":[],"categories_segments":[],"categories_sizes":[],"default_left":[0,0,0,0,0,0,0,0,0,0,0,0,0,0,0],"id":23,"left_children":[1,3,5,7,9,-1,-1,11,13,-1,-1,-1,-1,-1,-1],"loss_changes":[5.886184E0,6.4406877E0,3.8939762E-1,6.555665E0,5.2106476E-1,0E0,0E0,6.703851E0,8.590496E0,0E0,0E0,0E0,0E0,0E0,0E0],"parents":[2147483647,0,0,1,1,2,2,3,3,4,4,7,7,8,8],"right_children":[2,4,6,8,10,-1,-1,12,14,-1,-1,-1,-1,-1,-1],"split_conditions":[6.122673E-1,1.4806888E0,6.131148E-1,1.4774477E0,4.094966E-1,1.1015995E-1,1.8242648E-2,6.3121337E-1,9.1531855E-1,-1.3977067E-1,-3.4827083E-2,-2.5029216E-2,4.6170037E-3,9.666764E-2,-5.592622E-3],"split_indices":[60,35,25,35,54,0,0,131,36,0,0,0,0,0,0],"split_type":[0,0,0,0,0,0,0,0,0,0,0,0,0,0,0],"sum_hessian":[4.186423E2,4.1357938E2,5.0629134E0,4.095974E2,3.981976E0,4.0585837E0,1.0043293E0,3.7786398E2,3.1733402E1,2.4420388E0,1.5399371E0,1.0470565E2,2.7315836E2,1.4610081E1,1.7123322E1],"tree_param":{"num_deleted":"0","num_feature":"133","num_nodes":"15","size_leaf_vector":"1"}},{"base_weights":[1.2572797E-3,-2.177173E-1,6.353285E-2,6.922531E-1,-3.343324E-1,-1.6360064E-1,1.6724421E-1,1.2457166E0,-4.8314834E-1,-8.457892E-1,-5.0333533E-2,-3.2860988E-1,3.0007058E-1,2.952906E-1,-1.4638735E-1,8.176653E-3,1.4362554E-1,-1.2821762E-1,5.438986E-2,-1.4008604E-1,-3.2321166E-2,1.2827604E-2,-1.09055676E-1,3.7000605E-3,-6.0790814E-2,8.208383E-2,-3.5429783E-2,6.827232E-2,1.2208729E-2,-6.97233E-2,6.9133216E-3],"categories":[],"categories_nodes":[],"categories_segments":[],"categories_sizes":[],"default_left":[0,0,0,0,0,0,0,0,0,0,0,0,0,0,0,0,0,0,0,0,0,0,0,0,0,0,0,0,0,0,0],"id":24,"left_children":[1,3,5,7,9,11,13,15,17,19,21,23,25,27,29,-1,-1,-1,-1,-1,-1,-1,-1,-1,-1,-1,-1,-1,-1,-1,-1],"loss_changes":[5.7188373E0,1.0085369E1,7.718381E0,7.675911E0,1.2011351E1,7.967915E0,9.064698E0,1.5841312E0,4.145431E0,8.12302E0,1.0250944E1,7.8173704E0,9.668412E0,1.0643149E1,7.859194E0,0E0,0E0,0E0,0E0,0E0,0E0,0E0,0E0,0E0,0E0,0E0,0E0,0E0,0E0,0E0,0E0],"parents":[2147483647,0,0,1,1,2,2,3,3,4,4,5,5,6,6,7,7,8,8,9,9,10,10,11,11,12,12,13,13,14,14],"right_children":[2,4,6,8,10,12,14,16,18,20,22,24,26,28,30,-1,-1,-1,-1,-1,-1,-1,-1,-1,-1,-1,-1,-1,-1,-1,-1],"split_conditions":[3.3333333E0,9.0539473E-1,4.363503E-1,9.0842867E-1,4.280266E-1,-2.3691662E-2,7.9591835E-1,8.5025597E-1,1.12514E0,1.52416425E-2,8.2894737E-1,-1.4075269E-1,7.7032153E-3,1.4001967E0,2.7681442E2,8.176653E-3,1.4362554E-1,-1.2821762E-1,5.438986E-2,-1.4008604E-1,-3.2321166E-2,1.2827604E-2,-1.09055676E-1,3.7000605E-3,-6.0790814E-2,8.208383E-2,-3.5429783E-2,6.827232E-2,1.2208729E-2,-6.97233E-2,6.9133216E-3],"split_indices":[22,92,20,36,54,122,33,92,103,132,27,38,122,87,8,0,0,0,0,0,0,0,0,0,0,0,0,0,0,0,0],"split_type":[0,0,0,0,0,0,0,0,0,0,0,0,0,0,0,0,0,0,0,0,0,0,0,0,0,0,0,0,0,0,0],"sum_hessian":[4.1735464E2,9.185971E1,3.2549493E2,9.874083E0,8.198563E1,1.0185328E2,2.2364166E2,6.6724105E0,3.2016723E0,2.8564804E1,5.3420826E1,7.533476E1,2.6518513E1,1.5884747E2,6.479419E1,1.1396619E0,5.5327487E0,1.6610153E0,1.540657E0,1.30367565E1,1.5528048E1,4.634067E1,7.0801535E0,3.3001827E1,4.233294E1,1.4625035E1,1.1893477E1,4.8165638E1,1.1068184E2,1.7593113E1,4.7201077E1],"tree_param":{"num_deleted":"0","num_feature":"133","num_nodes":"31","size_leaf_vector":"1"}},{"base_weights":[9.043101E-4,-1.5946077E-2,7.456436E-1,-7.147678E-1,2.9092021E-3,-3.2611456E-2,9.712744E-1,-1.0979936E0,6.191623E-1,-7.583843E-2,1.8729706E-1,-4.811017E-3,1.17239416E-1,-1.531496E-1,7.7274593E-4,7.4834496E-2,1.8075923E-2,-3.924931E-2,1.3928406E-4,5.714921E-2,2.9614333E-3],"categories":[],"categories_nodes":[],"categories_segments":[],"categories_sizes":[],"default_left":[0,0,0,0,0,0,0,0,0,0,0,0,0,0,0,0,0,0,0,0,0],"id":25,"left_children":[1,3,5,7,9,-1,11,13,15,17,19,-1,-1,-1,-1,-1,-1,-1,-1,-1,-1],"loss_changes":[5.247412E0,5.3905983E0,2.5539932E0,6.1743054E0,5.810655E0,0E0,1.6748257E0,4.186865E0,3.6793113E-2,6.8590264E0,7.2379966E0,0E0,0E0,0E0,0E0,0E0,0E0,0E0,0E0,0E0,0E0],"parents":[2147483647,0,0,1,1,2,2,3,3,4,4,6,6,7,7,8,8,9,9,10,10],"right_children":[2,4,6,8,10,-1,12,14,16,18,20,-1,-1,-1,-1,-1,-1,-1,-1,-1,-1],"split_conditions":[1.3225688E0,1.2016739E0,-9.781476E-1,-8.6265886E-1,8.077669E-1,-3.2611456E-2,-1.0585471E0,6.9851136E-1,-3.8366205E-1,5E-1,3.257143E-1,-4.811017E-3,1.17239416E-1,-1.531496E-1,7.7274593E-4,7.4834496E-2,1.8075923E-2,-3.924931E-2,1.3928406E-4,5.714921E-2,2.9614333E-3],"split_indices":[106,124,1,90,131,0,94,0,109,24,27,0,0,0,0,0,0,0,0,0,0],"split_type":[0,0,0,0,0,0,0,0,0,0,0,0,0,0,0,0,0,0,0,0,0],"sum_hessian":[4.162015E2,4.0794986E2,8.251638E0,9.748251E0,3.982016E2,1.3576035E0,6.8940353E0,7.7100873E0,2.0381637E0,2.7944574E2,1.1875587E2,1.2613937E0,5.6326413E0,5.262024E0,2.4480631E0,1.0282067E0,1.0099571E0,5.3992E1,2.2545374E2,3.3793488E1,8.496238E1],"tree_param":{"num_deleted":"0","num_feature":"133","num_nodes":"21","size_leaf_vector":"1"}},{"base_weights":[1.0326534E-3,-3.4219313E-2,3.4638664E-1,-9.134257E-1,-1.0240767E-2,-4.170565E-1,5.995181E-1,-1.4110883E0,-9.9309094E-2,-2.0379497E-1,6.68428E-2,-8.013096E-1,8.8115446E-2,7.8843486E-1,-2.784038E-1,-2.4929265E-2,-1.6056849E-1,8.181667E-2,-6.337496E-2,2.6085485E-2,-3.8660347E-2,1.2998454E-2,-3.5024088E-2,4.922586E-2,-1.1403539E-1,3.9596014E-2,1.20227754E-1,-1.05670646E-1,3.9864328E-2],"categories":[],"categories_nodes":[],"categories_segments":[],"categories_sizes":[],"default_left":[0,0,0,0,0,0,0,0,0,0,0,0,0,0,0,0,0,0,0,0,0,0,0,0,0,0,0,0,0],"id":26,"left_children":[1,3,5,7,9,11,13,15,17,19,21,23,-1,25,27,-1,-1,-1,-1,-1,-1,-1,-1,-1,-1,-1,-1,-1,-1],"loss_changes":[5.075309E0,7.9659595E0,7.7118096E0,3.924406E0,5.523015E0,5.796373E0,5.096861E0,9.902029E-1,2.9121695E0,9.055599E0,7.020296E0,4.244276E0,0E0,3.4969654E0,3.5547667E0,0E0,0E0,0E0,0E0,0E0,0E0,0E0,0E0,0E0,0E0,0E0,0E0,0E0,0E0],"parents":[2147483647,0,0,1,1,2,2,3,3,4,4,5,5,6,6,7,7,8,8,9,9,10,10,11,11,13,13,14,14],"right_children":[2,4,6,8,10,12,14,16,18,20,22,24,-1,26,28,-1,-1,-1,-1,-1,-1,-1,-1,-1,-1,-1,-1,-1,-1],"split_conditions":[-7.496782E-1,-1.3888556E0,4.1294128E-1,-4.930077E-1,6.3121337E-1,1.478811E0,9.7075313E-1,5.024496E-1,6.673914E-1,-6.509781E-1,1E0,1.8095239E-1,8.8115446E-2,1.2465435E-1,8.2418823E-1,-2.4929265E-2,-1.6056849E-1,8.181667E-2,-6.337496E-2,2.6085485E-2,-3.8660347E-2,1.2998454E-2,-3.5024088E-2,4.922586E-2,-1.1403539E-1,3.9596014E-2,1.20227754E-1,-1.05670646E-1,3.9864328E-2],"split_indices":[42,58,20,0,131,35,72,71,111,0,5,27,0,77,92,0,0,0,0,0,0,0,0,0,0,0,0,0,0],"split_type":[0,0,0,0,0,0,0,0,0,0,0,0,0,0,0,0,0,0,0,0,0,0,0,0,0,0,0,0,0],"sum_hessian":[4.1490982E2,3.772981E2,3.761174E1,9.032051E0,3.6826602E2,9.204233E0,2.8407505E1,5.1503873E0,3.8816638E0,1.0442204E2,2.63844E2,7.397446E0,1.8067868E0,2.3460958E1,4.9465466E0,1.0661644E0,4.084223E0,1.2333989E0,2.648265E0,2.9362803E1,7.5059235E1,2.2975069E2,3.4093307E1,1.4423805E0,5.9550657E0,1.3045667E1,1.0415292E1,2.0403242E0,2.906222E0],"tree_param":{"num_deleted":"0","num_feature":"133","num_nodes":"29","size_leaf_vector":"1"}},{"base_weights":[8.5663423E-4,-2.0086049E-1,5.8415093E-2,6.454497E-1,-3.0727065E-1,1.5264455E-2,4.7474146E-1,1.1741948E0,-4.617201E-1,-7.649251E-1,-5.076297E-2,-4.7599427E-2,3.1499243E-1,-8.384429E-2,7.781158E-1,7.872157E-3,1.3582195E-1,-1.20236866E-1,5.0621696E-2,-8.781529E-2,9.33551E-2,8.2434475E-2,-2.3066094E-2,-2.2428682E-2,9.575215E-3,-5.124705E-2,4.5169722E-2,-1.06368914E-1,4.060343E-2,-6.0894508E-2,9.3349256E-2],"categories":[],"categories_nodes":[],"categories_segments":[],"categories_sizes":[],"default_left":[0,0,0,0,0,0,0,0,0,0,0,0,0,0,0,0,0,0,0,0,0,0,0,0,0,0,0,0,0,0,0],"id":27,"left_children":[1,3,5,7,9,11,13,15,17,19,21,23,25,27,29,-1,-1,-1,-1,-1,-1,-1,-1,-1,-1,-1,-1,-1,-1,-1,-1],"loss_changes":[4.8206296E0,8.4990635E0,5.7955666E0,6.757692E0,9.652532E0,5.5490885E0,5.200162E0,1.3985806E0,3.5833828E0,6.5085945E0,8.687428E0,6.192916E0,6.006476E0,5.984413E0,4.8214436E0,0E0,0E0,0E0,0E0,0E0,0E0,0E0,0E0,0E0,0E0,0E0,0E0,0E0,0E0,0E0,0E0],"parents":[2147483647,0,0,1,1,2,2,3,3,4,4,5,5,6,6,7,7,8,8,9,9,10,10,11,11,12,12,13,13,14,14],"right_children":[2,4,6,8,10,12,14,16,18,20,22,24,26,28,30,-1,-1,-1,-1,-1,-1,-1,-1,-1,-1,-1,-1,-1,-1,-1,-1],"split_conditions":[3.3333333E0,9.0539473E-1,9.0453494E-1,9.0842867E-1,4.280266E-1,1.6187048E-1,1.5820101E0,8.5025597E-1,1.12514E0,1.351594E0,-1.3568171E0,-1.644351E0,3.5181898E-1,4.1030514E-1,-3.8750532E-1,7.872157E-3,1.3582195E-1,-1.20236866E-1,5.0621696E-2,-8.781529E-2,9.33551E-2,8.2434475E-2,-2.3066094E-2,-2.2428682E-2,9.575215E-3,-5.124705E-2,4.5169722E-2,-1.06368914E-1,4.060343E-2,-6.0894508E-2,9.3349256E-2],"split_indices":[22,92,131,36,54,77,46,92,103,124,45,68,25,20,109,0,0,0,0,0,0,0,0,0,0,0,0,0,0,0,0],"split_type":[0,0,0,0,0,0,0,0,0,0,0,0,0,0,0,0,0,0,0,0,0,0,0,0,0,0,0,0,0,0,0],"sum_hessian":[4.1318414E2,9.1173035E1,3.220111E2,9.617406E0,8.1555626E1,2.9270956E2,2.9301563E1,6.467987E0,3.1494188E0,2.8580662E1,5.2974964E1,2.4265677E2,5.0052776E1,1.0567628E1,1.8733936E1,1.1356137E0,5.332373E0,1.6469808E0,1.5024381E0,2.7247221E1,1.3334413E0,8.422363E0,4.45526E1,1.0843772E2,1.3421906E2,6.707016E0,4.3345764E1,3.1319115E0,7.4357157E0,1.5930943E0,1.7140842E1],"tree_param":{"num_deleted":"0","num_feature":"133","num_nodes":"31","size_leaf_vector":"1"}},{"base_weights":[1.2168011E-3,5.734999E-2,-1.9567923E-1,-9.600753E-2,2.192754E-1,-2.976946E-1,6.354297E-1,-3.2438534E-1,1.3918404E-1,3.7623832E-1,-2.0676139E-1,-6.666947E-1,-6.2254347E-2,-7.101921E-2,1.074562E0,-5.3988535E-2,6.6991593E-3,-3.892769E-2,2.9969618E-2,4.296605E-2,-7.273697E-2,-5.0270308E-2,6.979353E-2,-1.0863181E-2,-1.00820914E-1,1.207116E-1,-1.569409E-2,5.900083E-2,-9.989716E-2,4.773497E-3,1.2709959E-1],"categories":[],"categories_nodes":[],"categories_segments":[],"categories_sizes":[],"default_left":[0,0,0,0,0,0,0,0,0,0,0,0,0,0,0,0,0,0,0,0,0,0,0,0,0,0,0,0,0,0,0],"id":28,"left_children":[1,3,5,7,9,11,13,15,17,19,21,23,25,27,29,-1,-1,-1,-1,-1,-1,-1,-1,-1,-1,-1,-1,-1,-1,-1,-1],"loss_changes":[4.572441E0,8.014887E0,7.9707937E0,8.962756E0,1.056905E1,7.1195264E0,3.2880712E0,7.165807E0,7.1139936E0,7.092682E0,1.18325615E1,5.9899483E0,6.370105E0,3.5991166E0,1.2395945E0,0E0,0E0,0E0,0E0,0E0,0E0,0E0,0E0,0E0,0E0,0E0,0E0,0E0,0E0,0E0,0E0],"parents":[2147483647,0,0,1,1,2,2,3,3,4,4,5,5,6,6,7,7,8,8,9,9,10,10,11,11,12,12,13,13,14,14],"right_children":[2,4,6,8,10,12,14,16,18,20,22,24,26,28,30,-1,-1,-1,-1,-1,-1,-1,-1,-1,-1,-1,-1,-1,-1,-1,-1],"split_conditions":[7.8333336E-1,-8.781088E-5,-1.6451151E0,-1.644351E0,1.386981E-1,1.1361446E0,-6.691306E-1,1.5823325E0,8.5690635E-1,1.0546569E0,4.9215865E-1,3.888743E-4,9.4483054E-1,2.9277998E-1,1.5818272E0,-5.3988535E-2,6.6991593E-3,-3.892769E-2,2.9969618E-2,4.296605E-2,-7.273697E-2,-5.0270308E-2,6.979353E-2,-1.0863181E-2,-1.00820914E-1,1.207116E-1,-1.569409E-2,5.900083E-2,-9.989716E-2,4.773497E-3,1.2709959E-1],"split_indices":[33,31,70,68,126,103,1,46,92,92,78,32,98,91,46,0,0,0,0,0,0,0,0,0,0,0,0,0,0,0,0],"split_type":[0,0,0,0,0,0,0,0,0,0,0,0,0,0,0,0,0,0,0,0,0,0,0,0,0,0,0,0,0,0,0],"sum_hessian":[4.1169022E2,3.2091043E2,9.0779785E1,1.650247E2,1.5588574E2,8.142678E1,9.353007E0,8.353275E1,8.149195E1,1.14001526E2,4.1884205E1,3.1003696E1,5.0423084E1,3.9065943E0,5.446413E0,5.362584E1,2.9906916E1,1.8653387E1,6.2838562E1,1.0932036E2,4.6811743E0,3.1895113E1,9.989093E0,1.22706E1,1.8733097E1,2.684608E0,4.7738476E1,2.4941015E0,1.4124925E0,1.0742018E0,4.372211E0],"tree_param":{"num_deleted":"0","num_feature":"133","num_nodes":"31","size_leaf_vector":"1"}},{"base_weights":[1.3328949E-3,-1.4016029E-2,7.003039E-1,9.145177E-3,-4.9078384E-1,-1.22326605E-1,1.0143956E0,-9.892798E-3,6.9694424E-1,-7.788852E-1,7.315739E-1,-8.489015E-2,6.6614635E-2,2.1005312E-2,1.1278112E-1,-3.1990513E-2,2.9049236E-3,9.890245E-2,-2.4183428E-2,-1.0335376E-1,7.038471E-2,1.0280776E-1,-9.010548E-3],"categories":[],"categories_nodes":[],"categories_segments":[],"categories_sizes":[],"default_left":[0,0,0,0,0,0,0,0,0,0,0,0,0,0,0,0,0,0,0,0,0,0,0],"id":29,"left_children":[1,3,5,7,9,11,13,15,17,19,21,-1,-1,-1,-1,-1,-1,-1,-1,-1,-1,-1,-1],"loss_changes":[4.4266934E0,4.463806E0,2.414887E0,5.06266E0,7.1649094E0,2.4801707E0,3.5823154E-1,4.5568976E0,3.094503E0,6.632721E0,1.0885215E0,0E0,0E0,0E0,0E0,0E0,0E0,0E0,0E0,0E0,0E0,0E0,0E0],"parents":[2147483647,0,0,1,1,2,2,3,3,4,4,5,5,6,6,7,7,8,8,9,9,10,10],"right_children":[2,4,6,8,10,12,14,16,18,20,22,-1,-1,-1,-1,-1,-1,-1,-1,-1,-1,-1,-1],"split_conditions":[1.3225688E0,2.711445E-1,2.259283E-1,9.418895E-1,-3.6986953E-1,3.1111112E-1,-1.605402E-3,-1.7133446E0,-3.5882238E-1,9.364096E-1,1.2232512E-1,-8.489015E-2,6.6614635E-2,2.1005312E-2,1.1278112E-1,-3.1990513E-2,2.9049236E-3,9.890245E-2,-2.4183428E-2,-1.0335376E-1,7.038471E-2,1.0280776E-1,-9.010548E-3],"split_indices":[106,99,117,131,109,23,32,101,79,72,126,0,0,0,0,0,0,0,0,0,0,0,0],"split_type":[0,0,0,0,0,0,0,0,0,0,0,0,0,0,0,0,0,0,0,0,0,0,0],"sum_hessian":[4.106976E2,4.0283163E2,7.865959E0,3.8510422E2,1.7727404E1,2.342171E0,5.523788E0,3.756909E2,9.4133415E0,1.4639723E1,3.0876818E0,1.1790452E0,1.1631258E0,1.035079E0,4.488709E0,4.1120575E1,3.345703E2,7.1387534E0,2.2745879E0,1.2752492E1,1.8872311E0,2.084351E0,1.0033306E0],"tree_param":{"num_deleted":"0","num_feature":"133","num_nodes":"23","size_leaf_vector":"1"}},{"base_weights":[1.8616877E-3,-9.962777E-3,8.892499E-1,2.4972889E-3,-1.042208E0,1.0088696E-1,1.8817201E-2,-4.045107E-2,2.8165555E-1,-1.21417105E-1,-2.3968015E-2,-6.757187E-3,4.386603E-2,7.323026E-2,-7.8083263E-3],"categories":[],"categories_nodes":[],"categories_segments":[],"categories_sizes":[],"default_left":[0,0,0,0,0,0,0,0,0,0,0,0,0,0,0],"id":30,"left_children":[1,3,5,7,9,-1,-1,11,13,-1,-1,-1,-1,-1,-1],"loss_changes":[4.319784E0,5.230026E0,2.641554E-1,4.8380694E0,3.7828732E-1,0E0,0E0,4.57458E0,8.779594E0,0E0,0E0,0E0,0E0,0E0,0E0],"parents":[2147483647,0,0,1,1,2,2,3,3,4,4,7,7,8,8],"right_children":[2,4,6,8,10,-1,-1,12,14,-1,-1,-1,-1,-1,-1],"split_conditions":[6.122673E-1,1.4806888E0,9.041799E-1,3.5607487E-1,2.1781746E-4,1.0088696E-1,1.8817201E-2,1.1840137E0,6.0189575E-1,-1.21417105E-1,-2.3968015E-2,-6.757187E-3,4.386603E-2,7.323026E-2,-7.8083263E-3],"split_indices":[60,35,92,132,12,0,0,98,27,0,0,0,0,0,0],"split_type":[0,0,0,0,0,0,0,0,0,0,0,0,0,0,0],"sum_hessian":[4.0984238E2,4.054288E2,4.4135733E0,4.01579E2,3.8498147E0,3.3952425E0,1.0183309E0,3.487752E2,5.2803795E1,2.7480402E0,1.1017746E0,3.3090292E2,1.7872284E1,2.2980425E1,2.982337E1],"tree_param":{"num_deleted":"0","num_feature":"133","num_nodes":"15","size_leaf_vector":"1"}},{"base_weights":[1.9645018E-3,2.75738E-1,-3.2324437E-2,-2.2843356E-1,5.9459656E-1,-6.8983935E-2,4.4833955E-1,3.7536955E-1,-1.1544979E0,1.0378212E0,-5.1250113E-3,-2.0576717E-2,-5.626398E-1,-5.073936E-1,7.5348324E-1,9.814003E-2,-6.634979E-2,-9.169835E-3,-1.4924273E-1,1.2192583E-1,-1.2477024E-2,-6.587627E-2,9.281639E-2,7.340025E-2,-4.8378566E-3,-1.0067797E-1,-4.409393E-3,-1.0578121E-1,4.7586545E-2,9.4454974E-2,-6.2132E-2],"categories":[],"categories_nodes":[],"categories_segments":[],"categories_sizes":[],"default_left":[0,0,0,0,0,0,0,0,0,0,0,0,0,0,0,0,0,0,0,0,0,0,0,0,0,0,0,0,0,0,0],"id":31,"left_children":[1,3,5,7,9,11,13,15,17,19,21,23,25,27,29,-1,-1,-1,-1,-1,-1,-1,-1,-1,-1,-1,-1,-1,-1,-1,-1],"loss_changes":[3.8582516E0,7.4899297E0,6.467978E0,1.0747293E1,7.5279484E0,8.120098E0,7.9708047E0,8.155855E0,2.565876E0,3.5858746E0,8.555352E0,6.5585604E0,6.945491E0,4.234852E0,5.873452E0,0E0,0E0,0E0,0E0,0E0,0E0,0E0,0E0,0E0,0E0,0E0,0E0,0E0,0E0,0E0,0E0],"parents":[2147483647,0,0,1,1,2,2,3,3,4,4,5,5,6,6,7,7,8,8,9,9,10,10,11,11,12,12,13,13,14,14],"right_children":[2,4,6,8,10,12,14,16,18,20,22,24,26,28,30,-1,-1,-1,-1,-1,-1,-1,-1,-1,-1,-1,-1,-1,-1,-1,-1],"split_conditions":[1.5814829E0,-7.469501E-1,9.3793106E-1,2.6657957E-1,9.1990605E-3,8.872621E-1,3.945744E-1,-1.19820766E-1,-1.7815871E0,7.2711325E-1,-5.915812E-1,4.5815414E-1,5.644794E-4,4.8122486E-1,9.2169696E-1,9.814003E-2,-6.634979E-2,-9.169835E-3,-1.4924273E-1,1.2192583E-1,-1.2477024E-2,-6.587627E-2,9.281639E-2,7.340025E-2,-4.8378566E-3,-1.0067797E-1,-4.409393E-3,-1.0578121E-1,4.7586545E-2,9.4454974E-2,-6.2132E-2],"split_indices":[46,48,27,86,122,27,23,57,121,23,118,74,14,20,25,0,0,0,0,0,0,0,0,0,0,0,0,0,0,0,0],"split_type":[0,0,0,0,0,0,0,0,0,0,0,0,0,0,0,0,0,0,0,0,0,0,0,0,0,0,0,0,0,0,0],"sum_hessian":[4.0905365E2,4.4746017E1,3.6430765E2,1.7445385E1,2.7300634E1,3.392872E2,2.502043E1,1.0920059E1,6.525326E0,1.5278525E1,1.2022109E1,3.099369E2,2.9350307E1,5.8947678E0,1.9125662E1,6.931712E0,3.988347E0,1.8809688E0,4.6443567E0,1.3173839E1,2.1046863E0,7.2433267E0,4.7787824E0,1.0110952E1,2.9982596E2,1.5302239E1,1.4048068E1,3.7305958E0,2.164172E0,1.706673E1,2.0589323E0],"tree_param":{"num_deleted":"0","num_feature":"133","num_nodes":"31","size_leaf_vector":"1"}},{"base_weights":[1.870554E-3,7.113827E-1,-1.1175762E-2,1.21388786E-1,1.8685848E-2,1.4262303E-2,-9.488298E-1,-7.625265E-2,5.337635E-1,-1.6092408E-2,4.4818094E-1,3.720054E-2,-1.2625588E0,7.953068E-2,-2.3909606E-5,-3.176811E-2,4.378089E-3,6.218512E-2,-4.570521E-2,1.0313794E-3,-1.528781E-1],"categories":[],"categories_nodes":[],"categories_segments":[],"categories_sizes":[],"default_left":[0,0,0,0,0,0,0,0,0,0,0,0,0,0,0,0,0,0,0,0,0],"id":32,"left_children":[1,3,5,-1,7,9,11,-1,13,15,17,-1,19,-1,-1,-1,-1,-1,-1,-1,-1],"loss_changes":[3.7902298E0,2.5507574E0,9.607182E0,0E0,2.0664368E0,5.178011E0,4.878085E0,0E0,4.2945886E-1,6.656646E0,4.3248343E0,0E0,3.0059843E0,0E0,0E0,0E0,0E0,0E0,0E0,0E0,0E0],"parents":[2147483647,0,0,1,1,2,2,4,4,5,5,6,6,8,8,9,9,10,10,12,12],"right_children":[2,4,6,-1,8,10,12,-1,14,16,18,-1,20,-1,-1,-1,-1,-1,-1,-1,-1],"split_conditions":[5.4577893E-1,1.0673393E0,-1.0515739E-1,1.21388786E-1,6.0803175E-1,-7.403469E-1,-1.7004856E0,-7.625265E-2,2.85E0,3.0833333E0,-2.9278575E-5,3.720054E-2,5.982039E-1,7.953068E-2,-2.3909606E-5,-3.176811E-2,4.378089E-3,6.218512E-2,-4.570521E-2,1.0313794E-3,-1.528781E-1],"split_indices":[47,34,57,0,131,48,116,0,19,22,13,0,131,0,0,0,0,0,0,0,0],"split_type":[0,0,0,0,0,0,0,0,0,0,0,0,0,0,0,0,0,0,0,0,0],"sum_hessian":[4.0760712E2,6.393164E0,4.0121393E2,3.269183E0,3.1239815E0,3.915755E2,9.63845E0,1.0504165E0,2.073565E0,3.668738E2,2.4701687E1,1.8142968E0,7.8241525E0,1.0634019E0,1.010163E0,6.0056484E1,3.0681732E2,2.098813E1,3.7135549E0,1.5196412E0,6.3045115E0],"tree_param":{"num_deleted":"0","num_feature":"133","num_nodes":"21","size_leaf_vector":"1"}},{"base_weights":[1.73244E-3,-6.126763E-2,1.471619E-1,-1.7890634E-2,-5.1518446E-1,-5.144398E-1,2.0551015E-1,-2.7638274E-1,5.6694344E-2,3.9692855E-1,-8.0596274E-1,-9.076969E-1,8.172273E-2,3.2014623E-1,-2.43669E-1,4.3629896E-2,-4.004609E-2,2.4970155E-3,1.0916282E-1,-7.671689E-2,9.056769E-2,-1.0846158E-1,2.7569419E-2,6.2390566E-2,-1.2399238E-1,7.122826E-2,1.4206546E-2,8.229293E-2,-4.4523884E-2],"categories":[],"categories_nodes":[],"categories_segments":[],"categories_sizes":[],"default_left":[0,0,0,0,0,0,0,0,0,0,0,0,0,0,0,0,0,0,0,0,0,0,0,0,0,0,0,0,0],"id":33,"left_children":[1,3,5,7,9,11,13,15,17,19,21,23,-1,25,27,-1,-1,-1,-1,-1,-1,-1,-1,-1,-1,-1,-1,-1,-1],"loss_changes":[3.746314E0,5.6086206E0,4.87667E0,5.056701E0,6.911075E0,6.136674E0,5.962913E0,5.3672514E0,6.662321E0,4.649399E0,6.0782013E0,5.06151E0,0E0,6.287203E0,5.484328E0,0E0,0E0,0E0,0E0,0E0,0E0,0E0,0E0,0E0,0E0,0E0,0E0,0E0,0E0],"parents":[2147483647,0,0,1,1,2,2,3,3,4,4,5,5,6,6,7,7,8,8,9,9,10,10,11,11,13,13,14,14],"right_children":[2,4,6,8,10,12,14,16,18,20,22,24,-1,26,28,-1,-1,-1,-1,-1,-1,-1,-1,-1,-1,-1,-1,-1,-1],"split_conditions":[8.0604047E-1,7.291045E-1,8.6690205E-1,5E-1,-1.4373862E0,9.364096E-1,3.0571967E-3,-2.7113028E2,-1.1240876E0,1.334672E-1,2.8169706E-1,-1.1421384E0,8.172273E-2,1.1333607E0,1.04084E0,4.3629896E-2,-4.004609E-2,2.4970155E-3,1.0916282E-1,-7.671689E-2,9.056769E-2,-1.0846158E-1,2.7569419E-2,6.2390566E-2,-1.2399238E-1,7.122826E-2,1.4206546E-2,8.229293E-2,-4.4523884E-2],"split_indices":[131,23,110,24,96,72,122,9,130,126,51,107,0,106,106,0,0,0,0,0,0,0,0,0,0,0,0,0,0],"split_type":[0,0,0,0,0,0,0,0,0,0,0,0,0,0,0,0,0,0,0,0,0,0,0,0,0,0,0,0,0],"sum_hessian":[4.069099E2,2.843208E2,1.2258911E2,2.6046936E2,2.3851442E1,9.301712E0,1.132874E2,5.7720287E1,2.0274908E2,5.6774297E0,1.8174011E1,7.426851E0,1.8748617E0,9.048242E1,2.2804974E1,8.185867E0,4.953442E1,1.9771266E2,5.0364275E0,1.5721488E0,4.105281E0,1.44489765E1,3.7250352E0,1.1673392E0,6.2595115E0,2.7321135E1,6.316129E1,3.1347857E0,1.9670187E1],"tree_param":{"num_deleted":"0","num_feature":"133","num_nodes":"29","size_leaf_vector":"1"}},{"base_weights":[2.2088576E-3,-8.284646E-3,8.335276E-1,-7.7735424E-1,7.860863E-3,9.531207E-2,1.87942E-2,-1.1945689E0,6.1340827E-2,-2.5620222E-2,4.6386424E-1,-2.2338092E-2,-1.3813728E-1,-1.7046576E-2,7.886532E-3,6.642769E-2,-7.405353E-2],"categories":[],"categories_nodes":[],"categories_segments":[],"categories_sizes":[],"default_left":[0,0,0,0,0,0,0,0,0,0,0,0,0,0,0,0,0],"id":34,"left_children":[1,3,5,7,9,-1,-1,11,-1,13,15,-1,-1,-1,-1,-1,-1],"loss_changes":[3.550107E0,4.9989576E0,2.1253467E-1,5.535974E0,6.039781E0,0E0,0E0,9.0821075E-1,0E0,5.594368E0,7.0231586E0,0E0,0E0,0E0,0E0,0E0,0E0],"parents":[2147483647,0,0,1,1,2,2,3,3,4,4,7,7,9,9,10,10],"right_children":[2,4,6,8,10,-1,-1,12,-1,14,16,-1,-1,-1,-1,-1,-1],"split_conditions":[6.122673E-1,-7.5314194E-1,9.0355635E-1,-1.5964495E-2,1.4774477E0,9.531207E-2,1.87942E-2,-6.815971E-2,6.1340827E-2,-7.4337775E-1,-8.592534E-1,-2.2338092E-2,-1.3813728E-1,-1.7046576E-2,7.886532E-3,6.642769E-2,-7.405353E-2],"split_indices":[60,48,92,128,35,0,0,128,0,48,90,0,0,0,0,0,0],"split_type":[0,0,0,0,0,0,0,0,0,0,0,0,0,0,0,0,0],"sum_hessian":[4.0516992E2,4.0109702E2,4.072901E0,7.277887E0,3.9381912E2,3.0344172E0,1.0384835E0,5.7069335E0,1.5709532E0,3.6776086E2,2.605825E1,1.2748466E0,4.432087E0,1.5385051E2,2.1391037E2,2.2725222E1,3.3330305E0],"tree_param":{"num_deleted":"0","num_feature":"133","num_nodes":"17","size_leaf_vector":"1"}},{"base_weights":[2.060509E-3,-1.1279629E-2,6.410076E-1,2.7026027E-1,-4.520739E-2,-1.4067338E-1,9.5532155E-1,-2.0329365E-1,5.744134E-1,-7.8495994E-2,4.0300822E-1,-8.1518E-2,6.309132E-2,2.0285666E-2,1.06641166E-1,3.7956264E-2,-1.040041E-1,1.2076872E-1,1.2917272E-2,-3.4360636E-3,-5.195833E-2,-5.0617386E-2,7.008493E-2],"categories":[],"categories_nodes":[],"categories_segments":[],"categories_sizes":[],"default_left":[0,0,0,0,0,0,0,0,0,0,0,0,0,0,0,0,0,0,0,0,0,0,0],"id":35,"left_children":[1,3,5,7,9,11,13,15,17,19,21,-1,-1,-1,-1,-1,-1,-1,-1,-1,-1,-1,-1],"loss_changes":[3.463807E0,3.8159964E0,2.176316E0,6.305952E0,5.3470044E0,2.2083805E0,2.898836E-1,8.951003E0,7.295233E0,6.4542246E0,7.068222E0,0E0,0E0,0E0,0E0,0E0,0E0,0E0,0E0,0E0,0E0,0E0,0E0],"parents":[2147483647,0,0,1,1,2,2,3,3,4,4,5,5,6,6,7,7,8,8,9,9,10,10],"right_children":[2,4,6,8,10,12,14,16,18,20,22,-1,-1,-1,-1,-1,-1,-1,-1,-1,-1,-1,-1],"split_conditions":[1.3225688E0,1.5814713E0,2.259283E-1,-7.469501E-1,9.3793106E-1,3.1111112E-1,-1.4841576E-3,2.6657957E-1,-1.9683512E0,8.872621E-1,3.945744E-1,-8.1518E-2,6.309132E-2,2.0285666E-2,1.06641166E-1,3.7956264E-2,-1.040041E-1,1.2076872E-1,1.2917272E-2,-3.4360636E-3,-5.195833E-2,-5.0617386E-2,7.008493E-2],"split_indices":[106,46,117,48,27,23,13,86,97,27,23,0,0,0,0,0,0,0,0,0,0,0,0],"split_type":[0,0,0,0,0,0,0,0,0,0,0,0,0,0,0,0,0,0,0,0,0,0,0],"sum_hessian":[4.0452817E2,3.972173E2,7.31088E0,4.1970577E1,3.552467E2,2.2550764E0,5.055804E0,1.6543943E1,2.5426632E1,3.314547E2,2.3792002E1,1.173087E0,1.0819893E0,1.013944E0,4.04186E0,1.0073436E1,6.470508E0,9.789879E0,1.5636753E1,3.0228577E2,2.9168928E1,5.6982365E0,1.8093765E1],"tree_param":{"num_deleted":"0","num_feature":"133","num_nodes":"23","size_leaf_vector":"1"}},{"base_weights":[2.3601144E-3,5.1002637E-2,-1.6770568E-1,-8.339968E-2,1.9399041E-1,-2.5672084E-1,5.815747E-1,-2.857358E-1,1.2871073E-1,3.3793437E-1,-1.923899E-1,-1.6400364E-1,-1.149962E0,-7.730644E-2,1.006533E0,-5.7970505E-2,-6.109143E-4,7.220208E-2,-1.00111356E-4,-1.0908498E-1,3.730105E-2,-4.6372723E-2,6.500515E-2,-5.1627424E-2,1.4428528E-2,3.0536065E-2,-1.5564096E-1,5.4853637E-2,-9.194218E-2,3.294584E-3,1.2017699E-1],"categories":[],"categories_nodes":[],"categories_segments":[],"categories_sizes":[],"default_left":[0,0,0,0,0,0,0,0,0,0,0,0,0,0,0,0,0,0,0,0,0,0,0,0,0,0,0,0,0,0,0],"id":36,"left_children":[1,3,5,7,9,11,13,15,17,19,21,23,25,27,29,-1,-1,-1,-1,-1,-1,-1,-1,-1,-1,-1,-1,-1,-1,-1,-1],"loss_changes":[3.354221E0,6.074674E0,6.164272E0,7.0411205E0,8.577128E0,6.5446277E0,2.8448575E0,6.8880224E0,6.185725E0,6.0133905E0,9.942873E0,8.200209E0,4.8991785E0,3.0358968E0,1.1159005E0,0E0,0E0,0E0,0E0,0E0,0E0,0E0,0E0,0E0,0E0,0E0,0E0,0E0,0E0,0E0,0E0],"parents":[2147483647,0,0,1,1,2,2,3,3,4,4,5,5,6,6,7,7,8,8,9,9,10,10,11,11,12,12,13,13,14,14],"right_children":[2,4,6,8,10,12,14,16,18,20,22,24,26,28,30,-1,-1,-1,-1,-1,-1,-1,-1,-1,-1,-1,-1,-1,-1,-1,-1],"split_conditions":[7.8333336E-1,-8.781088E-5,-1.6451151E0,-1.644351E0,1.386981E-1,1.3744338E0,-6.691306E-1,-1.3303773E0,-7.53491E-1,2E-1,4.9215865E-1,-4.0628132E-1,2.5564715E-1,-5.133099E-1,1.5818272E0,-5.7970505E-2,-6.109143E-4,7.220208E-2,-1.00111356E-4,-1.0908498E-1,3.730105E-2,-4.6372723E-2,6.500515E-2,-5.1627424E-2,1.4428528E-2,3.0536065E-2,-1.5564096E-1,5.4853637E-2,-9.194218E-2,3.294584E-3,1.2017699E-1],"split_indices":[33,31,70,68,126,67,1,96,118,17,78,69,91,80,46,0,0,0,0,0,0,0,0,0,0,0,0,0,0,0,0],"split_type":[0,0,0,0,0,0,0,0,0,0,0,0,0,0,0,0,0,0,0,0,0,0,0,0,0,0,0,0,0,0,0],"sum_hessian":[4.0343597E2,3.142529E2,8.9183075E1,1.6220445E2,1.5204843E2,8.030066E1,8.882413E0,8.2837296E1,7.936716E1,1.1086984E2,4.1178596E1,7.382168E1,6.478984E0,3.8034294E0,5.0789833E0,3.9859833E1,4.2977467E1,1.3419445E1,6.5947716E1,1.9353701E0,1.0893447E2,3.1486746E1,9.691849E0,3.4138363E1,3.968331E1,1.468739E0,5.010245E0,2.3818834E0,1.4215459E0,1.0436027E0,4.035381E0],"tree_param":{"num_deleted":"0","num_feature":"133","num_nodes":"31","size_leaf_vector":"1"}},{"base_weights":[2.0059384E-3,6.504319E-2,-1.3282621E-1,1.6659846E-3,4.7127357E-1,-4.5362994E-1,6.991064E-2,-8.274517E-1,3.4111515E-2,-7.673394E-2,7.391857E-1,6.251144E-1,-5.720769E-1,-2.9478765E-1,2.9100546E-1,7.2064027E-3,-1.3387458E-1,2.0838356E-2,-1.1396672E-2,3.021366E-2,-9.541901E-2,-6.512625E-2,8.7066315E-2,1.1119262E-1,-6.372047E-3,-8.0286E-2,3.0414446E-3,6.58375E-2,-5.753662E-2,-7.354387E-2,4.971173E-2],"categories":[],"categories_nodes":[],"categories_segments":[],"categories_sizes":[],"default_left":[0,0,0,0,0,0,0,0,0,0,0,0,0,0,0,0,0,0,0,0,0,0,0,0,0,0,0,0,0,0,0],"id":37,"left_children":[1,3,5,7,9,11,13,15,17,19,21,23,25,27,29,-1,-1,-1,-1,-1,-1,-1,-1,-1,-1,-1,-1,-1,-1,-1,-1],"loss_changes":[3.43574E0,7.090356E0,8.407716E0,6.464647E0,5.5136213E0,6.7468786E0,6.51871E0,4.2586937E0,5.9903784E0,4.6466923E0,5.1478767E0,1.8900864E0,6.3619795E0,8.564556E0,1.0980157E1,0E0,0E0,0E0,0E0,0E0,0E0,0E0,0E0,0E0,0E0,0E0,0E0,0E0,0E0,0E0,0E0],"parents":[2147483647,0,0,1,1,2,2,3,3,4,4,5,5,6,6,7,7,8,8,9,9,10,10,11,11,12,12,13,13,14,14],"right_children":[2,4,6,8,10,12,14,16,18,20,22,24,26,28,30,-1,-1,-1,-1,-1,-1,-1,-1,-1,-1,-1,-1,-1,-1,-1,-1],"split_conditions":[-5.6108993E-1,1.4491535E0,-5.318097E-1,5.141846E-1,4.2E-1,-1.331731E0,1.4885572E0,5.0324196E-1,1E0,-1.5946434E0,1.3307984E-1,-1.6680683E0,6.716844E-1,1.788609E0,1.1179065E0,7.2064027E-3,-1.3387458E-1,2.0838356E-2,-1.1396672E-2,3.021366E-2,-9.541901E-2,-6.512625E-2,8.7066315E-2,1.1119262E-1,-6.372047E-3,-8.0286E-2,3.0414446E-3,6.58375E-2,-5.753662E-2,-7.354387E-2,4.971173E-2],"split_indices":[89,87,89,131,20,130,55,23,26,70,27,116,123,114,103,0,0,0,0,0,0,0,0,0,0,0,0,0,0,0,0],"split_type":[0,0,0,0,0,0,0,0,0,0,0,0,0,0,0,0,0,0,0,0,0,0,0,0,0,0,0,0,0,0,0],"sum_hessian":[4.0221448E2,2.7442966E2,1.2778482E2,2.3826183E2,3.616783E1,4.9004414E1,7.87804E1,8.0499325E0,2.302119E2,1.2110233E1,2.4057598E1,4.425156E0,4.4579258E1,2.9608143E1,4.917226E1,3.2287219E0,4.82121E0,1.0556549E2,1.2464641E2,8.916087E0,3.1941462E0,1.736778E0,2.232082E1,2.2329075E0,2.1922483E0,3.1992159E1,1.2587099E1,6.4272904E0,2.3180853E1,7.7932835E0,4.137898E1],"tree_param":{"num_deleted":"0","num_feature":"133","num_nodes":"31","size_leaf_vector":"1"}},{"base_weights":[1.5799047E-3,-1.0460372E-2,6.8844664E-1,6.6923434E-1,-2.2757212E-2,9.018304E-2,-2.8809106E-2,1.1454489E-1,1.1036819E-2,6.844445E-4,-8.7258494E-1,-7.234534E-2,5.0257344E-2,-1.9798044E-3,5.5351324E-2,3.450305E-2,-1.162346E-1],"categories":[],"categories_nodes":[],"categories_segments":[],"categories_sizes":[],"default_left":[0,0,0,0,0,0,0,0,0,0,0,0,0,0,0,0,0],"id":38,"left_children":[1,3,5,7,9,-1,-1,-1,11,13,15,-1,-1,-1,-1,-1,-1],"loss_changes":[3.3309648E0,3.3247373E0,1.7056699E0,2.2031684E0,7.76784E0,0E0,0E0,0E0,1.7995195E0,4.3186617E0,4.0939684E0,0E0,0E0,0E0,0E0,0E0,0E0],"parents":[2147483647,0,0,1,1,2,2,3,3,4,4,8,8,9,9,10,10],"right_children":[2,4,6,8,10,-1,-1,-1,12,14,16,-1,-1,-1,-1,-1,-1],"split_conditions":[9.514215E-1,5.4577893E-1,1.0817683E0,1.0673393E0,-1.0515739E-1,9.018304E-2,-2.8809106E-2,1.1454489E-1,6.0803175E-1,-1.3531872E0,-1.7004856E0,-7.234534E-2,5.0257344E-2,-1.9798044E-3,5.5351324E-2,3.450305E-2,-1.162346E-1],"split_indices":[131,47,110,34,57,0,0,0,131,45,116,0,0,0,0,0,0],"split_type":[0,0,0,0,0,0,0,0,0,0,0,0,0,0,0,0,0],"sum_hessian":[4.009029E2,3.9496423E2,5.9386663E0,6.069257E0,3.8889496E2,4.936493E0,1.0021734E0,3.0919263E0,2.9773307E0,3.79428E2,9.466951E0,1.0045052E0,1.9728255E0,3.6680206E2,1.2625949E1,1.7831542E0,7.6837974E0],"tree_param":{"num_deleted":"0","num_feature":"133","num_nodes":"17","size_leaf_vector":"1"}},{"base_weights":[1.7835799E-3,-3.5931118E-2,2.1410795E-1,-9.535273E-1,-1.6680617E-2,5.402302E-1,-1.307993E-1,-1.2689905E0,4.01224E-2,-4.0993035E-2,9.4734615E-1,6.727917E-1,-3.5335115E-1,-1.1009326E0,7.799433E-2,6.007044E-3,-1.5716383E-1,-1.7135996E-2,9.670573E-3,-1.718383E-2,1.4114182E-1,9.1624364E-2,1.9145178E-3,4.910036E-2,-1.02186956E-1,6.1404905E-3,-1.3991068E-1,3.1860217E-2,-6.1246186E-2],"categories":[],"categories_nodes":[],"categories_segments":[],"categories_sizes":[],"default_left":[0,0,0,0,0,0,0,0,0,0,0,0,0,0,0,0,0,0,0,0,0,0,0,0,0,0,0,0,0],"id":39,"left_children":[1,3,5,7,9,11,13,15,-1,17,19,21,23,25,27,-1,-1,-1,-1,-1,-1,-1,-1,-1,-1,-1,-1,-1,-1],"loss_changes":[3.221338E0,6.0188956E0,6.8956623E0,3.5017462E0,7.905463E0,3.955123E0,6.2221465E0,2.4756336E0,0E0,5.910728E0,4.552333E0,4.386051E0,3.1602488E0,1.9683118E0,4.491668E0,0E0,0E0,0E0,0E0,0E0,0E0,0E0,0E0,0E0,0E0,0E0,0E0,0E0,0E0],"parents":[2147483647,0,0,1,1,2,2,3,3,4,4,5,5,6,6,7,7,9,9,10,10,11,11,12,12,13,13,14,14],"right_children":[2,4,6,8,10,12,14,16,-1,18,20,22,24,26,28,-1,-1,-1,-1,-1,-1,-1,-1,-1,-1,-1,-1,-1,-1],"split_conditions":[5.5247056E-1,1.371322E0,1E0,1.5822849E0,1.36947E0,3.545915E-1,2.0833333E0,3.1E0,4.01224E-2,-1.6412395E0,3.2484075E-1,7.081547E-1,2.2875817E-1,2.972973E-1,-1.8733616E0,6.007044E-3,-1.5716383E-1,-1.7135996E-2,9.670573E-3,-1.718383E-2,1.4114182E-1,9.1624364E-2,1.9145178E-3,4.910036E-2,-1.02186956E-1,6.1404905E-3,-1.3991068E-1,3.1860217E-2,-6.1246186E-2],"split_indices":[88,87,26,46,75,91,22,19,0,68,27,111,27,33,37,0,0,0,0,0,0,0,0,0,0,0,0,0,0],"split_type":[0,0,0,0,0,0,0,0,0,0,0,0,0,0,0,0,0,0,0,0,0,0,0,0,0,0,0,0,0],"sum_hessian":[4.0031693E2,3.406405E2,5.967643E1,6.0022874E0,3.346382E2,3.0382435E1,2.9293995E1,4.9199476E0,1.0823401E0,3.2734027E2,7.29793E0,2.6672667E1,3.709768E0,4.431369E0,2.4862625E1,1.0612117E0,3.8587358E0,1.680211E2,1.5931917E2,2.323691E0,4.974239E0,1.91416E1,7.531067E0,1.756633E0,1.9531351E0,1.0668108E0,3.364558E0,1.883695E1,6.025674E0],"tree_param":{"num_deleted":"0","num_feature":"133","num_nodes":"29","size_leaf_vector":"1"}},{"base_weights":[1.4068998E-3,3.2277267E-2,-2.496164E-1,8.6660635E-1,1.4342346E-2,3.7568185E-2,-8.9230317E-1,1.059796E-1,-1.7726338E-2,9.227326E-1,5.1139964E-4,-6.0524935E-1,4.178648E-1,1.5730217E-1,-1.189554E0,1.135677E-1,8.954252E-3,2.0221735E-3,-6.2212504E-2,-1.368138E-1,-7.537713E-3,-4.1204788E-2,7.484066E-2,7.922662E-2,-4.192632E-2,-2.3772532E-2,-1.5527822E-1],"categories":[],"categories_nodes":[],"categories_segments":[],"categories_sizes":[],"default_left":[0,0,0,0,0,0,0,0,0,0,0,0,0,0,0,0,0,0,0,0,0,0,0,0,0,0,0],"id":40,"left_children":[1,3,5,7,9,11,13,-1,-1,15,17,19,21,23,25,-1,-1,-1,-1,-1,-1,-1,-1,-1,-1,-1,-1],"loss_changes":[3.112546E0,5.3390827E0,8.152163E0,1.7022004E0,4.4110327E0,7.91956E0,4.438204E0,0E0,0E0,8.325176E-1,4.2693768E0,4.774198E0,5.875936E0,1.7564148E0,3.3423214E0,0E0,0E0,0E0,0E0,0E0,0E0,0E0,0E0,0E0,0E0,0E0,0E0],"parents":[2147483647,0,0,1,1,2,2,3,3,4,4,5,5,6,6,9,9,10,10,11,11,12,12,13,13,14,14],"right_children":[2,4,6,8,10,12,14,-1,-1,16,18,20,22,24,26,-1,-1,-1,-1,-1,-1,-1,-1,-1,-1,-1,-1],"split_conditions":[1E0,1.0869565E-1,3.3435977E2,1.7544373E-4,5.4577893E-1,-1.0559163E0,-1.1534973E0,1.059796E-1,-1.7726338E-2,-8.6265886E-1,6.107051E-2,6.050277E-1,-1.3855835E0,5.956046E-1,1.7753121E-1,1.135677E-1,8.954252E-3,2.0221735E-3,-6.2212504E-2,-1.368138E-1,-7.537713E-3,-4.1204788E-2,7.484066E-2,7.922662E-2,-4.192632E-2,-2.3772532E-2,-1.5527822E-1],"split_indices":[4,27,8,30,47,102,104,0,0,90,128,60,81,20,117,0,0,0,0,0,0,0,0,0,0,0,0],"split_type":[0,0,0,0,0,0,0,0,0,0,0,0,0,0,0,0,0,0,0,0,0,0,0,0,0,0,0],"sum_hessian":[3.9962155E2,3.566347E2,4.298684E1,6.5091844E0,3.5012552E2,3.0361395E1,1.2625443E1,5.479781E0,1.0294031E0,4.2654257E0,3.458601E2,1.1065611E1,1.9295784E1,2.89034E0,9.735104E0,3.1080356E0,1.1573898E0,3.3618527E2,9.674843E0,3.887102E0,7.1785088E0,5.42594E0,1.38698435E1,1.1974692E0,1.6928709E0,3.1458848E0,6.589219E0],"tree_param":{"num_deleted":"0","num_feature":"133","num_nodes":"27","size_leaf_vector":"1"}},{"base_weights":[1.0955934E-3,-8.647814E-3,8.0095345E-1,7.1973098E-3,-7.2922057E-1,1.740282E-2,9.203538E-2,-2.5227932E-2,4.5476887E-1,4.2363282E-2,-1.0315589E0,-1.4459031E-2,6.290274E-3,1.02544665E-1,-4.876914E-3,1.3505113E-2,-1.2776363E-1],"categories":[],"categories_nodes":[],"categories_segments":[],"categories_sizes":[],"default_left":[0,0,0,0,0,0,0,0,0,0,0,0,0,0,0,0,0],"id":41,"left_children":[1,3,5,7,9,-1,-1,11,13,-1,15,-1,-1,-1,-1,-1,-1],"loss_changes":[3.1219945E0,4.525323E0,2.0071673E-1,5.64759E0,3.409412E0,0E0,0E0,3.8284304E0,7.603917E0,0E0,2.1956315E0,0E0,0E0,0E0,0E0,0E0,0E0],"parents":[2147483647,0,0,1,1,2,2,3,3,4,4,7,7,8,8,10,10],"right_children":[2,4,6,8,10,-1,-1,12,14,-1,16,-1,-1,-1,-1,-1,-1],"split_conditions":[6.122673E-1,9.171168E-1,-1.2674852E-1,5.887872E-1,1.10728145E-1,1.740282E-2,9.203538E-2,-7.4337775E-1,6.056338E-1,4.2363282E-2,7.426589E-4,-1.4459031E-2,6.290274E-3,1.02544665E-1,-4.876914E-3,1.3505113E-2,-1.2776363E-1],"split_indices":[60,36,57,132,99,0,0,48,27,0,14,0,0,0,0,0,0],"split_type":[0,0,0,0,0,0,0,0,0,0,0,0,0,0,0,0,0],"sum_hessian":[3.9870886E2,3.9488776E2,3.821107E0,3.8735986E2,7.5278864E0,1.0044813E0,2.8166256E0,3.6207242E2,2.5287449E1,1.4806806E0,6.047206E0,1.5351468E2,2.0855774E2,1.1367625E1,1.3919824E1,1.131961E0,4.915245E0],"tree_param":{"num_deleted":"0","num_feature":"133","num_nodes":"17","size_leaf_vector":"1"}},{"base_weights":[1.4139725E-3,-7.309392E-2,1.0383305E-1,2.591455E-2,-2.811933E-1,3.2873808E-3,3.6841798E-1,-8.28428E-1,7.1428046E-2,2.5755212E-2,-5.35283E-1,1.7715625E-1,-3.132503E-1,-3.208192E-1,5.100148E-1,-1.19591214E-1,1.8445527E-2,1.4384289E-2,-4.443177E-2,-7.7829115E-2,3.054491E-2,1.173795E-1,-6.3635625E-2,6.67342E-2,1.5908222E-3,-1.1654534E-1,-1.1768866E-3,3.8115684E-2,-7.137343E-2,6.377294E-2,-2.5983846E-2],"categories":[],"categories_nodes":[],"categories_segments":[],"categories_sizes":[],"default_left":[0,0,0,0,0,0,0,0,0,0,0,0,0,0,0,0,0,0,0,0,0,0,0,0,0,0,0,0,0,0,0],"id":42,"left_children":[1,3,5,7,9,11,13,15,17,19,21,23,25,27,29,-1,-1,-1,-1,-1,-1,-1,-1,-1,-1,-1,-1,-1,-1,-1,-1],"loss_changes":[3.0515869E0,4.777013E0,4.47865E0,6.1943903E0,5.841191E0,6.8268647E0,4.688317E0,3.2205935E0,5.693036E0,8.062232E0,7.816326E0,6.316893E0,1.1286334E1,2.6207082E0,3.9852228E0,0E0,0E0,0E0,0E0,0E0,0E0,0E0,0E0,0E0,0E0,0E0,0E0,0E0,0E0,0E0,0E0],"parents":[2147483647,0,0,1,1,2,2,3,3,4,4,5,5,6,6,7,7,8,8,9,9,10,10,11,11,12,12,13,13,14,14],"right_children":[2,4,6,8,10,12,14,16,18,20,22,24,26,28,30,-1,-1,-1,-1,-1,-1,-1,-1,-1,-1,-1,-1,-1,-1,-1,-1],"split_conditions":[7.5432694E-1,-5.6402856E-1,2.047457E-1,4.042448E-1,4.8058906E-1,-7.5373334E-1,-1.5117476E0,6.736079E-1,1E0,8.64993E-2,-1.4004882E-1,1.1902496E-1,6.063677E-1,5.05E0,8.49162E-1,-1.19591214E-1,1.8445527E-2,1.4384289E-2,-4.443177E-2,-7.7829115E-2,3.054491E-2,1.173795E-1,-6.3635625E-2,6.67342E-2,1.5908222E-3,-1.1654534E-1,-1.1768866E-3,3.8115684E-2,-7.137343E-2,6.377294E-2,-2.5983846E-2],"split_indices":[131,89,132,34,88,42,85,131,5,77,125,41,60,18,33,0,0,0,0,0,0,0,0,0,0,0,0,0,0,0,0],"split_type":[0,0,0,0,0,0,0,0,0,0,0,0,0,0,0,0,0,0,0,0,0,0,0,0,0,0,0,0,0,0,0],"sum_hessian":[3.9789734E2,2.3049963E2,1.6739769E2,1.567821E2,7.371754E1,1.2203518E2,4.5362514E1,7.0597816E0,1.4972232E2,3.3793068E1,3.9924465E1,7.905301E1,4.298217E1,7.515298E0,3.7847214E1,5.047718E0,2.0120635E0,1.319207E2,1.7801628E1,8.2613125E0,2.5531755E1,1.6366441E0,3.8287823E1,1.8790934E1,6.0262077E1,1.0483241E1,3.2498928E1,2.707696E0,4.807602E0,3.260915E1,5.238064E0],"tree_param":{"num_deleted":"0","num_feature":"133","num_nodes":"31","size_leaf_vector":"1"}},{"base_weights":[9.952546E-4,-1.5794085E-1,4.6880744E-2,-3.0089486E-1,3.378687E-1,4.4177148E-1,5.3999554E-3,5.3524077E-1,-4.3000242E-1,5.724748E-1,-1.0216566E-1,7.8218216E-1,-5.292333E-1,2.9285217E-2,-7.736705E-1,9.707571E-2,-1.087703E-2,-5.879566E-2,3.805223E-2,-8.21648E-2,8.22826E-2,9.697854E-2,-4.5072805E-2,8.083302E-2,-9.169828E-2,9.4217015E-4,9.5317595E-2,1.9366747E-2,-1.0135795E-1],"categories":[],"categories_nodes":[],"categories_segments":[],"categories_sizes":[],"default_left":[0,0,0,0,0,0,0,0,0,0,0,0,0,0,0,0,0,0,0,0,0,0,0,0,0,0,0,0,0],"id":43,"left_children":[1,3,5,7,9,11,13,15,17,19,-1,21,23,25,27,-1,-1,-1,-1,-1,-1,-1,-1,-1,-1,-1,-1,-1,-1],"loss_changes":[2.9027715E0,6.421891E0,5.056585E0,7.7590446E0,7.100206E0,1.0113924E1,5.2422395E0,2.847005E0,8.029358E0,6.98004E0,0E0,5.5561743E0,5.001265E0,5.0031886E0,2.141149E0,0E0,0E0,0E0,0E0,0E0,0E0,0E0,0E0,0E0,0E0,0E0,0E0,0E0,0E0],"parents":[2147483647,0,0,1,1,2,2,3,3,4,4,5,5,6,6,7,7,8,8,9,9,11,11,12,12,13,13,14,14],"right_children":[2,4,6,8,10,12,14,16,18,20,-1,22,24,26,28,-1,-1,-1,-1,-1,-1,-1,-1,-1,-1,-1,-1,-1,-1],"split_conditions":[3.3333333E0,1.0653942E0,3.9166667E0,-9.7094184E-1,9.394673E-1,-4.9075446E-1,8.297846E-1,-1.6572702E0,-1.2145714E0,-1.719426E0,-1.0216566E-1,1.05291456E-1,-9.535149E-1,-8.322667E-1,9.265099E-1,9.707571E-2,-1.087703E-2,-5.879566E-2,3.805223E-2,-8.21648E-2,8.22826E-2,9.697854E-2,-4.5072805E-2,8.083302E-2,-9.169828E-2,9.4217015E-4,9.5317595E-2,1.9366747E-2,-1.0135795E-1],"split_indices":[22,110,22,1,27,53,59,68,81,101,0,112,1,90,92,0,0,0,0,0,0,0,0,0,0,0,0,0,0],"split_type":[0,0,0,0,0,0,0,0,0,0,0,0,0,0,0,0,0,0,0,0,0,0,0,0,0,0,0,0,0],"sum_hessian":[3.9601385E2,8.817056E1,3.078433E2,6.874331E1,1.9427252E1,2.8345783E1,2.7949753E2,8.774108E0,5.99692E1,1.7061888E1,2.3653643E0,2.113191E1,7.2138734E0,2.721172E2,7.38034E0,4.931673E0,3.8424344E0,5.041833E1,9.55087E0,2.250062E0,1.4811827E1,1.852631E1,2.6055999E0,1.3774863E0,5.836387E0,2.6737878E2,4.738407E0,1.5049546E0,5.8753853E0],"tree_param":{"num_deleted":"0","num_feature":"133","num_nodes":"29","size_leaf_vector":"1"}},{"base_weights":[1.066639E-3,-7.7252854E-3,7.932743E-1,-1.8476488E-2,6.386615E-1,2.1784242E-2,9.0713136E-2,-4.7838613E-2,2.3318298E-1,-2.6270265E-2,8.617976E-2,3.5283368E-3,-2.0573193E-2,4.890328E-2,-4.7461662E-2],"categories":[],"categories_nodes":[],"categories_segments":[],"categories_sizes":[],"default_left":[0,0,0,0,0,0,0,0,0,0,0,0,0,0,0],"id":44,"left_children":[1,3,5,7,9,-1,-1,11,13,-1,-1,-1,-1,-1,-1],"loss_changes":[2.7640655E0,2.7402415E0,8.777237E-2,2.8719935E0,1.5239716E0,0E0,0E0,4.568509E0,7.5884037E0,0E0,0E0,0E0,0E0,0E0,0E0],"parents":[2147483647,0,0,1,1,2,2,3,3,4,4,7,7,8,8],"right_children":[2,4,6,8,10,-1,-1,12,14,-1,-1,-1,-1,-1,-1],"split_conditions":[-1.5118494E0,9.514215E-1,-1.7336456E0,1.8628088E0,-7.985136E-2,2.1784242E-2,9.0713136E-2,1.8209906E0,7.7068085E2,-2.6270265E-2,8.617976E-2,3.5283368E-3,-2.0573193E-2,4.890328E-2,-4.7461662E-2],"split_indices":[101,131,116,114,113,0,0,114,10,0,0,0,0,0,0],"split_type":[0,0,0,0,0,0,0,0,0,0,0,0,0,0,0],"sum_hessian":[3.9496924E2,3.9161337E2,3.3558786E0,3.8616183E2,5.451525E0,1.0355455E0,2.3203332E0,3.4653958E2,3.962226E1,1.0465679E0,4.404958E0,2.2753284E2,1.1900675E2,2.9329535E1,1.0292727E1],"tree_param":{"num_deleted":"0","num_feature":"133","num_nodes":"15","size_leaf_vector":"1"}},{"base_weights":[1.4296902E-3,-7.4841343E-3,7.6529425E-1,7.3916377E-3,-7.153334E-1,1.6579786E-2,8.88671E-2,-2.1295253E-2,4.1316113E-1,-1.0420288E0,3.23521E-2,-1.8245328E-4,-7.0566855E-2,6.0858846E-2,-7.49644E-2,-3.3927958E-3,-1.250919E-1],"categories":[],"categories_nodes":[],"categories_segments":[],"categories_sizes":[],"default_left":[0,0,0,0,0,0,0,0,0,0,0,0,0,0,0,0,0],"id":45,"left_children":[1,3,5,7,9,-1,-1,11,13,15,-1,-1,-1,-1,-1,-1,-1],"loss_changes":[2.698552E0,4.132037E0,1.9078541E-1,4.4883723E0,3.0783277E0,0E0,0E0,4.8007965E0,6.2417173E0,1.3013868E0,0E0,0E0,0E0,0E0,0E0,0E0,0E0],"parents":[2147483647,0,0,1,1,2,2,3,3,4,4,7,7,8,8,9,9],"right_children":[2,4,6,8,10,-1,-1,12,14,16,-1,-1,-1,-1,-1,-1,-1],"split_conditions":[6.122673E-1,1.4796243E0,5.120829E-1,1.4774477E0,-1.5964495E-2,1.6579786E-2,8.88671E-2,1.4770381E0,-8.592534E-1,-6.815971E-2,3.23521E-2,-1.8245328E-4,-7.0566855E-2,6.0858846E-2,-7.49644E-2,-3.3927958E-3,-1.250919E-1],"split_indices":[60,35,71,35,128,0,0,35,90,128,0,0,0,0,0,0,0],"split_type":[0,0,0,0,0,0,0,0,0,0,0,0,0,0,0,0,0],"sum_hessian":[3.944828E2,3.9091132E2,3.5714896E0,3.838344E2,7.0768957E0,1.0096009E0,2.561889E0,3.59375E2,2.4459398E1,5.381488E0,1.6954079E0,3.5040842E2,8.966606E0,2.1348135E1,3.1112635E0,1.1232275E0,4.2582607E0],"tree_param":{"num_deleted":"0","num_feature":"133","num_nodes":"17","size_leaf_vector":"1"}},{"base_weights":[1.1451442E-3,1.926145E-1,-3.3693794E-2,6.377125E-2,8.004351E-1,-2.8899565E-1,2.2103E-2,2.5583717E-1,-4.5104516E-1,1.129642E0,-3.0912092E-1,-5.315086E-1,5.07995E-1,3.3090442E-1,-2.805662E-2,-3.0146796E-2,5.243064E-2,-9.679116E-2,4.341005E-3,1.2679432E-1,2.1817511E-2,3.538328E-2,-7.7509604E-2,9.9700056E-2,-6.197421E-2,-9.006572E-2,8.6039E-2,9.662637E-2,9.6058445E-3,-1.3396255E-2,1.3670509E-2],"categories":[],"categories_nodes":[],"categories_segments":[],"categories_sizes":[],"default_left":[0,0,0,0,0,0,0,0,0,0,0,0,0,0,0,0,0,0,0,0,0,0,0,0,0,0,0,0,0,0,0],"id":46,"left_children":[1,3,5,7,9,11,13,15,17,19,21,23,25,27,29,-1,-1,-1,-1,-1,-1,-1,-1,-1,-1,-1,-1,-1,-1,-1,-1],"loss_changes":[2.640202E0,4.720601E0,4.776969E0,5.1937876E0,4.2101917E0,1.1893074E1,4.2806125E0,5.85003E0,3.7009299E0,7.780123E-1,1.2639505E0,6.9019394E0,7.992995E0,5.668462E0,4.173804E0,0E0,0E0,0E0,0E0,0E0,0E0,0E0,0E0,0E0,0E0,0E0,0E0,0E0,0E0,0E0,0E0],"parents":[2147483647,0,0,1,1,2,2,3,3,4,4,5,5,6,6,7,7,8,8,9,9,10,10,11,11,12,12,13,13,14,14],"right_children":[2,4,6,8,10,12,14,16,18,20,22,24,26,28,30,-1,-1,-1,-1,-1,-1,-1,-1,-1,-1,-1,-1,-1,-1,-1,-1],"split_conditions":[-9.1997945E-1,3.8810013E2,-6.691306E-1,1.8270714E2,4.683338E-4,1.8803707E-1,-1.700163E0,6.356133E-1,1.1365168E0,1.9622573E-1,-1.7710181E0,-2.2784378E2,6.692083E-1,-2.7585608E-1,-2.1438942E-4,-3.0146796E-2,5.243064E-2,-9.679116E-2,4.341005E-3,1.2679432E-1,2.1817511E-2,3.538328E-2,-7.7509604E-2,9.9700056E-2,-6.197421E-2,-9.006572E-2,8.6039E-2,9.662637E-2,9.6058445E-3,-1.3396255E-2,1.3670509E-2],"split_indices":[1,8,1,9,32,132,68,131,103,77,121,8,111,127,13,0,0,0,0,0,0,0,0,0,0,0,0,0,0,0,0],"split_type":[0,0,0,0,0,0,0,0,0,0,0,0,0,0,0,0,0,0,0,0,0,0,0,0,0,0,0,0,0,0,0],"sum_hessian":[3.9382455E2,5.9929993E1,3.3389456E2,5.035984E1,9.570149E0,5.9135735E1,2.7475885E2,3.7043015E1,1.3316827E1,7.366419E0,2.20373E0,4.5594944E1,1.35407915E1,3.7611477E1,2.3714737E2,1.2003172E1,2.5039843E1,6.042705E0,7.274122E0,6.056357E0,1.310062E0,1.0089438E0,1.1947863E0,1.9262388E0,4.3668705E1,2.398258E0,1.1142533E1,9.309856E0,2.8301619E1,1.4447093E2,9.267644E1],"tree_param":{"num_deleted":"0","num_feature":"133","num_nodes":"31","size_leaf_vector":"1"}},{"base_weights":[1.6505213E-3,4.1210404E-1,-1.4528774E-2,-5.09554E-1,8.19281E-1,-4.3833733E-2,2.50911E-1,-9.233914E-2,2.7767604E-2,1.0205915E0,-5.0449412E-2,-1.2517425E-1,8.660633E-2,-5.601841E-1,4.626093E-1,-1.4958397E-2,1.1729022E-1,4.482262E-3,-2.8511504E-2,-2.3079047E-3,3.79022E-2,4.5993425E-2,-9.687353E-2,6.6107616E-2,-3.6550593E-2],"categories":[],"categories_nodes":[],"categories_segments":[],"categories_sizes":[],"default_left":[0,0,0,0,0,0,0,0,0,0,0,0,0,0,0,0,0,0,0,0,0,0,0,0,0],"id":47,"left_children":[1,3,5,7,9,11,13,-1,-1,15,-1,17,19,21,23,-1,-1,-1,-1,-1,-1,-1,-1,-1,-1],"loss_changes":[2.6209407E0,6.0342546E0,2.965356E0,1.951359E0,3.3834662E0,3.6489313E0,6.7686415E0,0E0,0E0,1.8996906E0,0E0,5.766127E0,4.2517214E0,3.9043374E0,5.2727103E0,0E0,0E0,0E0,0E0,0E0,0E0,0E0,0E0,0E0,0E0],"parents":[2147483647,0,0,1,1,2,2,3,3,4,4,5,5,6,6,9,9,11,11,12,12,13,13,14,14],"right_children":[2,4,6,8,10,12,14,-1,-1,16,-1,18,20,22,24,-1,-1,-1,-1,-1,-1,-1,-1,-1,-1],"split_conditions":[1.1290322E-1,-1.0720682E0,1.8628088E0,1.3414162E0,3.5140122E-4,-1.6402211E0,-2.5672672E-4,-9.233914E-2,2.7767604E-2,-1.9879013E0,-5.0449412E-2,1.4001967E0,-1.1077265E-1,-3.606803E-1,1.0794022E0,-1.4958397E-2,1.1729022E-1,4.482262E-3,-2.8511504E-2,-2.3079047E-3,3.79022E-2,4.5993425E-2,-9.687353E-2,6.6107616E-2,-3.6550593E-2],"split_indices":[27,39,114,93,30,68,30,0,0,97,0,87,57,82,84,0,0,0,0,0,0,0,0,0,0],"split_type":[0,0,0,0,0,0,0,0,0,0,0,0,0,0,0,0,0,0,0,0,0,0,0,0,0],"sum_hessian":[3.927679E2,1.3967007E1,3.788009E2,4.2026777E0,9.764329E0,3.4189053E2,3.691038E1,2.641245E0,1.561433E0,8.67424E0,1.0900886E0,2.1060236E2,1.3128818E2,7.2990093E0,2.961137E1,1.0010738E0,7.6731663E0,1.0244063E2,1.0816172E2,9.6145134E1,3.5143055E1,2.0513043E0,5.2477055E0,2.4049383E1,5.561987E0],"tree_param":{"num_deleted":"0","num_feature":"133","num_nodes":"25","size_leaf_vector":"1"}},{"base_weights":[1.5688551E-3,-1.4779802E-1,4.4690825E-2,-2.0273002E-3,-6.0263354E-1,-3.0117643E-1,8.617666E-2,9.953516E-1,-9.074251E-2,-9.394221E-1,1.636127E-2,-6.23969E-1,3.0593523E-1,-1.1631003E-1,1.9801423E-1,1.3293254E-1,9.653183E-4,-2.0966308E-2,5.6768335E-2,2.527119E-3,-1.178024E-1,-5.8267128E-2,6.139162E-2,-1.13803735E-2,-1.04212604E-1,-7.528764E-2,5.59286E-2,-7.869295E-2,-2.1788434E-3,4.3097526E-2,-1.7710411E-3],"categories":[],"categories_nodes":[],"categories_segments":[],"categories_sizes":[],"default_left":[0,0,0,0,0,0,0,0,0,0,0,0,0,0,0,0,0,0,0,0,0,0,0,0,0,0,0,0,0,0,0],"id":48,"left_children":[1,3,5,7,9,11,13,15,17,19,21,23,25,27,29,-1,-1,-1,-1,-1,-1,-1,-1,-1,-1,-1,-1,-1,-1,-1,-1],"loss_changes":[2.5365484E0,5.848295E0,4.4103384E0,6.09088E0,4.478623E0,6.647832E0,6.219178E0,1.838234E0,5.0670757E0,3.2252321E0,3.4099715E0,4.540556E0,3.6691084E0,6.193772E0,8.8843E0,0E0,0E0,0E0,0E0,0E0,0E0,0E0,0E0,0E0,0E0,0E0,0E0,0E0,0E0,0E0,0E0],"parents":[2147483647,0,0,1,1,2,2,3,3,4,4,5,5,6,6,7,7,8,8,9,9,10,10,11,11,12,12,13,13,14,14],"right_children":[2,4,6,8,10,12,14,16,18,20,22,24,26,28,30,-1,-1,-1,-1,-1,-1,-1,-1,-1,-1,-1,-1,-1,-1,-1,-1],"split_conditions":[3.3333333E0,-2.9234352E-5,-3.6936298E-3,6.44098E-1,1.3855991E0,1.089357E0,-3.5253632E-1,5.073616E-4,1.8422083E0,-1.4158288E0,-1.7179314E0,6.0665596E-1,1.1861292E0,6.963294E-1,1.8255969E0,1.3293254E-1,9.653183E-4,-2.0966308E-2,5.6768335E-2,2.527119E-3,-1.178024E-1,-5.8267128E-2,6.139162E-2,-1.13803735E-2,-1.04212604E-1,-7.528764E-2,5.59286E-2,-7.869295E-2,-2.1788434E-3,4.3097526E-2,-1.7710411E-3],"split_indices":[22,13,112,111,100,98,109,14,114,81,101,23,93,111,114,0,0,0,0,0,0,0,0,0,0,0,0,0,0,0,0],"split_type":[0,0,0,0,0,0,0,0,0,0,0,0,0,0,0,0,0,0,0,0,0,0,0,0,0,0,0,0,0,0,0],"sum_hessian":[3.9178766E2,8.722573E1,3.0456192E2,6.68162E1,2.0409536E1,3.1948412E1,2.7261353E2,4.6229663E0,6.219323E1,1.2882595E1,7.526941E0,2.0840206E1,1.1108206E1,9.698252E1,1.75631E2,3.1926289E0,1.4303375E0,5.3256042E1,8.937188E0,2.731784E0,1.0150811E1,3.7712617E0,3.7556794E0,9.960377E0,1.087983E1,1.7640703E0,9.344135E0,1.1075782E1,8.5906746E1,8.39623E1,9.166869E1],"tree_param":{"num_deleted":"0","num_feature":"133","num_nodes":"31","size_leaf_vector":"1"}},{"base_weights":[1.1830763E-3,-6.858265E-2,9.773953E-2,-6.116195E-1,-3.779162E-2,-3.532657E-1,1.5300354E-1,4.439622E-1,-9.545508E-1,-5.9088517E-2,8.9944863E-1,-1.3392321E-2,-1.2974463E0,6.2115806E-1,9.31337E-2,8.926401E-2,-1.7604625E-2,-2.3502843E-3,-1.21440746E-1,4.224872E-3,-2.7708733E-2,1.1592739E-1,-3.5758212E-3,2.9163143E-2,-9.9224634E-2,-3.0460915E-2,-1.5179847E-1,-4.239931E-3,8.512586E-2,1.5438706E-2,-3.7336435E-2],"categories":[],"categories_nodes":[],"categories_segments":[],"categories_sizes":[],"default_left":[0,0,0,0,0,0,0,0,0,0,0,0,0,0,0,0,0,0,0,0,0,0,0,0,0,0,0,0,0,0,0],"id":49,"left_children":[1,3,5,7,9,11,13,15,17,19,21,23,25,27,29,-1,-1,-1,-1,-1,-1,-1,-1,-1,-1,-1,-1,-1,-1,-1,-1],"loss_changes":[2.645462E0,3.7891386E0,4.1596894E0,4.828579E0,4.381107E0,5.8497915E0,4.074663E0,1.1770606E0,2.2703333E0,4.716051E0,1.2270427E0,4.6050797E0,5.949497E-1,2.5616713E0,3.826613E0,0E0,0E0,0E0,0E0,0E0,0E0,0E0,0E0,0E0,0E0,0E0,0E0,0E0,0E0,0E0,0E0],"parents":[2147483647,0,0,1,1,2,2,3,3,4,4,5,5,6,6,7,7,8,8,9,9,10,10,11,11,12,12,13,13,14,14],"right_children":[2,4,6,8,10,12,14,16,18,20,22,24,26,28,30,-1,-1,-1,-1,-1,-1,-1,-1,-1,-1,-1,-1,-1,-1,-1,-1],"split_conditions":[7.5432694E-1,4.042448E-1,-5.8961105E-5,7.641822E1,-9.961918E-2,4.030643E2,1.5765765E-1,2.7821746E-1,5.552933E-1,-5.6402856E-1,7.032329E-2,5.2097315E-1,-4.2027977E-1,-1.7634646E0,-1.1811558E0,8.926401E-2,-1.7604625E-2,-2.3502843E-3,-1.21440746E-1,4.224872E-3,-2.7708733E-2,1.1592739E-1,-3.5758212E-3,2.9163143E-2,-9.9224634E-2,-3.0460915E-2,-1.5179847E-1,-4.239931E-3,8.512586E-2,1.5438706E-2,-3.7336435E-2],"split_indices":[131,34,14,8,127,10,27,1,47,89,122,71,79,121,130,0,0,0,0,0,0,0,0,0,0,0,0,0,0,0,0],"split_type":[0,0,0,0,0,0,0,0,0,0,0,0,0,0,0,0,0,0,0,0,0,0,0,0,0,0,0,0,0,0,0],"sum_hessian":[3.907205E2,2.2699655E2,1.6372395E2,1.1168207E1,2.1582834E2,1.7283373E1,1.4644058E2,2.6663303E0,8.501877E0,2.1194917E2,3.8791623E0,1.3454417E1,3.828956E0,1.5541111E1,1.3089948E2,1.2917874E0,1.3745428E0,2.093055E0,6.4088216E0,1.4524016E2,6.6709015E1,2.8482518E0,1.0309106E0,1.0793187E1,2.6612303E0,1.1287354E0,2.7002206E0,4.211588E0,1.1329523E1,1.1629805E2,1.460142E1],"tree_param":{"num_deleted":"0","num_feature":"133","num_nodes":"31","size_leaf_vector":"1"}},{"base_weights":[7.248801E-4,-1.6321875E-2,3.913479E-1,-5.1481664E-1,3.1214964E-3,-7.207157E-2,5.824088E-1,4.4841096E-1,-9.4755787E-1,2.3814891E-1,-3.76408E-2,9.4205207E-1,-5.2031755E-1,-4.8304904E-2,9.9238776E-2,2.6470441E-2,-1.1823024E-1,5.7671733E-2,-1.1619928E-2,-2.1389095E-2,6.0247104E-3,-2.5472267E-2,1.1025261E-1,2.7862666E-2,-1.0190552E-1],"categories":[],"categories_nodes":[],"categories_segments":[],"categories_sizes":[],"default_left":[0,0,0,0,0,0,0,0,0,0,0,0,0,0,0,0,0,0,0,0,0,0,0,0,0],"id":50,"left_children":[1,3,5,7,9,-1,11,13,15,17,19,21,23,-1,-1,-1,-1,-1,-1,-1,-1,-1,-1,-1,-1],"loss_changes":[2.6041768E0,3.6340573E0,3.8943412E0,6.2917376E0,3.4741178E0,0E0,6.2440977E0,3.034079E0,3.1680794E0,6.4969993E0,5.3457346E0,2.4502983E0,1.9623909E0,0E0,0E0,0E0,0E0,0E0,0E0,0E0,0E0,0E0,0E0,0E0,0E0],"parents":[2147483647,0,0,1,1,2,2,3,3,4,4,6,6,7,7,8,8,9,9,10,10,11,11,12,12],"right_children":[2,4,6,8,10,-1,12,14,16,18,20,22,24,-1,-1,-1,-1,-1,-1,-1,-1,-1,-1,-1,-1],"split_conditions":[1.1199564E0,-3.815894E-1,-9.9364763E-1,3.7222221E-1,-9.1997945E-1,-7.207157E-2,-1.9387555E0,-6.691306E-1,-1.0614372E0,4.8697348E-5,4.603273E-1,6.144653E-1,-7.694853E-1,-4.8304904E-2,9.9238776E-2,2.6470441E-2,-1.1823024E-1,5.7671733E-2,-1.1619928E-2,-2.1389095E-2,6.0247104E-3,-2.5472267E-2,1.1025261E-1,2.7862666E-2,-1.0190552E-1],"split_indices":[119,109,1,20,1,0,97,1,94,12,20,34,1,0,0,0,0,0,0,0,0,0,0,0,0],"split_type":[0,0,0,0,0,0,0,0,0,0,0,0,0,0,0,0,0,0,0,0,0,0,0,0,0],"sum_hessian":[3.891255E2,3.737723E2,1.5353177E1,1.3074961E1,3.6069736E2,1.8445954E0,1.3508581E1,4.0419273E0,9.033033E0,5.2596107E1,3.0810126E2,1.0296264E1,3.212318E0,1.5315075E0,2.5104198E0,1.4447029E0,7.5883307E0,2.6576021E1,2.6020088E1,1.0959216E2,1.9850908E2,1.147935E0,9.148329E0,1.4042076E0,1.8081102E0],"tree_param":{"num_deleted":"0","num_feature":"133","num_nodes":"25","size_leaf_vector":"1"}},{"base_weights":[5.8214815E-4,2.9135726E-2,-2.3390678E-1,8.717686E-1,1.6728677E-2,3.7490407E-1,-4.8829442E-1,6.6190176E-3,1.07929826E-1,4.366261E-2,-3.9118454E-1,-8.3606845E-1,7.678091E-1,-6.2311345E-1,9.507068E-2,-4.6462845E-3,2.2043837E-2,-1.1561676E-1,-1.8226084E-3,7.6180594E-3,-1.23116456E-1,1.07589304E-1,-3.9837886E-2,-1.0485261E-1,-6.129473E-3],"categories":[],"categories_nodes":[],"categories_segments":[],"categories_sizes":[],"default_left":[0,0,0,0,0,0,0,0,0,0,0,0,0,0,0,0,0,0,0,0,0,0,0,0,